strain,pca1,pca2,pca3,pca4,pca5,pca6,pca7,pca8,pca9,pca10,label
Jeddah-1,-13.617257573003831,-1.6305456757563532,-6.645660496542353,0.9953053606146164,26.268190484116126,-6.762796591941813,10.395428339463999,-5.573641088585024,5.266619594459422,-2.0763607887402458,0
Riyadh_3_2013,-15.060401258018864,-1.2455115228370461,1.3583571591043726,1.1623553085738438,-3.5663072358280434,0.49821190854943975,-0.29161121637052223,-0.2568096900567492,0.11793378098576371,-0.81648331317502,1
Riyadh_4_2013,-14.698224648960482,-1.2001868713224786,1.1951650768824844,0.761303445575619,-2.7045595193186185,0.4164377966797612,0.06262983791683481,-0.3045488302670175,0.24749324332924968,-1.1428606412633648,1
Riyadh_5_2013,-14.6139419728467,-1.1964903807462897,1.1981642895281313,0.7931751396081516,-2.768701709604318,0.4247910093974665,-0.007893708514028952,-0.2910707461900386,0.227338810351409,-1.053086904334128,1
Taif_1_2013,-14.631518953034991,-1.2139821936711976,1.2215578943726426,0.7748532927581752,-2.7848058870946844,0.43881084277327775,0.031990882194659946,-0.3142907462558006,0.19605667068174576,-1.1099248047246464,1
Taif_3_2013,147.14994395560848,31.42679483350286,156.70415280376125,40.51649587838603,37.609340621251015,134.89558020060716,50.6196018712579,-24.14502796724602,1.6290109964924844,32.921066076643235,-1
Wadi-Ad-Dawasir_1_2013,-14.669648374310647,-1.1997718656936471,1.2053235892658338,0.7709835792210192,-2.8029265953306046,0.4470667867816494,0.027574611342978953,-0.3358499239267734,0.27007033514755074,-1.0913339438600842,1
D1164.1/14,-15.90643004561061,-1.5075755056844324,1.7588313859517994,2.1756726671020763,-7.54127734864284,1.198716189216194,-2.1313176964803846,0.48565121275568623,-0.8959805385785088,0.4963755805832515,2
UAE/D1164.10/2014,-5.105940162663223,-3.276199522066262,-14.883311127605985,-9.032569404716247,35.09766449371815,-10.137760656375486,12.519881995958293,-9.277943891413095,10.254740608918091,-4.134751945233848,-1
UAE/D1164.11/2014,-5.082660047240569,-3.2871172232943646,-14.878011030819724,-9.006964694252291,35.06271411483714,-10.117381261044763,12.479894805189781,-9.290903233035047,10.27337530373347,-4.154215432399141,-1
UAE/D1164.14/2014,-5.10722614391669,-3.281763595959748,-14.877279983783371,-9.030006858435922,35.050890280532826,-10.121064563800298,12.496767837076654,-9.279880043851714,10.263863052969308,-4.145142436534293,-1
UAE/D1164.9/2014,-5.096927187597428,-3.281576079463021,-14.891471137146754,-9.042736627384322,35.096898760276446,-10.13082829646059,12.516817835335367,-9.269222318114851,10.252451487116984,-4.128533533318749,-1
AbuDhabi/Gayathi_UAE_2_2014,-16.568675994260573,-1.4712620234840623,2.2421177782981276,3.0033982743122145,-9.578590669696123,1.5491301924977592,-2.957890905156014,1.0476915426600808,-1.619692295897796,1.279471863720829,2
AbuDhabi_UAE_16_2014,-16.57205375224015,-1.5136706429684617,2.2279969080413053,3.0040945251777442,-9.592824616417072,1.5830840753288422,-2.9478440063468283,0.9944387314109961,-1.6508533108690278,1.3337449949838702,2
AbuDhabi_UAE_18_2014,-16.578472477929115,-1.519844220549813,2.2312241133590254,2.9769608778325236,-9.580858019009506,1.6042424913577298,-2.9630653447198196,1.0368224692482364,-1.6397372858901853,1.2948495781304423,2
AbuDhabi_UAE_26_2014,-16.567327079132077,-1.5264306262519671,2.2436718458573757,2.9770587188840505,-9.583627637423957,1.5966305514017523,-2.9498113874404597,1.0237863124250801,-1.6486190602673458,1.2961988461291067,2
AbuDhabi_UAE_30_2014,-16.57748930671184,-1.516433515250804,2.233242633366396,2.9796457516519625,-9.582156942387748,1.5973351501868334,-2.9626952521638983,1.0294396075218812,-1.6394720986012536,1.2905098904216585,2
AbuDhabi_UAE_33_2014,-16.57748930671184,-1.5164335152508046,2.233242633366398,2.979645751651962,-9.582156942387744,1.5973351501868338,-2.962695252163898,1.0294396075218801,-1.6394720986012523,1.290509890421656,2
AbuDhabi_UAE_8_2014,-16.576208410150393,-1.5134905667735001,2.233622460721872,2.9813395882382103,-9.582707561288766,1.5944663586239372,-2.964473089206067,1.038986748854898,-1.6393359922282975,1.2897955578303864,2
AbuDhabi_UAE_9_2013,-16.624950374171963,-1.59459980594664,2.247386123922857,2.9466396274143323,-9.494610903170654,1.6368722429751463,-2.99255046799282,0.9624596483106993,-1.6637525668497577,1.2357448655381922,2
Al-Hasa_11_2013,39.4115931580817,-38.59265509747415,53.11080864047604,12.555321929043377,-3.878984131435367,-5.0765518332132,34.277625023302065,57.89681198695454,28.16084846509704,6.6341829620683574,-1
Al-Hasa_12_2013,-15.633640906136273,-1.3366983371868413,1.7740693311688502,1.7408905770374208,-6.309389195080923,0.9912008003375635,-1.452829118459419,0.49548360220310644,-0.8187194964645227,-0.09345212536447732,2
Al-Hasa_14_2013,143.96846292647584,-92.98187705062384,42.623326992273284,-87.993656917153,-34.846264962497386,3.9888374507791244,70.81730992889742,19.364887185686804,-11.029456201769436,7.14050458175458,-1
Al-Hasa_15_2013,-15.496656118014549,-1.3090151900912497,1.7432576565924722,1.6098270766861187,-6.119278544723386,0.9804870948901203,-1.4393744513209785,0.45403379339480343,-0.8096206894075505,-0.1645288350034103,2
Al-Hasa_16_2013,-15.695429712359482,-1.3345860956586466,1.8359666594784214,1.7919941328957585,-6.547400524423516,1.047361936003604,-1.5924526603891838,0.5402489092793091,-0.9186908290411501,-0.00923487270928242,2
Al-Hasa_17_2013,-16.476142459601853,-1.526672755344349,2.243222954952499,2.7509577882542366,-9.134301496710606,1.5301358678928005,-2.7436566960405573,1.0678208239315026,-1.6753866815106144,1.0297454693178967,2
Al-Hasa_18_2013,-15.854888665200447,-1.3953428618295545,1.800496708552233,2.016958413656809,-6.583654324561528,0.9899523785499487,-1.4937270530406936,0.5442757646451536,-0.8220275557865779,0.17116890375559193,2
Al-Hasa_19_2013,-16.28788127978387,-1.4746131291455715,2.0903530952542693,2.534456007171392,-8.375010806653881,1.3403595233528092,-2.349244821740453,0.8906431963461627,-1.423764446504045,0.7491720520512265,2
Al-Hasa_1_2013,-16.493227869536558,-1.5395206620722786,2.215099965245175,2.7615624432570893,-9.153744257760232,1.522302423683228,-2.7347503893363663,1.0443835056720194,-1.6669018184928206,1.0335549880662884,2
Al-Hasa_21_2013,-14.983134397984605,-1.171130674114258,1.359394008791127,0.9815824049535055,-3.7354284531775632,0.4397589476562685,-0.21718411768679016,-0.012979820123748476,0.03630815135813872,-0.9665039129178796,1
Al-Hasa_25_2013,-14.62498419625428,-1.102827871811241,1.2296563521779311,0.5932407466984064,-2.880698636805035,0.34396240541344614,0.09770267127378592,-0.12774443127284785,0.19426691117895883,-1.265469388959581,1
Al-Hasa_26_2013,-12.404629691221938,-1.5981266612953566,-4.225965896104098,0.42242937798057767,16.280893589208556,-4.81236815679272,6.577104673251997,-5.610822948441827,5.734434474069484,-4.698252778040963,0
Al-Hasa_27_2013,7.9987507447695405,58.33364131786186,30.86927263613772,-19.363872854365408,26.72170530960368,28.04302367384116,-21.78969978175941,19.432622221684927,-46.363709828736035,-4.703521000960095,-1
Al-Hasa_2_2013,-16.448507213752283,-1.5395676105403528,2.2059243394654144,2.7289440128374616,-9.022579189228958,1.495091335166846,-2.65833109840086,1.0280556911162504,-1.6029228255780807,0.9800259135926619,2
Al-Hasa_3_2013,-15.47398153771321,-1.293365042602967,1.743759884346448,1.561100021880327,-6.058254719470068,0.9687398996251904,-1.3932477635000928,0.46370337041098647,-0.8069548368264066,-0.20269002930931942,2
Al-Hasa_4_2013,-15.72515932855217,-1.3573563388640368,1.8071705231842923,1.8440915737409307,-6.532828870160495,1.0229993981966865,-1.5345633465170567,0.5326959523292458,-0.865586319327579,-0.004028184330771327,2
Al-Hasa_7_2013,7.3306062663572,52.110628603628086,16.764072376532237,-20.928843417838188,75.11413942699222,16.2822700443999,-0.2154752212258167,18.815965082599067,-46.164937021978794,-0.022499131660391275,-1
Al-Hasa_8_2013,129.3807877540898,-28.860885293055457,-23.136446135200814,-91.4357604275699,-69.71562045895303,-32.034575960902146,97.84729728458002,5.176715141222351,-51.19933562833504,-43.52262620916268,-1
Buraidah_1_2013,-15.726425596946127,-1.3821025477119702,1.6932882084677292,1.88950495710709,-6.378713378029449,1.0025187958206705,-1.566008910425644,0.355469587228857,-0.698815752099921,0.0007349676968674763,2
Camel_Egypt_NRCE-HKU270,-14.390492947990223,-0.9454508426534367,1.3365051663589838,0.5711872214377204,-2.931100018528469,0.21536652642267226,0.062466303381816767,-0.35365823606995,0.25440173924850623,-1.3252823851748257,1
Camel_Egypt_NRCE-HKU271,-14.390748650373796,-0.9463042763308588,1.3360022904326387,0.5705056502519331,-2.9307527516663687,0.21708445400563461,0.062403440383578326,-0.35183257934015927,0.2543647413179151,-1.3242637438472333,1
D1157/15,-15.977075702320521,-1.6243029042210668,1.9652378073058698,2.444405203209562,-7.6125037215254725,1.3144431720155865,-2.1592493533821937,0.5289684290935902,-1.0616975930795645,0.590986517666465,2
D252/15,-16.075108122397758,-1.4456701684038282,1.9186833676583572,2.3097918908489197,-7.612150429784575,1.2782060492922163,-2.0637829652249993,0.5686477992754381,-1.009685177374311,0.5275516677273245,2
D2597.2/14,-16.090225326419233,-1.4614737871592043,1.9306124154872844,2.358883093961098,-7.71818246137729,1.2852325216743372,-2.098066961165627,0.6061701231497156,-1.0415580667655415,0.574003614122837,2
D374/15,-16.101450893337194,-1.4371638303942722,1.9422409018938254,2.3375861690988704,-7.60122990100188,1.271051065298447,-2.0551420187374094,0.5714749605529276,-1.0044311967048651,0.5163703667557901,2
D383/15,-16.06254807367373,-1.4125453293053145,1.9885966034933162,2.3522245146360006,-7.74128812177731,1.1736208598764872,-2.1144812953690506,0.5855144740488382,-1.024547945596993,0.5254342287415463,2
D389/15,-16.08804962127404,-1.4235871010114995,1.940430830596401,2.3531066993831673,-7.615383876575599,1.259751202636497,-2.0549573516822757,0.5680125441840169,-1.0153738852215521,0.5095828299732819,2
D998/15,-15.742307678507968,-1.239994426203061,1.8750852277728525,2.0640355568142823,-7.605258454442879,1.159747495586301,-2.084635585552997,0.47865160510887966,-0.6812229341233346,0.4250408777186686,2
Egypt_NRCE-NC163/2014,-11.539725078762478,-2.539687226531849,-3.8047330294596184,-0.8811429349906684,10.603208579899732,-2.726189721483477,3.8668711864167844,-4.513444378135546,6.155025041679034,-4.097913792241515,0
EMC/2012,-16.53283918733924,-1.570741231133919,2.2958433915568306,2.912647926014953,-9.187256609432215,1.602974153791712,-2.811445185409009,0.8625089981570477,-1.6956046923213706,1.1976155660448748,2
England/1/2012,-16.54876429014783,-1.554183921891552,2.1481897798222525,2.9158925052870894,-8.797690768395364,1.5781545347538515,-2.749771867400247,1.0391558746561504,-1.801019817428395,1.3657831867418238,2
England/2/2013,-14.612142321298716,-1.6821612609347216,0.06309538867311905,1.2257070803593422,0.29788461602711436,-0.1886514452613909,0.9755912803065686,-1.3485870091101828,1.7551439489050646,-1.5650123944288772,-1
England/3/2013,-14.502917894125842,-1.6528462205654715,0.024178671723740407,1.1016232992848753,0.5804921355432158,-0.22875592066180353,1.0799622416528114,-1.397194267766249,1.8130525191205649,-1.6771992715706285,-1
England/4/2013,-14.451529861907483,-1.640093872525127,0.005297116477045271,1.059702150720957,0.6905391495868892,-0.24319262149095866,1.1285717453128135,-1.4046313306813478,1.85162354215943,-1.7009293143070423,-1
Florida/USA-2_SaudiArabia_2014,-16.61651468096166,-1.6789051972310098,2.2634144860738723,3.0809721424404692,-9.348341742121415,1.6585149271079533,-3.0160435380074233,0.9036069321251219,-1.667483090730466,1.2779558921596366,2
Germany3/UAE-Dubai/Abu-Dhabi,-11.937308719583648,0.9067974199754126,-6.203021350502133,1.3413499005117033,31.178542541542832,-12.884432905525854,13.382885741888948,-11.892571423845075,6.846456363686626,-6.982682333628573,-1
Hafr-Al-Batin_1_2013,-15.947107583391277,-1.44886514436576,1.672644263875076,2.1529586406868058,-6.454001066416075,0.9782731151895382,-1.5436581819933088,0.3467793077574067,-0.7526330276505367,0.36174876239091847,2
Hafr-Al-Batin_2_2013,-14.66667781233431,-1.11564468358498,1.1741335479458008,0.7273845820296666,-2.9520112312387496,0.2954774805442022,-0.08158242060024778,-0.33454146238386623,0.20928034585790817,-0.9666264925527935,1
Hafr-Al-Batin_6_2013,-14.667974998711728,-1.1163748646481457,1.1767715064347697,0.7217796067413821,-2.941912901148423,0.28147838680679216,-0.07084897324237112,-0.329080120458212,0.20949923905692616,-0.9787562617495222,1
Indiana/USA-1_SaudiArabia_2014,-16.62738994220205,-1.6453635842800853,2.159862491085689,2.920760374456512,-9.356923935876985,1.5332215479977331,-2.963947108095619,0.8903125395478716,-1.5967247360524426,1.2886874620684905,2
Jeddah-KFH-285TA,207.2655305024035,-124.65638286582204,71.66380209890421,14.819017289743195,5.116833183635533,-13.73357054474057,-37.509208864133946,-15.04012124694417,-16.797600116053975,-19.070929317168684,-1
Jeddah-KFH-605TD,217.94606373502916,-124.86812997531804,59.3426022349189,32.78273752902205,16.33497124528011,-8.861377432753004,-32.95310515540426,-7.251287903532103,-7.527371167490481,-33.818716170909546,-1
Jeddah-KFH-668TD,185.4346645566309,-120.41663099906144,78.65248355195175,-23.555887017749146,12.757299272835485,-53.30189948754667,-27.03099509208055,-11.728029037996198,-0.9785102799597245,4.329915826101113,-1
Jeddah-KFH-899NF,-11.312768462335159,-2.7960036137329096,-4.591735134876714,-1.4185439116310203,11.257237660583906,-2.8641170521453034,3.937305117470019,-5.004948634924403,6.670783536282107,-4.308969982301765,0
Jeddah-KFH-949NSG1,-14.591937598604678,-1.2486443909040619,1.2293928997123216,0.7433137052250696,-2.7355394787829157,0.3974967023642454,0.006920294380930091,-0.37674890307350867,0.2905888333014799,-1.1552801801075947,1
Jeddah-KSA-C20860/2015,-16.128681303728516,-1.4714056471441088,1.9299431252673844,2.3886617868642586,-7.6105771232444335,1.2305637441155253,-2.087731111492012,0.5554482688238048,-1.182314241513041,0.6199104489895315,2
Jeddah/401/2014,-16.41996343099538,-1.5332474671220704,2.0687684725000537,2.763447458033354,-8.65298603047059,1.4716769818607665,-2.601730761837459,0.7568335071846581,-1.5327484548244672,1.0160142777199415,2
Jeddah/D100/2014,-16.61748355820194,-1.6056567329114713,2.2478183844203827,3.041604793375035,-9.498242921722957,1.5957135080607276,-3.0419698476125796,0.9092540407670638,-1.8259563998325152,1.3346178032339766,2
Jeddah/D33b/2014,-16.48847747721766,-1.6256319062040705,2.195088210779457,2.9729535584329816,-9.353414462306755,1.6301380874706395,-2.930682412799912,0.9118305499553903,-1.623279931964778,1.232805217048736,2
Jeddah/D34/2014,-16.505654395457224,-1.6296442062003578,2.2058368787678497,2.9943485844276685,-9.42602238916738,1.6454741028483204,-2.967236373199681,0.925947930280944,-1.650900703645622,1.2598641424940789,2
Jeddah/D35/2014,-16.465816938823096,-1.5740742921750406,2.2102806619596076,2.9827285231019096,-9.350456992129052,1.6070001080650576,-2.9585605668992807,1.0339085833539454,-1.6028011555310555,1.2054825455141034,2
Jeddah/D36/2014,-16.48847747721766,-1.6256319062040705,2.195088210779457,2.9729535584329816,-9.353414462306755,1.6301380874706395,-2.930682412799912,0.9118305499553903,-1.623279931964778,1.2328052170487362,2
Jeddah/D88/2014,-16.60030663996237,-1.6016444329151835,2.2370697164319817,3.0202097673803467,-9.42563499486233,1.5803774926830432,-3.0054158872128096,0.8951366604415146,-1.7983356281516687,1.307558877788632,2
Jeddah/D90/2014,-16.097918524300123,-1.4696325113790438,1.9104686518804892,2.442567960779573,-7.421436904887586,1.134655634404639,-2.045359559129743,0.4990778249319946,-1.1132935402020954,0.6333019862442881,2
Jeddah/D92/2014,-16.50121685251406,-1.562372444828883,2.181283526285007,2.9027776345633995,-9.059528121831462,1.4804019050014414,-2.810993246021177,0.8330841364080042,-1.673009704667953,1.1765600586345335,2
Jeddah/F13A/2014,-16.41904449602859,-1.5662116749072323,2.036528052160949,2.7101494354346833,-8.708119070781372,1.4694832079494013,-2.6173802758103766,0.7462430742840873,-1.5625426115778867,0.9842316952529607,2
Jeddah/Jd175/2015,-16.418175355730114,-1.5423239929096795,2.0868892089042506,2.751004460498077,-8.656185054724265,1.4240056266481116,-2.60682731260385,0.7485387107540254,-1.5119547314132762,1.0523569558410382,2
Jeddah/Jd199/2015,-16.522873929566032,-1.5673480231354673,2.154081352185188,2.874881099728298,-9.075816856092882,1.5119713230889513,-2.8109695583193584,0.832651116693124,-1.6498081084347023,1.1959578894265759,2
Jeddah/O23b/2014,-16.540704407439552,-1.623518156851411,2.210062420439918,2.963322596748526,-9.100809256701393,1.553996150478833,-2.850891233410307,0.8198919932703856,-1.7417103569687342,1.2169262220855646,2
Jeddah/O24/2014,-16.58474910718532,-1.6341234687031503,2.238631941837186,3.01553715803096,-9.27766257557172,1.5910656248068151,-2.9370860472699274,0.8559035764683244,-1.7984640362524629,1.2780236111473449,2
Jeddah/O30/2014,-16.597008973566126,-1.6396912480044816,2.2475841444501166,3.0463195571206696,-9.349866776968188,1.6139234556190285,-2.9729456043610623,0.8695213950080414,-1.8292580059309331,1.3008444757006599,2
Jeddah/O47b/2014,-16.580582708388345,-1.5606401250813504,2.2036644319580616,2.950098960454996,-9.243282154336475,1.6431263266474365,-2.9071477426170405,0.87772310659153,-1.728709648683769,1.2835286807135808,2
Jeddah/S100/2014,-15.987521052193934,-1.4512781555298075,1.9369502837778492,2.390278175516389,-7.0632366448983745,1.0988643531116782,-1.8347779691112172,0.38744138594351923,-1.0191921323719946,0.5863840672526881,2
Jeddah/S73/2014,-16.581232062582625,-1.6296183937883733,2.242471565828333,3.0091368830041985,-9.274185087552988,1.6125896796944565,-2.9426698544643366,0.8482349283583381,-1.7915829884990058,1.2988074690933795,2
Jeddah/S93/2014,-16.45582049309902,-1.565407855872359,2.1134833447794446,2.824013583001808,-8.70527062151795,1.462764684014248,-2.665950294737955,0.7710136392172507,-1.5981628213362338,1.0691491231146764,2
Jeddah/S94/2014,-16.573366184093235,-1.5699418390454722,2.167352081144198,2.9447659985934456,-9.267447385871344,1.6004801126603474,-2.90049483055468,0.8802226398295449,-1.7339283005929236,1.2258477614782404,2
Jeddah/S99/2014,-16.634590811084344,-1.5861186109661698,2.2063345315006453,3.020791859956753,-9.518720910382138,1.655004739886033,-3.0235037571991565,0.9341247892197632,-1.816010244128986,1.3118500467143865,2
Jeddah_C10306/KSA,-11.050796596369297,-2.5855179461282924,-6.171130801255169,-1.7621824128518517,17.437884984633307,-4.423526004124397,6.40872556510955,-6.180436869801927,7.541788291153879,-4.645669407029465,0
Jeddah_C7149/KSA,-13.195786396066802,-1.9708085627672816,-4.71578174339567,0.6900089087682695,17.912484116572358,-4.254767578445507,6.9354882355216,-5.081065018197323,5.728962915524227,-3.427143734217598,0
Jeddah_C7569/KSA,-13.190825249753074,-1.9740942282911105,-4.7066621553187185,0.6919541878973147,17.908987309048676,-4.264598045081662,6.926007552124188,-5.087591711996155,5.724111472638134,-3.432729774061152,0
Jeddah_C7770/KSA,-12.973554900370125,-1.3892362205717657,-7.518577111085877,-0.12758346097679393,31.656001481957706,-7.89470349388879,12.852524249720151,-5.67923489135019,5.630676732147567,-2.243347654844746,-1
Jeddah_C8826/KSA,-13.010234849918152,-1.4831069041244962,-7.14062027040591,0.12035254939077857,29.396825035563854,-7.463589586668671,11.796269319997956,-6.135595341210774,6.092276929599199,-2.965995418188269,-1
Jeddah_C9055/KSA,-13.191498912168353,-1.976663942500244,-4.708224511063547,0.6897525190664158,17.909208103330375,-4.258418496246115,6.925348269612398,-5.080595953226478,5.723573452421334,-3.428027427042339,0
KFMC-10,-13.166248505616021,-1.474273595065454,-7.441030243742217,-0.051149614044485515,31.150989524457,-7.9496680415136645,12.797644800101969,-5.581697654248205,5.509476438692473,-2.003332027551817,-1
KFMC-1,-13.533620845620883,-1.4953527808666225,-7.381525689024887,0.3336287079629242,30.117559085846136,-7.738010982301711,12.25331283232983,-5.361309237076496,5.2065592996469165,-1.5904249481822927,-1
KFMC-2,-11.076311869056957,-2.7321304185894375,-5.7179221188756815,-1.8282147008328318,14.668426552408889,-3.841965570835592,5.419057480669933,-5.810135720507377,7.396744534467823,-4.575913100550633,0
KFMC-3,-11.07395841351292,-2.7344687381497588,-5.714704572240636,-1.8287524191485722,14.6675391658848,-3.841866983389543,5.422154188624521,-5.812122072918472,7.393672091567424,-4.575867522686805,0
KFMC-4,-11.07395841351292,-2.7344687381497588,-5.714704572240636,-1.8287524191485718,14.6675391658848,-3.841866983389543,5.422154188624522,-5.812122072918473,7.393672091567425,-4.575867522686804,0
KFMC-5,-11.07395841351292,-2.7344687381497588,-5.714704572240636,-1.8287524191485718,14.6675391658848,-3.841866983389543,5.422154188624522,-5.812122072918473,7.393672091567425,-4.575867522686804,0
KFMC-6,-11.064430783303692,-2.7378446485583687,-5.721326064517949,-1.8362463884624773,14.665073806753808,-3.840377323907706,5.418959525824451,-5.814970776653995,7.392870199958096,-4.570978684449372,0
KFMC-7,-12.406407417674645,-1.3076011198531412,-7.98030173560232,-0.9600402718689345,32.94532484741068,-8.25813702414486,13.363909915507323,-5.944687679954775,6.057034240510531,-2.7220751046495484,-1
KFMC-8,-12.409075092852186,-1.318806771905793,-7.951534774439391,-0.9612986962521141,32.9494332802756,-8.242084664773929,13.365281190621344,-5.9544157745418405,6.05736112346578,-2.7053560258964398,-1
KFMC-9,-11.072751617579602,-2.7300872447887583,-5.713602456366379,-1.8304885555135273,14.67343289999012,-3.8436620514757407,5.422337222794532,-5.806444020971139,7.388110817426722,-4.572565901048346,0
KFU-HKU13,-15.9488927084603,-1.4126226041536156,1.7987508222885575,2.1170433738927446,-6.788718443724345,1.0862978849387888,-1.6802262770367462,0.4228497309839508,-0.7492933629597086,0.2420318665064758,2
KFU-HKU19Dam,-15.891665180946298,-1.398962799363057,1.762298322058152,2.0494410857615066,-6.560220191554901,1.0383895929848912,-1.5692455297814119,0.37765421020801565,-0.6739072141278938,0.16424462308978266,2
KFU-HKU1,-16.088904918583538,-1.4471796964253594,1.880292249547984,2.289613633544945,-7.304860283264306,1.1899456853105954,-1.9311176414733542,0.5226792168626344,-0.9201871963228201,0.4559795552292483,2
Khobar-KSA-6736/2015,-16.142022090534482,-1.4675471647323748,1.7819677345325529,2.5551388661060974,-7.703410515663701,1.2684861207353597,-2.1864262219948345,0.6330600276190728,-1.0151531545735457,0.6621329542243168,2
KSA-363,-15.446561452580614,-1.8062620751150722,0.8562593505554771,2.171518611834893,-3.3973099326079494,0.6047459791141283,-0.5515573557299935,-0.5440690337087166,0.5390451389020665,-0.2797849150921124,1
KSA-376,-16.464064725095035,-1.5086531426334675,2.151805818071941,2.7600407304074275,-8.870435006901095,1.4929952667892297,-2.722055729771494,0.8251286738670954,-1.5144910797783537,1.0164466573171107,2
KSA-378,-16.25210002157209,-1.6351035883272875,2.006806427282201,2.6685224378242274,-8.128299360257891,1.3864829627102964,-2.401259067370058,0.6984249559905009,-1.2736747143158953,0.889027369625414,2
KSA-503,-16.339820972906068,-1.5547112281549302,2.0959454712698267,2.7372994006738653,-8.396503119876082,1.4677004014335102,-2.5223481963437355,0.7648067516720682,-1.3507024899583195,0.8878340678966703,2
KSA-505,-16.245522810277503,-1.6324426954716342,1.9547254871828654,2.6767265842846757,-7.888979413840067,1.3763645198304928,-2.3300941624589386,0.6234771858962647,-1.197437347986747,0.8372238236785294,2
Madinah_3b_2013,57.45989329824964,-23.343613145002276,-51.81919815404737,-57.84097418241551,-15.160633283894523,0.02946353893753462,-26.199134554443045,-6.633062695930283,-3.0289689351103,23.997956483654914,-1
Makkah_C9355/KSA/Makkah,-13.016367092951857,-1.4863319803768618,-7.1517160480753885,0.11322887010799412,29.398585585239747,-7.4363835139984,11.802945100919489,-6.112374077948877,6.093490458224492,-2.9484555889889577,-1
Munich/AbuDhabi/2013,-16.531056454768216,-1.611282235231204,2.240618418755152,2.9441507799746627,-9.213521221432218,1.5878239212706957,-2.89362368465417,0.9510306506130026,-1.5579441487251553,1.1929045121120934,2
NRCE-HKU205,-12.46915245457314,-1.6879713308612254,-4.391042970794851,0.06651208432318119,17.507832659429265,-4.2344692323409765,6.855794912733318,-5.2545058445470945,5.985875451473605,-4.02544499468428,0
Oman_2285_2013,-16.62900053990483,-1.5767594609651643,2.2371010664714723,2.937903590645268,-9.495508234339157,1.6540155143113406,-3.0102360402948376,0.9464407455792168,-1.6472147195662554,1.2529193895743171,2
Oman_2874_2013,-16.636685962205295,-1.5427219161331904,2.22435591829679,2.917766978417876,-9.522079865021446,1.6414259972144578,-3.030074492672986,0.9575821042642476,-1.66194743102716,1.215387946548292,2
Qatar3,-15.616963347600267,-1.3216098411239312,1.641273524003232,1.7816219761221899,-5.568761557383466,0.8048133597400708,-1.0908943366485353,0.2030172486721797,-0.4526849869312533,-0.073778250388368,2
Qatar4,-15.494596178255327,-1.4114111036781545,1.3862617705512092,1.7115565161813178,-4.671993823842807,0.6619326501702167,-0.7252668104039738,-0.051391297724037076,-0.09848295078353188,-0.25356844546137425,1
Qatar_2_2014,-16.541603328797773,-1.655215204229543,2.1834873813354734,2.973937145509937,-9.020352659850653,1.5922935318072218,-2.8427628813388948,0.8618767868572129,-1.5526467445505197,1.1675169487546093,2
Riyadh-KKUH-104,-14.692170918352359,-1.1438441635159968,1.1954570190107332,0.8063585864817033,-3.0057426079492022,0.4237143681510206,-0.14805691777416277,-0.2895848254465578,0.1719693491975123,-1.0638824053586606,1
Riyadh-KKUH-105,185.412240239486,-120.33405145523407,78.65729933059106,-23.60752430087286,12.49604826347864,-53.29380288962812,-27.109224202466056,-11.639590258094675,-1.104251879737725,4.392405141451051,-1
Riyadh-KKUH-291,-12.962236972456575,-2.2955878662145346,-2.8064746733596277,0.40931646498595986,9.614245304973046,-2.21337082974157,3.678179665208716,-3.7524982735695516,5.032633141125859,-3.5101636820453264,0
Riyadh-KKUH-368,55.968135533995174,-22.967600243726793,-51.06058377137259,-57.46099317267459,-14.625209497065615,0.23398078501363495,-25.600118937779342,-7.33890650227124,-2.6160906531424803,23.836883448792452,-1
Riyadh-KKUH-643,-14.690301780606017,-1.0936016253915244,1.212961351067772,0.7020342566339677,-2.960005500000958,0.4019998825151318,-0.08965245581722751,-0.29732380742298053,0.21362567078867076,-1.0497673993518308,1
Riyadh-KKUH-665,-11.390356266763131,-2.6652824076001735,-4.570825395305248,-1.4570399246205379,11.023631774227688,-2.8657022837291106,3.8743557145652203,-4.941266156645738,6.564001427905887,-4.18236795562389,0
Riyadh-KKUH-90b,-12.596312415754314,-1.8473264847430504,-1.2142315798003653,-1.8431226025775278,-0.7205617842760509,-0.6780369966001685,0.3682454611170715,-1.8743198008750488,2.3693552057732528,-2.0586215257413714,-1
Riyadh-KSA-2049/2015,-15.956101900700428,-1.5535634676727506,1.90652589042247,2.3688232394691684,-7.434768476441465,1.2895287646435276,-2.1091443822292404,0.5412003087010289,-1.0500071352646825,0.5535242710237976,2
Riyadh-KSA-2343/2015,-15.956101900700428,-1.553563467672751,1.906525890422471,2.3688232394691684,-7.434768476441465,1.2895287646435263,-2.109144382229241,0.5412003087010301,-1.0500071352646814,0.5535242710237979,2
Riyadh-KSA-2345/2015,-15.956101900700428,-1.553563467672751,1.906525890422471,2.3688232394691684,-7.434768476441465,1.2895287646435263,-2.109144382229241,0.5412003087010301,-1.0500071352646814,0.5535242710237979,2
Riyadh-KSA-2466/2015,-15.9541842035447,-1.5524709350868955,1.9178880787191104,2.3731765476352478,-7.431477151016957,1.3081931858887839,-2.100755639866016,0.5363027807459281,-1.0498649733923824,0.5636549210408056,2
Riyadh/Ry179/2015,-16.297216148341207,-1.6670264183552723,2.019698745518433,2.7950731692601964,-9.024350810824327,1.5265611418145058,-2.900212922494436,0.8772912347863514,-1.5522081397241327,1.250959104923113,2
Riyadh/Ry23N/2014,-16.602218534875448,-1.554795239866681,2.2799314016485326,2.9566131258588997,-9.384829878705512,1.6169928743791224,-2.9633111777202554,0.9289036447534775,-1.8146926121011993,1.3107641757033113,2
Riyadh_10_2013,-2.5819013334005345,26.943060913109075,3.8899284470541073,-10.340508451023668,65.944115055155,0.2122022791263449,10.995279982564409,14.715626088445976,-35.47894004354131,8.563853853245496,-1
Riyadh_11_2013,1.8474641867897348,38.359059792301025,10.170580421282095,-12.352390837718826,69.97405999218947,3.6495777778914213,7.149263957892234,19.640675341824192,-45.80358101398645,10.499617511571724,-1
Riyadh_12_2013,7.099289897253426,56.290494997537714,29.86019135889995,-18.226504703295763,26.131580656270582,26.55418529103829,-21.02175771053117,19.376363591693963,-46.43523077711514,-3.3463493421941712,-1
Riyadh_13_2013,-10.442468821869335,5.771214789506263,-6.171697675546752,-4.9020127339629465,50.352725636212966,-5.526775364824904,17.19148131402181,2.870349266114179,-7.61536643741405,2.398927489838816,-1
Riyadh_14_2013,-14.728071954102862,-1.0939259499676477,1.2020433555747914,0.7556418892108805,-2.9610680395253746,0.3909587013712199,-0.07489657739286015,-0.3367438113176257,0.13472355604455744,-1.1292138171333392,1
Riyadh_17_2013,-13.452209877672944,2.215537398946469,2.7175276657447527,-1.014906492268508,-2.1534352304064,2.5353299598155887,-1.482942986336221,-0.34830456636827584,0.3605124484765316,-2.8150039171361954,-1
Riyadh_1_2012,-15.57628668806894,-1.0372988376839944,1.8253164080742066,1.7581183795399293,-6.790793188786593,0.7139253676421046,-1.534076167688305,0.5521245110820702,-0.6518160932692827,-0.0770145560520412,2
Riyadh_2014KSA_158/KSA/2014,-9.184972034347632,1.0596009377305535,-0.6551996655917833,4.298477144480537,31.483685194670684,-24.093167610894188,10.413243897096203,-23.30583878573914,6.872416796350352,-16.144121446112564,-1
Riyadh_2014KSA_683/KSA/2014,-11.027954799917408,-2.7345310939958827,-5.681633104300143,-1.791254133318744,14.66663380662386,-3.816288483925823,5.420962122615017,-5.824886343014966,7.412273403145598,-4.578125761181244,0
Riyadh_2_2012,-15.828919156183039,-1.405419790172445,1.7845608577960108,1.9814691117554954,-6.650547694510935,1.0627680396312442,-1.6792496756694482,0.42979880714624175,-0.8413183188928157,0.11506867707760694,2
Riyadh_7_2013,-11.626320840002528,2.70045645790757,-7.691957811559715,-2.8959501811177146,49.674585635294704,-8.673539062070398,18.772090684230758,3.5393665468201956,-8.727139625306958,5.479481357587643,-1
Riyadh_8_2013,-6.672560079118929,-7.650790536013859,-0.0685003199783091,3.249331503808376,-4.560696673639238,-2.6073216921497915,4.679064953157324,7.1592169730249156,-2.644673336232089,-1.8862104963768334,-1
Riyadh_9_2013,-14.623495699500308,-1.1225220827273745,1.173805935333429,0.6730306989548371,-2.853556963458211,0.34355539553288617,0.07898889795031454,-0.1864165105026201,0.21929339896326158,-1.2414486137599245,1
Taif/KSA-7032/2014,-16.085653532334657,-1.4434187481556828,1.9021666672026363,2.3565913669353336,-7.568028938554674,1.2425924915374622,-2.105398829764713,0.5841379287699823,-1.1383203441034166,0.5589720756376511,2
Taif/T157b/2015,-16.626646029084128,-1.4913552612232328,2.2551077729251223,3.028451852126698,-9.539510492812578,1.6989024058415183,-3.0476355309819803,0.9670443494369545,-1.8670448489596085,1.3812634823957792,2
Taif/T92/2015,-16.524098752421175,-1.626141888487311,2.1706079793766633,3.16562526908662,-9.53796938880174,1.5676806202712574,-3.3231436636674228,0.9056745253347742,-1.7156868346605816,1.240168213347175,2
Taif_2_2013,10.709631731104247,64.28013682546148,34.192727791063376,-21.342547981254988,27.081439013108483,33.914256172800904,-23.870854089885846,14.064576553754325,-41.018594199798514,-6.374617724690418,-1
UAE-FRA1_1627-2013_BAL,4.858858644296174,-5.480888937273285,-22.723451160392848,-18.721427643212003,34.697830202156396,-10.888818957222123,9.600144484387137,-8.38348006685766,8.916378118927222,-1.2033456710191683,-1
UAE/D1209/2014,-5.125236827215183,-3.329959947756967,-14.858607971017562,-9.016764140235455,34.98777914514966,-10.088198520660164,12.511290901366145,-9.273370256787942,10.189781442039896,-4.12037233812663,-1
UAE/D1243.12/2014,-5.111017528680599,-3.2888075294808177,-14.862992784818811,-8.939288039458111,35.01830888417876,-10.071435093057739,12.529986144802896,-9.260550642957394,10.246068950463483,-4.137694861319597,-1
UAE/D1339.2/2014,-5.112274776169393,-3.2871746679557035,-14.847108596570425,-8.964220218349416,35.01177703669215,-10.091067626584769,12.54050659861656,-9.261767764472605,10.244315835498979,-4.1332356225082725,-1
UAE/D469-14,-16.453554257617917,-1.5573502400557804,2.122877773905538,2.74218021128318,-8.767654431061192,1.5076194010881,-2.6166096097374467,0.8175838507141004,-1.4117486336583234,0.9459731370806755,2
UAE/D511-14,-16.450576967218765,-1.5596599178898038,2.128264230124824,2.7434920919788817,-8.765782556562984,1.4992382244417874,-2.620437523503132,0.8103288511497271,-1.412206041454776,0.9395454894956907,2
Jordan_10_2015,-14.59327335490282,-0.21222067468048278,1.1409769888573715,1.0250831591372156,-3.164096830306686,-0.18592415900836268,-0.7194922714661295,-0.36018309929599274,1.8595563692122874,-1.1398270756631392,1
ChinaGD01,-11.229279315243385,-2.400222064612774,-3.5105354237543422,-2.400289047083268,3.921352746788486,-1.5509182305547737,1.5376741286812234,-3.378845752980805,4.682177422244825,-2.7701957793723566,-1
D1189.1/15,-16.1438898409366,-1.367679205652128,1.7607744668738956,2.610705315627988,-7.946248135540091,1.27832804817128,-2.349636884292942,0.6687693631410861,-0.9154149255069896,0.7274619208833031,2
D1271/15,-16.227378871416562,-1.4153809572835128,1.735041365862729,2.6453724212630267,-8.013458694148786,1.3236715261413843,-2.392583506264967,0.7196251150029541,-1.022498564438883,0.8199915855434625,2
Hufuf-KSA-11002/2015,-16.067672600613,-1.4642122094564953,1.70203724439463,2.6550235459664573,-7.761785064951154,1.3539550005569905,-2.2473215410725986,0.6423016070273544,-0.9165329599425459,0.6772869654050266,2
Hufuf-KSA-9158/2015,-16.018060256788573,-1.0842646704631398,1.8006093459366763,2.3949516604733594,-7.875883590680732,1.1620016863470817,-2.3699587886357967,0.5775362340506298,-0.6478681950448663,0.598009117198912,2
Jeddah-KSA-3RS2702/2015,-15.85694041031474,-1.1589187690669647,1.6787235174866448,2.6453027448361395,-7.90775472081407,0.9191815150487135,-2.023211831141928,0.9048197293359255,-0.8590892529801926,0.8830865817673295,2
Jeddah-KSA-C20843/2015,-16.126813969496876,-1.4114955555749311,1.7411657807395642,2.5624604779577145,-7.749471758146809,1.2901674667239582,-2.255282683301471,0.654834540521878,-0.9853219126460745,0.7198605977909321,2
Jeddah-KSA-C21271/2015,-16.099117022902327,-1.4155105345775356,1.726976616130838,2.564996166352093,-7.751173253837465,1.2744890657124939,-2.2695808272445332,0.6560960841109726,-0.9818727097522725,0.7357730807903806,2
Jeddah/D38b/2014,-16.621845244870137,-1.5729804675934405,2.0065626239853804,3.1385279713575196,-9.594771091935876,1.6166046708600348,-3.1231661538156112,1.0294833004601402,-1.536456723088306,1.4652631530485993,2
Jeddah/D40/2014,-16.20087848994406,-1.5765379339106111,1.743921682899413,2.760375036468602,-8.597757616770568,1.4141316256208831,-2.703535641505717,0.7757426241120283,-1.1862726344327394,1.2203657444420464,2
Jeddah/D42/2014,-16.65989738320088,-1.5319523643373039,2.0391267698977527,3.20346698600692,-9.710592302590982,1.648892826555637,-3.1596035830227915,1.0554758618661837,-1.5517045669113307,1.4800102292904664,2
Jeddah/D43b/2014,-16.65835723310603,-1.5282020495921016,2.039128550099617,3.199347860820944,-9.710396868410339,1.6501583566438849,-3.163620720120962,1.0616693292378343,-1.5451475838862978,1.481602574759633,2
Jeddah/D45/2014,-16.598675765215564,-1.5173347524892764,1.9998085805120858,3.129857398729796,-9.461131056860037,1.5964873368499626,-3.036854808763397,1.0053468983426983,-1.467330115946759,1.3918539147833355,2
Jeddah/D46b/2014,-16.64118031486646,-1.5241897495958163,2.028379882111221,3.1779528348262533,-9.63778894154971,1.6348223412661977,-3.1270667597211945,1.0475519489122869,-1.5175268122054522,1.4545436493142867,2
Jeddah/D47/2014,-16.598675765215564,-1.5173347524892764,1.9998085805120858,3.129857398729796,-9.461131056860037,1.5964873368499626,-3.036854808763397,1.0053468983426983,-1.467330115946759,1.3918539147833355,2
Jeddah/D48/2014,-16.54997158595363,-1.5056644107916641,1.968417115148883,3.072415497399929,-9.26630150282789,1.555649902491221,-2.9422329857616867,0.9660701716369012,-1.40400364719973,1.3256213646105812,2
Jeddah/D49/2014,-16.218056079723972,-1.4264094494858064,1.7563842452276675,2.6801092644213433,-7.939154906957074,1.2774108360033112,-2.297308202045285,0.7022738007574141,-0.9667775274376069,0.8730537788500338,2
Jeddah/D50b/2014,-16.47090957910979,-1.5241753033644967,1.9078777931540183,2.9964952812777095,-9.284134565828133,1.5527213023327608,-2.972397851154087,0.9705551892033742,-1.4110652183093264,1.3450615394381977,2
Jeddah/Jd1b/2015,-16.40329416118655,-1.4495272352024788,1.876573486835557,2.874367650790718,-8.64118428911485,1.402186692368655,-2.639200393192307,0.8568095632230854,-1.1876875665155378,1.1081350216209356,2
Jeddah/Jd4/2015,-16.562688610976114,-1.4876128799613244,1.978787102615281,3.0629686328293273,-9.279887525985323,1.5360946317228905,-2.9498872300248613,0.9845778721328988,-1.3979438427821178,1.3266312414584291,2
Jeddah/Jd6b/2015,-16.70749000402237,-1.5221153360781228,2.071330544278087,3.2382395647047204,-9.873959429056823,1.6609925950321827,-3.243504904954783,1.103381275336302,-1.6023153735612257,1.5390065781672961,2
Jeddah/Jd7/2015,-16.659805947670534,-1.5207141638511141,2.0354985994283146,3.1782393120246613,-9.64441646228863,1.6275625377476874,-3.1370962224463455,1.054609582012957,-1.5236632457131625,1.4597197010233396,2
Jeddah/Jd85/2015,-16.671866113307686,-1.5228502914804327,2.051189272248817,3.234165297417819,-9.779466023132276,1.6731377648624048,-3.203322264647519,1.0695006560436273,-1.5745703996964835,1.4863895419297173,2
Jeddah/Jd86/2015,-16.671866113307686,-1.5228502914804307,2.051189272248815,3.234165297417819,-9.77946602313228,1.6731377648624035,-3.2033222646475195,1.069500656043627,-1.5745703996964842,1.486389541929717,2
Jeddah/Jd87/2015,-16.64094165218983,-1.5156325700820852,2.031869725772193,3.1955713945812905,-9.648432605036303,1.6455044629762638,-3.137248435461461,1.0439304736597093,-1.5249811077049034,1.437365383136402,2
Jeddah/Jd90/2015,-16.155691913649694,-1.3996905939809121,1.7216244790691082,2.6223127366608723,-7.709164309653062,1.2390247663704823,-2.195196740657525,0.657792043199492,-0.8890545006726457,0.7764982419278604,2
Jeddah/N51/2014,-16.498263801534293,-1.4933027404156987,1.9352084993410366,3.0112481649076734,-9.059051998991206,1.5122084209322244,-2.8414105206034233,0.9244642126211756,-1.3360581249060364,1.2547105404775682,2
Jeddah/N62b/2014,-16.21446786442416,-1.4200924870258569,1.7588971731861542,2.6841214033708223,-7.939986543119317,1.2776712817423963,-2.290987855446496,0.6992380202572802,-0.9651940095093005,0.8828157166898633,2
Jeddah/N68b/2014,-16.642720464961318,-1.5279400643410141,2.028378101909357,3.182071960012236,-9.637984375730364,1.6335568111779535,-3.123049622623021,1.04135848154063,-1.5240837952304869,1.4529513038451227,2
Jordan_1_2015,-16.16936838220853,-0.6425443245090042,2.2028575342028516,2.6667743029896145,-9.313786614999799,0.9416866800611964,-3.368056211043159,1.0330843151193196,-0.4611480849805692,0.9901228219707672,2
Kharj-KSA-2598/2015,-16.121262308056348,-1.3805052491859822,1.7167686351370541,2.5701109049500825,-7.714486924437103,1.2470642350690655,-2.2190927404343728,0.6512694564808301,-0.9451452713874725,0.6978792762466782,2
Kharj-KSA-2599/2015,-16.07283399796529,-1.3920104445248993,1.6782799816788518,2.5441451302619504,-7.752257342877644,1.2281403866717104,-2.2483905789525913,0.6404877543666568,-0.8981532249908623,0.7394910158882064,2
KOR/CNUH_SNU/016_06_2015,-15.145232537536813,-1.5100427896497426,0.6636992884277616,1.8430636649195784,-2.739792947252649,0.4325652568636968,-0.135848246918357,-0.5683273778131857,0.9547535814865437,-0.5786136325654377,1
KOR/CNUH_SNU/023_06_2015,-15.145232537536813,-1.5100427896497401,0.6636992884277607,1.8430636649195786,-2.7397929472526505,0.43256525686369635,-0.13584824691835715,-0.5683273778131845,0.9547535814865455,-0.5786136325654387,1
KOR/CNUH_SNU/024_06_2015,-15.140653478721907,-1.4958107698930003,0.6663234955178411,1.8341310544254388,-2.7414114891347463,0.4273091258698334,-0.1395956479709202,-0.5717241237281959,0.9692653817375273,-0.5860152613601092,1
KOR/CNUH_SNU/030_06_2015,-15.145232537536813,-1.5100427896497401,0.6636992884277607,1.8430636649195786,-2.7397929472526505,0.43256525686369635,-0.13584824691835715,-0.5683273778131845,0.9547535814865455,-0.5786136325654387,1
KOR/CNUH_SNU/031_06_2015,-15.139214212544113,-1.5146824122388305,0.674591871191043,1.845496439730001,-2.738351920953327,0.41753243892763764,-0.14480909844466378,-0.5803120917307198,0.9526386256201355,-0.5889653068729273,1
KOR/CNUH_SNU/038_06_2015,-15.128884655906866,-1.4672838681610971,0.6792971258408232,1.8160353014525399,-2.7745171146888037,0.3802422644263612,-0.10450059103250577,-0.5638678571299189,0.9785667780915565,-0.6010791111669578,1
KOR/CNUH_SNU/054_06_2015,-15.122485163570666,-1.4772728868329026,0.6701555162634912,1.8241372091358923,-2.745045119417306,0.42010510267733386,-0.1456994512510526,-0.5612780435034472,0.9947632493625851,-0.577260292995043,1
KOR/CNUH_SNU/082_06_2015,-15.145998702173324,-1.5104381674421985,0.6599681907836548,1.8417343961927686,-2.741226662897901,0.42641652350605436,-0.13877089730548697,-0.5666839075141352,0.9546723673232113,-0.5819727995432531,1
KOR/CNUH_SNU/085_06_2015,-15.145232537536813,-1.5100427896497401,0.6636992884277607,1.8430636649195786,-2.7397929472526505,0.43256525686369635,-0.13584824691835715,-0.5683273778131845,0.9547535814865455,-0.5786136325654387,1
KOR/CNUH_SNU/110_06_2015,-15.143990097473726,-1.507111199317405,0.6639343933476024,1.8447488911367698,-2.739502485058132,0.42944036582445355,-0.1370950485726183,-0.5591154239722942,0.9553617201995918,-0.5796042366742105,1
KOR/CNUH_SNU/122_06_2015,-15.14370271865077,-1.5092932845104785,0.6697717466233333,1.8450660761072653,-2.737258379467404,0.4428240256102472,-0.13106647038077635,-0.5711222751076143,0.9543087572855978,-0.5730129327423946,1
KOR/CNUH_SNU/148_06_2015,-15.145998702173324,-1.510438167442198,0.6599681907836544,1.8417343961927684,-2.741226662897902,0.42641652350605364,-0.13877089730548686,-0.5666839075141344,0.9546723673232108,-0.5819727995432531,1
KOR/CNUH_SNU/172_06_2015,-15.145141681083988,-1.5096612289280176,0.6640881300119932,1.844285154883024,-2.736424315880902,0.4328630202215241,-0.13147566683806247,-0.5661666722700504,0.9560401832952063,-0.5750061890150937,1
KOR/KNIH/002_05_2015,-15.971365388806491,-1.36050706872405,1.6674131678787258,2.4263183873548515,-7.171246681660595,1.1120114699176147,-1.9217676207187477,0.5514905067346957,-0.7061307757189577,0.5717866420715423,2
KOR/Seoul/014-2015,-9.63747904625837,-7.993599169451254,17.980408049861516,1.2410887758448887,-7.8548393372251475,1.5389818774593256,-1.9115309357001518,10.980450698128783,10.23464134628619,5.2774054242093404,-1
KOR/Seoul/050-1-2015,-16.234821839102047,-1.4873765029695114,1.7822139144579192,2.756724493256484,-8.131088759816997,1.3465322629101664,-2.3952972545185194,0.719666099324225,-1.0145477548151765,0.9411799169896728,2
KOR/Seoul/066-2015,-16.60100577665772,-1.5749655691536613,2.0170644586872015,3.1898045048914923,-9.597155095980899,1.6538990571089274,-3.1082457687329295,1.0129578159593726,-1.4953294943475919,1.4424503839791587,2
KOR/Seoul/077-2-2015,-15.828467575034455,-1.3895448270919495,1.6016272667301263,2.266746721568834,-6.967297553782686,1.1396673744588104,-1.9101211001300886,0.5115556090095962,-0.6907688784374273,0.3940333010858654,2
KOR/Seoul/080-3-2015,-16.601051621255813,-1.5749609957708757,2.0170192921183117,3.189807818957513,-9.59666942186445,1.6537921751680138,-3.107944849046943,1.0130627472673976,-1.495608311956973,1.4426830805749427,2
KOR/Seoul/162-1-2015,-15.929715368177227,-1.4125987644919595,1.5837164619468314,2.397655571273468,-6.923724387463296,1.0801013202664387,-1.8169923139322153,0.4957461547900635,-0.618274741314045,0.5289493115293626,2
KOR/Seoul/169-2015,-16.169665142186503,-1.46577199495437,1.7512863833185803,2.6951494970538077,-7.903006138231408,1.2617121174200299,-2.27871517824394,0.6564961467120008,-0.9402000921766507,0.8404529219293337,2
KOR/Seoul/177-3-2015,-16.601293155480683,-1.572783483960588,2.0112271054114714,3.1894873199209943,-9.599399201571616,1.6405153973231328,-3.1142743469247742,1.0249646670946952,-1.4942765314335968,1.4358590800473467,2
KOREA/Seoul/014-1-2015,-13.436663737909882,-1.484397514020313,-7.194837656426244,0.7436827203324843,27.821275041212907,-7.232458157533557,11.124384952214708,-5.747458929337969,5.879908339322271,-2.254783453755602,-1
KOREA/Seoul/035-1-2015,-13.42793829795914,-1.4902203176787423,-7.199377581589507,0.7638461249679975,27.82465613403343,-7.214267349638654,11.124657849189475,-5.7500544955785,5.8725318013387735,-2.2620123889410717,-1
KOREA/Seoul/163-1-2015,-13.436865218746608,-1.471840938178732,-7.199174245071482,0.7430364242988338,27.823772465152114,-7.243623485733559,11.103574542189227,-5.761459522136999,5.886077039477233,-2.2578965589838553,-1
KOREA/Seoul/168-1-2015,-13.420649366299097,-1.4898657511426037,-7.179519482819576,0.7469299389445762,27.822714732905254,-7.219507238863053,11.137677979235766,-5.75593658317052,5.893433831902821,-2.2462684443425363,-1
Korea/Seoul/SNU1-035/2015,-16.59384357231022,-1.5788995150278144,2.0074475090960218,3.211193555677436,-9.601051457790096,1.6597719589302153,-3.1164142030687,1.0232679463545065,-1.5033572039373184,1.4303511596633858,2
Najran-KSA-C20915/2015,-9.974838248467627,-2.0426164289350526,-10.608189312400528,-3.4175203562057086,33.12693767105574,-8.85868202017813,12.656944427135636,-7.839163415312969,8.622520545794131,-3.866966547519509,-1
Riyadh-KSA-16077/2015,-16.08560385061337,-1.4662516119668019,1.7079176111556162,2.6162599735414136,-7.790730011165647,1.2989760955951877,-2.223967327486261,0.6512867050599508,-0.9545920568423102,0.665466786143011,2
Riyadh-KSA-16098/2015,-16.08474993286015,-1.4627772905782237,1.7844678367651545,2.536644304970499,-7.717477223394491,1.2212223934889064,-2.2168896728820147,0.6923549881324541,-0.9625330748621274,0.7715793370451972,2
Riyadh-KSA-16117/2015,-16.093560583036474,-1.4587968616004485,1.7902135048437557,2.5312642508766063,-7.712335348433206,1.2367781590039013,-2.2274385898680293,0.6837379985893408,-0.9789268597057166,0.7679035202231259,2
Riyadh-KSA-16120/2015,-16.097382841860966,-1.4691754890420607,1.7850958996981783,2.5345073458731338,-7.719223035680367,1.2328558660672022,-2.2239890211012985,0.6792530378694311,-0.9674537352633872,0.7667137069736695,2
Riyadh-KSA-16121/2015,-16.108149667324604,-1.4826657087122574,1.7097282408689596,2.528502852928091,-7.732170213202787,1.2411287666239423,-2.2113755954265963,0.6639677412436679,-0.9627745817665847,0.7646546858265139,2
Riyadh-KSA-2716/2015,-16.095378899364803,-1.3880597098000647,1.707429929359036,2.531166951009329,-7.806719378184406,1.2763223983392777,-2.1300675237406166,0.6343868701575244,-0.9665227516582667,0.6195004361857522,2
Riyadh-KSA-3065/2015,2.616220897357494,18.200226475085373,-24.032891940396016,14.706635138935194,47.68521250474063,-25.428528125130985,37.9860162381193,33.01905545917133,7.3755574557117685,20.438358826727423,-1
Riyadh-KSA-3181/2015,-16.123971911246624,-1.4676268930638046,1.6760378862817698,2.5164430435686,-7.78902852861613,1.2310581694627694,-2.2612776360141638,0.6752746618820338,-0.9334169958204754,0.7684404959454499,2
Riyadh/Ry136/2015,-16.666440783053893,-1.5944394723091029,2.055338421799802,3.2858784790459175,-9.826884193562762,1.6683791132367316,-3.270912838586955,1.0315672126746864,-1.6225874750707863,1.4975086290186672,2
Riyadh/Ry137/2015,-16.232898460399337,-1.6657652990450376,1.6466944182783407,2.729068751227339,-9.51461551609788,1.6018299454482106,-3.192109788598031,0.8318712612401097,-1.3843633051634148,1.3727442173691748,2
Riyadh/Ry159b/2015,-16.193874177106306,-1.4648231784645038,1.7190389826626473,2.681307074253193,-7.899375912188017,1.2917641912592304,-2.2943814665870184,0.6673296367514154,-0.9602172212761525,0.8596203930000708,2
Riyadh/Ry162/2015,-16.5670524905006,-1.589636998488454,1.9878404702561545,3.147429650866141,-9.59932800022859,1.6642885725235261,-3.1364036522335277,0.9994504867921856,-1.5540434238485863,1.4272501026815074,2
Riyadh/Ry173/2015,-16.698139591218418,-1.5559673988871732,2.0969511841405764,3.202506892350588,-9.784458948002548,1.6467870779232159,-3.225538989871098,1.033068802416844,-1.66892520378806,1.4898669044231587,2
Riyadh/Ry177/2015,-16.641082514187605,-1.5411184792450923,2.0578614211664736,3.139616899905173,-9.55874352204244,1.611756808897048,-3.106954580616468,0.9897560115402426,-1.5891184108433196,1.3952662696419247,2
Riyadh/Ry178/2015,-16.686792896600256,-1.5365530204574418,2.0953927817852245,3.204702038603983,-9.777571641249194,1.6635121647499242,-3.2272780553653915,1.042992787918969,-1.6870286084138078,1.4863256862408682,2
Riyadh/Ry63/2015,-16.661635373333368,-1.6012795032311284,2.04458926140665,3.2673516762518293,-9.779841326365688,1.6574873895744993,-3.2556622973890352,1.0297407247339332,-1.607563295981428,1.4675408905473584,2
Riyadh/Ry64/2015,-16.619930401991905,-1.5915051876284019,2.018508078398682,3.214952702038619,-9.60218198591498,1.6199733174660378,-3.165724514550702,0.9950082066603952,-1.5402721981639862,1.4001114476840795,2
Riyadh/Ry79/2015,-16.549677492147488,-1.502225309978387,1.9994609473151423,3.080798432031103,-9.429149287180982,1.5969470728966964,-3.0467077524901076,0.946403159478035,-1.4490145734683837,1.3514266009713525,2
Riyadh/Ry84N/2014,-16.662977073142883,-1.5585764449769433,2.0694563107254162,3.2308711710613665,-9.713278742460608,1.6899946343290644,-3.177425404225541,0.9879692056154887,-1.670639449271608,1.5311623555797207,2
Riyadh/Ry86/2015,-16.169512141304867,-1.654099071422301,1.6345011895505615,2.6788687215461917,-9.288540285637067,1.5243331385110122,-3.099914682394672,0.7859476244073716,-1.3005272273918378,1.2815200217738223,2
Riyadh_KKUH_0734,-10.48655762481497,-2.935616970641497,-5.794824537224228,-2.251679301248341,11.403450025669432,-3.164002104617665,3.7084851803104963,-5.292125512529097,7.381534646545014,-4.204130061637319,0
Riyadh_KKUH_0755,130.41992838269752,-36.49757830376498,-71.51683889810053,-8.584596186788195,30.614272028323217,-14.601261842065162,1.7865630145928477,30.414951883804406,21.822910819209852,45.20422120824901,-1
Riyadh_KKUH_0756,53.41740182839783,-20.11103425892905,-53.09248625073357,-53.70780521993309,-1.9402792481236881,-3.1955143545446245,-19.23878335015967,-8.400437572049816,3.7627502959450556,19.682963458027732,-1
Riyadh_KKUH_0780,-14.344298876511766,-1.1963245084674914,0.5497722553620747,0.5749807153574381,-3.0539897312985373,0.3226158626512103,-0.2863502631605882,-0.34079443237164464,0.6014739521945042,-0.9472900766135214,1
Riyadh_KKUH_0801,140.7331236624408,-78.15368483411075,5.203233548706082,-34.13086472499757,10.616860889180293,-3.8144251611162048,-19.445755973135594,36.824991068390375,44.96786733077692,36.874888850087565,-1
Riyadh_KKUH_0818,223.9275796034227,62.41615759915959,-64.51738008308547,107.93906086672392,26.614411150902225,-42.803931696260626,-27.006686322480636,37.35252082044558,-68.91322206298511,30.533668804442502,-1
Riyadh_KKUH_0826,57.73015805672713,-23.928567410074052,-55.320855401864776,-57.42434523367482,-2.6968330664802034,-2.0858363013885417,-22.20996682989745,-10.662373393941065,2.2026645528910613,21.719960601344653,-1
Riyadh_KKUH_0939,191.67402330670097,-14.084202488785433,-95.10217416871504,58.76026438392643,-25.18918743488348,47.03121631193639,40.834007917154935,24.957067731658142,26.47890222816307,-45.93608850396457,-1
Riyadh_KKUH_0944,8.774566583903457,-7.535421914133629,-21.257904140386668,-21.094440908809727,10.317450321084877,-4.802883105550317,-2.0131556774518065,-5.742541890346551,7.683044447741242,-0.6985937418398884,-1
Riyadh_KKUH_1066,-12.639274452219126,-2.277241595490484,-3.4094429482413147,0.3576193473231915,9.345040182721126,-2.171870849126435,3.384605123830214,-3.7387752506795717,5.296339475857154,-3.300837398578426,0
Riyadh_KKUH_1080,22.12098665829881,-17.041826852264826,-11.482806461274071,13.952636876798913,20.64066231099709,-0.7034578721017064,-24.15700733411469,-15.611381291684733,13.640345088234552,-6.50548820338539,-1
Riyadh_KKUH_1145,-12.638304191659188,-2.272998332052018,-3.4041669470779174,0.35250358043041935,9.347654554522235,-2.175522774489778,3.3843310866167036,-3.7405543563526846,5.297345447745685,-3.305780966533294,0
Riyadh_KKUH_1217,164.95605441719783,-30.78406233012571,-99.91378781909488,57.72294384211166,-5.016527007011354,31.374532851902682,-8.350689017484202,36.85253928901306,0.5926562775094101,-27.831970974945968,-1
Riyadh_KKUH_1461,147.707106697993,7.464562479728548,-76.20158769284463,13.157685150627954,4.174318501108248,73.32406650810888,-38.00829273172262,-17.271871065213304,25.52592932052814,-44.89181370240108,-1
Riyadh_KKUH_1470,-10.502125569203667,-2.93165888071285,-5.854193137151009,-2.2316892890319826,11.39607642693268,-3.165378778416129,3.7066775486554606,-5.301658431653646,7.3432787020226735,-4.20829891470583,0
Riyadh_KKUH_1522,221.4323837866725,2.5057677021689035,-65.95756662330739,88.96697695564855,-38.31147759362987,24.973827656055708,71.93416367037163,-46.72528748753467,-18.245761365349335,44.40829887313437,-1
Riyadh_KSA_2959_2015,-16.31967925209455,-1.6669911753179503,1.6294122136778282,2.83193347265657,-9.683001814968696,1.5522489620530722,-3.2989361617498982,0.9234425395241319,-1.3714403263346735,1.516221493140214,2
Riyadh_KSA_4050_2015,-16.658773694234387,-1.6263287353876725,2.0969716152757387,3.263950322922187,-9.85653397135742,1.6833140798720987,-3.2505137403226327,1.0497502596884676,-1.6460611418958022,1.5169259211486832,2
Taif/T150/2015,-16.20578516773417,-1.4491174066925003,1.7158955568674532,2.633372710400237,-7.905955353125443,1.272594710983416,-2.281976933734904,0.6933495130329813,-0.9702461519928895,0.8993994609464635,2
Taif/T16/2015,-16.65911388020085,-1.5696062051531081,2.0383168926397492,3.1923218072104933,-9.713594544855509,1.6497071129634664,-3.2295106915914675,1.0306967707498254,-1.6243384328435158,1.4765012729467302,2
Taif/T22/2015,-16.68024193312156,-1.5746152863222147,2.0515798010654556,3.2193423736370557,-9.804950156928552,1.669064865699896,-3.276237900474005,1.0486416816655717,-1.6590405236002845,1.5125225116277357,2
Taif/T3/2015,-16.677569763597806,-1.5671531568755783,2.0515418501451443,3.216017704033289,-9.806749883506262,1.6636757749947588,-3.2825352470340676,1.0440233385927995,-1.6564983824559958,1.5108861574961063,2
Taif/T68/2015,-16.437885363512247,-1.5106767961862315,1.8991629343940568,2.915304044348729,-8.793630732705969,1.4574073026835415,-2.7606603440023827,0.8466323286360281,-1.3220890083914587,1.1437140509574144,2
Taif/T7/2015,-16.373373920761956,-1.4945650559999333,1.856784792702614,2.852145790119285,-8.573974743564285,1.404869872331228,-2.6782307352715837,0.7974516264795833,-1.2418705754103092,1.0800146009497462,2
Taif/T89/2015,-16.635332816355866,-1.5579764799613762,2.0263160644354703,3.1488371461912523,-9.584945406977049,1.6232799078111035,-3.145619226579225,1.0060330444788508,-1.58002253344365,1.4146449237774932,2
Taif/T91b/2015,-16.635332816355866,-1.5579764799613762,2.0263160644354703,3.1488371461912523,-9.584945406977049,1.6232799078111035,-3.145619226579225,1.0060330444788508,-1.58002253344365,1.4146449237774932,2
Taif/T98/2015,-16.51425028942199,-1.4775403718801106,1.9274512292927384,2.976253054110553,-9.219928385158147,1.5593850488790209,-2.9645709454295655,0.9037703151499084,-1.5344250502811232,1.3116841292255619,2
THA/CU/17_06_2015,-13.680125473951822,-1.3735109463820656,-7.3943311478395986,0.8008835746908546,28.83870973538836,-7.425496050404211,11.632722168465916,-5.161661641205238,5.014313201140324,-1.2964769797149354,-1
Jordan-N3/2012,-14.355026040984717,-1.5233760632368265,0.06624596013411525,0.9607487812507132,0.7697968481281272,-0.34562478222364706,1.1129738199370354,-1.4548432250329084,1.8902495315272363,-1.863610985739447,-1
Al-Hasa_23_2013,146.5597164252289,80.18467309974041,-28.247452754305673,-59.63695397688871,42.20315552499416,62.522902904332994,-82.97022864250204,-37.84986812880722,19.97364868538485,-25.980099184744933,-1
Al-Hasa_28_2013,106.63246529110806,143.8550428730991,-20.21227406526063,-52.59378854726635,-18.651892301881812,-48.721280563131174,-16.895310823114546,84.20464072796044,-12.97326141756646,-38.300550296765,-1
Asir_2_2013,113.50248134123294,160.40715344525623,101.88698192045632,10.812825214736712,-1.9339973272927937,-7.474664924909365,6.513624988242977,82.44476573328993,89.30461548938504,-6.733787014182039,-1
Hafr-Al-Batin_4_2013,143.04996895632146,209.0811035250103,64.51968073200523,61.00530006496139,-31.587277222894187,-112.61223637871151,3.3346890962679057,-79.55768004414617,1.6108806352287734,-31.62639493434181,-1
Hafr-Al-Batin_5_2013,163.2096704475781,180.03546876856373,-18.95217304516372,-49.063230568273035,-35.34166570716421,-20.193040803496192,-10.750092657397463,-34.199628146969424,23.423753727944256,78.81754335060263,-1
Riyadh_6_2013,114.09893115407613,115.34999990909894,5.578849079629989,-101.03242626520384,-27.13795011407908,55.27920966996344,35.30558720886048,-35.09101961465385,-5.707484590172664,-24.885883603947928,-1
