strain,mds1,mds2,mds3,mds4,mds5,mds6,mds7,mds8,mds9,mds10,label
Jeddah-1,21.18835013307813,12.62232111439943,9.3608928585272,-30.487222244504217,-9.743514523007514,14.1397013702643,15.813946292438258,7.953201704830306,37.47942467644913,-3.019327874616587,-1
Riyadh_3_2013,15.501793876406703,19.508780793076614,-8.889572496789663,-33.73918254490219,-16.121458880816032,6.81861686863217,13.912632174566387,-7.677321939773536,37.64117034695592,-8.116738922101444,-1
Riyadh_4_2013,10.098951735017295,25.931294847707388,-3.9202778274412724,-16.7555091253231,-7.245058703632357,1.9403142356515952,14.694401151662042,-0.652717055555451,26.616018938943505,-3.027978694079126,-1
Riyadh_5_2013,15.911082541783086,15.563429955504986,-4.28472024119962,-24.635725127375913,-13.976496030334125,12.852569664265168,19.303242314623123,5.828883899094698,35.318981498993395,-10.461015897953525,-1
Taif_1_2013,22.274527637483704,17.33929882157087,3.4366997848757177,-26.495846588862126,-7.4761706773434735,13.431159534280356,16.322827377148442,7.417375873605546,36.75186371357525,-0.7652303005960303,-1
Taif_3_2013,0.5414274165944089,14.403123124453293,3.948604839752297,-4.350494570273994,-8.41770978162421,1.6538006147725137,7.663526510806928,-1.1112309170747372,15.963353749688414,-1.1411758239831238,-1
Wadi-Ad-Dawasir_1_2013,21.01300456197682,11.536268550765381,2.8687909711616166,-35.0007021601943,-15.88781071603443,6.188612621420629,7.929463095448425,3.8437936375122255,35.205366165294635,-5.820418667268215,-1
D1164.1/14,15.299149392398222,16.89254997833021,12.07265447170613,33.0569369316655,1.710586305674778,-35.72995801911358,16.818844481634333,-7.609580522094914,22.39839869986081,21.030835267920075,-1
UAE/D1164.10/2014,15.448964340132699,15.222399282909658,14.269881768220344,28.572519604870173,1.5623429333124548,-33.68876683464441,14.683995533651409,-9.283975999777121,21.702302659716214,20.623080741594652,-1
UAE/D1164.11/2014,14.567709816712878,16.051158336659338,11.560850627058644,30.37888577024666,1.1636316079915694,-33.011213093390104,15.951436679968952,-9.190465202695275,21.43431521204991,20.184607886889385,-1
UAE/D1164.14/2014,14.169551335357472,15.312254402610305,12.641013758514166,27.63909188150656,0.6749105676235492,-32.45680926854142,15.245010428117563,-8.84989681429158,21.00366518046384,19.43743188707233,-1
UAE/D1164.9/2014,15.881815430726542,15.448064770256112,13.503128618971553,28.010047264991304,2.627883267398607,-32.73104758107358,16.261968809485044,-8.3350917740514,21.879522435137552,21.60959356881797,-1
AbuDhabi/Gayathi_UAE_2_2014,4.86868845432417,4.914089280457249,14.10828841560134,14.778475292561346,-7.654482089789394,-41.76804712849443,36.38854687514439,3.4114916325834086,13.539475556357761,9.639008701594738,-1
AbuDhabi_UAE_16_2014,4.453955921310316,4.88430406516,17.7258475761536,10.928028876053526,-9.730034083495669,-40.3720463758025,30.617732985617696,-0.6906882996431034,13.89061443149952,9.78991080071268,-1
AbuDhabi_UAE_18_2014,3.8275149917241587,4.478857910130204,17.981054008854173,12.144791511430896,-10.517424795445187,-41.413378467342305,31.535246814975036,-0.26365114072580453,13.217379716626805,8.887819387101798,-1
AbuDhabi_UAE_26_2014,4.09348629705184,5.07348634738676,17.141054106093236,11.818765272753614,-10.667046295059684,-40.693084191903324,30.55552510185202,-0.554890519383147,13.271651051807636,8.636165217849797,-1
AbuDhabi_UAE_30_2014,4.1460806851365914,5.446116207781135,16.258149661198463,11.491231366558639,-10.242301075556282,-39.965495591182886,29.926325052061994,-0.7414834139172315,13.461802207283707,8.66363400068315,-1
AbuDhabi_UAE_33_2014,4.169113806251141,5.450245412466912,16.25808824337359,11.478519920440174,-10.232701563476287,-39.962164618017745,29.932494506989627,-0.7350981764545305,13.461994107927287,8.674069020278848,-1
AbuDhabi_UAE_8_2014,4.175645946903478,5.766632416420729,15.563306702212605,11.268431430110775,-10.010341807451017,-39.238439818169375,29.161454053753047,-0.8317513187598264,13.539602019523848,8.549506288083636,-1
AbuDhabi_UAE_9_2013,2.1696962553133914,14.1352043651292,5.668613445112948,26.983957909042463,-0.5747652095609015,-32.87352682433299,19.35603311519311,-4.103310339432088,22.51390217221182,11.221277912595662,-1
Al-Hasa_11_2013,-1.0826389579004043,12.239466265788879,6.394750177592299,8.50406462807715,-16.133238478263305,-20.54988206101512,1.2811061500853362,16.01132054251869,17.55568662298149,18.898573288755937,1
Al-Hasa_12_2013,0.6240150173962367,12.26644760672912,5.946057280787953,8.839450296959102,-14.704617861089508,-24.449071878611957,0.7887076557202107,18.963756067714275,15.821326774038281,19.640743344734748,1
Al-Hasa_14_2013,-1.5391721172583648,11.68165283946382,5.807876515549788,6.365501845306011,-11.845176300848209,-15.86292739681573,0.39778737113397716,10.434667341310048,11.135771043801682,14.518871819671958,1
Al-Hasa_15_2013,0.5953853331405937,12.155704233145277,6.033937734015708,8.619861733664491,-14.146884754049646,-24.012939008309576,1.230522472345305,18.053140612247475,15.477296767516886,18.958682641445414,1
Al-Hasa_16_2013,0.22968866097630097,12.258428439426192,5.563644677817907,9.424630754249153,-15.481626566147943,-25.194617814764282,1.0024827950718722,21.10612511815807,16.140684806262392,20.99112294023932,1
Al-Hasa_17_2013,1.5798012576844407,12.429258338820778,5.81334560373486,9.617346113902185,-15.771185876990012,-26.122981466469263,-0.3564651406087832,23.246751182839716,16.9919451137041,22.303134049085106,1
Al-Hasa_18_2013,0.5762371588686995,12.23433734433782,5.926271199206339,8.868200634416736,-14.695769883928655,-24.483458441614964,0.7824468165805589,18.994059917743403,15.807093638001,19.624154255575448,1
Al-Hasa_19_2013,1.6340002371044262,12.567296993555319,6.8956714976752105,9.47859571320923,-16.091343982332667,-25.348268758767635,-0.22159116926751632,22.57453256263282,16.656719190579093,20.298958414230714,1
Al-Hasa_1_2013,0.5879134639934968,12.234438534388064,5.946451401411925,8.870648668339754,-14.713896834567281,-24.4895814922458,0.7892704469588224,18.98805684027257,15.781954952248604,19.610831764877062,1
Al-Hasa_21_2013,0.6686917015668709,12.482440706698357,5.21120514094557,8.929163373612072,-15.641201535631062,-25.75239774474907,-0.27163716613067324,20.41914992913935,16.474219177975346,21.05043276589241,1
Al-Hasa_25_2013,1.159519204702339,12.45207194639803,6.295676579644352,8.967689661373603,-15.019458977125273,-25.087672226094448,0.01948122185491569,20.4658411255384,16.59445353098316,21.699857871778427,1
Al-Hasa_26_2013,1.4520936039876577,12.957379030890992,6.729880264502197,9.4193927396547,-16.35083231614268,-25.171244396994965,-0.48138933905674663,22.278481711800346,16.71120998861177,20.009438267011983,1
Al-Hasa_27_2013,2.5352189508371867,10.622458555115273,6.841529194022959,9.677561750341578,-16.353069082923678,-22.621247326520784,-0.7828591481378258,20.61264063895409,16.538605230711653,20.203561091049295,1
Al-Hasa_2_2013,0.5282813102885479,12.201984856988869,6.024046503591277,9.092480641440375,-15.26952740228253,-25.104094194477003,0.5418708565182551,19.88486574293132,15.907751980703894,20.12760824581884,1
Al-Hasa_3_2013,0.30603394375128523,12.323221703260058,5.66540061191134,8.878758481832328,-14.669911025863623,-24.60992151464453,0.552457713096344,19.47451655088518,16.518488775036342,20.188396453456562,1
Al-Hasa_4_2013,0.08607513621223845,12.637362339815798,6.132217503979315,8.740433514689114,-14.894598618477884,-24.55777319458534,0.5587697053967574,19.144357522718064,16.37842676672112,20.347544563764863,1
Al-Hasa_7_2013,0.7827413243680875,12.743743515331913,6.448314945164379,8.089666819405611,-14.647150112378064,-22.032687320538248,0.1910240021352078,17.623075055345094,15.692819432868568,17.79350930171981,1
Al-Hasa_8_2013,-7.403366253450327,13.14207352453753,8.418301993806576,7.015344746861838,-18.33520918270318,-16.16711380726073,-2.395373541876245,12.027332751847242,11.626385950169942,20.898331669697924,1
Buraidah_1_2013,-4.215787879150351,13.147823710726694,4.961119800343987,9.149775362346471,-5.531706712681945,-23.61259468658391,12.074342042141534,0.4074554740909462,19.43112196290151,8.248699233934474,1
Camel_Egypt_NRCE-HKU270,-83.67174065846476,22.548214036344113,70.15752203430259,-19.953691774329613,-81.50018796673024,27.05226500372717,33.01418020736493,-32.35925767097059,62.09841820770984,30.903253352334985,-1
Camel_Egypt_NRCE-HKU271,-83.13291842022119,22.831779988290233,58.151001132139555,-35.651845478239046,-94.84440435266849,17.74628789322871,47.10401058854639,-30.035998257842216,51.966446484473146,16.93553443162553,-1
D1157/15,33.780521803598624,1.3290219075202019,13.337237104189656,10.390909862961733,0.7422156750896627,13.41749118145657,23.693026379559317,4.964761964443323,31.720322727284003,-42.998507884903546,-1
D252/15,10.806240551226228,8.872486019211841,-3.8082705375004746,7.5410244118464895,-10.664417881878986,-55.751161380562664,28.796831422350632,-3.556168122857958,17.346936552560674,4.3101958862663805,-1
D2597.2/14,11.78758425430878,8.424334108811573,-3.9619578637804103,7.164111728766159,-11.202842080292761,-58.0243051995558,29.290027251885967,-3.4012603351588964,17.33420966204461,4.343727362147794,-1
D374/15,8.90311387752604,9.29369263471958,-4.2807887860764815,8.904248210360679,-11.276315576367747,-54.53335756390717,28.523391013897847,-4.007515281173244,17.173373572389227,3.6344419623282405,-1
D383/15,11.020478016897489,8.64601442177025,-5.787796158192262,8.968821881710795,-11.465301829404103,-59.71714301679707,31.160377480985865,-2.9777529020768614,17.191874181459994,3.292847887714246,-1
D389/15,9.27989377332115,9.367464424966709,-6.719799706404253,8.172322022987002,-10.167298925154132,-58.5143414606416,28.9156912011384,-6.639354633409521,19.499553345699265,5.312718542160764,-1
D998/15,38.60872886051854,85.70270048378079,-4.316547133831364,11.764440566462925,-1.1891581891991507,54.02657314960326,-4.413578567824469,-69.7251506816739,107.2922235983342,71.60746273603229,-1
Egypt_NRCE-NC163/2014,-102.89944137479145,42.5268254963135,-4.223321577733236,23.982076485269864,-96.50063168750681,10.464671660285184,-2.3489901227998558,-12.775563076575553,85.6262783717116,-6.226453035161625,-1
EMC/2012,-18.79977576994607,37.78946472537498,-15.984691352425738,-16.551343120368664,-54.80998104819992,-0.23428908444350618,-10.539053406114666,-40.72097134909622,55.78387378011779,25.498219450739338,-1
England/1/2012,8.07165476343155,14.501696703994446,1.695955093210093,-11.27161458403874,-6.9416764072505615,5.293706305953183,12.033148145546113,-5.796663014884112,27.024215564399128,-2.3037411347786043,-1
England/2/2013,3.155811923959232,16.91764596959228,-8.359401585777217,8.128421159640252,-11.04866278622305,-22.965920264756736,3.7854382279040504,4.121255716015735,17.619530641528204,12.02015089461953,1
England/3/2013,2.6466363624585236,16.885717529496596,-8.516839669221227,8.42026373710347,-11.201953011023413,-22.826602244888882,4.128683984887537,4.245137252690249,17.58980267026534,11.857654258388326,1
England/4/2013,3.7305906463367733,17.598682860093298,-9.987164651353083,8.343616353573564,-10.86550201554361,-23.289076426359124,3.7694014302662784,4.799292753976526,18.168968103804918,12.536893846189178,-1
Florida/USA-2_SaudiArabia_2014,4.453177875942818,1.8573993302864225,8.812098656650914,-1.0689393740221553,-7.133047813681155,5.7154081490694795,10.968789530227053,1.9828562981142184,24.23437998248135,-25.595394506842315,-1
Germany3/UAE-Dubai/Abu-Dhabi,18.11259469346686,8.18915557424784,23.19565800028381,-21.70696809917062,-0.7497084098835529,-49.67057924428138,-21.5711440103171,-0.4405075002095622,9.992842333261459,-16.212825266258232,-1
Hafr-Al-Batin_1_2013,-3.9410178287538993,14.38194428369708,3.4991832068812783,-2.405230230875274,5.361428120133682,-6.908912567469448,-0.49457601992898803,2.8701195383258886,-9.847437543750218,2.6577191325064313,1
Hafr-Al-Batin_2_2013,-8.578360620652717,20.631480758123978,-3.512773722107443,4.371882981178661,4.167428787263996,-12.996654588619805,15.419365213171602,9.214298997141654,-0.74013928118162,1.4357078424278076,-1
Hafr-Al-Batin_6_2013,-9.115273166612024,21.074576263376862,-3.504919880752208,4.352121276032549,4.108061791392667,-13.278993387208278,15.98234068123333,9.489564746900646,-0.010712112478438026,1.3616203127009594,-1
Indiana/USA-1_SaudiArabia_2014,-20.155252119940908,17.489658652517498,10.811983640616438,-10.019094905240923,26.424182519864328,-20.472605425662543,-7.876417458208293,4.369170938516901,17.99786856437555,0.9339906007904093,-1
Jeddah-KFH-285TA,1.8743098741148214,0.6033500265183249,1.877241605688536,-1.3745954563115437,-2.5899070469617476,5.7110673867614885,1.6932127827513752,-0.3883216628196472,6.746647083160192,-8.292713329085919,-1
Jeddah-KFH-605TD,1.7477264256784675,0.45511689484429374,1.5786810272849465,-1.3652808298433943,-2.460782046016094,5.4981897166508205,1.6407975077269095,-0.37536279082468377,6.406415087117132,-7.69778712432094,-1
Jeddah-KFH-668TD,2.026086906564541,0.8193851358218702,2.6925098539528873,-1.44379052869801,-3.2916496562494104,6.664610902794812,2.4230515738288716,-0.7278987331750726,8.933658562653639,-10.224175573402476,1
Jeddah-KFH-899NF,2.315331715892187,0.8647104948787422,13.059573265582726,-1.423743676080089,-8.101491693481513,9.196950621634311,14.037971596378119,3.736021343473451,27.83899104251844,-29.25908811838944,-1
Jeddah-KFH-949NSG1,3.1507126432701167,1.4000333252968218,11.8308278487014,-1.4032369475152684,-8.040276906197219,8.34090211393775,13.019372794399276,2.8314715374601196,26.59495904808782,-27.868474890473948,-1
Jeddah-KSA-C20860/2015,-10.651568442198858,33.12400345586887,10.863501427870629,0.7893939398810383,6.665759680015178,-3.666909391995422,-8.317684174910864,11.858992737076353,-40.110522741553005,-5.957834330241038,0
Jeddah/401/2014,-12.051229487804724,38.31940050549614,2.537483554300815,4.696430325697254,8.0592802261075,-5.886696551304694,-14.552319560694105,5.22054134857649,-39.203841939957734,-7.4857745917112135,0
Jeddah/D100/2014,-1.8285049075135071,39.592670155516956,9.73260767791209,5.504675658726008,11.944614560472651,-2.429553311236655,-8.41411753511014,6.353636329249713,-44.072018057392555,-3.411936014136621,0
Jeddah/D33b/2014,17.037452887941317,7.7657976936415665,18.51809247556723,19.998181877676334,-14.106062375067534,11.018009421741759,-2.1670729651046003,0.886268045191445,13.066511341919139,-36.700653093530285,-1
Jeddah/D34/2014,16.9633062708569,7.793798481333097,18.363811157746674,20.079665563045847,-14.125499041352498,11.01114331481214,-2.156682865565608,0.917789997731104,13.074891509366248,-36.75298959153011,-1
Jeddah/D35/2014,18.05553307962722,6.619640549829478,22.351739645410454,22.63248828247458,-16.32291503175496,10.582723811728401,-4.421931137069609,1.3945651339731153,13.35509197972162,-42.93858661834724,-1
Jeddah/D36/2014,16.848558534272254,7.890298512389803,18.073870859466428,20.191626639607495,-14.158229133606818,10.992741987309454,-2.1641731739862466,0.8077366525118409,13.096523031502047,-36.851344051203725,-1
Jeddah/D88/2014,-1.9687601521066425,39.568739843843645,9.75080529667402,5.446664682665759,11.860121054444027,-2.4440009356669012,-8.174954204035972,6.162521620200319,-44.17458588545714,-3.4955287668408728,0
Jeddah/D90/2014,-2.2948918326411905,40.3356322710551,11.567118042783969,6.1905686164888705,13.446376018751195,-2.152317082689595,-8.077481684250188,6.752580532373509,-45.403251107707575,-3.8036228268497676,0
Jeddah/D92/2014,-1.2321636285915163,39.55054933868978,11.261427524523542,4.891881047650923,11.575383848387961,-3.7018675067503226,-9.424087107961379,5.153904870476833,-45.44698347484119,-4.054718010788045,0
Jeddah/F13A/2014,11.007174465929014,34.56867400332996,15.336887792078254,-29.844078917810688,3.4506847289185987,-5.612654522178874,38.073356237048465,22.750847574817662,0.8934662741023549,-3.740398839506882,-1
Jeddah/Jd175/2015,-8.923029688337193,35.71645294461749,14.117446954513225,0.4874384614001422,3.547440133990986,-2.413504600598059,-12.816405123035086,13.050705697445986,-42.641678761464824,-2.5659919176095523,0
Jeddah/Jd199/2015,-8.896377570969156,35.681590739575114,14.265077678207666,0.0636066968421686,3.3872261406135262,-2.5193208227963586,-12.766360148548348,12.755799878713807,-42.74391065462892,-2.500137383277268,0
Jeddah/O23b/2014,-5.765996864102931,36.46748845115049,4.29141247801904,-8.43857707522827,6.009414810039028,-3.037663397010094,-8.248755895275751,11.760624334882108,-34.11526326070854,-7.698319193779718,0
Jeddah/O24/2014,-5.787087946150056,36.469949606737096,4.278282800321141,-8.429174003317808,6.009718247064084,-3.031341920049536,-8.211788733053487,11.750577213834982,-34.12280205228495,-7.7097435889552415,0
Jeddah/O30/2014,-5.872221622012757,37.228323798199675,4.0642899372145695,-9.445352916486515,5.7744281500106895,-3.091994324534018,-8.358917116211213,11.98965095195184,-34.76694727081537,-8.096858097394481,0
Jeddah/O47b/2014,-3.5913583412937986,35.38753855511734,8.297914245930654,-0.37466577109524746,5.597037879712248,-6.286129141858903,-15.156210745114613,5.430152761560231,-38.83332130035987,-3.7591620020426246,0
Jeddah/S100/2014,-4.4616015488645475,41.011274336102176,2.2098492210119125,-13.617389981101223,5.803690207338165,-4.063591163258366,-9.494324260807504,17.592776040384287,-38.74410854154954,-8.80791469535137,-1
Jeddah/S73/2014,-5.782227229035656,37.72995983158546,3.9290901010832915,-9.921558790124326,6.150382722995669,-3.1077281792736615,-7.755801317708909,13.56074743282689,-35.61356265650216,-8.44928501940562,0
Jeddah/S93/2014,-7.088330971828486,39.05818001119317,-0.9071120840599337,-4.746678378643324,8.254508011407271,-5.200313659604617,-13.427785313279491,8.457477357663919,-33.8638627676838,-9.9843454442158,0
Jeddah/S94/2014,-11.904566495263605,38.287935614644084,2.541365923836407,4.614736505608434,8.042504707595885,-6.037850583083765,-14.759677946257883,5.1765459279061865,-39.19450441322085,-7.531212784501967,0
Jeddah/S99/2014,-10.51180358766778,36.3627537373736,2.5924358684256728,6.043092677554007,5.295612723014094,-5.684661030375289,-14.576652159573698,5.260447860716385,-38.595874502400655,-7.67143528284434,0
Jeddah_C10306/KSA,3.7940847863515748,2.3318494482398546,7.761512530183579,0.32736070675686757,-7.821281788818083,6.695547566905966,11.639049622213664,2.120404290384329,24.34445488040171,-25.046773988118453,-1
Jeddah_C7149/KSA,4.969111334584182,2.0420605464823676,8.35615197440232,-0.4969163851535672,-7.678129461997966,5.975331821248858,10.342109887378827,2.076977017973875,23.690741752399493,-24.312460660760333,-1
Jeddah_C7569/KSA,5.1668431778420105,2.2532444960669764,7.899810925302033,-0.16565022955850445,-7.37094315162529,5.769308274805716,9.998179944846568,1.8940834322151763,23.118016600259324,-23.355517197928343,-1
Jeddah_C7770/KSA,4.544665301222706,-0.12717164375755316,11.579574227996183,-1.5368364979287246,-9.283988015654645,6.375443732728581,13.214706674164665,5.6953970442601385,25.885319539899264,-28.273103137938566,-1
Jeddah_C8826/KSA,4.428720421388937,1.2362552475325548,8.59370949911562,-0.179512266495564,-8.714827272547588,5.346200891429535,11.118893485119152,3.213332932128904,24.179426203870374,-24.933876799249354,-1
Jeddah_C9055/KSA,4.837927193801312,2.229535977764559,7.998683164062817,-0.3613337463347435,-7.484799760529866,6.013723113409376,10.69375505678555,1.6265611203909718,23.65846917030767,-24.462374419598028,-1
KFMC-10,-25.402711365017385,16.501650969742077,13.583283534475472,-8.932421963015512,34.8775534691473,-21.913013808939738,-5.912857383095242,10.630322671510148,20.41400624953944,-1.1238906487837403,-1
KFMC-1,-21.34122025780109,16.697768733127955,9.675763304456227,-7.292991654503264,25.989619608143613,-18.88873688149686,-5.04252393581773,6.518307425675354,16.926773616033852,-0.9381517323376719,-1
KFMC-2,-21.78370157192686,17.190462181577498,9.434825260249992,-7.924018366879295,27.44876661387863,-18.82855752799634,-5.400874866490468,6.778804600103301,17.368631026950414,-1.5665832513900582,-1
KFMC-3,-21.29506665984532,16.81433916191088,9.688391164264377,-7.68395863461094,26.534162642588495,-18.540268550578546,-5.23524750844718,6.417656081913044,16.85611688410923,-1.3623539956620643,-1
KFMC-4,-21.295363367536705,16.814386867750066,9.688490782023079,-7.683383149829746,26.534219356373203,-18.53999722134079,-5.235134725572567,6.417651669029923,16.856128585820134,-1.3623267991099117,-1
KFMC-5,-21.29488221680805,16.813901044529384,9.689567776115261,-7.683963400246223,26.53445200910425,-18.540102295790817,-5.23467518906776,6.418125088443621,16.855869274211706,-1.3622474804787819,-1
KFMC-6,-22.24364748964719,17.021580080196152,9.656771751214178,-7.696530142525218,27.25713593598627,-18.723343390328267,-5.224213599801303,6.5298967547837625,17.254029149390252,-1.61575586845688,-1
KFMC-7,-24.855418061517817,16.637180767549786,11.321783941423343,-8.50907558619966,29.835779326801923,-20.74450941414274,-5.855200899140995,9.397975237553101,18.94075379931777,-1.2217144569896465,-1
KFMC-8,-24.547776161829972,18.369370855968658,8.82539000496363,-6.634728741885178,31.071284339131577,-19.580856945446538,-6.032414224284026,7.135339781866124,19.745173179429493,-0.588894839530751,-1
KFMC-9,-21.629748044613404,16.874097749300347,9.98545869250813,-8.159445657069181,25.90305816106996,-18.76543569575353,-5.600207240804519,5.657599752830619,16.66088789169369,-1.644510903789678,-1
KFU-HKU13,7.105551741819078,15.076602574062925,6.346029009727434,24.083304543906955,-5.14655495117002,-36.73045852487675,12.400491077568958,-7.6691716772918115,20.90758186187072,9.459802066851404,1
KFU-HKU19Dam,7.176269514835265,15.098168665367647,6.302294132958969,23.926861879366182,-5.11062814051814,-36.77619302407022,12.281322706013627,-7.78608791505147,20.9845973501052,9.530089146544666,1
KFU-HKU1,7.307687687003471,14.797933468037938,7.262953890043207,23.634285587817587,-5.221296109851773,-36.93602273497605,11.710409021275082,-8.062193315374039,21.037026957966848,9.648969375521238,1
Khobar-KSA-6736/2015,2.3074939075914047,-16.225066310853542,2.491707598736307,1.391988005132918,2.3859408364884183,12.969789551898389,-5.248211479591564,10.167228083216596,-26.958991008522585,-0.552751203566394,-1
KSA-363,7.8733930030488954,18.41435562384354,9.652869580080306,13.257031048085947,-4.701304898239754,6.43845756440908,17.38392167062283,21.020331064162015,37.81803872563109,-8.263204830006307,-1
KSA-376,9.452902494259861,11.69401357389862,24.62858676089231,2.345833784857753,-12.011045796403284,-33.95528376685142,2.249020234824794,-5.12947665578309,20.04244558166978,11.505555424486971,-1
KSA-378,13.048068876485894,10.449795315061783,11.430819987303016,2.996507169592346,-7.454460206491811,7.640181180755902,5.071331713941193,1.2840260395298377,26.726655753166806,-25.163043884035005,-1
KSA-503,5.953118403907876,4.504813950697281,-7.849951237475884,7.848928506660261,-12.15624328952,-11.995295352813315,-1.101814717749677,-4.988824902845052,36.57411936066103,-29.83317279698885,-1
KSA-505,13.652870274226181,6.90173535746962,6.71031551365011,4.446556699029517,-8.040425374142714,8.368796612546442,3.6901194850582653,0.11496963415670723,27.37890904940537,-28.303465819806206,-1
Madinah_3b_2013,-7.1881781479235345,16.441591415557696,4.668907780424333,-0.2478877161900283,6.297937363762622,-6.1603338646406876,4.46904561125436,2.2548004627245084,-6.463206779108279,-0.4511386228431421,1
Makkah_C9355/KSA/Makkah,5.05198605955326,1.917314638095868,8.074884158665135,0.07346687420799933,-7.995884900797623,5.416590524436554,10.53997177967772,2.4662782380484107,23.74416083549702,-23.774088271716526,-1
Munich/AbuDhabi/2013,9.691107050777365,20.820791449060877,-7.075816990602886,-3.3168185311856377,-17.28347686970278,4.172668001997075,24.186680806240876,0.0822929782135018,27.96923913555608,5.882523540863132,-1
NRCE-HKU205,-58.76907286402194,30.980189069685185,17.089259658206505,-3.1907366546153018,-82.3815511784413,55.050092744653504,66.45431957238648,45.68024841458207,63.76369235575891,56.44759841614085,-1
Oman_2285_2013,7.851635386268457,14.231305640349122,10.104174267079152,21.125050250026767,-1.9913905313687046,-32.3476845883307,16.76878047033395,-6.329355471805736,22.23019342513129,13.30372127577838,1
Oman_2874_2013,0.6807427850840071,14.170476548535701,4.386866002418568,34.05037740101697,-4.950316616311244,-40.58866419369533,11.007650850498303,-9.415632944546868,24.739982556379132,10.713320903193594,-1
Qatar3,-3.9121629766537516,14.898402580210142,11.342857379554166,-12.877992661319688,13.884728243039579,-7.754202857086599,5.416036763692157,7.607674300525544,-13.560730000489329,8.358794129065073,-1
Qatar4,-4.014073899628465,14.850048568374364,10.361026211733538,-12.543974192558123,11.128974508614096,-7.413785220813881,5.716551570620967,7.031465797394966,-14.050162140985778,8.188627999033137,-1
Qatar_2_2014,7.578038176933091,3.215779097771957,8.910659211920965,-0.5880922004590097,-8.839057462228077,5.639145937298393,7.354175765321001,-0.9768482875112385,22.947540720379784,-21.58461326533125,-1
Riyadh-KKUH-104,-1.740092918065353,24.988433372008586,2.041389581830649,-8.48423841949291,7.913037179273243,-5.283910090968696,-5.775393078966915,2.586006858099057,-25.590247809475635,7.154939908546913,0
Riyadh-KKUH-105,-2.961761323824633,12.503238761098281,3.3091197480204446,-1.2100574680809226,0.8926393043604497,-2.6696598177653255,-0.3015203008898472,1.1441110404388346,-5.487054126836895,0.19129135330843797,1
Riyadh-KKUH-291,-21.3354606875886,16.484801084329778,11.583172098215911,-7.964419962045833,27.79088368376943,-18.680263276944963,-5.8559913396449605,6.019285107104255,17.149741776716024,-0.7996526127257012,-1
Riyadh-KKUH-368,-16.69337342991234,14.766286886929413,9.905458399660551,-5.59175708847473,21.655196649113627,-15.612817997452002,-3.7069719468173736,3.959698641710123,15.135286215465591,-1.511963107312367,-1
Riyadh-KKUH-643,-4.860191616625726,24.954785868074396,11.619439130154376,-0.5325185505523609,22.496418430897418,2.1698545386487527,18.623241938289627,1.8118539628967327,-19.237987286082337,28.53341855792639,-1
Riyadh-KKUH-665,-4.229022294172264,30.656763287545896,-3.0382537825760143,-3.384157300291645,22.606757230418513,0.5119802296067806,15.566589955226728,-1.2112809778695277,-16.917084395791015,30.56115787166031,-1
Riyadh-KKUH-90b,-21.08420017823618,16.958775961584074,12.358425072259426,-8.326336517804265,28.26699691666327,-18.520108363145308,-7.303732572187783,4.747330115253243,15.958835345699098,-0.43406171502370544,-1
Riyadh-KSA-2049/2015,33.80127117201771,6.19786780816803,5.232465955172043,9.36990410656328,-2.1561407423825267,11.494141264038714,8.738712227911659,2.610574984535959,33.30453131331338,-33.528352475435476,-1
Riyadh-KSA-2343/2015,33.84996133063346,6.195688623543594,5.275345143324472,9.241079998592475,-2.1714380161760887,11.405778193514482,8.58210178710223,2.4468658428156314,33.33810136235653,-33.55789583728842,-1
Riyadh-KSA-2345/2015,33.90052057559025,6.123881986705716,5.448756176525612,9.22104984132009,-2.153257377675321,11.429839474558241,8.590879663108742,2.572079754314286,33.328402043693536,-33.491096596123796,-1
Riyadh-KSA-2466/2015,33.83023280990395,6.218054404160846,5.22196449546025,9.269842912867713,-2.1661511506199904,11.419028237596375,8.578214213475091,2.4542894409435836,33.351139485174535,-33.55645625936735,-1
Riyadh/Ry179/2015,13.437969682187017,4.851353198895856,6.605289898093232,8.930643645908477,-13.331290794806172,8.752802223318412,-3.702744806685809,11.645253105949864,39.4598359268372,-53.14858958753595,-1
Riyadh/Ry23N/2014,5.731298410359825,31.44994517909287,5.536879954962166,-22.447426468509878,19.569030598353944,-12.0415367785146,-2.9250582542333907,1.1765757176808995,-35.48657621490289,3.213944555942796,-1
Riyadh_10_2013,-12.059576877346593,17.06083021271649,3.6152129983752106,-3.4382715192834485,5.702400987108289,-4.713035032418165,0.44052292427663725,1.0888816641876016,-11.018721412104629,1.6220825926871578,1
Riyadh_11_2013,-8.401646804261112,15.990270795064614,4.300543149774116,-3.7653203181774257,5.185840069714612,-4.5164951864959715,-2.4510044171709318,0.42351308776637453,-9.64369184501837,2.60803667886985,1
Riyadh_12_2013,-7.598458836443008,19.509959516223688,-2.8392425303500546,4.373305850292041,2.9504354990102044,-10.972915242247476,15.034899898441756,7.334906708194636,0.4993790547161349,0.667700427175721,-1
Riyadh_13_2013,-7.639993423775442,22.348987446638752,10.591592834815238,-16.045796867075452,0.9468754752787946,-8.75070930929458,-1.6737337146244335,-13.404976192812322,-7.9025530211682335,0.433173141423278,-1
Riyadh_14_2013,-4.546014815820115,20.638962338198223,8.10417676871109,-13.219049824161235,1.6022738745504033,-7.896855282272266,0.4784138835667083,-11.246791141455716,-10.346714242613364,0.6511796171830548,-1
Riyadh_17_2013,-16.37104969092934,17.261290669304014,3.8602503352199338,-4.048775345213747,5.672402362740486,-5.737264171748837,5.337153898131052,-0.7588933709005478,-14.800433821808708,2.931877266531162,-1
Riyadh_1_2012,12.22149920472208,14.060043994540772,4.373661542440131,2.1214471320152675,-5.445902323483038,-5.10217626291654,20.007494112814726,0.7645483780176453,23.85741026915728,15.752188935805275,-1
Riyadh_2014KSA_158/KSA/2014,4.6725283216539,5.943980104175653,-6.511974362129275,-4.597558385349734,-15.37511288014695,-6.757331352910012,14.872518075466415,-10.407346427033481,16.279448405973135,-22.085972677375764,-1
Riyadh_2014KSA_683/KSA/2014,-23.00248039971364,18.92838019352877,10.20658450154605,-13.091412547325502,29.978138921994255,-22.83090741830656,-10.92116355000455,3.5293803334624743,19.95199916619969,-1.005655368011333,-1
Riyadh_2_2012,1.5096398358066927,11.779190357588131,4.668846961918847,6.458777408910414,-7.007921872646293,-20.12460874406764,7.387384755357702,3.926040979637598,12.519288918389918,8.648651307361243,1
Riyadh_7_2013,-4.223124888876439,17.453431733686035,3.7403471025781525,-4.1073075500325595,6.20306260534852,-7.446043967404933,-4.733904481965249,4.493358744458314,-11.131043783355127,3.8684891457000266,1
Riyadh_8_2013,-7.761162763251529,16.82113973351305,3.6254751516896135,-4.076474551697637,5.2443952786693595,-5.489993460327137,-1.2018339245352412,0.22601109878704437,-11.161393641101839,3.2662369641203965,1
Riyadh_9_2013,-9.643921694102461,10.725280199299851,-4.0371205128008105,4.791929445778947,-20.5450462538578,-35.615658752746675,-7.621487363458351,22.462702520780663,18.888204112262603,2.2911300552659135,-1
Taif/KSA-7032/2014,-15.217893731521558,31.998324654322477,9.514748932530331,-1.2839647431275587,5.322871588284828,-9.440550845909266,-8.243201458419716,10.147593265131755,-43.56291620257637,-10.431973676874517,0
Taif/T157b/2015,-6.7183620286979675,37.808441461670846,2.1489067125935453,-0.24129761519005147,2.440305635952476,-5.1376539333863,-12.30895922200004,5.4249926787985725,-40.18012046577112,-2.0513449948046367,0
Taif/T92/2015,-16.491891769395927,21.482872724110667,-12.361823298058626,3.8305864873635187,7.484578122393945,-6.401224280768207,-2.6271212196009115,-3.3350477796199094,-40.27517810256596,-3.6525167855868044,-1
Taif_2_2013,4.797277957627181,7.859692899040209,7.954452760338548,10.289898630652132,-8.13266054392032,-23.538686290056976,11.808369183204007,-3.8899167765734353,16.883177930611403,6.18432123063295,1
UAE-FRA1_1627-2013_BAL,-5.002614207211862,9.328547352186073,17.71591631642484,16.868595066615434,-10.402676575262008,-30.81305586313235,7.616543423565678,-10.755398416765344,15.139184092624355,8.74316904534821,-1
UAE/D1209/2014,7.495901502329569,10.637401030933894,1.359675602948835,7.532139984110639,-12.013570452218346,-42.18121057283014,23.265973453899896,-6.531823402961809,12.77954072761389,5.095987291379583,1
UAE/D1243.12/2014,7.7305049524921765,6.228386979111805,10.861964879983411,1.7212789540021833,-13.660722052387259,-44.623392358399215,17.37128004262,-22.563966032928153,13.252528710035897,10.350077082176972,-1
UAE/D1339.2/2014,9.869377728600243,5.278836909842103,12.801643424471777,2.2661235823434844,-12.451256429933643,-43.44551473106125,18.152447412844417,-17.98246420969322,13.491728900782789,12.630460803424672,-1
UAE/D469-14,4.202317923199543,10.279662891179042,8.124613783462394,8.716732669047722,-9.82777035756937,-37.53603812446222,18.32923419065338,-5.920709514037246,17.033276198677903,8.604160102049125,1
UAE/D511-14,4.044591002602088,10.236208747479361,8.396556631817948,8.298340008554392,-10.465104996489858,-38.62572978111688,18.201152170408694,-7.0209344643226945,17.309761706311896,8.838829692233329,1
Jordan_10_2015,0.1254055083319853,-24.44921400862179,-15.23639138440932,-0.6988247662345879,3.662560617674938,24.66717330876741,-32.1724785224648,-4.892105960379389,-11.752300338940932,8.589724192055584,-1
ChinaGD01,-3.538981745446092,-28.879640098478593,-19.342454370861518,-3.1758618774760716,10.315298994173736,17.997456667647224,-4.2675272312286054,1.9801044997772856,-17.26617912308859,-5.178622746369546,2
D1189.1/15,15.928111806370321,-26.385455507903377,-9.06560951036442,2.823703981647805,16.559211766258514,18.034383468754125,-10.985664163503218,-4.430902608447234,-21.080030110785515,1.9169499451609473,-1
D1271/15,7.65743985460518,-21.777675851799135,-15.401323045656488,-16.23823665840032,7.983232155100371,20.179527504413343,-13.117140492332652,-2.3284584684896403,-14.953791860872919,5.50888049528078,-1
Hufuf-KSA-11002/2015,-2.740749726257406,-28.28322163134472,-19.17852520663891,-2.3870616716907547,9.223604318049295,17.46344038755919,-3.573905065234161,1.3472470267521934,-16.707321725549182,-4.599746585675692,2
Hufuf-KSA-9158/2015,9.698756959112883,-20.16072444052489,-14.365028609209755,-10.27614693250068,8.576588089021342,17.571174986254356,-9.28644099491711,-7.1351239983836825,-17.722262903894705,1.1544667793436934,-1
Jeddah-KSA-3RS2702/2015,19.339295436151858,-32.114553274658164,-6.6767248127054355,-15.296817353748079,-4.736267474714416,7.33733876880256,-23.943141549562778,-14.579008788764668,-18.139137467090816,-6.661201263876953,-1
Jeddah-KSA-C20843/2015,3.26335987745715,-20.93653384916432,-10.1489958678443,-6.101346474530888,1.7138780856527207,17.88033948616481,-10.140551200520008,0.3234605446909661,-17.85176056280309,1.0182153912921545,-1
Jeddah-KSA-C21271/2015,3.9724479907291514,-20.68700494573881,-10.423938751874417,-6.219464953396317,2.1114265843059163,17.84249676587751,-9.777660322909773,0.007792596550539685,-18.00146405519762,1.0277729317224156,-1
Jeddah/D38b/2014,1.8508165456910357,-14.460485272917836,-7.539141428793293,-1.0968693246644639,5.601031091453041,16.23250543276143,-11.588543472680389,-2.5025542250906194,-13.659811302119065,-1.457354851681411,3
Jeddah/D40/2014,3.4299294815806936,-14.420646190816278,-5.898477878725623,0.9590506734138801,6.897106062173308,17.650588840303296,-12.520364231410612,0.6257530023113957,-11.996520904909001,-2.871818350084419,-1
Jeddah/D42/2014,0.776804058325374,-22.709558684366534,-3.0785720527205807,-4.827703800012447,7.5110871212408385,17.699035263146246,-8.403979644046244,-5.202781325068896,-15.753791083101985,1.0684486214857467,3
Jeddah/D43b/2014,0.5299565284369756,-24.201197892540808,-1.4249669085624663,-5.324881696927615,8.300853436357585,18.669556961404584,-8.919313069331496,-5.69481663101002,-16.677490961553126,1.4593386743970662,3
Jeddah/D45/2014,0.776804049921416,-22.709558687163522,-3.0785720496556266,-4.827703799349726,7.511087112336638,17.699035263454906,-8.40397964722456,-5.2027813203673485,-15.753791083623263,1.0684486207998607,3
Jeddah/D46b/2014,0.5303951787360185,-24.20121574068512,-1.4247968253323127,-5.3236308638160414,8.30115452663339,18.669450904476825,-8.918906993900793,-5.695220545698233,-16.67798108353296,1.4590266074482745,3
Jeddah/D47/2014,0.7768040524877386,-22.709558686499477,-3.0785720502587313,-4.827703798969805,7.51108711474937,17.699035263470734,-8.403979646229487,-5.202781321288461,-15.753791083638824,1.0684486210385895,3
Jeddah/D48/2014,0.776804064032133,-22.70955868193866,-3.078572055770737,-4.827703804024636,7.511087127892428,17.699035263261024,-8.403979642731578,-5.202781327775593,-15.753791081150894,1.0684486229195433,3
Jeddah/D49/2014,0.7768040562807615,-22.70955868542373,-3.0785720511295307,-4.827703796482577,7.511087118188648,17.69903526306593,-8.40397964350558,-5.202781324725907,-15.753791085021282,1.0684486204252865,3
Jeddah/D50b/2014,0.7768040572859133,-22.709558684908615,-3.078572051913447,-4.827703798099265,7.511087119583008,17.69903526310451,-8.403979643621222,-5.202781325004888,-15.753791084196457,1.0684486209649144,3
Jeddah/Jd1b/2015,0.4493703054642705,-28.54355520083279,2.296562384063635,-6.8706811582203455,10.084661216867504,21.33495835175853,-7.6552497092949,-8.6737630560244,-18.484329698779938,3.807378020953187,3
Jeddah/Jd4/2015,0.44860456865721865,-28.544772130531165,2.296707509197793,-6.8756659972941225,10.087486074289412,21.332985941630554,-7.660289556022001,-8.67093351684639,-18.4806817798642,3.807531244506089,3
Jeddah/Jd6b/2015,0.44933029302784266,-28.544349018963928,2.2968634368280685,-6.875247145992239,10.087145480254492,21.334322777166967,-7.659419587707407,-8.669854794469217,-18.480720801423598,3.808442465576812,3
Jeddah/Jd7/2015,0.38086104615346067,-29.45774577923273,2.9867873665892177,-7.166259238248079,10.35858808981272,21.7761103149731,-7.580769630947467,-9.007571038578236,-18.93748097388497,4.2084269308624975,-1
Jeddah/Jd85/2015,-0.3257664630202597,-28.54486193569945,2.3977158382850448,-6.996394749467553,9.26047172569711,21.544998539999835,-7.773875988992668,-8.540685663750738,-18.480611736991605,3.6432905597420264,3
Jeddah/Jd86/2015,-0.32601564984318115,-28.548064744262426,2.4024785070160775,-6.988847449017448,9.259718482443775,21.544336653413875,-7.7767348853195095,-8.533569137447566,-18.481606561431008,3.642093440091376,3
Jeddah/Jd87/2015,-0.3263161556863424,-28.547206523797065,2.4014144027620703,-6.988921946299822,9.259844467192778,21.544443340156885,-7.775607413191285,-8.536431651655537,-18.482006163194093,3.641780882056413,3
Jeddah/Jd90/2015,-0.3257087706728106,-28.54704960371316,2.4006728009203244,-6.993655504011511,9.260471457528318,21.54460095725173,-7.776712456195989,-8.534682847141156,-18.48007867155143,3.6433148438818623,3
Jeddah/N51/2014,0.7768040545398286,-22.709558685389446,-3.0785720517538575,-4.827703801254834,7.511087117379571,17.699035263486035,-8.403979645737381,-5.202781322724342,-15.753791082694226,1.068448621655957,3
Jeddah/N62b/2014,0.6629877022837214,-23.420875264134867,-2.4085733741994364,-5.173410473331925,7.825065620387959,18.216477728366648,-8.553375366248774,-5.580056221559848,-16.18805517204781,1.3229387644957171,3
Jeddah/N68b/2014,0.776804057315861,-22.709558684679294,-3.078572052522523,-4.827703801089393,7.511087120444721,17.69903526328525,-8.403979645109061,-5.2027813237614025,-15.753791082402177,1.068448621846172,3
Jordan_1_2015,-0.9721438915629972,-24.309319200068366,-11.513552310198307,-0.029825576948160473,5.8934434254979005,23.981877039020826,-28.12583388246005,-4.5225302379251815,-11.102862548702124,5.991264279076442,-1
Kharj-KSA-2598/2015,1.2508615543540829,-22.345393639671656,-14.120231405507301,-13.060249518897818,2.249546284899153,19.251850236081445,-4.013322869030903,-14.70213742732576,-21.310878205056525,1.0032965207252589,-1
Kharj-KSA-2599/2015,-3.873342198218242,-23.594591518206595,-10.651950327013182,-11.700586469483301,-3.5308901004446094,19.55050121777826,-10.41732212326486,-5.238002371779209,-18.457382018224973,1.4445019784802529,-1
KOR/CNUH_SNU/016_06_2015,-4.051481570148193,-29.49393039207103,-20.088127651210208,-2.679009168957312,10.245719824075445,17.960722975600973,-3.114112738281588,1.9382305463540639,-16.768659903468876,-5.566932768901958,2
KOR/CNUH_SNU/023_06_2015,-4.051481517783658,-29.493930448416325,-20.088127480835453,-2.679008956402506,10.245719874311154,17.96072301489369,-3.1141125541116073,1.9382305353452365,-16.768660017254458,-5.566932786842586,2
KOR/CNUH_SNU/024_06_2015,-4.013978700125446,-29.513868746472642,-20.087339554218612,-2.5253558287868847,10.278079827504621,17.8491114023105,-3.049562833569928,1.8770356423576782,-16.730249358591106,-5.490894434060895,2
KOR/CNUH_SNU/030_06_2015,-4.051481575728798,-29.49393048910844,-20.08812746549934,-2.6790089310539345,10.245719847715947,17.960722952883167,-3.1141127358169243,1.938230622680791,-16.76865997584344,-5.5669328480480305,2
KOR/CNUH_SNU/031_06_2015,-4.056528647784686,-29.497973724844524,-20.08329469420895,-2.6685590998444386,10.243171759173721,17.94942320680339,-3.1112789252796516,1.9313469770099292,-16.766709214307266,-5.563773695769332,2
KOR/CNUH_SNU/038_06_2015,-3.35709367371695,-29.091116095993318,-20.97803330150872,-2.920525260971593,10.368581320518615,17.472791890515243,-3.7826029753167387,1.406552743458463,-16.656034460822372,-5.648880042031219,2
KOR/CNUH_SNU/054_06_2015,-4.940939542272009,-30.993323468207002,-21.2176287400513,-2.1972960153352035,11.18255174389274,18.219096369793956,-2.8848779342402473,1.3261115639382965,-17.476196611243598,-6.941615921278519,2
KOR/CNUH_SNU/082_06_2015,-4.183296628412663,-29.970951557708688,-21.12222458639797,-3.3782100499918775,10.66899380967184,18.349566395814765,-2.7639106892764453,1.7794862433263003,-17.01694222374126,-5.779790879207632,2
KOR/CNUH_SNU/085_06_2015,-4.051481571609667,-29.493930422457197,-20.088127578318613,-2.6790090510175273,10.24571982091211,17.960722967366753,-3.114112675482888,1.9382305063651488,-16.768659970955163,-5.566932811743943,2
KOR/CNUH_SNU/110_06_2015,-4.509988593739355,-30.43660574920565,-20.546264359856277,-2.721484338701882,10.401004216828762,18.253447920083005,-2.859488714176655,2.3383687801567006,-17.149584457993093,-5.743820241999261,2
KOR/CNUH_SNU/122_06_2015,-2.85758359171657,-29.15887025935219,-20.527047281896067,-2.1137484659162533,11.013744126897448,17.907309524413616,-3.441719587939592,2.061957471142421,-16.65945174278194,-5.364423115256739,2
KOR/CNUH_SNU/148_06_2015,-4.187097807422195,-29.969110363931943,-21.123746660912843,-3.373436059880121,10.665880222795286,18.35087917355748,-2.761233480431303,1.7726376829857275,-17.019170162207192,-5.780712447714442,2
KOR/CNUH_SNU/172_06_2015,-4.049070292370147,-29.493071899929607,-20.079379638471593,-2.680648160627192,10.241287090584663,17.966616791410583,-3.1083380132514766,1.9429677249423343,-16.75733895405612,-5.583680007784299,2
KOR/KNIH/002_05_2015,-7.061988883754333,-30.160769405217323,-22.644459283785785,-2.9403841594081843,9.413769233911243,12.386177617161175,-2.1738865934802845,6.374666207985531,-12.891901580647875,-3.8486716923676627,2
KOR/Seoul/014-2015,-4.522424745890037,-28.935313853702315,-20.24891960308183,-2.409569823468189,10.899724696930555,17.96111915213543,-2.40514040710894,2.352409597829718,-16.03544970633469,-6.589337546903401,2
KOR/Seoul/050-1-2015,-2.853254757631353,-29.15648388428261,-20.53117076692084,-2.140131230073599,11.058102723808485,17.909399582890423,-3.4140576546149712,1.999955345910748,-16.68921482589136,-5.373300192375469,2
KOR/Seoul/066-2015,-2.8534349402136203,-29.156122027797455,-20.53110722450458,-2.1382221614088888,11.05847140077102,17.909305562551655,-3.4111898244016534,1.9957585631447312,-16.690828411206702,-5.37397851397102,2
KOR/Seoul/077-2-2015,-4.495129986420449,-30.41807803565773,-20.563705938293943,-2.759971170455506,10.437275192165824,18.299712999015654,-2.827197362359512,2.3007589451707027,-17.130313045026835,-5.724550308873417,2
KOR/Seoul/080-3-2015,-2.356945006501404,-29.65019647848878,-21.60383825405751,-2.3089218752544243,12.040810691880218,18.12636086165994,-3.2292525066582125,2.0937472813796374,-16.952246186531113,-5.5536722660535345,2
KOR/Seoul/162-1-2015,-4.508554713249489,-30.440522154713655,-20.54591684596369,-2.7338362204095867,10.429765834749693,18.25725065663103,-2.8471315332753244,2.3045126838187673,-17.17563817432845,-5.750131337360229,2
KOR/Seoul/169-2015,-4.555367008697269,-31.907004090255132,-21.85553507197271,-3.3448071155081154,11.615719046852558,18.909675108990015,-1.8517159173060356,2.5902494865169663,-17.900268509091312,-6.216472880719041,2
KOR/Seoul/177-3-2015,-4.50854832197756,-30.440523303377304,-20.545907830504902,-2.7338261750993524,10.42977419551409,18.25725512501887,-2.8471102476129246,2.304503527338037,-17.17564597899001,-5.7501293392700665,2
KOREA/Seoul/014-1-2015,-4.5406016276440075,-30.218333653732245,-20.669070324860048,-2.4333045634148482,10.034942125102406,17.728057764023188,-2.8758722043811193,2.4903168702069975,-16.88215803464414,-5.47186086973309,2
KOREA/Seoul/035-1-2015,-5.4106003740130815,-31.9807212548076,-21.9963744101452,-2.447621570224466,10.148456765953394,18.167640654715623,-2.4904577404426638,3.1609434028249876,-17.57117686941152,-5.763154705703377,2
KOREA/Seoul/163-1-2015,-4.305929518915537,-30.54119681714389,-22.580024670686083,-0.6777034716722048,8.346043682811525,17.601607379861054,-2.9399629204932083,2.334978532274239,-18.067460274885175,-5.483153883809988,2
KOREA/Seoul/168-1-2015,-2.4496997184705407,-31.070788545698658,-23.228316422879953,-0.09994388296811389,12.00984613452278,18.180167618830417,-2.735361333439125,3.201384745168362,-17.461865500071887,-5.218426004060879,2
Korea/Seoul/SNU1-035/2015,-5.352634980798124,-32.10849072004842,-21.869542359225495,-2.9135659826133233,10.690198057803302,18.800259577730603,-2.399527453769909,2.783673109876234,-17.87619238681423,-6.16176398254247,2
Najran-KSA-C20915/2015,2.6759741096123797,-20.909236092995418,-10.066699373540791,-4.094932431094153,3.6866572873452745,15.994938124842603,-9.792420059016518,0.5666878507344396,-15.283837752849044,0.5824327004596074,3
Riyadh-KSA-16077/2015,3.5601779361300863,-28.037796263839045,-4.337980437917378,-0.31846388301237116,-2.8759371696131395,25.46529874964433,-10.84539539914406,6.08066973914405,-22.033386505360525,4.444097296691923,-1
Riyadh-KSA-16098/2015,1.6174699191164266,-26.01590654148423,-11.673555502129485,3.5555536498634766,11.388802790691226,25.807185053270306,-31.11642092630492,-7.232976580814633,-10.967980713623495,6.759708131145927,-1
Riyadh-KSA-16117/2015,-0.32218815066138345,-27.076452975642393,-9.660552364269655,4.408410639234547,9.723376349739274,26.303644886177967,-31.17220999563635,-5.557230510352609,-11.554445175139445,6.860329986832024,-1
Riyadh-KSA-16120/2015,-0.22957892732542393,-26.46838987672319,-9.846178996096699,3.727535346865659,9.65951314348664,25.582083394946764,-30.52883980728182,-5.88452680945312,-11.47211973781716,6.24025717482199,-1
Riyadh-KSA-16121/2015,-4.600176552404405,-25.623039653897187,-12.874396262499765,-0.7078723950033013,9.75661287116216,23.810058196828187,-29.341930996399483,-5.753930592059962,-9.617724544598452,2.5611817835703,-1
Riyadh-KSA-2716/2015,6.960349674555726,-8.680608964446632,-15.817486490503398,-4.091710176934728,14.693240532431343,8.86095579844908,-9.388378543973312,-13.99005464565532,-26.178464495313058,14.505842510586383,-1
Riyadh-KSA-3065/2015,-5.260945693739684,-18.60181871511015,-7.030100098792202,-6.11411885153528,-0.6783517835790417,15.85770299815841,-9.357537875987633,-2.24515794445001,-13.958617967978585,0.7040910370091776,-1
Riyadh-KSA-3181/2015,1.901420829852019,-18.807858393815447,-10.016845008809653,-0.993950234270723,5.603189906735376,18.154813230697556,-12.794779572085211,-6.80113664575511,-14.280254676473191,-0.23243901056052044,3
Riyadh/Ry136/2015,12.216775209077895,-22.379679855731187,-9.699799418368206,-3.1001146880793153,7.644919092733318,23.831586317670354,-8.57654484704069,2.3845161180397305,-18.34073403615611,6.055991617560512,-1
Riyadh/Ry137/2015,2.965197806439166,-26.593389292542373,11.08252737011293,8.713921267918204,-0.043390452701155546,13.202101665727676,-4.555393710893138,-18.34308992887613,-2.327636149146714,-17.274735376795107,-1
Riyadh/Ry159b/2015,-2.0348166091432485,-24.835799110754746,-15.601317836064025,-2.719031819309806,8.529670586921478,16.456391763353302,-4.8793504766368905,0.3568500470805694,-14.877350399018146,-4.013826804827933,2
Riyadh/Ry162/2015,13.987951431023887,-23.653135661914714,-3.794739609302073,4.773252931036245,-1.4628367064852976,22.8709134215935,-6.131198509390874,1.954169819941614,-14.646872811100266,2.3475593284110383,-1
Riyadh/Ry173/2015,7.6071269869212665,-22.119297520849756,-9.501310890605511,-11.394737940665657,-1.6851880591158919,4.243274898362117,-11.616768341157961,-7.816356997492511,-15.733480013120253,-5.520864520681448,-1
Riyadh/Ry177/2015,8.035909647151948,-20.821982090652696,-7.009595345779303,-8.848612930526073,1.107154895467345,5.510716281975541,-12.534021267268798,-7.780793202658785,-13.642936957021636,-4.138835371491213,-1
Riyadh/Ry178/2015,7.955552934907824,-19.998985300030494,-6.46078689207228,-8.269927964056107,0.880851919093433,5.495019189832457,-12.480736809770084,-7.248529382930758,-13.347157108212592,-4.615255672407611,-1
Riyadh/Ry63/2015,13.1624859577779,-22.881133192655824,-9.674187472017246,-3.061871090418981,8.219464306372943,24.521613264758393,-8.502709287170395,2.5959500481551334,-18.709539697254886,6.695930484259557,-1
Riyadh/Ry64/2015,13.085931039242517,-22.957423934121113,-9.520827910557147,-2.8410994861327614,8.150543342851176,24.554708600566148,-8.488823917167855,2.7052915022305366,-18.772799201162574,6.669141333881826,-1
Riyadh/Ry79/2015,4.137981949562082,-19.486098974620912,-6.776548253208819,-1.9922170478492007,-6.49023549749464,20.99816560147277,-4.37140808704698,0.010511833002759296,-23.845878876525468,-1.3869885219409026,-1
Riyadh/Ry84N/2014,10.432902514089443,-11.607298100347977,-0.3138059706851264,-5.970005695803454,15.917039708991346,23.60889789117311,-3.1638941310234534,5.320650367681308,-9.9416306913974,4.357647051191757,-1
Riyadh/Ry86/2015,2.8181117282137875,-27.934744021878767,11.410156691980388,10.016438114927029,0.8233406555077424,13.33715803512974,-4.845365167902536,-22.613652680818966,-2.726622036853477,-19.10339295477404,-1
Riyadh_KKUH_0734,0.1700365561622212,-17.76323309256089,-13.976148962643196,2.7554048112132548,5.47401915378916,22.36863386829369,-11.321079450660134,-11.698409306551596,-12.925788359621226,0.42951249165165656,-1
Riyadh_KKUH_0755,1.5263721141078244,-15.503560087809369,-7.102024130650363,-0.4735201410287839,2.7444811005975547,14.869757900955857,-6.29582409252229,-4.0510574784832105,-5.572012965569422,-0.36299563416225955,-1
Riyadh_KKUH_0756,2.8092742313248094,-17.626690423397246,-9.715361653285637,1.7692965151923035,3.5967424480833814,17.669112339117255,-7.8873339969388825,-6.406147219735624,-7.425085545988655,-0.6609339727727438,-1
Riyadh_KKUH_0780,0.6073947371676224,-19.850375973209594,-16.090115205705075,3.4491099476465346,5.8112950565844725,25.953227898146107,-11.56975984907445,-15.422178461814905,-14.48725586045871,1.3308479858333941,-1
Riyadh_KKUH_0801,0.9351702230166223,-13.818380633365758,-6.208445073037929,-0.06995827780900712,1.8762822898387792,14.720993144488553,-5.24735460790439,-4.62200639045127,-4.663080006281914,-0.9418952232654078,-1
Riyadh_KKUH_0818,0.15232501864185946,-12.459101199964504,-5.57274429076711,-1.6162281951094553,1.1954732960417573,11.1980827980727,-4.317181615668216,-3.651497758296626,-4.81873007949353,-0.9217733608260977,-1
Riyadh_KKUH_0826,2.7082654671903303,-17.668775838043143,-10.7261156122703,3.1570562937135103,3.7438512625014297,19.52595287001249,-8.403110440650481,-8.193246806637523,-6.567171351744848,-0.11876952413005054,-1
Riyadh_KKUH_0939,1.3037635746891134,-12.388176261673443,-5.393930844554485,-0.8620524736131929,1.988358772354573,11.220774033221074,-3.916134974854822,-3.0175821156165417,-5.170445417178528,-1.1315111801101811,-1
Riyadh_KKUH_0944,2.03867253996355,-17.934897878799276,-14.411069966414441,4.920252739827574,4.108784822964947,23.20062579122083,-9.823123351527716,-11.827711905730094,-9.813698541905415,1.700723835461854,-1
Riyadh_KKUH_1066,0.4446012219785892,-19.85582851614296,-16.056206839235966,3.564435735785616,5.730379870179801,25.910559493630444,-11.89352049718725,-15.242665498636477,-14.385406597692661,1.380023922339697,-1
Riyadh_KKUH_1080,-1.2609989898596565,-19.466937381908824,-11.106285269585523,-2.313393047848395,0.7566182221857471,24.103951241623555,-9.561941441535714,-9.374622042967706,-11.064444235992633,0.2768080854573572,-1
Riyadh_KKUH_1145,0.5881490944406076,-18.34441959531678,-16.545731826231023,3.4655651314505396,5.228625588326027,25.023346266789282,-12.186858850868765,-16.16026164871175,-13.943786302950832,0.8044843176685365,-1
Riyadh_KKUH_1217,1.421230248837909,-13.715709616108333,-6.684782586698075,-0.6532503472610642,1.996422932282851,15.459334626333717,-4.994900419964479,-4.685897722913757,-5.454253476008306,-2.057026007788697,-1
Riyadh_KKUH_1461,1.0886165772109848,-13.769695180419403,-6.8458482933192,0.9427279293412493,1.4960567792644222,13.926754711541637,-4.454936784665488,-5.347319299365282,-6.33153480885274,0.6942766905321973,-1
Riyadh_KKUH_1470,0.5997930577637526,-19.566832283239226,-15.023059989333698,3.229234526678703,5.535823884411115,24.320801220982826,-11.851857123457284,-12.99301916336965,-13.717046908562237,1.0636472097342111,-1
Riyadh_KKUH_1522,0.9136960962179455,-10.624171562002916,-4.772059925325226,-1.0184117167576079,2.1039796873172576,10.853511114964085,-4.281990752844809,-2.6927219103848885,-6.6780554209684055,-1.2777378324376616,-1
Riyadh_KSA_2959_2015,0.6765006665598775,-19.26571554617039,-13.477839482205493,1.6391738084972003,5.475982405945073,21.721556151293253,-11.272879619133311,-10.39116711311465,-13.453423308984497,0.24457678421906862,-1
Riyadh_KSA_4050_2015,9.477838346706301,-22.661970776092858,-9.319636586910514,-4.594179038717604,3.7522770511326917,24.828675476133316,-8.642269906344033,3.886968299164594,-18.632330734032433,6.783285154138961,-1
Taif/T150/2015,-0.18512297830641594,-16.406436342296015,-3.9163432511691934,6.230535553019362,3.965061164529645,22.088655531779324,-17.691187536313148,0.6533931135920705,-15.8363466180638,-2.246063834772796,-1
Taif/T16/2015,11.831640280348301,-26.829911113549727,-6.211851659985833,-9.062720913191814,-2.8492980449014498,8.528091880484135,-20.122220378801174,-10.777961252398494,-14.907562076501879,-8.699264946058518,-1
Taif/T22/2015,11.82619160517168,-26.82743966423091,-6.2170025354332195,-9.060264060168603,-2.8499537771884276,8.527245817582953,-20.12266506690419,-10.786969068200035,-14.907269617618988,-8.701488816053516,-1
Taif/T3/2015,12.17042506033773,-27.60258744196747,-6.182291141275496,-9.540379286569701,-3.235501966480958,8.313527775633517,-20.8499326900523,-11.119606980958283,-15.309566982915777,-8.966552409060775,-1
Taif/T68/2015,11.150897133477752,-25.434937252517102,-6.225227433510206,-8.180426619250293,-1.9519876881375993,8.805743108851317,-18.631427199775327,-9.946048129007021,-14.207554389303525,-8.182470730904162,-1
Taif/T7/2015,12.192454323323583,-27.609273702188574,-6.165587236371226,-9.53704495809222,-3.2400988567460587,8.317972273954263,-20.842760870636596,-11.095323238512824,-15.318147761167737,-8.959359727662733,-1
Taif/T89/2015,11.144732628044562,-25.43698126148018,-6.223494373797663,-8.18358143257421,-1.955972741625854,8.805580282066723,-18.63447064523532,-9.941016348522496,-14.20605374832799,-8.182919691524818,-1
Taif/T91b/2015,11.154075283969243,-25.43230705578127,-6.2287696134275405,-8.18246928850466,-1.949643202302032,8.806410180004724,-18.6302449353093,-9.949556937610806,-14.206759973612812,-8.18138301258148,-1
Taif/T98/2015,-8.897559603722225,-7.791291163010319,-8.3675483211671,0.1922944125897891,3.5031077117420946,5.659518548819122,-13.763000162028215,-3.7360140376822413,-34.71304490880379,6.611065750304285,-1
THA/CU/17_06_2015,8.821549956656767,-31.03895443846851,-8.814131399893686,-21.937041535065894,1.419884595226914,27.705450637751888,-15.28045261297066,12.864919961449202,-12.261977259203526,7.37071020038114,-1
Jordan-N3/2012,-11.107886091177239,41.51431448178768,-0.5889504213179888,3.470041750978701,-61.402542705546864,32.37382334155054,34.34030699496281,-47.55883891532668,32.73512551303079,34.16008489740682,-1
Al-Hasa_23_2013,1.1269439632774536,4.992253913118822,3.010779057855813,4.073442660748399,-4.748636289413774,-9.620908234316321,3.174233091410117,1.5085748687464975,7.046224867610248,5.708040553574819,1
Al-Hasa_28_2013,-1.0656703406013965,5.3125068847053605,3.2422469860867813,4.63544507129425,-7.252818399374441,-12.534340101446709,1.1725144435024413,6.729005119831022,9.01293098626723,11.449976553623742,1
Asir_2_2013,-0.055055083069202024,5.931243988010795,4.733157285734011,5.358556451861494,-5.0585827118960935,-13.022666934605931,7.713876958446241,-2.8444071073007056,12.950396302016111,4.748302525642378,-1
Hafr-Al-Batin_4_2013,-0.8131063958134802,5.307301041675171,1.9916701709708917,2.079811173143395,-1.670865145799382,-7.007190429401851,3.2885145105998213,0.7998191443376952,2.496843738109424,2.8376371994491327,1
Hafr-Al-Batin_5_2013,-2.473122249345798,5.892736568234177,1.5246599858235415,1.0800633464325498,1.2721426304413463,-5.8278727749333585,1.8317476002399795,0.9086225440586563,-0.6720384619441061,2.8410087997478692,1
Riyadh_6_2013,-1.1071763310531084,6.861851494061507,2.3588153501006595,0.11265276518381341,0.959057377124838,-4.559855687203103,0.5590863397774254,0.6818667298633646,-2.35311626614155,1.6930548368094085,1
