strain,mds1,mds2,mds3,mds4,mds5,mds6,mds7,mds8,mds9,mds10,mds_label
A/Sydney/19/2018,-6.3334621587371345,13.984594212937447,3.3620084536406196,18.931056355925726,2.096447400498673,-22.737685997770086,-12.17908976261154,-29.064013830409685,10.234008525585795,22.749829420085785,-1
A/Italy/7413/2018,-5.932563002437949,11.992126247123409,-1.4076517582325867,10.939357693633156,4.883420027258873,-21.337588594565634,-11.811965869607889,-26.51309315029677,7.0397253453387965,22.018264673897225,-1
A/Homosapien/China/LS203/2018,-5.747683747492465,9.265401088108277,-0.3744842148367223,11.633560031754863,7.468774178918093,-25.975118311374437,-16.806005523569354,-25.848647825584752,4.462787617455537,23.58074276373286,-1
A/SouthKorea/7184/2018,-3.199120578285993,12.068310156925332,1.3232274656605147,15.949101835334496,7.775646394982518,-24.718230031300173,-15.132960184730718,-33.21921006923749,3.753093568053182,24.320518145778433,-1
A/Alaska/46/2018,9.156584696657278,7.295105360705038,9.281520220496343,-11.20052090743766,-13.446436318742295,2.8415290370308397,-16.90599203433027,-2.8356794931380866,2.587910519344898,6.4508965964933065,1
A/Brisbane/10/2018,9.006738936303133,8.812968081959324,9.759138428253618,-10.130029575070768,-12.880276035943202,2.106657972731647,-17.590265392125843,-2.1733143132157577,2.2999661461983023,9.25949192257179,1
A/Newcastle/22/2018,9.157595091992714,7.418578024671671,7.2790210651914835,-12.466184748410793,-13.277916572506053,2.6029985522666794,-17.059398537440163,-2.9510209995602525,2.6041422299685903,6.354035945681247,1
A/Brisbane/23/2018,9.438277710284225,8.304461004107255,7.994769924165841,-11.987490126176354,-13.152271307939316,3.316975303663232,-16.445879136351977,-2.6732679218271445,1.9804420366514754,6.958727873205016,1
A/Newcastle/7/2018,10.455550110300846,6.10962978186886,8.498675331726833,-11.30192626588116,-16.9632013063886,1.5927018555155554,-18.098254585295358,-2.6077846682576173,1.8428523525553422,7.361421479061419,1
A/Victoria/2036/2018,9.004490445543366,9.595326862918823,7.514067400330698,-12.532996983460945,-14.80229353624496,4.696521273728906,-16.37257151752817,-2.3044745129899367,1.7483364034271067,7.102346629036118,1
A/Victoria/901/2018,10.853602859854169,12.47672743061401,4.533177989277877,-16.4334827201816,-15.577145880568706,8.028458529387906,-18.5789375409465,-1.1882398869810797,1.914496823828366,7.866748033233833,1
A/SouthAustralia/11/2018,7.832107661993236,9.585046023041913,8.171843933599394,-7.190877813341365,-14.236901122999935,4.375497972536466,-14.38241701277617,-9.373046829841407,3.7393544690624974,8.47262431123598,1
A/Brisbane/55/2018,10.576690235265582,6.895841910092484,6.076606486514434,-10.375501263023779,-10.042842015940947,2.255594188857152,-15.18840872423418,-8.742899953867155,3.2476761346617082,8.54765940340602,1
A/Hawaii/65/2018,15.955770814483328,5.828998979498706,10.664029092409644,-11.088799347595687,-20.830713830301335,2.6117888796508866,-18.90857993897952,-2.6836056273963806,3.9447560173596656,5.518000771992883,1
A/Sydney/1038/2018,16.185466532742783,5.785144485982121,10.701584592470516,-10.933126374223502,-20.366402572132326,2.019975196352574,-19.378533295298546,-2.915738423898386,4.231831437771512,5.51968105178199,1
A/Wisconsin/497/2018,16.23268614086354,5.215915260886738,9.897582634312101,-11.689069981708787,-22.048663539767844,1.8823853860571065,-19.8738721603349,-3.0238192136858064,4.109531990360747,5.715468542856501,1
A/Brisbane/57/2018,10.116989604462297,6.845642504030107,7.77530429278283,-11.14250618441273,-12.110908833821739,5.198179458537483,-17.50110135106999,-1.7195337820961418,4.774355584205037,8.632202676329563,1
A/Brisbane/36/2018,9.655947614793332,6.074517053915856,9.258061975686008,-12.784630998664957,-13.415759853470549,2.269649796435497,-17.18485698643093,-1.4008058963486305,1.7126423503259267,7.946196261547677,1
A/Brisbane/40/2018,10.07574310064931,7.82706236248882,6.613749254798707,-11.608309080627677,-14.639083059908508,2.9657026817675134,-17.16413183128534,-2.626368335733211,1.6639080138794375,9.086565887980981,1
A/Michigan/77/2018,6.399523687925689,12.605500444798437,13.613968585623322,-8.4098909521775,-18.89835017004914,5.850144025110728,-23.50461043797081,-1.1553324028250438,3.099616250879398,8.051139827791827,1
A/Victoria/2020/2018,8.562513662347666,8.33919663327676,7.501319765593561,-15.26970259938444,-12.950244671750779,2.300952572513712,-23.337609018475305,-1.6851622110613498,4.332899437213512,4.565432848135278,1
A/Brisbane/17/2018,10.00769905437575,8.685545397103317,7.913418132575521,-14.172367863329272,-15.127198138633512,3.3007163616711757,-14.199958602756643,-1.3849942772856014,3.7598568543185413,8.886958313126131,1
A/Florida/55/2018,13.082848359453402,10.078923918463786,2.383985595222603,-13.962571204139191,-7.728497071324017,4.202286086420059,-21.708759294051198,-7.724576405977754,6.610971765252794,9.394870616841002,1
A/Hawaii/43/2018,7.21245147592284,10.912868473084043,5.933794535208713,-13.344090510432775,-14.347419511445898,4.016528729445996,-20.84004532001042,-2.0050941385801644,3.248241788007656,7.577960363666314,1
A/Connecticut/32/2018,8.255969641064588,10.332145778747176,6.156815447097187,-12.911502136201973,-12.862937154516947,6.17668314373608,-13.36626502682775,-9.091853146889797,3.1729010353120017,5.014176526261358,1
A/SouthAustralia/13/2018,10.138575257891215,9.608122381908489,3.1521202841386575,-15.977765583087471,-10.270949967707205,9.903306429536885,-11.357394156736515,-12.115643024414387,-3.6306630918136076,10.422600496193235,1
A/Sydney/93/2018,8.256559087671192,5.426329702335954,10.408567674676043,-13.924572155590456,-12.823485682396528,7.679132390683873,-16.7046583448459,-9.316119811144398,-9.570410973586212,12.414869177560265,1
A/SouthAustralia/97/2018,6.38303397009709,9.996647496649798,10.294376439108635,-14.73330280580768,-13.488021887295508,11.387691526500298,-19.84114311408698,-7.69247097135449,-9.672474875787794,13.681497141751787,1
A/Brisbane/1000/2018,12.654364931764784,5.375602624159555,14.95393995208585,-8.82863527685597,-10.852678477072859,8.224778431964873,-10.617944674412321,-11.605704795322586,-3.767446726666745,5.124977903265059,1
A/Sydney/17/2018,9.69201230687284,6.285999402500648,11.372786980868044,-11.137838683104158,-8.393038950981035,7.775113627556678,-12.914378947751104,-9.240312697519023,-3.5171717322737743,4.730206054588712,1
A/Indiana/28/2018,14.697534576222376,7.620958256693378,12.621148598169725,-13.339847944276505,-10.634859318558405,12.166823562861385,-12.752765469349384,-14.79766329133208,-5.72126771743581,4.802323960246813,1
A/Brisbane/32/2018,8.716783937680164,7.554062136348187,9.643017522310611,-16.90249070691667,-13.529873945469141,2.9519284953862663,-18.396600396827555,-0.5033300789375116,1.0167614681128927,6.0924757744925815,1
A/Canberra/9/2018,14.568121635804,7.185830989746645,11.969398426181016,-14.579337510037544,-12.326681110038093,0.799382201518185,-17.753568357707113,1.1874161954978348,1.0828145105181968,11.082044687052871,1
A/NewJersey/35/2018,11.262535460404353,9.7508831671796,9.291071897507665,-12.809631586927186,-12.04121943545795,2.2583026938976847,-19.708460947403523,1.4643639645326831,2.3253641915762113,11.747384778286763,1
A/Arizona/37/2018,18.410760149281497,6.8325882522453,4.277205462978928,-11.36858246845838,-12.491847231918213,3.341984854082292,-13.919458432362285,-12.45133655154571,4.47591353854499,3.9390414366569972,1
A/Hawaii/45/2018,13.240149802322318,13.325068220238062,3.9863266240509767,-11.298841581300849,-22.567076817721976,8.227587822068774,-18.06566692207598,-3.437500415794613,1.775860977512836,12.380642326335131,1
A/NewJersey/38/2018,13.863405475634154,10.219382296347868,4.903732438848328,-12.5512631665052,-12.378427122839211,3.496962315136481,-17.438739907888895,-0.7592733592094822,1.8284799683458424,6.024221648385935,1
A/Brisbane/45/2018,-4.459645738795965,-4.731458349350367,13.876812739155097,-4.224607824617096,-9.450588933321677,0.8817788774400686,-12.536337589508403,-6.895067760998919,-7.815342546206828,18.364430385377158,1
A/Nebraska/08/2018,2.2274110111071073,-1.289888616472212,10.073537083443393,-13.119223688194008,-13.583006717498167,2.6418886541448425,-11.729328441704716,-12.101132667910974,-1.210881592447312,7.440087011107892,1
A/Ohio/22/2018,1.3845181717433621,-0.7627444045197094,10.4735079068358,-12.93707157423906,-13.909981758737578,3.048746448971783,-11.722701906614533,-12.043062565405663,-0.5210566343970261,6.939934962054995,1
A/SouthAustralia/10/2018,-1.1975123141676542,1.770895006315889,6.64518214461568,-10.162144558332523,-14.324120916385258,7.8025531484686805,-11.249089756569804,-12.292521082160748,4.071413873899775,9.673982265630169,1
A/Brisbane/73/2018,-5.179663882697093,-0.8431487507797253,8.644676009598939,-13.655270162057146,-9.673157708137749,5.161370858249247,-22.76472841606778,-14.642843002421712,-0.6699977713113975,0.474127768507028,1
A/Brisbane/85/2018,-6.716856115882135,-0.772001685964705,9.86062672778065,-13.47658696657035,-11.408007410532406,6.387534890414768,-24.026107566577824,-15.848334749108169,-1.1827508215541638,-0.35510009430549694,1
A/Brisbane/89/2018,-6.8271258648017525,-0.872900912153332,9.105150270812793,-14.002156756034532,-11.732335388548632,6.529562506003386,-23.803512893351453,-15.905973523012781,-1.595554942766534,0.048015006052871706,1
A/Newcastle/14/2018,4.178209208101923,-11.032151923462017,-14.822523847772809,-16.849464909677835,-3.3620831100035167,7.046412770808867,-17.606472476174574,-11.867673076207378,-8.183093183177025,16.868669822650492,1
A/Sydney/3/2018,5.630875162546953,-8.912281327549271,-13.244831526894071,-10.763637254193394,-13.828838667844948,7.507724586024526,-10.355027185217235,-14.092899282860422,-3.549294122538585,14.439907385323568,1
A/Florida/96/2018,14.443940298324778,15.201154922808337,7.6381876636814345,-21.967914383430383,-11.410462903740823,8.289908753997988,-30.492649729376062,2.0036229962689265,0.08476563738717133,2.621422588764631,1
A/England/7126/2018,8.038112350534346,7.092608086345977,7.68139484285832,-10.514084472364923,-10.562663816479308,3.3147692012130743,-13.5316117269708,-6.089261563148522,2.2166718833513515,6.696739150725653,1
A/England/7335/2018,10.929040552583333,10.151233975570943,7.941160425084956,-9.880929264766936,-12.828216039796699,6.290269471209486,-11.881615050146229,-8.828733552306804,2.9224342101513656,8.020144955944122,1
A/Japan/FDX70336/2018,14.073774573263929,6.29500344659337,7.02324046324956,-13.691503940049396,-7.376201871934059,1.6377327830675232,-15.202299897538362,-9.026379367742214,3.832146416218047,8.433453313059763,1
A/Spain/7259/2018,8.029852264924363,7.100263929835355,7.790196865018677,-12.191822045130955,-10.750421726252352,2.583509994396259,-12.651300360685672,-6.57479902569444,3.7005440452277814,6.412773264165648,1
A/England/7400/2018,10.411832814038286,7.520435084917481,8.660024380668828,-10.96770831949716,-13.252290093119724,2.5607654538441866,-16.539327878582487,-2.8688071140228195,2.67173205250938,7.051931936258121,1
A/Japan/NHRC_FDX70352/2018,9.966157845776934,7.5937996174294415,8.135769264349731,-11.714715818268317,-11.556296072730264,5.493803265390356,-19.0555211562002,-1.2905754152876308,6.138760007977935,7.906443420164156,1
A/Germany/7133/2018,8.972187936736008,8.252962748420352,8.480486626334578,-11.59456388635999,-12.76283248159197,2.996760735343144,-17.18420508674991,-2.7902474792940555,3.5778198360004563,6.2024765149325525,1
A/Germany/7344/2018,9.298357627822742,10.68711281322138,10.427511308979142,-12.210413291547132,-12.899058769038618,3.8568826802001395,-18.403843065137863,-2.1047588258956487,4.348336964418551,4.563131641497446,1
A/Germany/7360/2018,9.725700648201578,12.89247010663708,10.994061873637198,-12.838199585174909,-13.348711240294227,5.123567061855449,-19.814098120241983,-2.085182534473798,5.380408997479313,3.5062404626179347,1
A/California/FDX22060/2018,9.688432130711384,7.627819453964597,8.143086203493304,-11.686656142236703,-11.956974849066615,3.3365928367840536,-17.206540751911675,-2.4680439417273883,3.1291731059178702,7.193782956979541,1
A/Spain/7191/2018,9.487870892302855,7.665719235014648,7.369818545233967,-11.310582816297698,-13.821714308338068,2.85996990494114,-16.508803753280407,-3.171981542249992,2.93429950782709,7.539001908731627,1
A/SouthKorea/8204/2019,17.720690868572426,3.892473169687504,11.466988063852847,-10.959277839439068,-20.24165789157566,5.118156797197277,-20.343762380430768,-1.2059064958906567,6.808231354573363,5.832181163255835,1
A/Guam/7699/2018,20.567804536586255,5.563865941235058,10.854117192155657,-12.156068817157253,-24.287803741627,1.8997055383972987,-22.47254379249126,-2.7282115569798613,4.275747173966792,5.150194986381707,1
A/Guam/7833/2019,19.59015220283542,6.26557144656062,11.199249362156978,-11.469578868804042,-23.928928759805203,2.364972207976619,-21.307418120572358,-3.2819120865451095,4.833803493265739,4.696878911144307,1
A/Guam/7222/2018,13.630121817645348,10.556274199249174,8.762776963722942,-15.315240774968878,-12.142383465401283,-3.269393927293466,-24.019895147165073,-3.4476615002505837,2.0262307216560176,2.3476500337397987,1
A/Guam/7362/2018,9.987671799015251,9.84616232945627,7.2869846695697325,-11.057144865367011,-13.627603229435184,-0.3713803496214062,-19.171204419317895,-3.813049895421002,1.151705238815455,5.028508495028209,1
A/Germany/7402/2018,12.111251384982536,8.282778358972056,9.703837833089208,-14.539312774122202,-10.97309853338552,2.118035401857607,-17.19868953211422,-1.0252751753472555,2.4756946702645424,7.102495537789003,1
A/Italy/7152/2018,9.105365064128486,4.877095640969148,10.929242683910562,-8.025918785344459,-12.324817892743448,9.818846809165253,-15.186705924622142,-7.299781206037402,2.3707545517339845,13.303699461475086,1
A/England/7127/2018,10.090638531266963,9.826255021948816,11.359464670074411,-7.649431724071348,-14.046750352035183,6.492775683083202,-13.262654905875209,-10.13918851779599,5.381970411136606,6.067007824184861,1
A/Germany/7218/2018,11.233751142566316,6.496377520421632,10.307568665694312,-9.602597501744135,-10.309737812496325,3.247293478437352,-14.041884594155874,-8.158557511074422,3.8757347049243087,6.322004236102961,1
A/England/7014/2018,12.739538335618397,7.53534008832192,3.608152721411396,-13.70927270335272,-9.953293158203637,3.1682409088051697,-15.66735251842237,-10.806633064785535,3.525685940690003,7.255443193520579,1
A/Italy/7027/2018,11.52809294283611,6.061647905051942,12.02580075900519,-15.135849654293102,-7.579895021105373,8.711329150242358,-14.441058871086014,-10.73884987432208,-4.6216110220718996,3.0897403815352784,1
A/Spain/7044/2018,6.091345466262235,10.768282621485838,12.012842585096804,-11.700405358936878,-7.346315121219292,10.385433820619877,-16.322922593584092,-11.457041776990115,0.9689819027208156,8.003163309376752,1
A/Germany/6943/2018,10.135208995995885,11.050174060200865,9.225141511645862,-10.531165089935701,-8.063042146959168,5.302468594438156,-16.85810088037894,-9.713045373851664,6.8646259285103275,4.890364292178598,1
A/Italy/8443/2019,6.763733001742728,10.84191333124286,3.6786514852572956,-13.274116220331939,-21.3410091734001,4.447571565635245,-20.626950067644817,1.981134996185105,-0.11273077303173769,11.771398117019409,1
A/Japan/7159/2018,-5.578265720151135,-2.996524854015021,11.390780468404929,-9.160872758051616,-2.1004654895071044,0.3316823097766323,-17.38204281716619,-3.3121918788231812,-7.480438645006867,17.740250786553368,1
A/England/7211/2018,2.9889855905944653,2.882910798358087,7.97039394461662,-10.817066177298003,-8.240438496239753,1.9324548730258675,-11.457245081214138,-7.918901016476499,1.8139735419066845,8.328280248236428,1
A/Japan/FDX70344/2018,14.7341644967968,6.205332223946534,16.337446182380116,-15.068939338558819,-2.4676053497016004,6.198581680823594,-18.38167072852594,-11.81845954218383,1.6228650015849966,5.178695700106024,1
A/SouthKorea/8668/2019,7.540867908255341,12.072163204327138,10.425823681860823,-11.54359012304007,-19.34189607811434,4.037958998907175,-19.88831140378538,-1.456591295924346,11.218410897221165,6.297330093066711,1
A/Italy/9367/2019,15.374939282074294,14.437130504983749,14.023418548495027,-9.799429979749496,-13.504451404362836,8.497996304631624,-22.851112188631248,2.2663210825555717,1.674510841830818,11.919343691355706,1
A/Pernambuco/9511/2018,2.340325581894679,-2.929463123093726,12.222114807176837,-12.17103712024262,-5.9731593396540426,7.991728504464235,-13.966374442186966,-9.96606739179052,9.240909158258557,11.953960600212483,1
A/Santiago/PUC-MVL_012/2018,8.64066891023938,6.921198457943824,9.028861229980071,-11.761981556367987,-9.660219389259161,2.576899144079984,-12.808763349955592,-5.470989173067732,2.2252291190707556,7.974733813565292,1
A/Santiago/PUC-MVL_025/2018,6.010282774518799,-5.0248188202907365,15.705334740174369,-12.386338112280242,-8.218362258681163,0.4611321188980228,-19.96359118656726,-13.384366931296473,1.2168511752470919,2.757546891418452,1
A/Santiago/PUC-MVL_042/2018,4.785403795832118,-2.2536552336286855,10.485590315715935,-12.814403625705681,-6.955117839098215,0.49217549704014113,-16.81489211305288,-10.078235886101142,0.5035568364869978,5.988905717218269,1
A/Santiago/PUC-MVL_022/2018,-1.9753668990770825,0.5848101649139619,-10.276081217755621,11.444389000334672,0.14637945051251897,-3.509432212890271,6.92590795357078,2.489410407074425,-3.5669095619440268,-12.43739926620905,2
A/Santiago/p003d0/2018,-0.3670001095121202,5.309314569651311,-14.991404015793055,14.15753126888274,-1.9860298224886108,-0.7044680629130433,10.636932847338988,2.125927372517462,-4.900435926260759,-13.111679514583557,2
A/Santiago/p016d0/2018,-4.530531532950444,1.4442660819172592,-10.37419803033777,11.257146138366236,-0.5531443664020962,-2.1746864933949803,6.925295940452571,3.5763219268399773,-5.717017975861808,-10.85531333788165,2
A/Newcastle/4/2018,-2.277836148045301,-1.4834889547392127,-6.445273131533968,8.252313152690737,3.7046121508548726,-1.3035331364673695,3.9659653074496863,1.9664424449171642,-4.147195548058239,-8.136792370864505,2
A/SouthAustralia/12/2018,-3.814038628842286,-0.7335723354604938,-5.571934572980722,10.562953721227416,5.4075840556572325,-4.020239628668814,5.25776616146899,1.570148034245894,-2.6740852725135125,-9.14610435869945,2
A/Sydney/8/2018,-1.962231568445507,-2.514083137005672,-6.2464892273421,9.287547533468933,3.5685649648495854,-0.9081343998833725,3.0461449435179393,1.2090854755321172,-5.313066361891937,-7.504925913843939,2
A/Sydney/20/2018,-2.287209607446924,-2.264745953105825,-8.710159423428026,10.072669086272782,1.2919528861509055,-0.725763320385799,5.788394975826283,-3.222277112018661,-5.477440349399831,-5.374747159278036,2
A/Newcastle/19/2018,-0.967755314321145,-2.582508194125102,-11.672657873446786,10.009164157173716,-0.25411466673875066,-0.8990239287264896,12.482881053931608,-5.769937807112306,-6.175286452936744,-4.306008261462988,2
A/Florida/101/2018,-1.4562776684209326,9.182175564517308,1.842034803542359,8.008878859771611,0.21326442683763527,-1.8462859835824856,3.175523828900351,1.4489559841058162,-3.833500944049182,-10.15579238099288,2
A/Victoria/2038/2018,-0.1699530126307752,-0.538988904699689,-13.627675423131706,9.077364150840836,-1.6531940365516715,-4.80278925314954,5.7004620623442674,-0.9464338645695806,-1.4373810524560555,-12.78314360447546,2
A/SouthAustralia/179/2018,-9.138988271027692,0.6923335469488402,-11.135480523639686,8.294558529994305,0.8805956654664145,-3.4681667197324,2.727651156635634,1.6737979795837648,-4.5009851067817275,-10.819244405514528,2
A/Brisbane/64/2018,-3.455546549495964,-3.462165716491233,-7.974507130344506,12.43879549351292,-0.6075719722822822,-10.165362410343695,3.7301362296005975,7.8711311616184965,-2.45704239157606,-19.966117944961958,2
A/NewYork/40/2018,-6.296003964053044,-3.11583971181233,-5.536563176078312,14.841247611579332,7.655455321028199,-12.01626707055312,-2.784325640674709,9.198405416882364,-7.53435303788325,-16.186871792184647,2
A/NewHampshire/24/2018,-10.47446828617072,1.4166500279195973,-10.47848635434384,11.159558609344328,0.9537671715310099,2.5102863416777845,7.205523742383665,-3.9635808770433876,-11.431814805637748,-12.271231876582064,2
A/Makhachkala/84/2019,-5.047687535089827,2.2502002024076346,-18.256577346070134,1.0094992619000895,10.386266278686234,-4.366205757130219,3.6832673864637986,4.839236450871218,-11.563178367168836,-21.904330540660947,2
A/Vladimir/87/2019,-5.5672940308441765,2.193845075775536,-18.431988622506843,1.220919102613531,8.280429739448515,-3.051299667654861,5.604565258824426,4.7142950006351345,-12.010445040715366,-17.675402878661565,2
A/Minnesota/44/2019,-14.432586672889588,-1.8157059802797746,-17.901209453352575,5.974762413663302,7.623403261351235,-3.0253814957319882,0.566807815413012,10.891062896094445,-9.168411611758701,-15.089123512012456,2
A/SouthAustralia/153/2018,-7.450295087223344,-0.31587004428266174,-15.051401577820455,5.372517886945436,6.318291272918822,-5.670822053900139,0.9966695971837756,4.806153621038003,-7.062993577371583,-14.713050906329048,2
A/Townsville/23/2018,-4.151997980251492,4.7810783143781475,-10.069195996389176,21.550886086826893,-1.8521504812770702,-7.114531604609236,5.28792423522961,11.356519143960876,-1.0903567985199418,-10.463600917140047,2
A/SouthAustralia/174/2018,-10.956319191401839,-4.405027541472303,-12.514067056873259,23.85344218961004,-11.68384707093401,-2.4161435062238623,9.909613063014591,0.00464535276063139,-11.628784558119781,-5.994869353602657,2
A/Brisbane/115/2018,-8.966127077093283,-6.203647545919859,-3.005809850637292,12.542015482136133,4.136085349321905,-4.0286451417676385,1.1013705748026454,-1.1601930189598542,-7.436194365927431,-11.059743115268853,2
A/Brisbane/67/2018,-6.368341996317602,-7.262439976972068,-2.3979794893736504,11.51992058588287,4.680233557495232,-5.232917046951954,1.4125904229133053,-0.6354539061778391,-6.382238940313941,-13.119642595439936,2
A/Brisbane/13/2018,5.771789048492222,15.488958887515054,1.7379483355672845,8.95884837790262,-1.1646523519156,2.7665728060583286,-1.1271163282830596,10.742662658702255,-10.614446361530696,-2.2744652461558497,2
A/Washington/194/2018,3.078272283968395,-2.0264936543153476,-16.141376746123523,23.183221009510394,-14.006165200802377,-0.7094305965274926,13.462099859033165,1.636603987724492,-13.011058339472175,-13.52333506677118,2
A/Brisbane/104/2018,7.190050770937054,-2.0883844394943654,-8.119349590573655,14.727200490477406,7.752489871493991,-7.3766441171387305,0.4492012730040872,-0.9797967320917687,-15.136078396257425,-2.3829761088470445,2
A/SouthAustralia/161/2018,11.423528795280674,-1.6164341698919034,-8.945844107115994,17.69566373526375,7.692301012501082,-8.170271775526603,1.4546267126685735,-0.4493965284799705,-16.76890537477678,-2.7300005199814508,2
A/Hawaii/64/2018,5.717701363515862,-5.0482845382586765,-5.042454889903467,12.860567142622337,7.531382882725721,-7.249744182662979,-0.29377082314305847,4.621195472157653,-13.490512869738566,-3.9612691794453947,2
A/Hawaii/46/2018,6.3547950656555106,-2.5522898988193954,-4.99038626007261,10.580732212200852,9.268139554051258,-7.06679769236712,2.3332500281038793,-0.760387932566784,-12.818684309481037,-4.325529061360794,2
A/SouthAustralia/186/2018,8.4928296770704,-3.5859598704573785,-5.772740304872881,14.794371226693993,7.529976378887021,-8.7937174804143,0.7047138491566904,-0.489904988797164,-13.862584948544441,-4.649237183914618,2
A/NewHampshire/25/2018,5.953430970991011,-2.608797885350967,-5.631579067670856,11.974312700509996,7.950312987034198,-7.536030250726519,1.2869517874264398,0.01841280114366391,-12.88016171441422,-3.527919409355475,2
A/Sydney/100/2018,8.606938193315601,-2.2307757394827488,-7.597959284272276,9.323796474457911,11.5128349619037,-7.915201245865461,2.370031920968808,-1.1979058477040798,-15.883482745964317,-6.860545459881872,2
A/Victoria/2041/2018,10.317824354295883,-5.164980062983195,-5.301920657971339,11.720271659597739,14.417508735575932,-8.663723492046588,1.4807431567311993,-4.322358557566687,-18.16762461179839,-7.026845699362686,2
A/Hawaii/47/2018,8.555343374446744,-4.394254602490939,-7.002976944504557,13.090643576878206,9.970704168423524,-10.138648329628879,-1.804376216889552,0.4756390967226565,-14.710366971117832,-5.773130338591065,2
A/Hawaii/50/2018,6.783052568243781,0.22191848058825223,-6.774017039237729,14.937569017633034,10.615275191626289,-8.141244206086752,-2.11223592329831,6.3069706626987445,-14.384604422603708,-3.4298341340082286,2
A/Michigan/395/2018,12.224093571702895,-4.769263141794099,-4.888304246520483,12.676893398647204,10.55297959451189,-8.801887613273745,3.7553185977257573,-2.595913764667881,-16.83048063026409,-6.660325007439759,2
A/Hawaii/44/2018,5.163660228926223,-4.76317944321606,-5.258913172840667,14.657671287076413,8.52938327191734,-9.311879710900975,-1.7591806912352388,-1.3415518049348685,-14.406663807658898,-4.769831540282654,2
A/Hawaii/51/2018,8.766462707141361,-1.078346420614969,-7.882959511948041,15.984647344847607,10.41431172743947,-9.983285042688198,0.7276005667222767,6.166482042269292,-15.080116731938158,-0.27483283761837946,2
A/Moscow/119/2019,-7.827155665542828,2.005881400457312,-18.27862368998441,3.7418110630461046,6.435666142095864,-2.588442197203503,3.0620321536118995,4.167106213597897,-12.643053846791913,-16.192475285611007,2
A/Grozny/88/2019,-6.8478660703322625,1.2788697485416671,-9.592215010774138,10.364787945533807,9.182348113095724,4.741114873698642,9.688787021448759,-8.387199308750647,-9.279488488487923,-14.293149983728044,2
A/SouthKorea/7188/2018,6.046043594877768,3.11254484928812,-11.589365640234142,13.14062955635,4.4797976289052395,-0.8907369563162018,8.196039279236528,-4.96667084188766,-15.401528321894693,1.05518918370362,2
A/Busan/1343/2018,-2.64293897606002,2.7742270968203258,2.4201551815122904,9.292439719378288,6.831331825853526,-6.50730996514413,3.403502843051587,3.286556722824853,-21.719071944929507,1.7691469765684547,2
A/SouthKorea/6968/2018,-3.1302811504249264,2.9803828317200067,2.318179573883053,10.688361840360598,6.400768045007663,-5.814383517437604,1.7377572156905443,2.8709296879891064,-22.46264233242893,1.1224157482963335,2
A/SouthKorea/7182/2018,-2.740795264496596,3.028347523841761,2.3735256907698954,10.456828342401735,6.6598838430091565,-5.219887239000739,2.372000562224128,1.8313168411218905,-22.73507103676733,0.9695350317428251,2
A/Guam/7502/2018,5.379648847305602,-5.01006773213238,-5.62583372571582,12.621824422141557,7.431520118762842,-6.9950581327823995,-0.24648050728263324,4.406066811573953,-14.003045342243592,-3.4297156587014714,2
A/Incheon/1320/2018,-0.0036281935910385628,-2.5778450473419476,-9.34837434137622,12.16608020043873,2.1046098689093777,-4.043998959927119,1.2451445605410447,1.3868819849308116,-12.223127033243886,-2.2968152460649285,2
A/Bahrain/NHRC-OID_ESX0121A/2018,0.7810407813306842,1.3354871203143037,-12.267483003511165,6.470494122242199,3.1295863716216967,-1.6845825239345003,8.128693749188571,2.1649431875148735,-6.9867621740440145,-16.88820659880848,2
A/Germany/9360/2019,1.3039573281922945,1.8691704309424182,-10.579017121295845,6.617046918346966,1.8220868577104952,-1.4478561756385864,11.696216401969233,4.121615419116206,-7.892855471117972,-16.789602550178838,2
A/Germany/8914/2019,3.0178380306740116,1.8149645283178995,-11.952721347120507,7.445770505199666,4.173369494658781,1.0857071343652034,10.615528099546047,0.014516420846014427,-7.288237404510683,-19.127116130583143,2
A/Homosapien/China/LS205/2018,1.536609402820616,0.8549305492680209,-9.066582335285638,12.463613174400871,12.295256760762586,3.8696871713501375,9.173475761558933,7.739729235769368,0.976215034266294,-15.505218511876723,2
A/Germany/7025/2018,-3.009945448815465,-0.5422853616029859,-7.668078672266357,7.708271090630736,3.6970142326466324,-2.0155101584300352,5.292009339466377,2.3446574155381517,-4.841244441611875,-10.038075167728826,2
A/Guam/7145/2018,-3.1108796485571357,-0.36082002966541543,-8.656240845991823,8.358306361582166,2.803246399942529,-2.2766565057751365,5.174799348592334,2.2001555917355895,-5.188089715350244,-11.20998427642492,2
A/SouthKorea/7428/2018,-3.4771204080068436,-3.2448599342726947,-6.115275643385276,12.061432586641146,2.9454146838194166,-2.2102865077264444,2.7631173182771356,-0.25272468640219614,-5.588511456001319,-8.130298298961698,2
A/Japan/6954/2018,-3.477995263681811,0.07512466554967791,-4.913403642563196,7.995844903255103,3.358283530794051,-1.6442290345727255,4.631104695943581,2.0445339426121407,-4.751784021664338,-7.910543566560665,2
A/Germany/9056/2019,-1.1491962847285055,10.87163828068233,1.8140975441739677,8.84731888090747,0.052263613599834946,-1.1758439501664961,3.8772586325845197,1.1144310210036676,-3.990371233249006,-10.749702189065298,2
A/Belgium/8876/2019,-0.3711088929761261,15.553228681074469,9.720958451309304,12.242387511999938,2.015860017950803,1.1909215271519744,6.051138602555371,-1.0222964265054522,-6.3995596171243445,-22.236184630750294,2
A/England/8892/2019,-4.835300190417106,15.977002993662872,8.552666219171744,13.41980308498277,3.743506902471554,-2.762014693249181,-0.16650000649667662,3.39061899750714,-3.3349043089300503,-19.853126547049605,2
A/Italy/7842/2019,-3.5900469150413756,11.043402233817915,6.845096144532522,10.322344469383868,0.0698599007859064,-1.9015593955102053,3.480177641239454,2.0926141672407534,-4.1359922843965276,-15.191105349863292,2
A/Japan/8262/2019,-2.821241707584318,10.823423045880498,5.925581442224312,9.132374943036975,1.090936599165108,-2.152738865647835,3.1773405939231987,2.441286595293794,-3.788796228511383,-14.381195635321854,2
A/Germany/9344/2019,-5.794106382543469,15.439609137744178,8.945822350213547,13.729035592316583,1.7312835412907668,-2.6385123500728382,0.08826616814752011,4.334329807891949,-3.89535065760758,-19.610521534773017,2
A/England/7963/2019,-3.7453130851642205,14.22085117755933,9.03806464230169,13.020955583982275,-1.409024176410417,0.004306156022849602,4.994533149347237,2.0548795823841757,-6.300968911048831,-18.689206460117518,2
A/Germany/7220/2018,-5.927140867627004,-5.841836092751109,-9.743895465087329,11.065240729009217,-2.9418672706419597,-7.313236060958544,0.11296752099771894,2.7208628868594285,-3.6868639946551816,-5.108857025701944,2
A/SouthKorea/7186/2018,-2.2911184559119273,-4.779352899143832,-5.446929007459065,7.5866623109795785,2.305316552224566,-0.1950893044611945,4.23002257349074,1.585633650205357,-5.665601726964873,-7.611390700481569,2
A/Seoul/1287/2018,-2.493025579743424,-6.3701700373369485,-5.651649846608587,11.00463093356672,9.275803233422451,-3.2365499647274754,3.9667162544083245,-8.996865631228612,-5.934757753353012,-14.256311041107038,2
A/Italy/9065/2019,-8.945778762244885,-2.3856881281964366,-11.192214323460743,20.102260136101158,-8.063376289719782,-1.4433089261959215,4.1772243834560605,3.36931798456844,-12.330981308160602,-7.628276836306536,2
A/England/8122/2019,-6.893484534766195,1.4710937802590323,-12.60774699559914,4.880592808721308,5.742910169809291,-2.3673166035618562,4.2053739805942145,1.6108319430873665,-7.177902612301661,-11.432213658986546,2
A/Germany/9482/2019,-7.619069865010191,2.7755577803451685,-16.406479946647536,5.153094513232723,4.68732107960363,-0.8432186252343239,5.7262270128977955,-0.3667425207656876,-8.633679629740648,-11.081201603927767,2
A/England/8581/2019,-6.421173982975481,0.07222175123155526,-18.032329354968308,3.087737488050546,4.929927614092533,-3.4016839025236107,3.4394709506748877,3.3004151315163615,-12.000028870700396,-18.376281374825737,2
A/Germany/7830/2018,-12.508626200457025,1.6013112863050056,-16.16800025175416,8.009058482764342,8.416860430901526,-2.4379204294442953,-0.046039397326847656,2.879492002158115,-7.34357885457399,-15.899002425204277,2
A/Turkey/8543/2019,-5.043128293358671,0.7329414600772608,-13.275234008588777,4.309266653058871,4.679866042893299,-3.4101905663399754,1.6466350397229537,4.200936655109429,-6.634780927512465,-13.088874310283952,2
A/Germany/9669/2019,-12.416230653023497,5.804057129647784,-23.07011080294288,8.540331957795152,3.906748699373886,-2.930486707300498,2.4994814262992873,10.953886009681387,-7.449836814288311,-17.07014950403201,2
A/Germany/7345/2018,-6.9759582094171115,18.697287900043513,0.6100088653388153,20.667480772964087,0.3366418784005458,9.460984181161761,11.827947178206248,5.806695572592128,-24.69475802645704,9.103420779595247,-1
A/Germany/8918/2019,-6.884379250445926,-0.5005846947408673,-11.159027628700311,9.714449815620688,0.11339224845700928,-1.8282715828481537,1.8517048931566018,-8.682005406406484,-2.903076158815055,-16.41738649022073,2
A/California/191/2019,2.8221293798452587,-2.6786086145664876,-10.81320204633255,23.9049503993534,3.66931426131246,-10.251548740255092,8.700725218978029,-10.705885871868267,5.230303129151409,-26.107904590891923,2
A/Mississippi/41/2019,1.6417938784888533,-1.5268829357639362,-10.950096463273578,23.663831623487702,2.8926807359968087,-10.44766614731805,7.978696586642773,-7.975141698883313,6.206654417942036,-23.50414575596186,2
A/Homosapien/China/LS340/2019,3.91632752721458,-4.246003021787107,-10.868311911954248,15.948490897899754,3.1748904124186113,-7.28372664350671,13.592310062603303,-3.823647598400948,5.260748055959631,-19.43431449463624,2
A/Maine/43/2019,-10.396875906572161,-3.4215397601931072,-31.633678916787314,-0.7814616304966272,8.021430028799237,-7.188023861437387,3.4597191584592033,8.911493087772339,-5.886989927626916,-19.492978089123806,2
A/Pennsylvania/02/2020,-15.255655814730174,-4.050728045325661,-28.324761720692017,1.9559951947553171,11.643005196279423,-11.241457964822349,-3.76431408023696,12.126239248454343,-4.26620001642464,-25.937416060748543,2
A/Tennessee/21/2020,-7.616134260263161,-28.746282890982318,0.7447747263758431,16.668563444343878,1.5342915609841303,13.297469402331414,1.7252662096347313,6.382558877014818,-11.43619761038641,-16.459649851763135,2
A/Massachusetts/38/2019,-5.650455464899739,-25.32722628848912,-1.9728331315978966,10.172439710925495,2.6596171080383857,15.131983685706446,4.487918091956461,5.465041013502136,-12.646032131319767,-16.361883034599927,2
A/SouthAustralia/184/2018,-2.2734081283030005,-19.475049726034953,-2.7464701024628004,7.138047712914498,-0.46666464329513446,12.001773109661555,6.648906249005668,3.2597927154178703,-5.419573718639241,-13.187111008973579,2
A/Wisconsin/103/2018,-3.7233216885787987,-17.01811097969693,-3.9648031934260914,9.432484257976267,0.6317657888840318,10.05428427893167,4.891248113464711,5.3823228869771915,-6.5035319653651635,-10.42679221155366,2
A/SouthAustralia/26/2018,-4.451023941509363,-18.135875089326344,-3.0022037835086066,10.379438683541633,0.5023067007528182,10.310888942842661,4.757508884054032,4.943286784641135,-6.523712836235038,-11.208663752746334,2
A/Colorado/44/2019,-10.298572088984427,-27.75968428782391,-4.6643687599910875,13.33142500026831,-1.5637018020348108,20.579928511788182,5.524311068666589,6.263085921823982,-16.424309503733532,-16.307038952122493,2
A/Italy/8453/2019,-4.299049836400154,-21.589703595517236,-2.5260580271366972,15.120815232794936,-3.9819226520278663,14.180747759401461,10.999539943854545,1.4160186555999825,-3.9050564827914878,-13.645660708167034,2
A/Italy/9061/2019,-3.7644638257618013,-18.673090068583495,-2.696009231074131,10.61841397755362,0.9792380994354719,11.653977451924694,5.754808410865256,3.8894927141405278,-8.114278683942024,-11.42707467388674,2
A/SouthKorea/8203/2019,-2.3452439284762416,-21.164914199813648,-5.939575225096035,10.45439710400128,-0.1463023660319504,14.619273258358167,8.17107241225894,-0.38944762078138767,-7.755584823040038,-13.261475154659147,2
A/Italy/9363/2019,-4.462215406185284,-23.48462709753599,-1.4759143195485176,12.861321422299765,0.033551434624642655,8.281997908400973,2.0938398818164776,7.7974179170216305,-5.093103232335234,-14.862281155530026,2
A/Alaska/32/2019,-4.72616641788104,-9.150344994211489,-8.895269988135237,13.368011575650211,7.31261188775496,15.832125945492377,1.6565885771907638,7.246956139326278,2.4630438936168324,-2.1251818271331584,2
A/Florida/121/2019,-4.905827034843861,-9.039981396490498,-9.147721339404143,13.300859787812458,7.309864332254022,15.62848067520018,1.5844450355480955,7.325818182035225,2.2769575612946467,-2.1326653689470643,2
A/Indiana/35/2019,-5.647232791114288,-9.15828196536873,-9.72013595813,14.675845617787878,8.061048512304149,18.353728140586462,1.9166959911431782,6.963505205925439,2.46067479657699,-1.541573577501332,2
A/Michigan/390/2019,-5.358620476788479,-9.32139148974725,-9.35180978800342,12.048688464616035,7.521001553692259,15.120862084106843,2.197899643613986,7.805761947576021,2.962872712837714,-2.193003329308776,2
A/Idaho/30/2019,-6.409232708908412,-9.020903481805423,-9.668984706927215,16.365681967541338,7.338480291385511,18.75399832514238,1.3798894995125688,7.993377347488795,3.793275373440045,-1.947764500026817,2
A/Alaska/36/2019,-6.098071001504836,-9.680914120504081,-9.879004066137272,15.166412032160778,7.445434488308551,16.63580841018034,0.49063371136452294,9.322479803970198,3.0656007378440253,-1.3186001631592341,2
A/Colorado/36/2019,-1.5209224264586894,-10.973602696150385,-8.751024319541944,12.966790365786133,7.273077775803472,12.55401086680008,1.4766943985265262,6.7311500525968455,4.559986523478642,-2.9456335434594725,2
A/Michigan/387/2019,-4.100471480536195,-7.503083429399557,-10.544686486019941,11.516601096581258,8.124001829409341,17.45847621481265,1.6323980150659365,9.293112221053445,4.106289915999294,-4.304857264881302,2
A/Arizona/29/2019,5.7690134707098935,-13.883209226948674,-7.321739070664131,16.07659930796259,14.683463038259172,17.5044804941079,5.290862981868118,3.284204942180246,1.5657617332324858,-7.4881432216276655,2
A/Victoria/2051/2018,-2.781975430145603,-10.478282770175275,-5.975142119704525,10.982460490229787,6.807475792683274,10.900426612313483,1.0057124966487017,8.710683390808947,-0.48956033104972657,-6.286711802533775,2
A/Grozny/89/2019,-1.1507184860373203,-9.425677278482473,-7.105516127137948,10.44160879638014,7.6168954791302195,11.296911045517756,1.9346973316439342,6.085144466398957,0.8042096755825917,-6.182944049831834,2
A/Yaroslavl/82/2019,-0.23122346931427318,-9.926371749765847,-7.022002708080728,11.140572280481523,8.400927708693338,13.053029699732008,2.402251620574861,6.642925790474712,1.1943734301095656,-7.7240861629203135,2
A/Moscow/122/2019,0.22228905633174242,-9.376245172253425,-8.1630061476658,9.911453016218811,9.22598134532504,14.942307093206159,3.207945787369452,6.996268323978447,1.1213316561432485,-8.558778482089451,2
A/Moscow/121/2019,-1.7141343825442765,-10.626707930326887,-6.517810477118514,9.761629920459006,9.684307234140142,12.434718815813893,3.216289358114004,6.321476041968241,1.0126227474541203,-6.539949265054886,2
A/Utah/37/2019,-0.7929491464026326,-11.00340584578913,-7.149752889547582,14.706423274116654,7.476427091444578,16.73199202593123,3.6422444197322945,2.2315305557297713,5.806378283478756,-1.5705600365644534,2
A/Florida/85/2019,-2.1576538760111785,-9.173861080219094,-4.015584880949332,15.905168425385012,11.296358085878015,14.470073132907974,0.9470997320776735,11.783208024310031,5.169101466041401,-3.647322392481618,2
A/Delaware/38/2019,-6.746114829014169,-11.593638286366687,-11.841397440647908,11.083594429947816,11.451621591483242,16.859930020252207,-2.4634568100502934,6.330223317879436,6.360341829974388,-1.4476257050311037,2
A/Alaska/38/2019,0.061527290532781824,-6.6126812603341705,-11.661507908749774,17.214934619581353,7.660161714596143,21.40481154371898,5.7493569261795505,9.964048068209522,5.852257653975218,-0.4264017495577142,2
A/Michigan/418/2018,2.2533486889446084,-13.37088891459099,-11.744566358691511,10.100310131705358,-2.4953901306509247,10.04158156198285,6.956250592357146,17.72164260548531,-7.914586438651878,-3.695948818665622,2
A/Tomsk/243/2018,6.1103167550737,-14.862149068860386,-12.713529585222753,6.630460810102,-3.090867206285508,8.789620715625913,5.739054096888631,15.724113454090721,-4.295956879276532,-6.546709200360653,2
A/Tomsk/245/2018,6.137195521361341,-15.942961806820106,-12.169019030209316,6.372414955013,-2.3322090374912223,7.371361713597413,4.337915075257723,16.25452557933873,-3.544207899046684,-7.491483371117116,2
A/Italy/8601/2019,-1.3640301954009058,-9.360182577452303,-6.999101983113292,10.593555802378024,9.454227316652767,13.568492396842073,1.9132996798713546,6.526912493838771,0.3015675585014086,-7.34576382248435,2
A/England/8887/2019,-1.875451632500426,-10.084313299406455,-5.07184172556472,10.878502231420258,10.650204611389157,13.433621873726446,2.2635044655823906,6.445651122456569,2.0832566091361024,-8.887994981752952,2
A/Spain/8527/2019,-1.0281101337724388,-9.907184892145777,-7.3118456213593355,10.718683426935531,8.058949781809092,11.953434349649228,2.027376510134877,6.150013273651028,0.923043735228777,-6.5812733801237435,2
A/Germany/9490/2019,-0.851910523083421,-11.576047304659804,-8.00133538641721,10.416191392712333,9.911245601409236,14.192936629493609,-1.2224657088831892,3.122038174542842,2.9042021543986345,-8.583783521862719,2
A/SouthKorea/9579/2019,1.4051190637635709,-11.052520918947238,-8.446197494222963,11.03311697228102,10.164629752927318,15.314452428669966,3.462505358273741,4.041953958627282,2.146377194938515,-9.040745144292753,2
A/SouthKorea/9645/2019,0.5526849244380561,-10.777905054545549,-8.02187369706031,10.880822904238547,9.900453919224125,14.36779388357671,3.0130461139824014,4.314871715133748,1.272081534808223,-7.83622339840074,2
A/Germany/8752/2019,-1.486922886888208,-10.504159597566696,-6.76020113867246,10.957807378434627,9.368515520174586,12.785886085450025,1.471534517133074,5.646115346575739,1.113643145926843,-7.5573214724437054,2
A/Germany/9676/2019,-0.6215714698434545,-13.885028204432833,-10.490568287795538,10.795500854778718,11.905462777495414,11.319942730776948,-0.8811648611734204,6.813402354961709,0.8821175125185757,-5.263554655681207,2
A/Italy/8442/2019,-0.9195492514620428,-11.707435852509462,-10.025074526856848,9.479885545066232,10.252022922883368,11.768858316251698,0.07029340284356354,8.763450323134997,0.581121789024716,-6.480056812850259,2
A/Japan/NHRC-OID_FDX70557/2019,-1.6521202730926694,-13.595712178798527,-9.222212074734575,9.69625126269996,9.248957133415404,12.596494890339779,1.0002433330274645,6.859122818029574,-0.7530964772664531,-5.807653796094586,2
A/Japan/8261/2019,1.32791233219791,-13.023876008520434,-10.998659014659223,9.467285374621547,11.770877197479745,12.106987156393824,0.3295836212311092,7.223372760514166,1.6198950521500155,-6.9507548625537305,2
A/Spain/9580/2019,-2.3198666050643886,-8.884008439429422,-6.4083599572631265,10.08292352290232,14.242130650511257,16.240819906314073,-0.0771537671610793,6.417382756285978,1.1505827104909199,-10.817414883781511,2
A/England/8741/2019,-0.4291840268481567,-10.494602822898118,-6.965766256122084,15.91156248934611,6.951320928325285,14.640332919499649,-0.9517401556987699,6.757901956223988,8.44028784109307,-5.1226082690416375,2
A/Japan/7846/2019,-0.7859309074537528,-10.058837651903211,-8.717187572770554,13.200691443372614,6.507831066158445,13.695121006667787,2.7676251248106003,6.185133713229309,4.3474110004285205,-3.456495232946216,2
A/Germany/8917/2019,-0.9437369102794795,-9.240774931065907,-8.47417056801598,13.112174450697873,8.311425986642776,13.394347945896664,1.9283788308699277,6.533025967145787,4.341931141176648,-3.201797052842907,2
A/Guam/8597/2019,-0.38889881016190836,-9.657499857412487,-9.05769413119348,12.896267713760963,7.338948438303862,13.04483090549731,1.9230366742341942,7.79779902487747,4.410468507411149,-3.104591431775818,2
A/Japan/NHRC-OID_FDX70577/2019,-1.5213704476044647,-8.96606312354553,-7.188238718274148,10.720278747739215,6.92743144641476,11.62750867704354,1.7216443498446106,6.304634462827246,2.325790427315771,-3.985012047096495,2
A/SouthKorea/8832/2019,-1.6640951463089126,-10.114843541369485,-6.406998402723481,13.50703789948127,7.764079909419423,12.656099023118868,3.7870841070732277,8.210713214486805,6.657552198569628,-3.651677658255501,2
A/SouthKorea/8824/2019,-1.3676129749241066,-9.879638432544855,-6.648791557959362,13.357767425264772,7.534566503041281,13.006388788010947,4.219050772019245,8.03555052981477,6.653202139557461,-3.773490092714801,2
A/Germany/9343/2019,-0.7618448067081908,-11.939532354665642,-8.69058986718364,12.750329048119026,8.554466092163613,12.332028943885446,2.925336541045418,7.705828436112276,4.815496575849184,-1.2996339218486157,2
A/Japan/8142/2019,-1.5546504924194782,-9.602592379300857,-7.4648168850690215,11.042837174539699,7.096129244003559,12.5247724012424,1.7518214222225388,6.502368766012248,3.755429948462514,-3.0522416914678034,2
A/Japan/8003/2019,-1.56224397419805,-10.821345802857643,-6.837302946197424,16.29436286773138,8.843456207918313,12.965044544061424,-0.04217842033824095,10.836969246014368,3.779399448784276,-1.4105934200345966,2
A/SouthKorea/9578/2019,-0.5924626843828826,-10.701571661646566,-15.54112389961573,10.064621043978665,8.32305096386047,16.236745933922297,3.492115703043432,6.71517527239162,3.669023586257556,-2.5925587800531207,2
A/SouthKorea/9704/2019,-0.6137182980914698,-11.079515836103587,-7.4638560306386905,15.116179817971148,8.910639725396923,13.1089772693973,3.478588143202026,8.027651106665678,9.472300744779854,-4.281226086782797,2
A/Italy/9062/2019,-5.561309663090576,-12.352148016753024,-3.8333145252403757,13.580677694785937,11.082933089497379,11.029000468984806,-2.7172873624163083,8.798110936861566,0.44298898023984323,-7.75765430571047,2
A/Japan/9505/2019,-1.2318673678838645,-10.821766958136255,-5.4476972870840985,9.920026809236457,7.6157932120622185,10.115214974120176,3.0169518517814455,8.960138229130125,0.34132966162496836,-6.0010778801096665,2
A/Japan/NHRC-OID_FDX70521/2018,2.9866557852418714,-13.047885583828771,-6.107996385804353,8.798890912640989,9.707303267169511,9.478133429748908,3.568303453233556,7.590673093491636,0.6534106373853799,-3.685668121434663,2
A/Italy/8139/2019,-2.934474999042674,-13.180098507264399,-4.000655703364726,14.155488059438108,9.844901660203279,9.8557298826767,-2.696996455175063,13.294475899451283,1.9532163452373386,-8.638669881404999,2
A/Guam/9841/2019,-4.482753405574087,-6.543091397212203,-10.755442119462627,10.962790745189398,8.59518218855213,15.446181028065004,3.731629605266553,8.598093607948408,2.8466102338630535,-0.3415250543504015,2
A/Homosapien/China/LS329/2019,0.6397088015324381,-11.114644119027833,-7.1083979881512525,9.229297170485735,17.70633048203314,18.70168122967907,5.39086870946219,7.458663342033542,-1.512725053869761,-6.2816314853660495,2
A/Italy/8953/2019,2.305020485302731,-8.81147245782943,-8.554749512838002,9.86829538666256,9.07775695808419,14.640284849228594,3.2207109991415708,12.951554689910122,-1.907850774807434,-7.099955128527054,2
A/Homosapien/China/LS318/2019,-1.0368075499447433,-9.68475106061422,-3.021974659740087,10.418511130671515,11.677760656332564,15.43308277826435,6.404257007152927,7.915697772815289,-2.5039404700778336,-5.893767668121739,2
A/England/7821/2019,-2.2667957615347247,-13.172546670668185,-6.602612802652691,9.953553303848555,8.950710094305318,9.361704966191693,-2.0788757608655577,9.016019156100183,5.06250063439249,-10.951137210317292,2
A/Japan/NHRC-OID_FDX70487/2018,0.4194593012976911,-13.692112091186713,-7.744436235020274,11.477245058834063,5.853776908281201,8.725974634412859,-0.27372547375154066,10.600964284364744,5.79923777210086,-8.91476167358087,2
A/Homosapien/China/LS323/2019,9.01676968481249,-12.998836327947096,-8.99914990955203,13.946685364199615,12.901701638312986,15.3173712815093,2.707839815642188,8.877049014019732,7.731742257389341,-14.0366865106816,2
A/Guam/7834/2019,2.583436975339257,-13.923047003363084,-11.578591881079067,9.048788941999554,-2.04205748104474,8.07464806057128,4.172026638152318,16.063738211700404,-5.335317803364043,-6.663895523725591,2
A/RhodeIsland/26/2019,-0.9171147579048111,-11.73879998988256,-9.516076272346027,12.37339540190119,19.53080616549053,15.390650499827737,-3.198000076083674,16.554803739318615,1.7626864238626412,-7.79282287987641,2
A/Japan/FDX70378/2018,-2.154902268766259,22.51018196887888,-4.824625058077486,9.382489382389831,11.765609902820342,12.229793860334704,7.270991347186951,4.547347223275354,-30.752002380345406,-2.133060709326043,-1
A/Chad/9833/2019,-0.41769550237076863,6.229883470694154,-22.531846601734973,-6.052907189181731,5.7957428269340925,-12.513839414759884,-8.807767397200884,-54.89853569523072,17.435860100681527,4.702922836127372,-1
A/California/141/2019,-17.678182441002477,12.018057905617917,23.44455566271232,-27.95531131653771,4.218742144933563,-30.216014262958772,35.58531194650354,1.5152704776378099,22.807540109318936,19.03845052372477,0
A/Perth/1001/2018,-16.39200853778506,4.0591736426207,15.848524901654434,-29.363587723777545,5.215872639244768,-28.873517512176583,31.569680399313103,-1.5617985817643174,18.21301912883211,15.921015249779936,0
A/Wisconsin/92/2018,-17.825759213582575,3.0539281785776664,15.01563761607815,-33.468334190226685,5.620008223302956,-28.959776602531782,34.03418209593007,-2.230511089383181,15.300959625241058,17.600425592496237,0
A/Ohio/23/2018,-16.636997529044077,-3.873186058119575,20.724570410194715,-29.518404819759887,2.5427068788336866,-30.706009244585076,33.02820186238856,-7.35088559452177,17.182269276386172,12.249524143976098,0
A/California/142/2019,-16.152858433534917,6.771109462926408,17.095332247688074,-38.88266839074751,9.677786474815166,-32.696481540816464,30.148105178593188,2.115537295179504,22.542305152540663,10.175474312896961,0
A/England/8742/2019,-16.797748210868573,3.627924900761996,19.242364552053264,-38.09036674610096,11.117498133073973,-35.60852800365933,29.13416253261867,-0.8855886423347382,21.754505759723592,10.467980198184096,0
A/Ohio/8988/2019,-16.965306516705276,6.104712978223246,19.262811825861654,-38.246337811587075,10.20642100491591,-32.61968736600213,30.532822651505278,2.817775456612487,19.957904966926222,11.535751166328115,0
A/Belgium/9021/2019,-14.256672219858524,9.965131102263665,22.285997878099156,-31.361795143156524,5.4684557099796205,-30.327359365355136,38.926984172740895,0.3395511806884094,17.294914952820935,21.577570918347007,0
A/England/9336/2019,-17.12298403268546,11.408397745982981,20.693453191657515,-32.29070512253669,2.8990931439681495,-29.560819368954544,39.948848809208876,0.7373314293998974,17.539652458528387,21.95522162227101,0
A/Italy/9498/2019,-16.292737529669353,9.378020850760885,21.72470031315173,-31.970012059005317,5.698201814264349,-29.412688482357503,38.21911878393537,0.5700630490575282,16.37135849739966,23.14420297100365,0
A/Spain/8834/2019,-19.74789867765191,9.728171682720818,27.63024012448214,-31.12627044888478,2.334232164338865,-28.872558814779353,41.36627792960674,-0.7135558712506567,16.169427460487615,21.22939927177525,0
A/Mississippi/8282/2019,-11.15061172600279,11.933012454432976,20.744083884043693,-32.65625671399385,8.692486579372915,-26.989797107301406,42.238068764806215,-1.2530441552934783,17.952905554068867,25.395488780867748,0
A/England/9619/2019,-9.268350369832506,15.189554930377309,20.73790089187443,-33.429012922004816,10.93015411978705,-29.208675683522287,44.26631523430487,0.8994862030141259,20.18780796775146,27.46171616870159,0
A/Italy/8767/2019,-12.48317631237517,11.073533435244597,21.69823258463718,-34.13350059333769,8.24437404534588,-27.98136407531843,43.869009399415376,-2.8950174420650545,19.394646783704758,23.704566531689622,0
A/Germany/9356/2019,-18.51662414595134,15.108171575313122,21.233374397459094,-36.72714876540142,7.952160475738312,-25.170554741250047,46.0396633275257,-0.42976723636427266,18.906542486127655,27.225785586929327,0
A/Germany/9668/2019,-13.449185693573618,12.041363744174701,20.812011328698645,-35.98791868673346,6.469304819426831,-28.00429537475714,45.70773676868763,-4.739274027224534,17.05259225519567,22.40305222064551,0
A/Italy/8939/2019,-13.408950104918377,8.504930127258284,24.607685109992428,-34.32235905582475,8.942113480582906,-28.121711143651474,44.468032078622656,-4.370113894832073,16.41378569877445,25.044199304870684,0
A/Yokosuka/NHRC_OID_FDX70722/2019,-10.951884894159777,9.159133782008203,26.27146257059971,-34.527187486958546,11.368143884067663,-29.512390487676374,45.6126667403159,-5.200883251150887,19.567026016410797,23.44780496672737,0
A/Italy/9501/2019,-7.847057287203094,13.531771533533755,22.044443636684186,-36.065276847603826,7.081821508016608,-26.203157839672986,44.79389374317214,-0.868220007316852,17.643284225540896,28.14030314063252,0
A/Italy/9499/2019,-14.637351107085976,10.113454494255471,24.544004585444426,-34.971474259305666,2.1312350877722364,-29.798050458721367,38.046109053879434,2.350645550348482,14.632839558043566,22.986617610258318,0
A/Italy/8763/2019,-18.353766951026454,7.998085890874596,27.04080919307505,-30.496263550717313,8.778321927046395,-33.44308665209679,37.13249618218501,2.6715761926980064,18.372732530458272,25.5608753827101,0
A/Japan/9070/2019,-11.406302051660603,9.22656386179612,23.843210214240017,-31.795931283556882,3.564830463784224,-31.197659688086347,43.724549969743876,-2.979503318745268,19.686224817126167,19.61253973025324,0
A/Germany/9496/2019,-14.111144408769372,8.709868214151541,21.732103461692656,-33.697715889783375,9.851815215507841,-33.02616171133141,41.34883154815229,6.164913827204524,8.339267969005855,23.317352681613876,0
A/Idaho/13/2018,-22.13816299590783,-11.845121673483542,-14.074179780423208,-20.980112312547334,-25.418744982915886,-47.3393938682307,24.739188572530814,12.38119577584285,20.787012741412127,24.791718837413978,-1
A/Minnesota/40/2018,-9.828429149852717,-12.229431860487251,-6.754128716216735,-9.138808912899536,-25.506933787957692,-46.00372447755202,30.181739273008844,5.199232788288611,26.750552312961617,26.439424003528732,-1
A/Italy/8602/2019,10.957909656310044,-8.910098542669825,12.550584934933614,6.327088187254819,-9.20978567061709,-39.02327665554567,-0.22452314038511215,7.038186242216241,13.457843039762084,18.514693800024776,-1
A/Hawaii/51/2019,-30.236377436078264,23.579397990410353,-5.744596761021726,10.847403021339328,13.964953557058081,-20.975153173763328,-16.765318071145014,-24.4840915128448,8.656117250082204,29.082946158880194,-1
A/Minnesota/47/2018,-21.188223747814018,24.233702992413562,-9.62634626879686,9.517238694551345,15.320010808390027,-20.58833847349339,-13.442987415086003,-23.238290836971053,12.544723566518915,29.85582066689639,-1
A/SouthAustralia/22/2018,-17.588611328511856,-5.850607441086864,21.480982935757883,-0.292658992344109,5.482592181136826,-5.87309961926898,-18.291568245631694,6.961284195548616,-24.442811103140844,4.716342689535113,-1
