strain,pca1,pca2,pca3,pca4,pca5,pca6,pca7,pca8,pca9,pca10,pca_label
A/Sydney/19/2018,0.9239072681676797,1.5366922397201788,3.0579871254462363,2.463693195547228,6.502971511001919,0.4853147135184161,-1.1462649573218833,-0.31809189270016164,0.3157802296709055,-1.1874447384817923,-1
A/Italy/7413/2018,0.9622223308409263,1.6029408154397486,2.5524988241624635,-1.063939742239475,6.756218614363621,0.7546878847212921,-0.7582736357050582,0.20719205832543702,0.5983745923676183,-0.7671893891998222,-1
A/Homosapien/China/LS203/2018,0.9646875117786615,1.6093939859335373,2.584500151364005,-1.0660950856826799,6.912825471086956,0.7999239857982136,-0.7823568485042433,0.19062749505644264,0.630417534001668,-0.7679190163852166,-1
A/SouthKorea/7184/2018,0.9692064016013936,1.608711361499408,2.595658992971768,-1.063119012929478,6.949392877295773,0.7865875387844367,-0.735264400510537,0.2621243868518444,0.611689021438116,-0.8211127458942323,-1
A/Alaska/46/2018,4.870532529489406,-2.9715130694534415,0.7414690235403495,2.0873271862137033,-0.7055262179532219,-0.3444485355049225,-0.055781372763730235,-0.015310933607016373,-0.04477905548023979,-0.7493424034023066,1
A/Brisbane/10/2018,4.940369896111824,-2.8111975885060656,0.25849466839644225,-1.4337990849717313,-0.3705576362162392,-0.09129252855536095,0.11240155856610327,0.470239697389941,-0.09028771937760899,-0.5178308392825369,2
A/Newcastle/22/2018,4.856848455414248,-2.9619906994086835,0.7440843987998342,2.0608266973932,-0.7106619464592204,-0.3668275067983649,-0.07630696442647475,0.03677405716887357,-0.08571995247544137,-0.7873316410341311,1
A/Brisbane/23/2018,4.861043443243727,-2.962578440789436,0.7404969586437595,2.054286474494968,-0.7039855423253762,-0.34362433313444346,-0.06262885825485028,0.01657867357465832,-0.10883172089529537,-0.8070599030358744,1
A/Newcastle/7/2018,4.974129404727498,-2.7446395309344456,0.22951609814618637,-1.3854254025101445,-0.42962628337670666,-0.1102649383908772,-0.014963632070086127,0.4838539815020988,-0.07320042707292711,-0.6276453588948013,2
A/Victoria/2036/2018,4.966620872861139,-2.740738457777713,0.21293691701823877,-1.4148985462474826,-0.42683069033191495,-0.09874858311234017,-0.015854884360500626,0.45284286681294006,-0.04256047967894294,-0.636375399097129,2
A/Victoria/901/2018,4.964372101118273,-2.749281597321923,0.19061182973409682,-1.417834350836192,-0.43846879868703037,-0.09688432224288818,0.03941039429651843,0.48698097998403805,0.16678291583900942,-0.6460150421554943,2
A/SouthAustralia/11/2018,4.677945148022396,-2.853843932435808,0.7239442917745151,2.0987553624162256,-0.5197395100982417,-0.3022975797513464,-0.11313183191058573,-0.19140912110029257,-0.04086678953772047,-0.30788037739840746,1
A/Brisbane/55/2018,4.811850540446047,-2.6375866324141577,0.19580234598782595,-1.3758696898703646,-0.17506587406921134,-0.06337808549028313,-0.048941516311176235,0.23297777639449224,0.01813527420497214,-0.28210671039889085,2
A/Hawaii/65/2018,4.925958662436714,-3.0094040611858137,0.7546621077664043,2.0614779304910056,-0.7469425154669621,-0.379028697388569,0.02331389094941426,0.17359935644235797,-0.20513891117046162,-1.0012786951174228,1
A/Sydney/1038/2018,5.025435741123123,-2.777075246675556,0.2390392575358604,-1.3962255790273264,-0.46339305928047286,-0.13382394449820212,0.05571448421546196,0.6005363404319544,-0.13849967250848072,-0.8017260144775709,2
A/Wisconsin/497/2018,4.937011386766723,-3.003566816989611,0.7703535380475617,2.0665242252891285,-0.7205794125413325,-0.3899998471260156,0.0876882453097127,0.23442286587334135,-0.20473280523312823,-0.9406374607883287,1
A/Brisbane/57/2018,4.921451531807129,-2.76834207244392,0.06965577357464614,-1.399572649444718,-0.37764698861237483,-0.05627524905351127,-0.0697701573541643,0.4365666545073531,-0.2756814188963192,-0.6281542425601301,2
A/Brisbane/36/2018,4.790397441850842,-3.1257854791842057,0.785608082694292,2.0531456034832076,-0.6605576187977108,-0.30270862446468744,-0.1028622766624863,-0.07921496787248845,0.13256420557957738,-0.7715263133862014,1
A/Brisbane/40/2018,4.962046494059136,-2.7404723247580267,0.22604259565141444,-1.4168123548816598,-0.4362151580151563,-0.05861373577495877,-0.030948864771975317,0.47980160477071304,-0.04485828761507447,-0.6397142039236672,2
A/Michigan/77/2018,4.876907289117112,-2.9770061837648374,0.7665183327139592,2.0712616592952493,-0.7371267081663934,-0.3706913344597892,-0.010935301035785676,-0.04837350572912798,-0.1323991152430673,-0.7559082050008104,1
A/Victoria/2020/2018,4.971811601611705,-2.745830997371024,0.2351448601320302,-1.3946444875885138,-0.44955771164771147,-0.11154217526442851,-0.06265188309114711,0.4771796071795095,-0.07564788170084151,-0.6153655544425923,2
A/Brisbane/17/2018,4.922417235240474,-2.8400029536200537,0.6782557979876166,2.0608363634735105,-0.7833389193076449,-0.36208500873413935,-0.06041371664357313,-0.010341107883864623,-0.11919292871573313,-0.9558047099945078,1
A/Florida/55/2018,4.7680081787572215,-2.902436858166513,0.7509344943624154,2.1109600570932403,-0.48947526007417075,-0.30248617172007425,-0.13912860229935564,-0.1255356988161118,0.0036103640176223515,-0.5143616870976961,1
A/Hawaii/43/2018,4.87129153449915,-2.975919954185,0.7403388540072868,2.0666601914000062,-0.7961811776002232,-0.33412796333996325,-0.03693788073345252,0.026212178888407506,-0.14173757528088873,-0.8007070623056203,1
A/Connecticut/32/2018,4.724799454402285,-2.8783069189559005,0.726901702737735,2.1389524696402487,-0.5902399278852807,-0.2743807267686198,-0.0957740421426651,-0.19962392654939268,-0.05396116310945732,-0.37801818589910613,1
A/SouthAustralia/13/2018,4.2979607829006685,-2.597847669219525,0.6358592974216984,2.1680784616682898,-0.18457086837238837,-0.18358033279538685,0.004776582135742443,-0.5862041554334838,0.08343184139496723,0.8748376360694252,1
A/Sydney/93/2018,4.4187520454650775,-2.4411795422514255,0.4644623426500583,-1.2985906098515632,-0.2333074587667789,1.269746108549228,0.10010953415261259,-0.03885020317741505,0.02440363217710607,1.2523669707105856,2
A/SouthAustralia/97/2018,4.3857351952877925,-2.71294552476565,1.0157756220347418,2.163650313358227,-0.5759740246642197,1.011168208612355,0.05620226947173577,-0.4116616667854398,-0.048678280405549675,0.9657025074108645,1
A/Brisbane/1000/2018,4.312207806000381,-2.4220905210239367,0.0879192860381415,-1.3604334089779764,0.018997617681927582,0.10829336791759228,0.049088350821936515,-0.31204140721142937,0.1259620270141689,1.2028988605361197,2
A/Sydney/17/2018,4.1568811176180525,-2.532111964805774,0.03449454341795674,-1.3883697163693471,-0.2776439170928072,0.12617501418625987,0.1334808273486789,-0.4094196273610513,0.061202176594235554,1.1939219320868912,2
A/Indiana/28/2018,4.310410285988609,-2.7112938784055287,0.6420318811338855,2.127721799633576,-0.2733404082058552,-0.14245655061779244,-0.04495220701314108,-0.7379403915066971,0.10679973086646072,1.042206384967305,1
A/Brisbane/32/2018,5.0950375030050425,-2.4263032428392837,0.08417134555908555,-1.3845439995311744,-0.5219322448393523,-0.17583716235359825,0.17259517710022215,0.6377697515112495,-0.1734781157900696,-0.6386093958560456,2
A/Canberra/9/2018,5.132716903882209,-2.3649887292357086,0.018341725575557688,-1.413004841012522,-0.7251076754126792,-0.12116807468990556,0.21904838830395645,0.7124074329892571,-0.24711038695927454,-0.7232830731301101,2
A/NewJersey/35/2018,5.001012776118996,-2.6735897742096766,0.6018124826784864,2.0820191674613047,-0.8982563755174892,-0.45334626854736215,-0.021671606783025186,0.13762600264045521,-0.12973451018227752,-1.069939072015912,1
A/Arizona/37/2018,4.581012373846118,-2.868114475114423,0.7438664847107282,2.127732387112423,-0.5140220280951242,-0.36704537659451514,0.023295550647131583,-0.13438409107695007,-0.10286269355984261,-0.4036853698438767,1
A/Hawaii/45/2018,4.887214480767542,-2.978307768585091,0.7641744686849156,2.1083141140375252,-0.749324263007616,-0.3783030102495935,-0.0625426509366369,0.015517327977559767,-0.1257522430083696,-0.8867032631656194,1
A/NewJersey/38/2018,4.745687108069307,-2.990661222879156,0.7624988546612409,2.104798907514354,-0.8043329075069586,-0.4326796923258225,0.008019267940776672,0.03704776723932584,-0.13494703042716935,-0.9497710147702546,1
A/Brisbane/45/2018,3.4040188282409582,-1.8158476417665392,0.35396208194921525,2.294077468103727,0.6116226249176453,0.461722129497443,0.10731119377105647,-1.1775433173513072,0.5184908907936352,2.6404505771838016,-1
A/Nebraska/08/2018,3.9236816234416945,-2.245850296585523,0.5304530581963688,2.366589020639459,0.449873270152967,0.06151198306575112,-0.16809894047123927,-0.860190454500523,0.297294535591416,1.7172318648842544,1
A/Ohio/22/2018,3.9268420830286828,-2.244143218663929,0.5224617474193793,2.3806481529571775,0.4506054072739015,0.07237690739224636,-0.161089448391034,-0.8649897984957484,0.28762573592836416,1.7190545605262906,1
A/SouthAustralia/10/2018,4.170498650106219,-1.3756099986354227,-0.2289976765273585,-0.9752990878127467,1.7175907146174387,0.3862691472303027,-0.5504861033318318,-0.43780184567381036,0.724167441595222,2.005393540018706,2
A/Brisbane/73/2018,3.2890823938648186,-2.4094877381664657,0.5079101931901446,2.3625807985118055,0.41672604091001875,0.1284480198424837,-0.14651599821079606,-1.282573658994295,0.3064335274913075,2.486268174581977,-1
A/Brisbane/85/2018,3.2869463242211756,-2.411796353108707,0.5121799417202525,2.3623480500500937,0.41901511344850706,0.1231559573291066,-0.12006752846110773,-1.333268704688188,0.3345237861604372,2.551796461242643,-1
A/Brisbane/89/2018,3.394118539049517,-2.1880837851570147,-0.015109848564981532,-1.095442317937953,0.7058629580100415,0.3753838355993002,-0.12015497620768606,-0.8818998560355545,0.36650159472163846,2.7571580404309795,-1
A/Newcastle/14/2018,2.2902670542807493,-2.059205471773325,-0.6685136291206042,-1.1015104201100387,0.7478276945382695,0.7679781045269206,-1.8041502974864396,1.142332246913915,0.31837440293072333,2.756202745885611,-1
A/Sydney/3/2018,2.313034194614795,-2.0808383818098632,-0.5751151235706493,-1.0216308847990772,0.6072846140828088,0.6778698180045256,-1.5536287438534082,1.335476646365735,0.17871020439608037,2.35687771268509,-1
A/Florida/96/2018,4.174095708269477,-3.0991869656878537,0.7948748726773106,2.0801763419803403,-1.089529721130424,-0.4024129274071059,0.1530994128157535,-0.5076404940896996,-0.12787156930614108,-0.7916086257930783,1
A/England/7126/2018,4.792338986904235,-2.6277985067332286,0.17756409241108267,-1.3785201246526892,-0.2636906488001165,-0.0294406010358713,-0.05403919457787257,0.24409045865251108,0.004750748627366329,-0.12978108939969388,2
A/England/7335/2018,4.798104338142166,-2.631455056858926,0.17821637859320372,-1.3855292974899167,-0.26625881162906506,-0.029761452166944296,-0.05510702156663275,0.24908597401959395,0.0049812763079788306,-0.13257109389573746,2
A/Japan/FDX70336/2018,4.830010462336084,-2.5553789545743264,0.16726170632739995,-1.3609579044251532,-0.1876953501866548,-0.024407626645757886,-0.06809842488320181,0.2736091045160568,0.014254535787011741,-0.17160018153698567,2
A/Spain/7259/2018,4.807509551385339,-2.5460585047794684,0.1554610611688254,-1.3642364212499611,-0.27655008018156,-0.05181973150388636,-0.05304665239297989,0.28593225466187094,-0.007755720018568778,-0.113642484793368,2
A/England/7400/2018,4.963599227130181,-2.7377984097666053,0.21332548682833952,-1.405863651691462,-0.42358709355733043,-0.09701211085855026,-0.028545646368762684,0.45474546556458445,-0.06399220474882694,-0.6369978435041223,2
A/Japan/NHRC_FDX70352/2018,4.926623187589553,-2.769164453321893,0.07610041690115187,-1.3969268033489581,-0.39068132644271064,-0.0821460183198137,-0.08828587219653995,0.46642914114990525,-0.2854832019718294,-0.627406877694376,2
A/Germany/7133/2018,4.968998008783343,-2.7376972459461713,0.21309182242483635,-1.4072313286031053,-0.4279410074376925,-0.09862927016748925,-0.027174952226684194,0.46059863605864226,-0.06814706593953954,-0.6473396386816705,2
A/Germany/7344/2018,4.97517380516504,-2.733611390088443,0.2222440071781154,-1.434756227630751,-0.4498288231069469,-0.10794302945996044,0.013727659530901942,0.3686484899067192,-0.07973069352560028,-0.7284071764031975,2
A/Germany/7360/2018,4.978523859696453,-2.7362163797794667,0.22476822231247334,-1.4378282375267009,-0.4526188719236233,-0.11113239430368374,0.012337653404100707,0.3705663089892151,-0.07891741115774846,-0.732056704759753,2
A/California/FDX22060/2018,4.990692861718248,-2.731443183268376,0.2696727713280536,-1.4124343914941433,-0.46082404323138165,-0.11359583224470819,-0.007691950975125531,0.4834411835369862,-0.00969315613768826,-0.6741250222266709,2
A/Spain/7191/2018,4.97772228193596,-2.7444822877871204,0.21250808348299316,-1.4057000763318643,-0.43629632165980275,-0.13325054542882322,0.0030767462436501166,0.43442032420230825,-0.07034719812501929,-0.7364742789234908,2
A/SouthKorea/8204/2019,4.970240370108662,-2.8124616676064083,0.064925429355692,-1.371160199757216,-0.4349096047829097,-0.09638879745213468,0.09826213392455913,0.6039754281582207,-0.1353850378681514,-0.8549373601949833,2
A/Guam/7699/2018,5.0482222621879185,-2.783551488132004,0.24056045002204934,-1.4031766608210947,-0.4591470396912626,-0.14096355684204565,0.13991031917936733,0.7090398876561121,-0.18194682190440098,-0.8324234354298881,2
A/Guam/7833/2019,5.042947906691319,-2.781387775425107,0.2430582779611973,-1.3949079767557369,-0.4578970050865783,-0.14663837488812465,0.13579473346817222,0.6977760765428097,-0.17828069459711815,-0.8305075320891978,2
A/Guam/7222/2018,4.7406641190365395,-2.5914837967381104,0.885142468210449,-1.5393369914285262,-0.37234825680190825,-0.22580605280230642,-0.3599973778629284,0.4518817976801335,-0.044613300430766153,-0.9601773594165847,2
A/Guam/7362/2018,4.696366902134632,-2.6608273248741816,0.9154134531933719,-1.5524375193310236,-0.33156911075476747,-0.2236979393672824,-0.34180349235156937,0.41959100267714033,-0.0354940939623783,-0.9105433975989167,2
A/Germany/7402/2018,4.996430777944429,-2.676346155827117,0.17781770559933505,-1.3942318903852307,-0.47220603671558825,-0.0768414615976964,-0.11262563996428882,0.5104612206109632,-0.057534816563586895,-0.704013062352201,2
A/Italy/7152/2018,4.527873904792648,-2.521037571555033,-0.017303074534777793,-1.3259901057087533,0.030441800218418944,0.11910277708827818,-0.06877886989367873,-0.1329523401469143,-0.1029012033589544,0.8894342871093232,2
A/England/7127/2018,4.797383463860162,-2.6335376021123134,0.1776681667590208,-1.3770543191535898,-0.22846183873485285,-0.018647104583080977,-0.0648262865901263,0.21458742620598817,0.024605243945191882,-0.06287403204172763,2
A/Germany/7218/2018,4.786144676131657,-2.6288068076399718,0.1748952425059262,-1.382517800742692,-0.2576325881144382,-0.028749062547054442,-0.036361460976026966,0.2478954454108434,0.0297264762666087,-0.11625142378399811,2
A/England/7014/2018,4.806770539072213,-2.628511961452195,0.18800420094561995,-1.3809902562330543,-0.16504672612860788,-0.018301111988085785,-0.08421773320262377,0.25131517743271703,0.024773673368224537,-0.18040578768036883,2
A/Italy/7027/2018,4.404165097008057,-2.482128167752828,0.10593221605351627,-1.3554429646099717,-0.02094619358421492,0.10619018638115309,0.004488100144502979,-0.2839304562889085,0.14197260654334512,1.2290561741453194,2
A/Spain/7044/2018,4.51570747938481,-2.4487101008147807,0.10743878613489487,-1.3398970765581908,0.05945165130763384,0.10778406647687824,0.013300540294018793,-0.13184443380298247,0.12580107091166987,1.1389692522529338,2
A/Germany/6943/2018,4.807919770426386,-2.6357659209740385,0.19247633735794964,-1.3897414829059944,-0.23012176827661224,-0.02626003148946966,-0.052360867546639545,0.3124562551921398,0.006348376117193898,-0.14985870173005503,2
A/Italy/8443/2019,4.88358107948873,-2.6736832598890494,0.19586228696167807,-1.4165079294797522,-0.3649861815231736,-0.09656475397243026,0.0299686654406539,0.5101787894510791,-0.08767659584651627,-0.615777490537605,2
A/Japan/7159/2018,3.5182742894438928,-1.5952236388796786,-0.16441780932257088,-1.1961529618172124,0.9130740831451458,0.7365495076864477,0.11298891003268852,-0.8388159041433144,0.3141690275256693,2.814356137569039,-1
A/England/7211/2018,4.245688420435122,-1.3409575256981032,-0.15310673356368706,-0.9912227919059122,1.6379773259960568,0.5084157257107316,-0.3775731803014853,-0.4075198492168246,0.5632336740015823,1.711842193543222,2
A/Japan/FDX70344/2018,4.541339200901641,-2.3705968245966513,0.08056732961388002,-1.3176512207762012,0.023667897451266597,0.11675119212989599,0.017954320539459234,-0.20110507388294832,0.12573558896884518,1.1488764602453485,2
A/SouthKorea/8668/2019,5.015271551801963,-2.6136021171038184,0.19549542782404558,-1.4463646385920754,-0.5073814856648027,-0.14574465640445428,-0.02492443680039332,0.43984444366206465,0.008066832712208018,-0.7438566232886169,2
A/Italy/9367/2019,5.009214639991133,-2.779139608138582,0.23562698048493494,-1.4668587663627228,-0.4329375470293151,-0.11373710885047665,-0.05663769082319933,0.5548086086257766,-0.04956931043766629,-0.88837132929098,2
A/Pernambuco/9511/2018,4.033669583475781,-1.9031908277791727,0.2298556847705439,2.6418612334880485,1.7252144835698207,0.47875518109643384,-0.9277006947525979,-1.5913890619002413,0.7926287838861293,2.427463365086951,-1
A/Santiago/PUC-MVL_012/2018,4.811325343120785,-2.5372698838095795,0.5667646458895609,2.1000248200745926,-0.6435699146411425,-0.35082664566247024,0.10643671756871365,0.053693116245374164,-0.1584254543383667,-0.38970506437241764,1
A/Santiago/PUC-MVL_025/2018,3.910725309819034,-2.342955131890369,0.5308420354774634,2.3953867560002498,0.4651446317529787,0.10681644182203104,-0.18272184322088098,-1.1107785657188918,0.39395628195594573,2.0606823901401117,1
A/Santiago/PUC-MVL_042/2018,3.8879191360433443,-2.32536754382904,0.5125662078914633,2.332959886108684,0.4592394773725425,0.12668590052320408,-0.15738867593205505,-1.0301591847222071,0.3651519763881499,1.8663505690020106,1
A/Santiago/PUC-MVL_022/2018,-3.586408006974132,0.45174379924529623,2.410445038488224,1.801890964459068,-0.5003778898692108,-1.5537893106453038,-0.3825223778685591,-0.06931583972730646,0.05934208811604901,-0.23712535395801457,4
A/Santiago/p003d0/2018,-3.594326496140218,0.4548789126028256,2.41760714897702,1.8088053125107884,-0.5100093535341985,-1.5676490993044874,-0.3682708510290183,-0.0859738755319184,0.06492242026464036,-0.2524655307387012,4
A/Santiago/p016d0/2018,-3.587970912505486,0.44596006896905,2.423026554630645,1.7989392255774332,-0.4431225861532306,-1.5618093445442713,-0.32493749483294193,-0.021795563844212267,0.037691577090708556,-0.23128398848131723,4
A/Newcastle/4/2018,-3.4906987292894147,0.4036737401894256,2.2035825222377867,1.735175964507173,-0.44437677351605925,-1.09116179276462,-0.3357221405069099,-0.35656682391367556,0.08484240219428364,-0.29169545224865945,4
A/SouthAustralia/12/2018,-3.3691067976881013,0.7037054977697519,1.665881659539744,-1.7226506824144125,-0.10401319611727732,-0.8114842776107798,-0.36487609063740883,0.01680090174195246,0.14891418833390002,-0.1937355551322274,3
A/Sydney/8/2018,-3.3893092825507223,0.5398182737738109,1.6581953543163093,-1.7663421251346338,-0.14511290615067216,-0.630708487039823,-0.26017698479075735,0.08729915578941212,0.15802784875489773,-0.08081711748155218,3
A/Sydney/20/2018,-3.25515964178285,0.5670288961493658,1.665430100179425,-1.7355028303351854,0.02990796131214484,-0.65933258371854,-0.3139975131373213,0.1404486414660876,0.19186105124095693,-0.0855470578673085,3
A/Newcastle/19/2018,-3.1203036111240543,0.9692837570866074,1.5262694328048851,-1.7324493972689499,-0.09432425547062394,-0.7863509801470492,-0.13401157131093655,0.4152854363164769,0.07255751396707584,-0.16601632592720772,3
A/Florida/101/2018,-1.9778700281998394,0.526618421011279,2.838152663351171,1.4968388612686365,-0.30319651079151944,-1.411256517315075,1.9235246072337577,-2.216005986112669,-0.3677273102341061,-0.7947404721447967,-1
A/Victoria/2038/2018,-3.5819953069309203,0.5382339134237811,2.3217162912459997,1.7656379934748934,-0.19890490104289052,-1.2986471354646139,-0.5699660667233937,-0.35155012628527627,0.3530374161130811,0.16098508981658236,4
A/SouthAustralia/179/2018,-3.3627689980933133,0.6540729376800287,1.8111957606717015,-1.7317304191430296,-0.18709182288084317,-1.2370916330280406,-0.7195781284934937,0.25283097366604573,0.08624475937564803,0.058334593629140154,3
A/Brisbane/64/2018,-3.3908339517036996,0.9756772822842685,1.7464871593692728,-1.7012319685844455,-0.35615291698885565,-1.2901614767002705,-0.5505677727215889,0.3491398748747342,0.15238566483735402,-0.03905337793120907,3
A/NewYork/40/2018,-3.654271350903804,0.4879668523097021,2.6952664488656812,1.926716765228824,-0.8955316292869445,0.35892779747301934,-0.5537740231689802,0.2165693815317153,0.04003813554541266,-0.36283927052990417,4
A/NewHampshire/24/2018,-3.525028493952272,0.40830297231532126,2.2949185638066063,1.7493898058212574,-0.4938298552635869,-1.2341482658560483,-0.4837941865824551,-0.30527097910028095,0.09978007178292003,-0.13477079237173115,4
A/Makhachkala/84/2019,-3.6315424784866703,0.6994907386029461,2.509737261043666,1.8587536528164237,-0.7612949945387243,-2.373136215946816,-1.2929849720790059,0.7974744565945467,-0.18538126951387793,0.7892500324401047,4
A/Vladimir/87/2019,-3.632453331003194,0.7000878559359524,2.5038194648952916,1.8495453131460875,-0.7892740008071303,-2.3620723723422756,-1.2629703713101657,0.7727321133512706,-0.21053428362172555,0.823753298938525,4
A/Minnesota/44/2019,-3.775976742437589,0.6391162104778125,2.2041257491134316,1.8935763825961456,-0.7470892567412196,-2.3857595236825473,-1.4026232271223875,0.7541114956844472,-0.14003267205666264,1.0114172786668452,4
A/SouthAustralia/153/2018,-3.534707757833526,0.8427827043613209,1.9581073009654397,-1.6734094076008375,-0.4490247585182962,-1.998680274701822,-1.2091010514897063,1.0859818398644379,-0.10093217144529353,0.9625649894940431,3
A/Townsville/23/2018,-3.3826254349756484,0.7025408936542799,1.6699274131810478,-1.7472062342261263,-0.21017638422035834,-0.8833631290495407,-0.39650740239888993,0.06896853632211904,0.16415747445980006,-0.14028741782538723,3
A/SouthAustralia/174/2018,-3.464555277182218,0.47678738898668227,2.1638712072499384,1.8237830017176941,-0.3775967970068567,-1.016905234552788,-0.37429887648967,-0.2951420403679938,0.06322552563344931,-0.39893153529196423,4
A/Brisbane/115/2018,-3.3649550966858124,0.5953127041359727,1.6131533472415052,-1.7821632204382838,-0.14120771592003079,-0.6555971554334082,-0.3389269091785544,0.04020661896215973,0.18913628776015184,-0.044461062449804606,3
A/Brisbane/67/2018,-3.3681798320326766,0.5989865154106763,1.6109949643201393,-1.7725687632255396,-0.1583203356011139,-0.6649508417828258,-0.33434513795213694,0.05578669797945067,0.17536954459730925,-0.07028232378275762,3
A/Brisbane/13/2018,-1.0588827251895643,-0.01711330769510306,2.252665263657092,1.6801889414396765,-0.7265391237993154,-0.6439903629265695,1.6846019486422852,-1.9565584496164123,-0.36112385685781134,-0.4789838434099602,-1
A/Washington/194/2018,-3.529126151079626,0.3577437886791828,2.2922349976319785,1.8391822006173797,-0.5193324936469357,-1.1838820463618696,-0.41555095996279395,-0.3091946625681978,0.12542295104923076,-0.44844593369021,4
A/Brisbane/104/2018,-3.4444160992008226,0.5744685055808899,3.087913979947553,-1.4659990125486728,-0.99336850240286,3.854795818170786,0.013732234142985923,0.9686617020224598,-0.1881548600661382,-0.1285473585008332,-1
A/SouthAustralia/161/2018,-3.548591819086511,0.3492417286977457,3.624296820219122,1.9911745517433337,-1.2831365959664138,3.641708222305126,-0.01965919438809367,0.547255639224195,-0.23768858676962518,-0.30717362413574734,-1
A/Hawaii/64/2018,-3.6041846034414484,0.316671189801878,3.389942733477605,1.9889686878481458,-1.3338821974082462,3.4558917834676364,0.023060287285786484,0.5362278676940196,-0.2414809440256031,-0.23999239819761342,-1
A/Hawaii/46/2018,-3.500876762247051,0.4186485126652257,3.510359084945992,1.9580703186965847,-1.2556115965033794,3.382804985344584,-0.10508659129264096,0.3794398632679229,-0.17479623868986965,-0.3024658686865748,-1
A/SouthAustralia/186/2018,-3.4368902737871583,0.576002762235527,3.0503373376084144,-1.4889609964593284,-0.9524536650709079,3.7312253839398,0.01078514930629933,0.9290321566945622,-0.16771644024468899,-0.0963043257004212,-1
A/NewHampshire/25/2018,-3.6536268325278964,0.030393463031181688,3.6986536460745283,1.961311056550716,-1.1201509180785507,3.5071613402185373,-0.21029777970267774,0.2459125873083539,-0.09555611093634193,-0.1877152118331607,-1
A/Sydney/100/2018,-3.4382915159589453,0.6547317104467928,3.052169547822671,-1.5030388084742767,-1.0253969982906128,3.569221505226258,-0.1722322954169153,0.9045243218885837,-0.1186219551435854,-0.06949222787773864,-1
A/Victoria/2041/2018,-3.4100341485544217,0.6473281279189501,3.0215709681465954,-1.4945289401220658,-0.9103735222930216,3.787008918091433,-0.08738876078350026,0.8549383478225255,0.005529051563266472,-0.16225562634380067,-1
A/Hawaii/47/2018,-3.53676634751135,0.3446571305681448,3.588307721021103,1.9863653081829837,-1.2356514198156126,3.541582952113453,-0.08908318965809978,0.5502001132379591,-0.20774774237096125,-0.15111211488054252,-1
A/Hawaii/50/2018,-3.5536757750080223,0.33388881365759415,3.4693777929152527,2.0062632950209713,-1.3048633555860834,3.2909883059166956,0.012769127189150731,0.3727011337684533,-0.3785465013792264,-0.19364839515328774,-1
A/Michigan/395/2018,-3.4961193265489827,0.420747200456769,3.550331508032333,1.9742839746060556,-1.21414485291944,3.472776657788436,-0.09732479340809969,0.4413729001860437,-0.16209098613044712,-0.3289799517683516,-1
A/Hawaii/44/2018,-3.5511365484758195,0.3498246107539501,3.581885034657855,1.9795785376921706,-1.2407978377308655,3.427825480959966,-0.010873236477698547,0.48673704530291373,-0.09670439702790579,-0.29134802663167203,-1
A/Hawaii/51/2018,-3.684576985374957,0.07531069249463697,3.6357247914596504,2.021706234058789,-1.1677229224546075,3.632736631897635,-0.3024154883722916,0.20096914562474721,-0.17497449297744144,-0.16585607793939233,-1
A/Moscow/119/2019,-3.662843878376447,0.6274292282515993,2.5671340475749407,1.821196063039388,-0.756444586966483,-2.38474470422273,-1.3064561865859583,0.7579110556901102,-0.17848592971906144,0.8996913016433461,4
A/Grozny/88/2019,-3.7700872059506096,0.3531132529714313,1.589547918440034,1.855349703149226,-0.19199169944783642,-1.0706295333317801,-0.38577326776333426,-0.49685245673183165,0.18967578769588858,-0.5775253382673149,4
A/SouthKorea/7188/2018,-3.390018182385498,0.7754647212478852,2.376810151139456,-1.6603945432859855,0.08682122803499759,1.9715628319201766,-0.3859962198276741,0.3400171577286439,0.11938891693881058,0.3210767645842271,3
A/Busan/1343/2018,-1.9508547050400156,1.3039331867518091,2.79710376577298,-1.903255637842484,-0.2621982683304166,2.040768963224833,1.8300860304875448,-1.365214051921446,-0.27676147876211027,0.8974768975772898,-1
A/SouthKorea/6968/2018,-2.073317327069124,0.9860243480012838,2.9334924658998975,-1.914813419829169,-0.16209709124513483,2.124352439307506,1.6420795287293009,-1.5878994188281113,-0.1648289272110451,0.9724492709966399,-1
A/SouthKorea/7182/2018,-2.0733173270691245,0.9860243480012835,2.933492465899897,-1.914813419829169,-0.1620970912451344,2.124352439307506,1.6420795287293004,-1.58789941882811,-0.16482892721104503,0.9724492709966388,-1
A/Guam/7502/2018,-3.5015691597677385,0.5398645163672331,2.8776814343740917,-1.4764589166871456,-1.0669706875055658,3.7280228861451046,0.04947563148514003,0.9912006229083108,-0.2018816045119224,-0.08314194831621631,-1
A/Incheon/1320/2018,-3.3441704032456725,0.5107324067860549,2.349526737416112,-1.7328760226601643,-0.5785185861355345,1.5721014197423764,-0.1060104977952412,0.33161511004712996,0.02271248498809657,0.2145659091120039,3
A/Bahrain/NHRC-OID_ESX0121A/2018,-3.4921292882520714,0.657173813350873,1.8836403041018068,-1.7761255564563692,-0.23804187216944472,-1.3325446652244366,-0.5446456791097414,0.3726364126105125,0.1314276403638707,0.05437209524035209,3
A/Germany/9360/2019,-3.455575467713221,0.7276069395368446,1.826436413032394,-1.7675072101981355,-0.27288129388637816,-1.2361635450603405,-0.5380785265154068,0.2264467022553656,0.17086788597924793,-0.07741048140560153,3
A/Germany/8914/2019,-3.6061180899507086,0.5880380266275542,1.5209606679560974,-1.7336390035389544,-0.1258353294258265,-1.1905902364277277,-0.4411482397832927,0.22753804617689224,0.17708848459195584,-0.20822174374178753,3
A/Homosapien/China/LS205/2018,-3.8567523108267117,0.4676282248626936,0.3831654402023723,-1.5638828854998192,0.16320165009230378,-0.7084439686069995,-0.16746224159023398,0.10871601282873178,-0.3211952627524976,-0.46440123057046945,3
A/Germany/7025/2018,-3.5003415153392767,0.48980946256696434,1.854083066330075,-1.740201722612733,-0.14894401184806305,-1.1033744848239284,-0.5602640198383152,0.3931581542263933,0.1914640070637294,0.03514125123384348,3
A/Guam/7145/2018,-3.461115891431404,0.643537281345719,1.828910593460636,-1.778859980092344,-0.21966467719074434,-1.1550571684626656,-0.5294821386244295,0.17552208027147073,0.20020691600874904,-0.021401873877489888,3
A/SouthKorea/7428/2018,-3.4012022017005843,0.540072944284394,1.681695385634073,-1.7714985182050147,-0.14616177820382753,-0.6636807081132563,-0.35377257839953435,0.034731939769580514,0.19080049648100525,-0.05877609112260493,3
A/Japan/6954/2018,-2.887896405682808,0.7143442912059194,1.8511991420243472,-1.7828992475373984,0.04704516973086192,-0.8907525673199813,0.21903585840836878,-0.47346164170937066,0.08473884073406457,-0.11398746016053089,3
A/Germany/9056/2019,-1.877456395232592,0.7524704416576932,2.313845235892815,-1.9552449612588867,-0.023109969747318073,-1.1691670901783289,1.9657630503938184,-1.7953978328734919,-0.32423993706443943,-0.6254851851000411,3
A/Belgium/8876/2019,-1.804371196803674,1.076855609938111,2.266964894897464,-2.0880823564640836,-0.19450715700188861,-1.324522603656902,2.432185850521643,-2.6366742983851403,-0.4097856449337187,-0.8552533709286172,-1
A/England/8892/2019,-1.8030205796546221,1.0751629601353772,2.307455427165398,-2.110875717899846,-0.08116321323009199,-1.361341989829301,2.477505530507843,-2.7509906367859664,-0.4173902824016119,-0.9930847112268472,-1
A/Italy/7842/2019,-1.8039707594754644,1.0626622552577691,2.2590508654879824,-2.046639579566385,-0.17575135479248594,-1.3059995768667945,2.3484424109187927,-2.509429901888745,-0.2867118903424007,-0.8908179146469228,-1
A/Japan/8262/2019,-1.798130308583321,1.0629982403990543,2.2604899501723135,-2.0605609301011647,-0.20288930362442784,-1.301254081436254,2.323906118371803,-2.502321661976558,-0.4054116152946868,-0.8596940850482654,-1
A/Germany/9344/2019,-1.8005083634096568,1.0712720992799734,2.308345853820188,-2.11063790229639,-0.10769709186434916,-1.3785959424581737,2.5331011988896077,-2.7974216875407976,-0.429353305499142,-1.033413036997166,-1
A/England/7963/2019,-1.808888470864319,1.066020756530603,2.28046107290347,-2.0863450796031104,-0.20836854992801745,-1.3424186172910497,2.422379770494163,-2.6236002495583204,-0.40069161292014044,-0.8963544956234745,-1
A/Germany/7220/2018,-3.103349722241919,0.5700200061986044,1.6711276441855398,-1.7177300835224942,-0.026181736000464542,-0.6670287885671501,-0.32903808757668546,0.2143318094716409,0.21392880074345014,-0.013205858571347564,3
A/SouthKorea/7186/2018,-3.1665731485176787,0.20493312918481146,0.9969761802618697,-1.6430084899777595,-0.20056987434992518,-0.5335302162012914,-0.25584863420111603,0.14127826801935456,0.235391058057562,-0.009954705386663891,3
A/Seoul/1287/2018,-3.3691467751145554,0.6242092370491371,1.6565267913454547,-1.7674075491600292,-0.045998977874825944,-0.6201006361113046,-0.25286949867421554,0.10810863938485948,0.15766120230770905,-0.10452900850778338,3
A/Italy/9065/2019,-3.4031027595538714,0.5431881225792796,1.7088711871846187,-1.7301712405420406,-0.15224569139658106,-0.7795969455898062,-0.2912577868729781,0.12775391984455917,0.16054079976534938,-0.155509134016491,3
A/England/8122/2019,-3.6690399895475525,0.766916906963237,1.662129443617509,-1.706661054696871,-0.38207881944801614,-1.2220882468088208,-0.8303732569210467,0.8041173531920323,0.03728089700034722,0.27276167912518334,3
A/Germany/9482/2019,-3.6807629173458967,0.7603994458994445,1.6562253808318037,-1.7272541754679094,-0.41350884182951897,-1.219288659177405,-0.960030268662541,0.7328980912449222,0.062161184359945366,0.19738468360804812,3
A/England/8581/2019,-3.5511101359855703,0.8452979395533818,2.0097829737130963,-1.6284217907959657,-0.4867870733505424,-2.107581312242174,-1.2578497811858977,1.208850382211129,-0.1353631033174705,0.9415097758801794,3
A/Germany/7830/2018,-3.61135803344887,0.8336782639368842,1.8606617427212357,-1.6717105791107387,-0.3262838650371592,-2.0294738776173644,-1.2025440823720828,1.0249881902857472,-0.07315197153985481,0.8896301979870954,3
A/Turkey/8543/2019,-3.1752108836456565,0.6026130403327598,2.048257929328575,-1.7591510014131824,-0.736440112677538,-2.091134703948404,-1.2418431422873366,1.3521796936835697,-0.18292504340437535,0.37425575688827234,3
A/Germany/9669/2019,-3.596625035243241,0.9049717140176994,1.8325813301718876,-1.6603369461292992,-0.4376021848173283,-2.102244179322079,-1.1921896923680884,1.1206114851963798,-0.09624840762010806,1.0092291434855685,3
A/Germany/7345/2018,-1.5336796459350144,0.9729334192644367,1.5113841866195266,-1.770565856237711,0.4116794453471873,0.14681240156794337,1.9783633017341202,-2.444855321153952,-0.12031272969770518,1.831810478576571,-1
A/Germany/8918/2019,-3.195131840415372,0.5819996654095422,1.7886884339429254,-1.7518451225674205,-0.09035538596586191,-0.976657527760508,-0.5944691864970372,0.13454029734530445,0.21600738476666378,-0.09742517981981393,3
A/California/191/2019,-3.4431814601681805,0.8382146050875079,2.2183033299199644,1.9736100142955655,-0.6191439045758416,-1.5630421583547243,-0.6413159372926963,-0.185719872452629,0.10897054892827457,-0.4428412880751187,4
A/Mississippi/41/2019,-3.4418783376641287,0.8402974577364566,2.2255547796548143,1.937348843968618,-0.6514294895627734,-1.5059373508963716,-0.5725570775656286,-0.22331401826123118,0.04978251450924026,-0.39089373779853487,4
A/Homosapien/China/LS340/2019,-3.3616375617324237,1.1044374047712202,1.4152760310071135,-1.5526592845988822,-0.5287606282633457,-1.155207287294547,-0.3575559635599248,0.3150331518832596,0.01611642394169928,0.016343462783873833,3
A/Maine/43/2019,-3.5706399765761043,1.0822721850016088,2.1580893818452784,2.0561232954424504,-0.9031674550876434,-2.7487309899195567,-1.5330346201349194,1.303832253306066,-0.26100532306765456,1.2494932040115918,4
A/Pennsylvania/02/2020,-3.5590965560426144,1.0737581467240884,2.1601292968406423,2.0776925229364167,-0.7667295229194907,-2.6988733530425635,-1.5812733028391186,1.2171772788681594,-0.10988392846429564,1.257384860745443,4
A/Tennessee/21/2020,-3.2781445909992133,-1.3643963868698006,-2.109501672711848,2.7079346110619738,-0.7378220637649671,0.3259269935623633,1.3399802471922404,0.4278591150141471,4.245354842393707,-0.40449298017933777,-1
A/Massachusetts/38/2019,-3.219750367489654,-1.3626204779154896,-2.234508657667065,2.6388816339925896,-0.5292654068815726,-0.17109976322429246,1.2953576038975376,0.2514173881966424,4.132927887801439,-0.33636608054176437,-1
A/SouthAustralia/184/2018,-2.552182519435121,-1.071577180075016,-2.717624241387698,-0.9678922413265194,-0.4352558312685947,0.056607063151226336,1.094962869809853,0.8831469218894238,3.0539204819128933,0.22835319340744586,-1
A/Wisconsin/103/2018,-3.1769162812677236,-1.3406452015606527,-2.156015950875648,2.48170373845033,-0.49078495300866626,-0.17208710817728592,1.0134004925572446,0.20594437510621005,2.957072790215328,-0.2856198916183426,-1
A/SouthAustralia/26/2018,-3.0881365070683815,-1.1197932119618847,-2.717869115524109,-1.0020089591967918,-0.21601204646011973,0.07993482137329833,1.1277710919491066,0.6995628471487512,3.322156068892937,-0.11652444024411909,-1
A/Colorado/44/2019,-3.229520506978636,-1.3699583877151764,-2.2403758888600662,2.6768535900864032,-0.5496398603239846,-0.20908596541800778,1.3858295323667302,0.20644302723373967,4.385943445222835,-0.29872769029382196,-1
A/Italy/8453/2019,-3.061581016242781,-1.0323857183412635,-2.711555918809376,-0.987955339610927,-0.18897477184057343,0.07292111039706019,1.076925957510938,0.6978211930214869,3.1524486349664986,-0.1346292222186143,-1
A/Italy/9061/2019,-3.0797598460121836,-1.115477832909329,-2.6731211453902017,-0.9755200561782639,-0.20217225107086628,0.10350164973217868,1.0707216530763355,0.6476157812835165,3.1256109011179682,-0.11984785753678028,-1
A/SouthKorea/8203/2019,-3.086088512518593,-1.113975710581246,-2.696011700400611,-1.0216755434977616,-0.22275336695206382,0.06455051564680682,1.0870253108301429,0.7105986702413977,3.1218632860211923,-0.20695393207111204,-1
A/Italy/9363/2019,-3.089392081523187,-1.1141423135170987,-2.7211521457983294,-1.000607013720738,-0.24163996703280485,0.12693920653011503,1.1486478265103108,0.7334952452196473,3.4361214154755007,-0.1468455431848744,-1
A/Alaska/32/2019,-2.894190197866499,-1.647082618896958,-2.594511059118995,2.580995948043957,0.20072803511677015,0.08158422547561574,-0.18795115282445846,-0.4938745686241954,-0.8985528543955836,-0.2221580944094709,5
A/Florida/121/2019,-2.8717506330617115,-1.678166963793229,-2.7137457471927906,2.6240681791425513,0.19774642376594098,0.18661330551086683,-0.13825316727120154,-0.49741839916499,-0.9708940473010641,-0.4040963693281019,5
A/Indiana/35/2019,-2.8959301226653884,-1.6482275433440994,-2.5992714906595364,2.5875509768398968,0.201736745215683,0.08207218241221524,-0.18971158280169317,-0.49905846694042955,-0.90915156564461,-0.22488254333933352,5
A/Michigan/390/2019,-2.7559308447812736,-0.9874253983122665,-2.772555343560133,2.737441476414924,-0.026387019236820953,-0.24590588403787225,-0.23183167600406848,0.1418216258149946,-1.198375291911081,0.1315719785009057,5
A/Idaho/30/2019,-2.9046612214288063,-1.653976124740318,-2.623338108975888,2.6208319843905303,0.20693628601253392,0.08460222054937412,-0.1990327052169784,-0.5267007393869917,-0.9661306264091489,-0.23957260754772502,5
A/Alaska/36/2019,-2.8985524592487173,-1.6470720344353618,-2.5953718020646317,2.584078236231719,0.19877310787039568,0.07358027065411375,-0.18010610278180308,-0.5079350710371441,-0.9118640542854083,-0.2476632261438145,5
A/Colorado/36/2019,-2.8873823483316365,-1.6352852641859723,-2.5760233726309525,2.5134489307126247,0.19609670520806335,0.10013750108816664,-0.15647874938139714,-0.45839025213237705,-0.8187175730283534,-0.1802486767920691,5
A/Michigan/387/2019,-2.8874239272960125,-1.6417334902299214,-2.5855170344294427,2.55147417953858,0.1874210859127485,0.09223609918323368,-0.17066584589605155,-0.4640654698036591,-0.8590966267334014,-0.2652539653012103,5
A/Arizona/29/2019,-3.075314879937748,-1.7805948110627976,-2.4186922640170985,2.4827200746670086,0.07999272772493315,0.15919517599033664,0.013784943387175062,-0.31376123500717606,-0.5707742800396605,-0.23006858479863398,5
A/Victoria/2051/2018,-2.8262671877509415,-1.3713490670292932,-2.8704228405716257,-1.013320966129714,0.3475412328845816,0.18647346660465763,0.007868990820340965,0.2659662331096976,-0.362131640925968,-0.1361867223820034,6
A/Grozny/89/2019,-2.976050740378429,-1.628463050783952,-2.4593794108889195,2.4461205614109978,0.10597096735640237,0.039504532713443855,-0.1226661644209866,-0.41259093972192484,-0.5551778264429761,-0.19336932381382174,5
A/Yaroslavl/82/2019,-2.978811106365353,-1.6328768739396367,-2.4670355675848232,2.4602004920291134,0.10353563469215628,0.03153857025727216,-0.13566177472953633,-0.41475088316986114,-0.5732203843357907,-0.20508676447857718,5
A/Moscow/122/2019,-2.985890106468426,-1.6391739374603083,-2.478695306495594,2.466126001064795,0.11001107606639941,0.04263604059645881,-0.13562477961168332,-0.43576372206151565,-0.5804824083888954,-0.2108534093369987,5
A/Moscow/121/2019,-2.968363521565827,-1.57605539494763,-2.5053115913752495,2.4655020947836457,0.07914400150377755,0.051483349625352316,-0.18235027343007246,-0.4772323657227296,-0.5695982296755077,-0.21650403771743443,5
A/Utah/37/2019,-2.7389962563349144,-1.6235908132873853,-2.515516869938589,2.5098624721812475,0.23082285807482147,0.0571919571627225,-0.12770761386448187,-0.47267555946985895,-0.7737197096874248,-0.21368758079594097,5
A/Florida/85/2019,-2.8334450402292912,-1.4856581509687385,-2.6046180650732804,2.547486152909109,0.14091874984905914,0.126960763281844,-0.1035533963630188,-0.3690933216431064,-0.828679378831795,-0.18106874596556527,5
A/Delaware/38/2019,-2.7616326984372583,-1.6355206726721951,-2.5940079817442396,2.5724189483723436,0.19342752035028699,0.09334340430480043,-0.17174176811907776,-0.4260997072143232,-0.8950061859800755,-0.20201582564943044,5
A/Alaska/38/2019,-3.1392768998038005,-1.6551491465221433,-2.679659376181561,2.596214110042046,0.0747955300381835,0.09150832890579383,-0.4314114244476192,-0.1566450387026888,-0.8807370928718476,-0.22836652605551871,5
A/Michigan/418/2018,-3.05589232817857,-1.4000813518910653,-1.8538108562230387,2.4266968064883936,-0.373536253889354,-0.18313654552415895,0.5280271357226158,-0.08398421663945854,0.4453481922413487,-0.2476386394043066,5
A/Tomsk/243/2018,-2.9066253638728057,-1.3298562752855134,-1.901429249151068,2.5015283830797648,-0.3767179415361057,-0.2098147321399891,0.3966922869708153,-0.061181569997268426,0.5172072883420844,-0.38651564802970767,5
A/Tomsk/245/2018,-2.9066253638728057,-1.3298562752855134,-1.901429249151068,2.5015283830797648,-0.3767179415361057,-0.2098147321399891,0.3966922869708153,-0.061181569997268516,0.5172072883420841,-0.38651564802970784,5
A/Italy/8601/2019,-2.879651980042049,-1.4041979742426705,-2.993747063251758,-1.0134608270285583,0.39059788836778153,0.28371568233827543,-0.071315042171861,-0.008797749975889972,-0.5249820445804165,-0.014361999880964505,6
A/England/8887/2019,-2.939649288818955,-1.5506627959616466,-2.9301513073848455,-1.0509927961978036,0.45480514912823583,0.23864217030427376,0.055420883958565016,0.024892949114996767,-0.5774486714758429,-0.13954976560098958,6
A/Spain/8527/2019,-2.8742748437473793,-1.4024349012141355,-2.9827884314774935,-1.0023191740653061,0.3846694879884662,0.28404156806567965,-0.0906676751888674,0.017489615186190452,-0.5023172886173347,-0.0199676367732566,6
A/Germany/9490/2019,-2.7719128044251797,-1.4701135433802353,-2.9547432669759464,-1.0152712234649341,0.4688780527364254,0.28558785508452594,-0.1454835148533875,0.04423652388769495,-0.4913746523567978,0.0037325398782408845,6
A/SouthKorea/9579/2019,-2.897400703590495,-1.40621223385003,-3.0243715224812284,-1.0123051675014312,0.37827324650751926,0.28790728825804435,-0.07535424269209212,0.03517810028573573,-0.5588017831075598,-0.08093750583972086,6
A/SouthKorea/9645/2019,-2.894683018649909,-1.40550939266868,-3.0213245091987755,-1.0120877988399701,0.37969431618146227,0.2915541792801187,-0.07839037635889792,0.03083256684787762,-0.5738115027862087,-0.08029728902576243,6
A/Germany/8752/2019,-2.8890987159408934,-1.4030213178583666,-3.0185006469413214,-1.030255797028945,0.39194868740997707,0.29289775776525756,-0.10434310746347829,0.07829155125246409,-0.5505426766410167,-0.11690498441565604,6
A/Germany/9676/2019,-2.887234713863071,-1.4343761095452279,-3.096799011037008,-1.0758239789629742,0.3029118012958762,0.3351493473590355,-0.07546451300684966,0.03846889090758047,-0.6533955570261295,-0.0013359648601237236,6
A/Italy/8442/2019,-2.8723806245344643,-1.4271756868261316,-3.104857411407279,-1.058231673063416,0.42588359098303225,0.42298689323817196,-0.05109535729605179,0.028664623552373907,-0.6344095417608195,-0.029103610292714882,6
A/Japan/NHRC-OID_FDX70557/2019,-2.901409421145708,-1.4250188716587404,-3.076298268515805,-1.0605780967687966,0.39676516286434943,0.3336565141012322,-0.05161181211571315,0.0702495227071431,-0.41375976424132205,-0.051971880898670844,6
A/Japan/8261/2019,-2.904427575235874,-1.4261530959395563,-3.092630604825348,-1.0965853046573395,0.4729596853481703,0.35356631279990414,-0.11830193840018532,0.02758811619085903,-0.6568847311973209,-0.06815083257861822,6
A/Spain/9580/2019,-3.0027340522420727,-1.4725167364545055,-3.339979031993183,-0.9657560668307446,0.4956900474280601,0.34921302703808405,-0.010049711689510807,-0.05042083875568662,-0.5085609860427086,-0.09102853302729706,6
A/England/8741/2019,-2.680654711969641,-1.4759755229648202,-3.0643260002276076,-0.9714113191470203,0.4518719288886463,0.2971402081694523,0.00965638128184223,-0.03900034476198915,-0.8250599229535176,0.022837451993842104,6
A/Japan/7846/2019,-2.7809859255151608,-1.4146324656297398,-3.0897758584852104,-0.9481469378840053,0.4683235195970638,0.33626723358449795,-0.12670215321151343,-0.016168993145577994,-0.7571272027757647,-0.03153917997562181,6
A/Germany/8917/2019,-2.7818506945838215,-1.4113403040150199,-3.0873276321232415,-0.9503942469034458,0.4644521384255668,0.3418439768671138,-0.10718324811082088,-0.031595653843121206,-0.7665019939963983,-0.03696582935924453,6
A/Guam/8597/2019,-2.778791860601662,-1.4148795320476835,-3.0933370230757937,-0.9528384917462008,0.4701108132771897,0.34300937373194484,-0.12294938242300116,-0.01193870212635834,-0.7589855467399286,-0.025248150289343373,6
A/Japan/NHRC-OID_FDX70577/2019,-2.7845433271452507,-1.3988768445422282,-3.0819582691012166,-0.9227364836806156,0.4735375680055985,0.3407676148851964,-0.12489282897207014,-0.03603630011507078,-0.7364571319189304,0.020845790471472763,6
A/SouthKorea/8832/2019,-2.7633300106386782,-1.329667894768417,-3.12991971782804,-0.9584429498766173,0.4773498435783443,0.3118993101708292,0.07264971750239332,-0.005142087680275763,-0.8724100019186554,-0.03851702452516657,6
A/SouthKorea/8824/2019,-2.763330010638678,-1.3296678947684168,-3.12991971782804,-0.9584429498766175,0.4773498435783445,0.31189931017082917,0.07264971750239342,-0.005142087680275758,-0.8724100019186551,-0.038517024525166456,6
A/Germany/9343/2019,-2.769508582046712,-1.3551592583979164,-3.132193659247378,-0.9484737502073759,0.44013563667531475,0.37831004734148654,-0.17850185236637744,-0.05479442935520001,-0.7645425421934577,-0.036310270607896586,6
A/Japan/8142/2019,-3.0438733722557134,-1.4466719992194823,-3.1171852589422886,-0.9888914409708662,0.35960141617584945,0.3345715394516931,-0.056109908891872666,-0.10813361404825998,-0.8047024230069484,-0.06393814064784129,6
A/Japan/8003/2019,-2.769716423030481,-1.4066064423387785,-3.0791240567125797,-0.9432970241402518,0.47898648530527316,0.34355422121344,-0.1396572869081168,-0.02852126082889576,-0.7198561504890915,-0.010425424606419693,6
A/SouthKorea/9578/2019,-2.7871221237948167,-1.3828973506272528,-3.0743296023198834,-0.952156485635193,0.453748927831914,0.2579193681278087,-0.22974094522614033,0.08603997988835457,-0.741832043719432,0.0829026967179734,6
A/SouthKorea/9704/2019,-2.7657603083543254,-1.3310069941284612,-3.138861302973566,-0.962014541454384,0.4814865533067384,0.31492753375695764,0.07528656151533623,-0.005472746310559181,-0.8930635351957198,-0.03949501761780015,6
A/Italy/9062/2019,-2.8314795424708614,-1.3680484807979107,-2.847327207546933,-1.03814707998542,0.4778328205145576,0.2560220919331831,0.10252192068208205,0.09070508091582107,-0.3084520697471305,-0.02549209239864819,6
A/Japan/9505/2019,-2.8026299250360878,-1.3148479190646047,-2.8729372159580966,-1.0296055503349903,0.32419425688209413,0.26015043851898445,-0.0017570098097893978,0.1487062469348454,-0.3211191809339568,-0.02479822080696534,6
A/Japan/NHRC-OID_FDX70521/2018,-2.678689901531994,-1.295821258053638,-2.8183859240373073,-0.9877026185665089,0.34374547850612136,0.4283009597018081,0.0016139357644458288,0.2609563316630074,-0.3211936945579857,-0.03664648778456741,6
A/Italy/8139/2019,-2.821868045996724,-1.3668230934721932,-2.856833356723355,-1.0170638404482675,0.3955595955659046,0.23868661338556416,0.03473692344212053,0.17058128706530215,-0.30075435140313855,-0.009114964072469714,6
A/Guam/9841/2019,-2.7053574340491306,-1.3146517759209266,-2.976886438394636,-0.9372927132059252,0.37860911564584454,0.3053376421114502,-0.21497940691679812,-0.056302113289850374,-0.8312781816134334,-0.0014226179257130355,6
A/Homosapien/China/LS329/2019,-2.751282052930724,-1.0089648180092412,-3.133377728307488,-1.0700869408274072,0.2040114493772545,0.4574333154453899,-0.19630791615006848,-0.4476678098410722,-0.4361657881411018,0.18284753119338282,6
A/Italy/8953/2019,-2.835876798969472,-1.378910583567099,-2.881549128847337,-1.0421621899757052,0.37266971114133624,0.24009916306160214,0.086983093486462,0.15118836912139383,-0.34655733249687115,0.03715994947848039,6
A/Homosapien/China/LS318/2019,-2.711053286715965,-0.9805678588030146,-3.006444058482921,-1.0810493064734086,0.205869903000702,0.4119805979326671,-0.07329731407931908,-0.29778196092622206,-0.27367470347258,0.21290858181697256,6
A/England/7821/2019,-3.1397941440699904,-1.3873860612791384,-2.797075066948995,-1.0294110642795566,0.17079336704121173,-0.10398210895434902,-0.16132120816835546,0.3668029182496538,-0.43076412454444307,0.270407116573413,6
A/Japan/NHRC-OID_FDX70487/2018,-2.4116219242707384,-1.3157776272682256,-2.820233845934308,-0.9838681990742548,0.575581737582831,0.2596019733208448,0.01889388795798962,0.4088917988967715,-0.2895650147941545,0.1283748479379758,6
A/Homosapien/China/LS323/2019,-2.948496351140554,-1.4566092314606731,-3.292282250488486,-1.0082320469522597,0.44988878503548263,0.32653274971570445,-0.12794630320957504,0.028222401070209274,-1.045026171004539,-0.1918992581408961,6
A/Guam/7834/2019,-2.936161857775867,-1.1122694651322653,-2.4216622256559415,-1.0218268001636026,-0.12195154852125945,0.04164169882383677,0.45275531322081025,0.3303963823610253,0.5135772233003097,-0.13927847368379448,6
A/RhodeIsland/26/2019,-3.0456011955355193,-1.7843009350096315,-2.437376212146646,2.538845171796183,0.0393088114367264,-0.03139672589354351,-0.03198626236733564,-0.38943751449685277,-0.7226555742456603,-0.12568600883204503,5
A/Japan/FDX70378/2018,-1.6730178588090074,0.8599305611914664,1.7282462655076867,-1.8279504112268654,0.21492581904405386,-0.3967733689658273,1.6603504877010213,-2.2778691144902945,-0.12765887431039344,2.050462239256669,-1
A/Chad/9833/2019,0.7217457213473664,1.2537462369353882,1.1748777764695153,-1.2423656149227407,4.871041549588304,0.4099972032948511,-0.5206994888597543,-0.8596759388589356,0.38786738591619685,-1.2659633716884378,-1
A/California/141/2019,3.263097554303627,8.736670251463538,-0.8275449485474825,3.2037100467822985,-0.2678009679239256,-0.18710566760664143,0.24351471737170702,-0.17145917246277612,-0.18875880803444436,0.018893211003125677,0
A/Perth/1001/2018,3.1575924753828217,8.639662141658699,-1.271345891309455,-0.26095869699150276,-0.0500621812596849,-0.02000497293871909,0.5613864526627983,0.5664340608685184,-0.25030332036704056,0.5451524190175385,0
A/Wisconsin/92/2018,3.1028288786576876,8.541262630165185,-0.8080780199446493,3.211939885138059,-0.4194389709881875,-0.20680798416896393,0.4112761276862271,0.06399137775033423,-0.28897862885991776,0.29618303264055407,0
A/Ohio/23/2018,2.94013141125169,8.043056503049115,-0.6073420303081118,3.200562044210057,-0.3129507738848621,-0.3348434893190413,0.786165165364645,0.26992746210705315,-0.4415578496635045,0.49433797463964163,0
A/California/142/2019,3.156752189582934,8.492339270934005,-0.7723987043872058,3.183952989950247,-0.449272497534862,-0.2689636003611573,0.5574652851255698,0.14148978002879387,-0.3666612827881004,0.18422335568512765,0
A/England/8742/2019,3.2554348656084486,8.729288210485409,-1.2802345609087693,-0.23543975912565185,-0.07320371448670092,-0.017490439792945123,0.5054496012547384,0.5891717318749959,-0.2824649302114268,0.3234259372270348,0
A/Ohio/8988/2019,3.2657305424559415,8.777820818701464,-1.3196537861677893,-0.26942580710221503,-0.20156401243966549,0.028815874121318523,0.5366380249168619,0.5382324198273304,-0.2998230966761251,0.3542382957845765,0
A/Belgium/9021/2019,3.5580319725530902,9.551008611472348,-1.679350332422612,-0.40867848235795273,-0.5523785796455034,0.21214434525605547,-0.2646284378155953,-0.08764736151483156,0.10828614974834502,0.020880031084536326,0
A/England/9336/2019,3.562710806467564,9.550282918727012,-1.671338764915159,-0.41263035496488903,-0.5484974586561691,0.20687636114691818,-0.24972644665814858,-0.12462683083947604,0.039182906991106055,0.020599533779959475,0
A/Italy/9498/2019,3.56111898774123,9.5463052277847,-1.6766853212230193,-0.4031773827718659,-0.5420176478183774,0.21745486927661528,-0.2715819266873383,-0.10319211246477562,0.045426877907946146,0.06173530655068921,0
A/Spain/8834/2019,3.5775678897767333,9.584144624584152,-1.6896664807011275,-0.40650196633459046,-0.5626748540575788,0.22056203088744192,-0.30507593022146634,-0.10548294738474696,0.05249388251187522,0.05529289384914291,0
A/Mississippi/8282/2019,3.717836248714402,10.045093197099332,-1.960251541068643,-0.5234262506833898,-0.9233730685357002,0.4316765939576261,-1.1537597223822544,-0.7284393968693678,0.37164314087292527,-0.45267016535834204,0
A/England/9619/2019,3.723311495311618,10.060372387729812,-2.005027702036607,-0.5388073321548674,-1.17356267894702,0.41640480339371644,-1.1252848757927743,-0.7400253757278306,0.33615318677305867,-0.3658067569697344,0
A/Italy/8767/2019,3.7319426927532016,10.106647824163375,-1.98045111848473,-0.513840937929556,-0.9404589754602118,0.43437360963422145,-1.1637232025769013,-0.7320569237109775,0.37607009691771176,-0.4270834129681799,0
A/Germany/9356/2019,3.740184016960744,10.122065993105103,-1.9895046335702262,-0.5142605811987478,-0.9659621314251533,0.46241467968979916,-1.2065024352574731,-0.7519004704703262,0.3746261456340502,-0.4714132553175575,0
A/Germany/9668/2019,3.7307843576822863,10.104272336486643,-1.9698313052478866,-0.5079052975745533,-0.9564425321184463,0.4241204907717014,-1.182673207558122,-0.7328375617722624,0.37308758726952485,-0.46363785262557655,0
A/Italy/8939/2019,3.734557230211887,10.116029817369466,-1.991930926389459,-0.5117711640410151,-0.9472242652743025,0.44214165770485,-1.174810326679217,-0.7451472916466609,0.38303403242147566,-0.43757087139381023,0
A/Yokosuka/NHRC_OID_FDX70722/2019,3.7326281948569204,10.124134943569453,-1.9882698748293122,-0.5078406855448017,-0.9578799148759506,0.42919679184573123,-1.1953205895117622,-0.7557532669475459,0.38801780320723683,-0.45032051902106823,0
A/Italy/9501/2019,3.812468270120925,9.998824142038666,-1.9479802780653872,-0.5460463275406486,-1.001850240417095,0.41632361602647117,-1.180479107313007,-0.6822005995014379,0.3557454483461196,-0.6021649130615019,0
A/Italy/9499/2019,3.658681850761777,9.483223604515786,-1.6412279456050516,-0.3937073964814159,-0.588747043135496,0.2113639833064766,-0.26978585941315053,-0.11149880424949837,0.039562948882158604,-0.019143585947819217,0
A/Italy/8763/2019,3.5551842301345524,9.562026843976437,-1.6501341494841373,-0.3802010104979233,-0.5169415494780598,0.22901812136194055,-0.24290280538196263,-0.11801181738491662,0.04492305790720471,0.022379618628101127,0
A/Japan/9070/2019,3.568636267178944,9.592081884363767,-1.69091641058956,-0.39474162279233316,-0.5842589536783851,0.20876540126533508,-0.3378510733766721,-0.14593108205587163,0.06470066403751772,-0.02567738674368301,0
A/Germany/9496/2019,3.3993609446535618,9.483076345909696,-1.6200834595596203,-0.44688407970040683,-0.5752203385297253,0.17090086002876476,-0.27718177489029694,-0.19077307364979237,0.06141593288261583,0.038269165422876644,0
A/Idaho/13/2018,2.0053319085908248,6.671998603393581,0.7863358338480227,3.63966685408866,2.5030972485624465,-1.452251876397925,5.65909765410235,4.9564659191115386,-1.724455539233739,0.8796694652589524,-1
A/Minnesota/40/2018,1.9718273301295626,6.505328385702658,0.8001924493987028,3.5549589357622318,2.53830750455693,-1.3013395071812102,5.728089158577081,4.669249412253647,-1.6613869919829938,0.7804610591732429,-1
A/Italy/8602/2019,1.2219747179204183,3.1238336459027054,1.1383446065688674,-0.9094783333759653,1.963885626054778,-0.6134589447635773,3.984050905527226,3.4069930639506105,-1.4346514671101407,1.5158816469288194,-1
A/Hawaii/51/2019,0.885240644305722,2.1494945475572225,2.799158043142619,2.7331771995148144,6.946854199863292,0.37483095392667387,-1.5690320822896133,-0.41760551677221613,0.8682009859163828,-1.8352054308810875,-1
A/Minnesota/47/2018,0.8949674311388256,2.14022130168666,2.7602217397370645,2.733900741409052,6.907316872822417,0.40557109797631036,-1.5372877004537924,-0.41360940611721214,0.8209017967555948,-1.8956057321646653,-1
A/SouthAustralia/22/2018,0.37787482079162155,-0.308404517191188,1.649757612790431,-1.5921333477521662,1.3828734529753728,-0.11135079242965208,0.9909099986232065,-0.7428598564543624,-0.3680829536082562,1.938033274642856,-1
