,mds1,mds2,mds3,mds4,mds5,mds6,mds7,mds8,mds9,mds10
U26830.1,-40.28026189308654,15.134153230711691,-66.97557398183278,35.193436250869844,15.159418412459853,-78.75814616098359,-33.12149844677108,83.8426869307436,-21.503384093968428,63.2366928073425
A/Alabama/30/2017,-5.511746657102959,10.060326312945193,1.4884673432941906,3.5564697998394874,0.049783579851221865,-2.021560902044594,-8.582462812645767,-13.135987502599736,-11.078963236817495,4.0605710536743125
A/Florida/84/2017,-3.571803871704305,12.905887651391106,0.9321887626759386,2.195609978899095,-2.5898135605135346,-3.2553340247811158,-5.961497967460941,-12.93651348186269,-11.16298343465204,3.009766051976437
A/NorthDakota/23/2017,-3.9103996139846426,10.144261365487129,0.7869059036859433,2.6518887052658564,-0.7126959603894131,0.06595868387054712,-8.168372695391563,-11.812588835414452,-13.332979446480103,5.290151989665198
A/Florida/18/2018,-2.172450278436795,11.297149221127839,2.9260714726150145,1.323542141416919,-0.6727248842728892,0.1397517205554651,-7.2778153578260385,-11.176896910048344,-12.207337663074698,5.022516901967559
A/Indiana/31/2017,-3.036823117005315,11.344916499614007,5.0918910639184665,1.3485711542552232,0.7793411419445987,-1.8132832573165538,-9.218283483108504,-10.682117659078008,-11.589926481085632,7.008166414610424
A/SouthAustralia/13/2018,-4.890994444981848,8.147925274963686,2.0298351492388487,1.1005043518970414,-1.489425399791141,-2.3143998165205932,-6.131430092733755,-12.04387299411029,-11.19611509807154,5.024470425716474
A/Sydney/25/2018,-4.423957700192691,10.019383839255834,4.7121750713441095,1.7876782420355621,0.9964813940980147,-0.06816054181116867,-10.404250666635647,-14.828487445293973,-11.858357779712653,0.08097392373635935
A/Newcastle/21/2018,-2.29155318125018,11.687453234278067,4.559622778103742,0.7907514881407748,-2.792968440223824,-1.6472358623517607,-7.281369683835421,-11.547898575041774,-12.534170199340393,0.8867999007925832
A/Sydney/55/2018,-1.043625154803459,11.463250097811551,4.339595680540512,-1.0891727566238916,-0.5940424863027981,-1.9502592431412216,-8.34710710306017,-10.87417879910225,-12.026222867408526,2.2856501420385897
A/Sydney/93/2018,-2.007096225432229,12.844451076159443,6.2384801271843475,-1.3734772950188625,-2.4226771729712064,-3.372353120578373,-8.09386830820738,-12.312385842495422,-12.772227593443514,3.483461840552125
A/Sydney/47/2018,0.07284564988447634,12.28900005251211,2.7622061905483757,-1.7474107896970703,-1.9653715614714302,-0.90933014596568,-8.476202533397938,-11.622189721666464,-11.970703944785887,1.3179312075450815
A/Alaska/46/2018,1.16117872148466,9.961077355740526,1.6439985265157044,3.387296221908497,2.3768677733929966,-3.1501948217888947,-6.341504442106954,-11.302631874546316,-11.579804087415585,2.952947341427595
A/Brisbane/161/2018,-0.001858606849265299,10.478687885829,1.8385562714405486,4.635968127922448,4.242560697681113,-5.802802496612998,-6.702488589586505,-12.471558952938645,-12.016824424574125,4.600512795054459
A/Victoria/2036/2018,0.47758225902503104,9.674623449794904,1.870397428790271,3.8612044761802027,3.2097422594267457,-4.9150561177649035,-5.994331036160997,-12.647391196374995,-11.651285108973024,4.083871210612791
A/Brisbane/28/2018,0.7635725467452922,9.604520334388477,1.733499745029085,3.195100984381028,2.7915387758924672,-3.848995207990386,-6.1727613207130725,-11.786800882086,-11.244586172569678,3.1833551210115454
A/Brisbane/6/2018,1.0814770758477839,9.733356631349716,1.449444150235118,3.1261561755651623,2.9262262721564607,-2.9354293125848065,-6.5160621415155315,-11.541164582640995,-11.564932669318695,2.5212423952872185
A/SouthDakota/37/2017,0.8267411954809378,9.41925317711642,1.6204693451617151,2.6153067328021153,2.44070589181171,-3.126260376000353,-6.119029198670663,-11.011491111051177,-10.992303403755988,2.7551747874902794
A/Newcastle/22/2018,0.9213669644161385,9.566665919324489,1.493398064441291,3.020946504993312,3.1297120984479885,-3.206927774758698,-6.449210557568174,-11.463019749914865,-11.566169533712028,3.1922913814380274
A/NorthDakota/26/2018,1.3692326391705782,9.782856190976085,2.077039541996378,2.8226779270552274,2.6347618703243305,-3.528545983822727,-6.570306950663169,-11.482266637606294,-11.423413906018993,2.4268411345661907
A/Pennsylvania/274/2017,1.4387472774199463,9.84323363161147,1.5720953285157513,2.6429040014025307,2.6003444859005995,-3.173844166776522,-6.276708508425499,-11.220990661829992,-11.878824777281572,3.0373594742600463
A/Sydney/521/2018,1.0422677368579758,9.658082825309169,1.8023604342757327,3.342092385116147,2.682583665304685,-3.25371452471473,-6.460920740048941,-11.755050396422709,-11.31071150233297,2.5575577327391357
A/SouthAustralia/125/2018,-0.2557070092213401,9.36195843230526,1.6195793080349898,4.902793631932652,3.852319709225931,-6.708061251141862,-5.692980531134443,-14.610877707085272,-13.098659935219109,4.4369999746649595
A/Victoria/1003/2018,0.30981388497304785,10.425396503988544,2.8333154418256488,4.396690815292256,4.6454909911050235,-6.886847018776863,-6.287864216951384,-15.061339458092007,-11.564695994609615,3.218144458551511
A/Sydney/525/2018,1.968778578900193,11.385756773031364,1.9991974054013502,2.852172891715408,3.6440563377556368,-4.043781583334138,-7.3540798288367295,-10.681469729103654,-12.03319666232767,2.504000790272445
A/Brisbane/23/2018,1.334658360660484,9.826901610327877,2.1819907413931197,2.2617365430960863,4.522083491140854,-4.540927472934013,-6.908945632006802,-12.512065338335967,-11.567114890453702,2.6355842321352725
A/Missouri/45/2018,1.1925520119663022,9.74172468676484,1.7466022523813,2.361302540884164,4.690406885665789,-4.232702502944385,-7.191514243746585,-11.588345023001416,-12.254290090535115,3.547666409447365
A/Vermont/13/2018,0.7672714059478689,9.688169619621247,1.5814504094999304,3.1716629519510198,4.687034700075462,-3.789300249170288,-7.5455648064771905,-11.437840356462143,-12.245768861264429,3.4549459386412957
A/Florida/53/2018,0.859791077777192,9.806585997781507,1.6088721211391852,2.3238430426542895,3.176892161855014,-5.59113269442956,-5.929341474613109,-12.558678993385305,-11.781146214738962,2.8954963982680986
A/Newcastle/7/2018,1.8664275394097758,9.751996916954509,1.7016944870368094,1.8312785758577008,4.477436778946198,-3.3935175070705585,-7.140876436546707,-11.910735875684477,-12.564114698602248,2.4514513820264208
A/Brisbane/36/2018,3.2025998646686666,9.562961856254477,1.4512888875699121,0.9004489800288148,4.007711521961759,-2.6152376202179886,-5.6674624291745115,-12.858556544284614,-13.294811218170551,4.784560657508754
A/California/38/2018,2.919636697956246,10.909534071838573,1.0418034835628787,2.665979790911209,2.1579239342259338,-2.8251186080607518,-6.50604662645107,-11.759823346628973,-11.918215264020084,2.0865269040672594
A/Arkansas/24/2017,-0.38963291540695616,9.059666019020186,1.7591774082038656,1.1411280420912628,1.357791599769224,-2.2944916946724123,-6.110865679290131,-10.429431399726496,-9.88176657150672,2.814785555983918
A/NewYork/07/2018,-0.5823126471936962,9.149255501196748,1.7256261782787439,1.4526402975403994,1.4514741046568465,-2.2180998745722547,-6.086430711638793,-10.37533423347813,-9.732273833305431,3.090202068007605
A/Vermont/04/2018,-0.5282972772463067,9.075923140995329,1.8675813125984584,1.3514844741946694,1.4973879580012825,-2.2846438364270307,-6.242644391699919,-10.570887885752079,-9.602279415930454,2.782544863338968
A/Arkansas/29/2017,0.08065750321039573,8.667227563032599,0.8539344667820715,1.2891765922651288,1.2861596708509515,-2.1577715978037686,-6.4726767349144945,-10.454515196092082,-9.052194520961814,2.89760697583789
A/Connecticut/20/2018,0.4072724067169758,9.501268901849144,1.8680766650675282,2.384714247909862,1.990445492704747,-2.306310237576641,-6.329967494086914,-11.078872052045853,-10.452561474623856,2.7430315498175046
A/Idaho/34/2017,0.45511644996940764,9.500350534923628,1.831491373954451,2.2195242577353658,1.5693704761145355,-2.7408641554113746,-6.124455953186593,-11.021355330267452,-10.589248367099797,2.8476575839809644
A/Connecticut/32/2017,-2.006255625529378,10.212833151514756,1.5461954671521683,0.409092377415749,1.2366650608005865,-1.89107408040709,-7.011939243661737,-10.341590356861087,-10.693033377991204,2.804546952757572
A/Iowa/19/2018,-1.1341247308565063,9.649755606648181,2.0860473845326775,1.6907884243720546,-0.11988922647881958,-2.5940240987675107,-5.60953571105384,-11.890087905442147,-9.837590243123524,2.92687996715098
A/Louisiana/57/2017,-0.6852065156054216,9.815825129077876,2.5808718203561414,0.9786618625532797,0.5741605495798955,-2.6219613818310203,-5.845335846965178,-12.252357493704059,-9.256806497792978,2.310990939618436
A/Sydney/515/2018,-1.2172925396938064,9.048152518059792,2.729693055447789,0.7119243688877053,2.180534328386737,-2.2712818945289635,-7.054753684013222,-11.908250345459244,-9.333979036591394,2.728896693857518
A/Brisbane/43/2018,-0.7814139134175282,11.059739087177917,1.9015129511857716,1.9132273919237877,2.2753259023480834,-1.7985834150821216,-5.065338932564693,-10.909160822285271,-8.646466374809778,3.212379602251403
A/Florida/62/2018,-1.1617077809034118,12.48709988271777,2.1664321113242595,2.4692944616605463,2.4112309363996323,-1.9581636902135162,-4.735953396507878,-11.748445720301536,-8.105524365400626,3.6789357633076696
A/Maine/24/2018,1.6754186747355322,9.844045242847999,2.0969069147281116,2.649896309410496,3.3827892699636717,-3.7073530911358055,-6.483043855003953,-13.324095241717288,-11.6998620768552,1.2727869814210562
A/California/64/2018,2.581042767533805,9.116842017300486,2.281992888896564,3.3233183792812664,2.1966408909475117,-2.647843396272976,-5.721667701861816,-13.447075615690173,-14.32405250572036,3.972337241484139
A/Hawaii/57/2018,1.9917635442849264,9.30684872488678,1.8403705922161453,3.37187767216746,2.380167798331334,-2.346236639135699,-6.1386574832993634,-12.241762868721413,-13.314107784280846,3.642446910211383
A/Montana/38/2018,2.4607845553196723,9.460502186560303,2.081761793069421,3.9900245311731606,2.0755042861868698,-1.845964192700444,-6.359079367667512,-12.678434168019814,-14.54003854130302,3.8553682216839964
A/Sydney/1038/2018,2.5291536998609603,9.143367050033895,2.2299995571427056,3.6337173893821184,2.9020133523874505,-1.9229535548259231,-6.547868323906291,-12.707581393371981,-14.460591157705352,4.22218146552571
A/Washington/180/2018,2.1355672646402293,9.166570888650442,1.7414022991549807,3.818828197280786,2.169035791230554,-2.0652260517834558,-5.980672294723982,-13.107471833196161,-14.608502902722899,3.825000795101936
A/Wisconsin/497/2018,2.9851830068221354,9.382659539025648,2.804497278697541,3.101723814637193,2.722806313628018,-1.8832493853686594,-6.655255293220867,-13.021750041395274,-14.145904418235093,3.483850301337734
A/Washington/186/2018,1.971633423399194,9.283470080696189,1.822745082614634,3.3570892965187173,2.38485313911621,-2.386364018773812,-6.175608345943322,-12.18575867242137,-13.354202268162915,3.642939856396921
A/SouthAustralia/5/2018,1.2172718481915508,11.280544498517386,-0.1698892129302852,4.410865126823751,2.12129223645715,-4.665291216951974,-5.761974625873922,-13.484783860774556,-11.880128331511774,1.2914135268097402
A/Brisbane/57/2018,1.4442698627663142,13.083964429052935,2.0889431143756414,4.40833907550395,4.7289799771721865,-3.266697894275909,-5.382522918865376,-12.157880475592762,-10.44238571836485,3.3775587178142237
A/Brisbane/12/2018,3.2271233542476074,10.480065875288556,-1.5645985460614913,2.491915870126422,2.533134159394342,-3.1466082154851165,-6.318854400259683,-12.730238445810368,-11.650292608587367,3.3481859450978746
A/Brisbane/40/2018,0.9223247883575892,10.02451392084481,1.295888428173401,4.725537639101921,3.1400352965465124,-2.394898161304463,-7.061177718886858,-12.348845426840448,-12.083768404328323,1.817881359044479
A/Florida/65/2018,1.1962058874548105,9.144247449858632,0.3583921377445345,5.009745802286149,3.787213665758532,-4.505206419932207,-5.852984862500611,-10.370718937344757,-11.450330911527344,4.528748785426477
A/Sydney/11/2018,1.503022750740498,10.541026298398087,0.3745637358382832,2.984584645610552,3.4441090956077,-4.249844845561816,-7.04649111981042,-10.49925629583996,-14.919489306407096,3.52501158075593
A/Brisbane/19/2018,2.0380651048526905,10.701360514811112,2.3198635527158213,3.91044739489524,3.956023771841056,-3.793624460614309,-7.607605009083241,-10.372450825979968,-13.70088882476714,5.272731129207012
A/Brisbane/25/2018,0.7190769409639366,10.117840661686014,1.2564517528793702,5.804294361004243,3.111283964264604,-2.738519073054651,-7.499276904443101,-11.169415417111512,-13.943565671166935,4.404520213815683
A/Newcastle/20/2018,1.0826439024112282,9.880185198392686,1.4936945382281785,2.7187428576215162,2.7329802510502508,-3.7135046343235305,-6.033494046332386,-11.409710540614261,-11.551299749111793,3.3378886024360086
A/Oregon/10/2018,1.1077381137070257,10.157868531561702,1.623801529305411,5.151973610560289,2.2723208818992267,-2.663900486547,-6.8354050903769314,-11.72981210206559,-12.420109372326023,2.968412005046507
A/Perth/43/2018,1.851930697284557,10.022727835403902,2.8574794380240505,5.218096315195529,5.191520783014481,-4.583689848981222,-7.101914813013669,-10.54442671662094,-10.697587268782232,5.900777232645153
A/Connecticut/22/2018,1.1228104688443599,9.984079394427331,1.29748811786442,2.553501808888478,2.739974258348033,-3.622201969528223,-6.298991714953518,-11.12365623868515,-11.800096812776497,2.8757996763692364
A/Hawaii/42/2018,-1.2449523368152298,8.965562191314609,3.8594621910683053,3.7190493245397898,3.7203187546524865,-4.535591000465608,-8.339819795982098,-12.275991042892375,-10.30414141194672,4.636039778196078
A/Victoria/2020/2018,0.6096034117250718,12.613053292373632,0.8710653480397711,5.964398725835701,1.2463351369977083,-6.1452825651327565,-5.831506464960599,-12.312172705556561,-13.481477155177753,2.646979609284715
A/Missouri/23/2018,1.1554625957970546,11.555446938512466,1.1126836225060897,4.953039009671142,1.1398874081627604,-4.7938612788512085,-5.482807063055572,-13.052156149622846,-12.778561741412641,1.717208665215369
A/Hawaii/43/2018,2.690140669636692,10.207355693929308,2.6449935387439654,2.4382144099224043,6.391894847837215,-3.3543568331077736,-9.062577079924273,-12.306577558747358,-14.088582287252168,2.000752932481912
A/Victoria/2088/2018,3.23485757147751,11.371394808475928,1.796431722820796,2.4108845729135178,1.277902612151904,-3.9730238848525934,-5.087087500690275,-12.21061064780593,-14.113163465797962,3.1341850231153647
A/Michigan/85/2018,-1.7459490780734144,7.663928669123992,2.627218395494247,1.0592002098758624,3.171393039034036,-0.8720511416448774,-8.579670032919228,-12.621881859639181,-11.003761649104334,2.141301102812219
A/Brisbane/32/2018,4.005988313454355,12.597795702961662,0.9394190680505662,0.7570226422054357,4.6040796099516665,-5.242224552011645,-7.38481775727842,-11.868200547127508,-12.166910439867662,2.9156740690774487
A/Canberra/9/2018,3.5279457949067456,11.30924929631501,0.37604485240522895,0.8943865766664143,2.7458516557098185,-4.522080029714408,-5.8913259721649744,-12.856600245103825,-11.776921815143563,2.607960033982141
A/Newcastle/67/2018,0.49895762684668554,9.852752202388578,3.030501899784447,5.251303745412926,3.0776394712536352,-6.423008203085659,-5.667822237904168,-14.806363989976434,-12.528605441781208,4.715135341371242
A/Texas/299/2017,0.4393376109972676,8.61340757082886,4.300114773083509,-1.0726326606787986,0.6445033380038857,-2.5759170200093986,-7.659144045087622,-11.587979615354797,-11.587755643824412,2.323763513629348
A/Newcastle/11/2018,1.9450623597401984,9.771068561141943,1.6645852614249506,5.382778898923686,3.1608056560911897,-4.671429815361518,-6.240932500645529,-15.146261561940104,-10.282050549660333,0.8529023375257707
A/Perth/341/2017,-0.9837244665597241,12.6975938474006,1.1694669295394946,-0.04726729355424845,-1.7895928501006289,-0.4171520188729748,-7.407640006763572,-10.039922416647071,-14.132221647235177,7.785480281569847
A/Arizona/30/2018,-2.079718123849317,10.7150044782684,4.084956153718342,-0.6874014876362419,1.1149157558665796,-6.139397482366312,-4.517642740952144,-16.025697919846326,-9.583361591834958,4.138477114810572
A/Delaware/49/2017,-2.5063275485494243,9.553996170397083,2.829798675615155,-0.6114720524753148,2.0960540892792197,-5.497576866174277,-5.145507053456387,-13.907553047629992,-10.221812975656183,5.708684761086425
A/Arizona/37/2018,-4.181536213638946,7.473308829972981,3.3859656005138175,1.6145656669823198,3.506790946643698,-3.8712511701927275,-5.640571300021616,-15.519373366261393,-9.452007919702531,0.6984438037590298
A/Brisbane/1000/2018,-6.265117582023521,10.315142247460402,0.447714458630603,-3.618147073323226,1.7204077234408237,-1.8006706929001717,-6.560974233719051,-9.275385255722535,-15.441458177951214,4.618338856263966
A/Brisbane/58/2018,0.24247648957738355,4.182329345649182,-0.7392805283457569,0.46906717059599734,0.09859781249533099,-1.7178175790393222,-4.5825912008736545,-5.200029158251409,-4.227879554439923,1.794736064428199
A/Brisbane/54/2018,-5.180670781744525,12.005525849971495,-2.0555121906775238,-3.9159424974053683,-0.471928703374234,-0.534836858716066,-6.489759274159675,-9.081222245414276,-15.95609090458168,3.1798845086327328
A/SouthAustralia/4/2018,-4.6970467142393355,11.366764046171854,1.7401513223963012,-2.2828581212600834,2.6093060320506622,-0.5983496730235469,-8.110767727997969,-10.610540718691995,-14.119725829191712,0.9778288749303059
A/Sydney/24/2018,-6.31789887436317,14.635217963792579,1.1910953192146838,-1.9263895018348756,3.9941031826211106,-2.2087832261335616,-6.5536195997164235,-10.292008109953493,-12.32312393460301,2.3867720762461557
A/Texas/68/2018,-5.603510160137679,13.635163502204998,0.992528377437271,-1.2967446086307346,3.2552901065010267,-1.5738674265414554,-6.168246890908685,-9.956612266544687,-12.198449413001526,2.4295011650741247
A/WestVirginia/14/2018,-4.485613246826904,11.224003795931942,-2.1001187149790193,-3.3771482645962703,2.2686851397362107,-0.3297811015969976,-8.401091062240697,-11.385858367979049,-12.820244249596746,1.773150694094487
A/Missouri/26/2018,-5.979207531254204,11.520653726550563,-0.2688570881606449,-4.331996901017512,2.149844585794047,-1.5552968120331812,-7.627622208576811,-12.561537170125805,-15.375602123196598,1.2305250804153904
A/Indiana/28/2018,-6.763975533212039,12.015369899869071,1.9050010628534408,-1.2324925897007915,0.6596629395805348,1.8882476697534536,-8.84660298237582,-12.314143955677626,-17.677122569823442,0.9752480191544197
A/Virginia/53/2018,-7.87459387934367,12.265939258119502,2.1185482864126195,-3.924938989952055,3.768044886174816,-1.3509959406704446,-9.839198051155382,-11.660587716848177,-17.974579722533896,2.8292276375968513
A/Brisbane/1002/2018,-6.59554304095466,17.055434530457465,4.9602933534557865,6.646526538258455,-2.003686624066819,-3.886185899966183,-8.46908221971854,-5.963523133879103,-9.481820922949982,4.2127538886158264
A/Brisbane/112/2018,1.6773316827123066,16.370014830810774,4.959748716629464,0.4759124003203475,-0.3811746927586565,1.9411611618929034,-10.147149220511174,-4.162779003610599,-11.027883871530005,1.6564192933384299
A/Brisbane/73/2018,-0.42980626751206963,14.269741048083066,4.586132481038239,2.0897413652438868,-1.6177774613334786,0.8145071904348382,-8.036201120341252,-4.720793243188855,-10.910182981358062,2.7191767643344207
A/Brisbane/89/2018,-0.6172292488530433,15.524880358012478,5.253365345781824,2.718727541251362,-0.9087659799063681,1.252016157371186,-9.568040358408838,-4.950129817355079,-10.625844253974027,0.5306444865469504
A/Nebraska/08/2018,-0.9046848618845028,10.842242845711159,2.076184182840886,-0.2403015762230952,2.479477414220529,-0.3185181257000239,-9.990199090667844,-7.194083461264047,-7.870332239415953,4.747619618832585
A/Ohio/22/2018,-1.8481023678711597,11.457103069814526,2.232102851384897,0.24889028539619043,3.8685137507837117,-0.1860662814845509,-11.645066747886784,-6.975165815295441,-7.986398980651619,4.343227441986774
A/NewJersey/33/2018,-1.0611710939624355,10.669850760851748,4.086172143560999,0.003942971038185666,2.137604164509174,1.3248410593964963,-9.972440855145818,-7.615960628923221,-9.186140227824543,4.073168481887437
A/Nicaragua/8899_11/2017,-1.4769012295228137,10.758158764444747,3.2209194897596514,0.6916707028806806,0.8671473636900193,-0.11451870537441415,-8.590439782595618,-7.899182294715559,-8.19154733044373,3.0267415216807407
A/Nicaragua/9379_04/2017,-1.0046144314450545,11.492513683814753,4.684923882515028,-0.9599259122369703,2.4394479256761654,0.2031262899506497,-11.105038484761396,-9.666741690537183,-6.173184680099665,2.4329060528521023
A/SouthCarolina/02/2018,-5.455311205292535,9.210610113609762,1.609641363587043,0.4433997858196776,5.969818022980311,-1.241198127937922,-11.439981279218788,-9.642297739439174,-7.744773077454817,6.25724696549324
A/Brisbane/1101/2017,-3.4517941110415014,10.034171458203014,2.9850866059780796,3.2252297952747413,0.8516778381297072,3.260709395177486,-8.616810562795074,-4.466837443738128,-5.774864073816329,6.228687209834909
A/Brisbane/45/2018,-5.822183030589383,6.32844422379136,3.3319887932860355,4.165232557297648,0.7476266222854523,2.810693729356559,-8.459909267294227,-8.359723799745382,-5.37817992711864,5.941869312650863
A/Townsville/4/2018,2.6699242299539017,9.012621811525918,0.5304832029028476,1.2837841506022836,2.098273264167306,-7.205524430050185,-6.869014698112946,-12.129568196548217,-14.380204657682587,2.882487869238914
A/SouthDakota/39/2017,-0.4564368566680832,9.294227340378066,6.338692472784985,-0.029743306210386372,-0.8103707144181866,-4.708415560588442,-6.566031857134313,-12.5723711415911,-12.260931745917707,7.314025260757357
A/Hawaii/45/2018,2.021071812545086,12.922033021379617,2.126319207032296,6.051948796443413,0.7296571724612272,-5.693896269718312,-5.066159217053714,-12.131582253884172,-15.020120575442867,5.830879912886153
A/Montana/24/2018,-0.3509835111826898,10.995398330646404,3.863479371230518,-2.5982702581715564,2.2492077447399828,-6.00002185048157,-5.736197863850012,-11.874539374231238,-13.791024122037816,8.638020656885718
A/NewJersey/38/2018,-0.34461889417460423,8.119951695426634,0.24828617642990589,5.11902721448814,4.175550982933235,-3.7529640841437253,-5.214917242093116,-11.274912740012658,-15.452288141779459,3.707942047310634
A/SouthAustralia/2/2018,-0.13414564080457167,15.940552542864053,3.7887094577934524,-2.229936204734769,-4.689005395183848,-2.3001225226250095,-6.023973576536073,-14.473087407135331,-12.752539820170211,2.322522993989618
A/Alaska/52/2018,6.376772977209694,14.695153503646932,2.144286504866713,4.556305050405447,8.643850887967096,-4.88111772678375,-9.327358123352111,-13.086359847595535,-18.201513776631792,-0.47671022120020146
A/Brisbane/120/2018,4.399054238538281,14.136930160153744,2.539837002806546,5.542732679341903,6.384308655870461,-4.839418950711096,-8.829522233062413,-13.302090004009688,-15.386266671394507,-0.1751512441471339
A/Brisbane/142/2018,3.8213684834865647,14.09764749163423,2.470999327362898,5.674552209397482,8.10414992409192,-5.85450474763652,-9.412218895268868,-13.774548683597345,-15.89871144674478,0.35358038876181075
A/SouthAustralia/82/2018,4.525974069880529,14.254586431115442,2.50529434998784,4.732842153333876,7.158062320691617,-5.38924770948206,-9.033034672766028,-14.180354970945382,-16.330473333718217,-0.8317063489547445
A/Maryland/54/2018,4.681677460949701,13.428321602116032,1.5784643826333253,2.9525580078108042,6.236172812232384,-5.339381802817401,-8.313129177836613,-13.254161379671267,-14.136682240343392,-0.030695929965237113
A/Italy/7836/2018,5.1032671424345235,14.946069905554609,2.4450326322269005,5.200208816864553,7.376761628436699,-7.022380628489171,-8.36410031170349,-15.599675559864044,-18.236998093491955,-0.7906675348643791
A/Alberta/017/2018,1.2987365156621495,9.678490466445128,1.9106341917272496,2.6373458196921327,2.562023963699591,-3.24981500270674,-6.6568200984368024,-11.369556663605605,-11.774876402873039,2.5606782150930067
A/England/7400/2018,1.512744918780698,9.970451992304465,1.6158820227357598,2.689906595526007,2.5622332739642855,-3.1623607441533594,-6.344671283858378,-11.258073709859804,-11.77706646955724,2.675215856784181
A/Japan/6791/2018,1.2606815935133355,9.992516966553838,1.8385658255367379,2.860721790759446,2.9728933146543355,-3.515586702561675,-6.37461843780679,-11.498022002743784,-11.179688807827038,2.907818732369781
A/Japan/6956/2018,1.1721380350986503,9.726371982590768,1.8100574313154012,3.0089235399806755,2.2088875986265446,-3.6390918922395334,-6.11242306222275,-11.503359327906189,-11.638795203471462,3.1104842802115376
A/Ontario/212/2018,1.1275388100359656,9.790383647372536,1.4808910464801566,2.643045826403562,3.0614400652804905,-3.5188671149425077,-6.407104025828952,-11.600378438924317,-11.483083138470981,2.4080456477674277
A/Quebec/217/2018,0.5230561409287902,9.416890934905073,1.2733313547795129,3.0227858837735564,2.7264622371593425,-4.091145537006272,-6.304274929495611,-11.285790679304567,-11.647074962309961,2.9339974447759554
A/Bahrain/RVT0140/2018,0.6836318562289471,9.402839384279615,1.251231002937973,2.9519650112557794,2.787960346219242,-3.3693741691002597,-6.279649307190457,-11.839116340323717,-11.712003529946246,2.5455987488431964
A/Bahrain/RVT0147/2018,0.34685224469540665,9.426055563309022,0.33099145861556006,3.5159845128240357,3.212447254346601,-3.583665388546983,-6.33764016126356,-12.572661109784619,-12.821349503381809,2.1337341065283084
A/England/6942/2018,1.2590204770372038,9.96928811816696,1.649417931452534,3.067753864102691,2.8902770516227454,-3.1869780485002277,-6.672913527735621,-10.990468792578339,-11.635015785824017,2.9762784975208385
A/England/7013/2018,2.179251567752423,10.437833743991012,2.4682247961529646,2.848042021349243,3.8110004694900903,-3.2915874079938705,-7.413352738681831,-12.013738597089082,-11.782720751263195,1.6136004891522036
A/Japan/7163/2018,1.2826258020440608,10.635010919672245,1.4167955817192788,4.2600203325864845,2.5772351798618143,-3.5178989329077184,-6.900271891416188,-10.63964458157891,-12.779596524428856,3.788050654003847
A/Bahrain/RVT0142/2018,0.09030749822003553,9.054046309073478,1.0783149552202953,3.4850081244420466,5.170667771070288,-4.0688015728274864,-7.153759723985673,-14.090468197427306,-12.593624026879521,1.8476269719673284
A/BritishColumbia/071/2018,1.45033145072267,8.82647561663134,1.3174275316867237,3.2600454526843703,1.8246983624456254,-4.703354090628372,-7.410177643001005,-10.975483411990313,-12.582097083709371,2.128411453298273
A/Kentucky/7231/2018,2.370603979804911,11.032565983783678,2.8527163967285403,2.3794305951786034,2.868727139476488,-4.743145054314831,-6.516746892634609,-11.629545997370396,-11.682388172112843,2.8891771915589257
A/Ontario/054/2018,2.2719320590112875,9.85092093246232,2.6946249142983123,3.3116569106555698,3.5809412922568225,-2.3878102493238256,-7.323378719276101,-12.363973033135467,-12.019034630658869,2.1258652266644664
A/Ontario/217/2018,1.8533225608247512,9.116008178578637,2.49452310374158,2.0978146833800246,3.9805486425837286,-2.6861435052761227,-6.116958529493644,-12.681915349124273,-12.363144067635291,4.232605540686797
A/Ontario/221/2018,2.3935069628701275,10.799606581304547,2.4250095811341983,2.293390085505813,2.095268705229793,-4.371712003992542,-5.836723569209974,-11.454193138310433,-12.475279824483946,3.892747197913161
A/Quebec/105/2018,1.0192430724046257,9.863294015461387,1.3965927910329192,2.9910679134881817,2.5371891953847054,-3.474481627167756,-5.87090821966178,-11.703659514490926,-11.472459343111456,2.9909222672304345
A/Quebec/320/2017,0.7509664722116195,9.75207579674078,1.3790568543496284,3.379809937016021,2.7490815120398535,-3.3388290674987555,-6.3874924495104395,-11.40902673955601,-11.545460579741299,3.0212987576448715
A/Spain/7191/2018,1.2574077968432824,9.81430007098745,1.646365394480664,2.5153715147291296,2.503602440239825,-3.8889978554033435,-6.138016213549945,-11.304335698468847,-11.7256975852817,3.0833657216757104
A/California/NHRC-OID_QV9602/2018,1.9708070606275525,9.305736385683618,1.850514677543879,3.409446978566323,2.365338686018916,-2.34498588249588,-6.133516213953778,-12.233880403870867,-13.304853477470228,3.6947099800527274
A/SouthKorea/8204/2019,2.415630415887398,10.991312884582388,2.187622357361215,3.483581575444217,3.933297032656379,-1.218234653755541,-4.39152874588646,-12.75375280740511,-12.562234145648457,4.439781843660652
A/Guam/7699/2018,2.7500884305472386,9.320164181144444,2.724364717233652,5.726041835780831,2.4157721125511347,-1.216306444019028,-6.832285640510092,-14.397047250757343,-16.28705060534022,4.0806238538606925
A/Guam/7833/2019,2.1231087391089005,9.140859669717901,2.6059829394629364,6.463421299571879,2.4025012595575217,-2.197501386721356,-6.275913592095923,-15.328022065949174,-17.159490705835985,5.332167730309639
A/Alberta/061/2018,1.565696206195244,11.322877960415683,1.9939535288793253,5.307630123597324,1.486399563426955,-4.113433502973084,-5.6517503114883505,-13.788773720219528,-12.031785922930021,1.6599888269434997
A/Germany/7133/2018,0.7629293581211698,10.71566729997372,1.0509454676024264,4.208374341331158,2.198260914682086,-4.4043445304287046,-5.892893498857106,-12.485008971610373,-11.854168945560435,2.0333365381890625
A/Japan/6686/2018,1.3012854486772978,11.089959032399138,1.3857873699926226,3.730684758889524,1.920436281882838,-4.698638415076747,-5.498178455472719,-12.2493104491712,-11.82506584629923,2.606025529212891
A/Japan/7160/2018,2.077465599598985,12.16126248143872,2.0599727546111737,3.4698561693723335,4.295449855829163,-2.9131899814221915,-4.00542707322382,-12.852918077957229,-11.200813573549986,4.0588710367879015
A/Germany/7344/2018,1.583279752677027,11.359113562419555,1.0181686003270667,3.9454874915224636,2.3668456997025396,-4.021684323856569,-6.3235702148928095,-11.604874180685943,-12.020388710478528,1.7707481619228918
A/Germany/7356/2018,2.3805217378003136,12.40491692521292,1.145655448567417,4.312686844430821,1.9818996598732344,-4.325488014484394,-6.227076354540456,-11.851132496447342,-12.872994847902751,1.3103548436120402
A/Germany/7360/2018,1.6621492267063813,12.209715340759455,1.0574592796892146,4.858133047374793,2.504085195488825,-4.502750706441695,-6.62269141771368,-12.143298802407884,-12.396925797051608,0.9926236201652142
A/Japan/NHRC_FDX70352/2018,0.9942554568497974,13.043306663545907,1.3809309940373544,4.774947921825902,3.993346265713521,-3.6638645942220136,-5.012317660826008,-12.370493968286574,-10.746153992954426,2.8365001811727626
A/Italy/7366/2018,1.9216409060986965,12.691165666919712,0.4595654617880693,6.207332973382657,2.0621188675679485,-3.8422738088624966,-6.709079385885785,-11.699188329992635,-14.227991225733069,1.8278034102620677
A/California/BRD21615N/2017,-0.07674062751117901,9.29603957075185,0.5287006462350851,0.3761419540542011,0.8557415595810606,-2.258701329342537,-6.200302480905207,-11.639442933772,-9.13930646145038,3.193249659218008
A/California/NHRC_BRD80876N/2017,0.0697149063344835,9.419594315282636,0.6648339382963987,0.48163186186657947,0.824794158992067,-1.9839488111078056,-6.228421215129564,-11.76431762625338,-9.059798078136739,2.839377470756255
A/England/7126/2018,-0.5318684560553966,8.86221212066336,1.7080446455394764,1.3887691687008807,1.3773724626071358,-2.045212849016589,-6.267118332623377,-10.50231090516259,-9.975502649767469,2.7747773401872418
A/England/7335/2018,-0.42198121944913697,9.434761037954924,2.5657060080605065,1.9207813785010528,-1.2352402266637774,-0.26269514748737244,-5.731739057987217,-12.879078618289899,-11.512115829756887,2.8690779498131493
A/Oklahoma/7177/2018,-0.42914816287659574,9.03868873415248,1.7997026491465014,1.211396247488794,1.5161370974275103,-2.1794523761230393,-6.2732621157109625,-10.480788320777517,-9.78118834558573,2.724383272945998
A/Ontario/321/2017,-0.4892020745593291,8.994082308662115,1.770716516922468,1.2618795422726394,1.347558153635149,-2.2905952660221183,-6.043887909853977,-10.560124892440921,-9.795561052313934,2.990043302797012
A/Ontario/322/2017,-0.4859759314063801,9.145467632687582,1.7818777841505007,1.3916051081168894,1.2603090647982425,-2.2646950133366093,-6.1291931154722095,-10.53212883279442,-9.735652294604533,2.694249574511092
A/NorthCarolina/6698/2018,0.3106665714257494,9.331253598801375,1.8694345963677952,2.2174167886562954,1.854389687138917,-2.7255039227912508,-6.247746243509086,-11.363807862753653,-10.427773603295108,2.457926584356719
A/Ohio/6410/2017,0.3093708693799652,9.43833433248623,1.5239045050826534,2.2145468082939432,1.7701772988765299,-2.4408322897991774,-6.353221273051174,-10.849773961936323,-10.874155115726715,2.634386287334966
A/Ontario/100/2018,-1.3066049811674112,9.303905385373266,2.2948341313474976,0.33414831368308484,2.603702216832317,-3.191550769447264,-6.8392549875422555,-11.457170732346423,-9.421718655456885,3.166858870220773
A/Spain/7259/2018,-0.3226591231185333,8.69918298909763,0.29780003055231147,0.9768110918368205,1.4901727029957257,-1.6387786271023401,-6.864913160193109,-11.348244706678546,-9.326904199853473,3.2500147977958407
A/Texas/6835/2018,-0.2621151523370832,8.904242709361123,2.4748757153176295,0.16873531494445776,1.5501147814501053,-1.41789971409072,-5.954003706518267,-11.500559360662383,-10.431063690021604,4.163082847448956
A/Ontario/140/2018,0.14311650021007702,9.510032361185258,1.448396504407939,1.6178566072571003,2.245743393341145,-3.309915955607388,-6.207522326770661,-10.644483650182746,-10.758706674701482,3.3629156562157463
A/Ontario/239/2018,-2.812745198313193,8.355139011424447,1.2729587680141417,3.529969388340099,-0.13201321661055768,-1.450585965201535,-6.293710176350317,-12.62101221154818,-11.34528270377394,3.3361323243659466
A/Quebec/058/2018,-2.6562774300869214,10.278149167951518,0.5412422086857341,1.71693848422233,0.3749219130515218,-1.601557735770402,-6.8173861897040835,-12.1929256482405,-11.213829253391895,0.7426607003149406
A/Alberta/020/2018,-0.15313042671771318,9.333145629963665,5.152370440663055,2.2052474358486793,0.6559652052688696,-1.0191690213133442,-7.848910867797886,-12.617766217471756,-9.626997187393638,2.8566735461705073
A/Ontario/222/2018,-0.5593530054832785,7.916127438838602,3.405472994507245,0.10224358916478732,2.2345790930228575,-0.4592006397512815,-6.24962921207957,-13.2187289411118,-10.977943263107413,4.784414475132921
A/Quebec/102/2018,-0.7276704863339146,7.917640967566605,3.5672303816152646,0.3940697822092321,1.9130474223569505,-0.8020131057258099,-6.070665944986344,-13.372377068419029,-10.733865818487116,5.016438951438342
A/Quebec/219/2018,-0.32462358940116803,8.008048915071859,3.6197876201442267,-0.05622715226046352,2.1539732437638874,-0.8369066980155462,-6.155655515247778,-13.78737173409077,-10.3581537548854,3.7765923779354145
A/Ontario/245/2018,-0.054358535986730384,8.07361500949395,5.63752660795673,0.34710042560522786,1.6419716840638514,1.1435725499567877,-6.802771487444038,-15.771131661315406,-11.830743423585073,4.544724308619758
A/Quebec/128/2018,-0.9548978446699644,7.917835869640808,4.889028240199813,0.5002870731236626,2.1708783223631345,0.17553251487619687,-6.668500684707767,-17.04484028738199,-11.106936051808013,2.422546764530249
A/SouthDakota/6967/2018,-0.9720603542081048,9.394665315582404,2.664666220567245,2.709503284739581,0.639016516469314,-0.42059609463600434,-7.28902082288768,-13.315659698711963,-10.044351386477617,0.44350402897231694
A/California/MAP4166A/2018,-1.4586853724466344,9.23405468138406,1.8135083367573872,0.3892869088260489,1.528628529505949,-3.6449697545496997,-5.935991388402421,-11.944752016871467,-9.601054988116033,2.547844095709093
A/Alberta/040/2018,3.1321148589916206,11.001953009637822,3.9844827389357556,1.5861416893369862,0.10667332329031409,-1.5495679073770086,-6.153378673928068,-12.168887696053929,-12.235707841413861,2.6651847370314385
A/BritishColumbia/052/2018,2.004477122308511,10.146758256959561,3.292152556141593,2.6172176463601886,3.6178314459538634,-4.497256357369473,-6.849395761990205,-12.004170126292664,-11.384159952113414,3.7858308041859963
A/Japan/6850/2018,1.0563791871244164,10.001540972627716,1.5421239952213897,3.22513368633083,4.6914740906787715,-3.553031922304665,-7.709956044520737,-11.491176373010623,-12.115381352688818,2.5709110172228553
A/Guam/7222/2018,1.1943087080281023,7.081112965440047,1.1643674087759965,3.7813014669284595,2.9249432762378884,-6.224082514888402,-9.872764315855406,-12.057116426530696,-15.503690727028557,1.0157284240143345
A/Guam/7362/2018,0.718211280609784,8.250522225434986,2.450658983466544,3.4105372572434356,2.1898554005212088,-4.975635677876599,-7.387884243821686,-10.957712470299114,-12.690413800497907,1.716290304085989
A/Ontario/220/2018,1.1532901115535787,11.755274592564053,1.7482252439508368,3.920308246814517,2.231331540993955,-6.2816132522635275,-5.4217879369553,-13.203517304289665,-11.844555257842242,2.3116160499480456
A/Bahrain/RVT0145/2018,-0.18129083031882223,8.298531377948525,0.6654001658737237,3.542330161251965,5.388919976383157,-4.254170440770462,-6.817962888924523,-15.236671080888689,-14.055568913953653,2.6253585329406968
A/Germany/7402/2018,2.1880192532580724,9.998023571894766,2.545174751292814,4.145261318760007,4.41771504597113,-1.8747363576316274,-8.73582004159808,-11.804372110417692,-13.385128994160416,2.1070042961506923
A/Texas/7051/2018,1.562630173645507,11.225654347019107,1.7373356371607365,3.347917661295859,2.83897661503786,-6.38540107910277,-5.366172910360191,-11.86067863430871,-14.466893560731977,6.51909594800898
A/Quebec/044/2018,0.31113277187894395,9.931320673453454,0.6623342304922879,1.730662196101019,5.114859939972216,-5.468745022247668,-6.639111191419082,-12.191826599276506,-13.55963731507563,4.094520054277939
A/Quebec/169/2018,3.8314901858052295,11.823956233412705,5.01444733024724,4.667823012507048,3.7076668498174308,-3.110550250354115,-7.690019172900087,-12.61604766807864,-12.360234944042238,4.098606976965195
A/England/7127/2018,-2.0523197422784416,10.685195228340616,3.482808662006807,4.172624132477926,-1.5226067289647025,-2.5037772269238436,-5.064178391960565,-14.406730676626948,-9.76581837518988,3.917696976818743
A/Germany/7218/2018,0.31869809887351935,10.433977009341513,4.3007854446207325,-1.7574017497883292,1.252134345934798,-3.5115561091980725,-5.945283906407198,-14.848590925755794,-9.984375574700493,0.9555217069870272
A/Quebec/188/2018,-0.2970119361338071,9.511076356963967,2.6452248549377186,0.8501414390960289,1.1288287383534092,-1.3994887258899602,-6.7550324722215525,-11.93973826257232,-9.782559049006293,1.5693798370713063
A/Texas/7002/2017,-0.8217667923413435,9.97047843479443,3.8096962833497523,-0.6937168771680545,2.8466954029699156,-3.905501077615603,-6.991691989175655,-13.038669809891402,-8.894759900820027,2.2603848732425647
A/California/7330/2018,-2.514624009342909,10.019848353788358,1.5739482122756794,0.9783164097599027,-1.1558734432094104,-1.7523897454433752,-5.609493953324227,-8.772077439961588,-10.824575687057674,3.8783663558674766
A/Italy/7152/2018,-1.6997191465393766,14.965955645182303,1.5280078951973142,3.101459919459975,2.8409587631912694,-3.05403354756942,-5.838205196683679,-10.690322303478869,-10.31630347030548,4.174382619538642
A/Texas/6583/2017,-2.4916794342907322,10.380730795139248,3.275110170051323,0.49960070663186223,0.6650472603120735,-2.9557581886011732,-7.987261137976607,-10.590544900466481,-10.477255231776391,4.128412506003534
A/Quebec/308/2017,-2.9560551249709075,12.234809024696444,4.887140300235227,-0.9731922463360761,-0.10567567132685815,-4.339161272904423,-7.3309007090980085,-14.048344518176474,-9.805009379270096,2.1001862644132188
A/Ontario/078/2018,-1.5571384312745955,12.868324406248004,2.8886819826596137,0.49174215568449675,1.594024496388491,0.353657113290651,-4.909954910958019,-11.752662600933077,-10.004142429888628,5.007061075565516
A/Alberta/053/2017,-5.476753930181561,11.141895766895864,0.990396048782886,-1.8854710189083463,2.1398905503741177,-1.5239500816620666,-7.426043173580265,-10.503834407371688,-14.442131273519701,2.060228539558762
A/Japan/RGN0214/2017,-4.609016490510529,11.07561685737705,1.1130568296213836,-1.6402195243818598,2.0456178517210053,-1.5895362577002439,-6.9186917425825545,-10.245991669073033,-13.224090904926591,1.831560713491334
A/Alberta/419/2017,-5.5379592606029675,11.359588691974336,1.1175177172600927,-2.2543056942310518,2.1219873139352163,-2.0165002969062624,-7.2563841258391015,-10.800895673297186,-14.079024244051007,1.6225268777626158
A/Italy/7027/2018,-6.4697260288196405,11.857889443067076,0.6079705067779468,-1.387654197888722,1.2530550548432717,-1.211378513714346,-7.55957620702852,-10.964263998898563,-15.521892547576053,1.3332170398761594
A/Quebec/141/2018,-4.069609969851676,11.684930600836182,-0.35783127972443723,-3.1727474059270366,1.5889545781051628,-1.4204692914020138,-7.340079647931915,-10.514434234663957,-13.18095832283904,1.795414540363969
A/Germany/7135/2018,-5.484993736422264,13.847003194764364,1.0103868888113559,-1.191145660129323,2.916675602439301,-1.1426567126561151,-6.074038376073151,-10.288502634656982,-12.0990950499901,1.7757819297893382
A/Germany/7401/2018,-7.076269735828707,15.691367356932103,1.1165891224912605,-2.1594900573898226,3.735907412167045,-1.9241814504066845,-6.549644916040461,-11.075497285512576,-12.849876298818245,1.4459748701589967
A/Germany/7409/2018,-7.083457455916323,15.092826119396332,1.7973695616888656,-2.312759677704922,4.228645358842487,-1.1595374199385564,-7.139417562580194,-11.881486931215317,-12.447866272766175,0.7395180169434316
A/Quebec/074/2018,-6.161926993285581,14.61644454373322,1.230863862613598,-1.7122638048585768,3.794559047859585,-1.4727353142058892,-6.7573415524339175,-10.874678854697573,-11.96595377789087,1.03686281891921
A/Quebec/301/2017,-5.31409010497111,13.866774636035473,1.1495348916373553,-1.5418020785144497,3.2182592699542556,-1.5029388955388618,-6.240627680511662,-9.990340411563652,-12.071643634322923,2.002508380958653
A/Florida/7501/2018,-5.895074453526841,11.110645255434962,-0.4512407804519018,-1.3560168729215203,1.9088606000403214,-2.1573585074293606,-7.349065950803457,-10.908749427752992,-13.393698287276319,1.0716185139629748
A/Ontario/201/2018,-7.371565236463622,16.726078804541444,1.0812780198016485,-0.605917918802046,2.4744836221889153,-0.25824588782478486,-8.023950718710303,-9.532025604772425,-14.676186502952197,1.1368871008274788
A/NewYork/7243/2018,-4.588916643461971,10.796054841476947,1.4195843226668112,-5.445111731568275,0.6247990049973158,-1.1547238400946556,-4.765432953362024,-10.47943713056349,-15.111233144310747,3.800696707475336
A/Texas/6658/2017,-0.13751711311798615,8.941089735681382,1.337356430889142,-1.454308259332308,3.0868912358947167,-1.0066206308402401,-7.499256620839116,-14.797568795182718,-9.429381325362845,1.3486201385549121
A/England/7014/2018,0.6937722325529554,11.798414685768503,3.7519724936522505,-0.02995167604945126,-1.4831452962756928,-2.759919606505538,-4.645173721032215,-14.260197354508383,-10.31289363085127,1.598936935194531
A/Spain/7044/2018,-5.632340267122904,11.333997714911282,1.9666781787361938,2.9370245701149917,-1.1796498231425325,-3.198149230348999,-6.861653448154076,-12.81770670064803,-11.841380583414645,4.668971787305404
A/Spain/7190/2018,-5.363881898190762,11.608765372723827,2.2428888851378503,5.158018108164856,-0.7534366988954228,0.22233709727183987,-9.266405022177945,-12.255197263952322,-13.345105951790364,3.409361990603923
A/England/7211/2018,-0.9608691616540828,10.000067715794012,2.3461035334446643,0.1334969832918617,0.7207501681049189,-0.8408232753896716,-8.54958458646754,-8.675315222316414,-6.7310947803364405,3.5686575164356187
A/Utah/6872/2018,-1.8703559437282617,10.930848409752402,3.404055107878051,0.7659850433934657,2.3379940101416605,1.7288479191221016,-12.100654611909313,-11.257207359348994,-4.9915996599424615,2.2799312729094554
A/Japan/6631/2018,-1.465380305204834,9.574674228518196,2.153333780463297,0.7943626606377541,0.840230924875158,-0.9886654845685039,-7.263322199368223,-8.133815063529944,-8.172698129101368,3.1585452945357337
A/SouthCarolina/NHRC_75751/2018,-1.5613297508090296,12.8193262706516,4.278715686321107,-1.2809992252718112,-0.46548262426226955,-2.9477035494246366,-6.963724430908175,-8.55773668972445,-7.581545876468181,4.57198545172926
A/Japan/6790/2018,-2.8370693364123447,8.285607420974326,3.0582895524156726,3.181457038633926,-1.5640580815206677,3.239039714248985,-7.7225462494327,-6.68131042285838,-5.781201573976078,4.030586354292025
A/Germany/6943/2018,0.04638039666059296,11.891423474642105,5.306513446187395,3.610217616470565,-2.3858369023088533,-1.2444319883810888,-6.201297872477819,-15.062882535478424,-10.31485467068858,0.7292637299736223
A/Japan/FDX70344/2018,-7.418982594863712,12.783267891363005,2.4228610435440165,-1.501182825740736,1.2871792995114673,-7.256426667908518,-7.306126793368082,-20.089109165615387,-10.852866201011825,1.5099961415669592
A/Ontario/052/2018,-5.109328636551666,11.318994207393594,0.8359657765288815,1.6277262358327855,-1.396498835706709,-2.492370958529353,-6.6751101921830225,-16.416819056304018,-10.155787637258623,1.5640098621355718
A/Quebec/211/2018,-3.358646069233684,7.7570216385834785,1.642367316674945,4.172353565751119,2.1283226300477374,0.059868275706381716,-6.600601990852655,-16.290848091937107,-10.844388003467607,7.6962353100521375
A/Texas/6972/2018,2.8633545699505314,10.88284089137962,4.9499809642293275,5.563420398606133,2.7941384587770326,-3.3545210013218645,-7.755900153222935,-15.972046336089823,-12.75204533433562,0.08041569357212133
A/Quebec/306/2017,-6.949468202098699,11.963709662178845,7.015628535426819,1.7271141993493313,1.005325035650654,-0.5711120983553772,-10.794547507009623,-11.707025691939382,-1.0965343234820302,-2.7685319842180998
A/Italy/9367/2019,-1.0842819835341022,10.431150419137179,2.498943977770138,8.074324835540398,6.367527008897756,-3.8107559642842994,-7.676880218047573,-16.354421095456413,-12.878878165678643,3.4453851274943172
A/SouthKorea/8668/2019,4.515497096687206,12.679349339059547,-2.326360637383543,3.2956952737491134,0.8233177063318238,-6.87347626870422,-3.301928702308923,-15.20229796783759,-16.88934911175729,5.947636589263227
A/Santiago/PUC-MVL_012/2018,0.43753774656510463,9.678096426881108,0.4954956932936592,0.26017193110121034,0.5508803501047335,-1.9799985620313743,-6.442630628219731,-10.933782942356963,-9.577309464332853,2.7593329191922598
A/Santiago/PUC-MVL_025/2018,-3.9564970131408455,11.445000683647338,3.602626037828423,4.829834899188265,1.6441899973270377,2.806349290738325,-11.975724425504259,-7.708330592470587,-10.53269153962635,3.546514225689976
A/Santiago/PUC-MVL_042/2018,-3.1095477912769947,12.110759957261065,2.915978524362792,2.367339759622129,-1.2733628811324282,-1.3619265546681674,-7.6124312213807235,-7.437886503013735,-8.835973337717894,5.620777365092632
A/Pernambuco/9511/2018,-1.4347531474429431,16.831784347277715,5.039214582997814,-2.5129505518597557,3.6531935980242394,-0.6996103582297006,-10.472009381294379,-10.422893164963796,-4.180427663657324,2.348322875832776
A/Brisbane/158/2018,5.620925793441352,-5.433509940956537,14.840206363518742,-4.380255459505148,2.4242535646151655,-11.544522048793304,-17.69185772974035,3.0973000006769342,13.799909603393798,12.623424955489497
A/Minnesota/47/2018,11.92722634930054,-5.050824513788586,14.079315041320708,-0.5629323556463313,0.8634216287571911,-10.659780194937616,-17.25474807892705,5.812309001284491,12.607967430757661,13.973711650208175
A/Hawaii/51/2019,7.057427217817727,-8.236789572189931,15.926848559574559,-4.2899521394771645,2.942662961511373,-16.544087051699723,-16.385140074128532,1.2989128614437955,15.593713437146704,15.585383682214554
A/Victoria/2118/2018,6.5664152734853625,-9.05671448028592,10.548116095993054,-2.8205417036789955,2.790776266808984,-8.248522931444713,-20.06842617576973,-1.1439595696864786,13.736085121729994,11.728270122696898
A/Victoria/25/2018,4.115061992208044,-6.561454406448476,10.714674422211925,-4.322145138589957,1.6942216804691146,-11.89120160675358,-16.293889200796798,-0.17702724600141984,11.85287079918305,14.253417793525239
A/Chad/9833/2019,0.7240242602959107,-7.29736887801061,20.224336163428436,12.806584266620954,-13.683223850384744,-12.953880604065732,-12.712067584247906,-4.1794595482907075,12.07921481348173,14.36890203355078
A/Chad/9834/2019,-5.117151625394657,-5.943129270850831,18.612993906710116,9.1880816095773,-12.783208961446839,-8.201843158481404,-17.76478531415905,1.3195153153432952,10.19857444339073,16.60518906123085
A/Florida/95/2017,2.8261508552877954,-5.797530213085098,3.798567284198288,-2.570691627327049,-7.448610916171972,-11.183603815269192,-12.732164938543313,1.2030161255229397,7.7018156485797915,6.944698663143604
A/Homosapien/China/LS203/2018,3.801230518056674,-3.8328389001516907,13.983051217193527,3.4023451824772577,-9.723305284747452,-6.972653296674325,-15.821001328836687,1.4520630474388274,3.704053945463214,9.415750887641266
A/SouthKorea/7184/2018,2.5201635421017956,-3.047480409145752,12.136178686995292,5.085475037855032,-10.665408890235632,-8.694764828390193,-14.761314678964453,2.776647544498857,3.1737624717893955,10.933648048400881
A/Italy/7413/2018,0.4537182848996521,-4.743603014185886,13.06391639892607,2.053438068802179,-9.11571425182044,-8.460093150459373,-14.505610083674599,-2.167592017679542,5.881817234589163,7.803354347410829
A/NorthDakota/24/2017,0.4506983622672055,-4.738705377987329,11.162368513542722,2.0756262707135016,-7.9545795681813205,-9.346144183577694,-13.553457935588195,-1.6501567958201007,5.461339034988355,8.541782328455495
A/Townsville/17/2017,1.2247246642160694,-4.833454773996698,11.370384833520259,3.3104982617156447,-7.33249406876025,-8.076882247435043,-14.399814767702214,-1.1515115948288055,5.443010634522437,8.143931167555813
A/SouthAustralia/266/2017,2.092260295873213,-5.955191858585825,15.492962663477472,4.891946118799125,-8.00333375529001,-8.754105981658329,-16.33077584253869,-2.345228400921965,6.251998374634448,7.359461351440552
A/Sydney/19/2018,1.9195570712758105,-4.009525263750295,12.084338799087714,1.9550021286935266,-8.90316989462651,-8.21692878517801,-14.180457582207664,1.2546784666513822,3.7441032024360985,11.080890734693357
A/China/GMU-SKLRD03/2017,-0.4427730360314694,0.47277456379627364,8.300294826865544,3.750019645835311,-8.21056973391884,-9.649869782793603,-9.425130590226546,-0.07605744148548184,6.82408894771625,15.031194329023256
A/Japan/6684/2018,5.185725260794426,2.47534520815303,0.9683198334428609,1.2417935742365767,-6.685252444141831,-4.785070041935742,-7.752917133258439,-1.2390138245477245,-1.0000939700857676,6.678624964133698
A/Alaska/40/2019,1.2748978017863095,-8.776479399564476,9.472391494456888,-2.982373972676145,9.635747044680885,14.376011071066145,20.018229156791147,7.797124629302354,-4.583627945065686,1.0648988693279338
A/Arizona/47/2019,-2.1535619270241386,-8.507449777288505,11.97064681115472,-4.26550454678728,10.49262825800055,10.247104452923972,19.3838085551769,5.8439556375761486,-4.336767914530206,0.26652950457216884
A/Massachusetts/43/2019,-1.9558643620848535,-8.178583414818513,11.443235367636404,-2.765949248907033,9.940753387450922,12.689277096427626,18.597775463569423,6.220786158116818,-5.171441154252115,-1.2265021389562893
A/Delaware/47/2019,-2.2752916077952765,-7.13013695675613,10.320005837732333,-3.026202296494578,7.599804990347313,11.207407373061317,18.038002646539205,6.281866792121111,-4.964534125378171,-0.3050239572376809
A/Michigan/438/2019,-2.8824732197680696,-6.777846060978981,10.762224886604843,-2.615610780026521,7.69585074964448,10.7142857970672,17.99571982630967,6.875005553313672,-4.350241661903777,1.0775200403929495
A/Texas/357/2019,-4.490532569744317,-8.136478919409232,10.25057236987387,-3.001438365524868,7.464908901668033,11.242120912370638,18.786868211217957,6.4450886843612025,-5.346392882769067,0.9930083090092646
A/Wisconsin/564/2019,-1.9359905947766471,-6.885151222413016,12.011324576100108,-4.612594215331586,7.726316804943229,10.869235716978203,18.021738785154064,7.971974940870606,-5.272335445071576,0.5808652962572171
A/Maine/31/2019,-1.7826778066007447,-7.009736075193054,10.647559429990869,-2.7119739676211805,7.652321214365905,11.218384237823146,17.803149107396845,6.719170666938673,-4.917865434784063,0.0008415319748058097
A/Illinois/37/2019,-0.9606487168880732,-6.450329570376825,10.176231832645932,-1.5019695099792612,6.074311543529762,10.704700815267454,19.02479800987451,7.143074008567225,-5.480764278191421,0.6115066945793752
A/Louisiana/43/2019,-1.922473880950464,-6.898535768421004,10.27931412197128,-3.4914941209359966,7.645813779583605,11.138034620756043,18.898596383032146,7.983924366441191,-6.0792921745273425,0.9928787682914032
A/Virginia/42/2019,-3.0721827010345826,-7.953139205065205,10.58681272869977,-3.418275911268075,8.926812534451557,11.04341117175378,18.8626434656973,5.883546924043035,-4.8589493895224445,0.08276964114419794
A/Mississippi/28/2019,-3.255670484317149,-7.271627052386871,11.074880361091742,-3.8304078084290345,8.025304733070936,12.143175471317141,18.220868401820816,6.588757697462592,-4.892845377220585,-0.042866556490817484
A/Mississippi/29/2019,-2.0716051529290462,-7.239370079185276,10.521411656587798,-2.2886897476056927,8.201762145501688,11.114499342749081,18.848720716415485,7.713559837186112,-5.642866743306602,1.390826311140955
A/Delaware/41/2019,-2.551125957610276,-7.260966168436483,11.381913685067104,-3.6396236909152035,6.640194363879678,14.484824923194196,20.288919849470933,6.5367293905362835,-6.26879397770379,-2.2941110369979585
A/Maine/47/2019,-5.232490570389678,-8.995992951858845,10.394644804748438,-2.3626252512021386,8.492995761183495,13.111660302627197,19.612056030900177,7.422262525400592,-6.498077794213549,1.2384890196650304
A/Massachusetts/38/2019,-0.27460302690519195,-7.460366583385689,11.950746167512301,-4.537426130657642,9.785630521114909,10.556845287171612,19.645130984233777,6.791271665261625,-5.066929685631392,-0.4501299032288481
A/Connecticut/33/2018,-2.179900402803687,-4.895862742270022,8.279437655750325,-2.0921222929073453,5.1390782839476365,7.21111185365863,15.038476961123763,5.442026126566584,-3.100534750025817,-0.678398135819811
A/SouthAustralia/151/2018,-1.7041530916352365,-5.184306982029165,9.163321277289407,-0.8882780419428753,3.5074054268470305,8.568176286346198,17.509833480673176,5.467634733917709,-3.6591450553154345,-0.36159826945964413
A/SouthAustralia/26/2018,-1.1527904666396656,-4.486181290006896,8.422602703529119,-3.258767572006834,4.615380552188787,8.380748183070535,17.11612187798298,6.554363135446456,-4.423018489327861,-1.002504944324829
A/SouthAustralia/184/2018,0.2215193397138959,-3.5832835514661503,7.364207825557199,-4.260195620452102,3.6481576196878485,5.538771663741172,19.212581459174537,3.826637683808981,-3.9235283487166392,0.1973356975949922
A/Maryland/41/2019,-5.0383687968590385,-7.416855463215732,12.351454756585829,-6.136221663757051,7.061948497029176,14.793254777546236,21.241146417183344,8.172604917428092,-7.057383419575801,0.45151416561865115
A/India/Ker-1851650/2018,-2.860040606195707,-3.5335174242284655,8.46929959606012,-2.456261726516386,1.7337192570637037,3.610109316295309,19.021676155519245,3.4810065431689337,-1.635064897546718,-1.508599392239925
A/India/Pun-1847908/2018,-3.0809153243563268,-3.928167201972019,8.68906226832476,-3.7938429412522696,2.0553019651572986,5.051530595661557,19.686757792808947,3.314378563951547,-2.2362513849119883,-2.1301819340655346
A/India/Pun-1851148/2018,-1.156656311436114,-3.8514391330827467,8.651167911630978,-3.1721690384675627,1.6956828900330616,4.064669676291128,21.44441441850826,3.562164796358102,-1.5824058201500182,-1.2646320326500147
A/India/Pun-1847054/2018,-4.3882063432608955,-3.6372123942713546,8.594843251470333,-4.767956954281926,1.4401008975078295,5.0528606465052315,20.871172057635242,3.323866404145746,-2.5068042449645707,-2.2957903024011554
A/India/Pun-1847933/2018,-0.5823049348949102,-2.8856897479140478,6.274808818840375,-6.1211394823392045,1.0096907938957997,5.5668512381580335,21.720891614180296,4.959447224453616,-1.7056120708982048,-1.688604660750289
A/India/Pun-1920970/2019,-2.058242435638959,-6.343185297615921,9.797979854353324,-2.5088207246428764,6.589275629689556,9.553184314622102,16.841535797016082,5.991286595003166,-4.175797339818223,-0.046537551893501096
A/India/Pun-1922253/2019,-2.1468653625235845,-6.761877382572875,10.178678984605968,-2.7779078961197334,7.156902395873377,10.301631789098439,17.390711107908345,6.248984561797739,-4.5447487264407105,0.04055076015786356
A/India/Pun-1921693/2019,-2.1001471950662283,-7.178957265014533,10.938250598388583,-2.9394599977996974,7.2157846986597205,10.731597476507625,18.274473833002745,6.1470104336942075,-4.678816823600578,0.2112045599207891
A/India/Pun-1922218/2019,-1.9890339047912076,-7.208284044869423,10.921701059754398,-2.9001420770805133,7.3245582411305294,10.64900551304588,18.270914044991606,6.19189417907031,-4.6965979711357315,0.2008643287848556
A/India/Pun-1924667/2019,-1.799759252583023,-7.522652842380789,11.991389079880596,-3.0850815655053885,7.253721865655641,11.250152875067215,19.043302521475354,6.027257698906374,-4.68659992051348,0.15877730532813286
A/India/Pun-1922260/2019,0.07573709389710373,-6.373380655449593,11.763729696373717,-4.565891640604349,7.858199811603986,11.035501725545696,18.752988094089623,7.1238631027156405,-5.171506155126169,-1.2317222256287317
A/India/Pun-1921994/2019,-1.464725881355192,-7.155227801611214,11.724783508101847,-2.428951542670539,6.6740212759685,9.86724026454532,18.910048809397466,5.606952379973011,-3.986172366395274,0.6545275314404779
A/India/Pun-1922052/2019,-0.42676438101446557,-7.486305595470144,10.898583714512329,-2.831306351320569,7.3297567952347595,9.829319534246787,18.16162922693688,4.459130804246581,-4.618367389011137,2.973847913071596
A/India/Pun-1922016/2019,-2.4061887149970773,-8.225368545966585,13.797956308868235,-1.1728278383521964,5.4498583589918335,11.320153291835588,22.056542651903857,5.170589127666346,-4.262202670634189,1.6585642143706631
A/India/Pun-1922295/2019,-1.1409300193344596,-7.939958005313485,14.017548441023557,-0.7205911211488163,5.347150376420899,12.080724128793028,21.60432997062106,5.708310845727515,-4.691609692123047,0.7648453721212433
A/India/Pun-1923665/2019,-2.709073122274895,-10.544544019075577,12.547595956056876,-0.9395151911643718,4.985271484282024,10.764501537009224,18.52183565134286,5.324621330421625,-6.320601926269876,1.9128763921089529
A/India/Pun-1923690/2019,-2.122459815459204,-10.946152421996747,13.991652506045918,-4.273881723852568,5.5957457297514965,10.033610791436073,17.49916632800786,1.490416096986251,-4.579458433452647,2.1906907333594665
A/India/Pun-1923708/2019,-4.0295764484208,-10.619173781421594,12.683668277513805,-4.798777105192026,9.793968264982059,7.686382384162068,15.513888769397585,5.354662427394015,-4.160302933981042,1.9186325459272005
A/India/Pun-1922030/2019,-4.472372709407352,-5.266252367814305,8.596259259609628,-5.0815001718153825,4.046839959083702,5.240655246818193,19.686325907275016,4.521200809660069,-3.2168336396748662,0.04692460304093319
A/India/Pun-1922292/2019,-5.414662467702574,-5.859653609597231,9.463423450721217,-5.641881843394504,4.383548333247548,5.092784916176887,20.570989944648343,3.7310013172650356,-2.7074429638576523,0.04835817561627947
A/Italy/8453/2019,-2.3859644656114694,-3.672479850655701,9.839151705808185,-6.503027427861946,2.1202576632373655,5.027945704473948,19.235723972144175,4.3132766357809595,0.3591222093843174,0.26359513605819285
A/Italy/9061/2019,-2.121488296995317,-5.1986326456299645,8.586792270509415,-2.2738908556529127,5.20012785372724,7.853122945648455,15.911838424727765,5.519192904275034,-3.361804364708804,-0.5181993261075488
A/Japan/7503/2018,-2.1799691564011954,-4.8959113310143225,8.279434006345491,-2.09228485704458,5.139275812809819,7.211127618642656,15.038375277827525,5.441981027664726,-3.1004957803356357,-0.6784883963295995
A/SouthKorea/8203/2019,-1.2822300932433042,-4.588959239398454,9.232715070684677,-3.996853914860343,4.734476538669015,4.7232333960404524,18.878254326886164,4.556778954481845,-2.5429531979802023,-0.5909520330815092
A/Italy/9363/2019,0.6200045023350866,-3.6746617402016426,8.19187687758327,-4.400353377294873,5.781790386662956,5.308756676290199,21.335953176325525,9.383472892980938,-6.309590524730702,1.0251048979677977
A/NewYork/9854/2019,-0.15826827043856026,-10.116459520463737,9.42149270781739,-2.805490099405757,9.4496568033196,15.88937471748215,20.585516190523272,6.24365926755193,-3.27092898070178,1.4780584668160865
A/Belgium/8725/2019,-2.8633623103619428,2.2232008838536506,6.469843034682174,1.0379583389883749,8.441746086863581,3.16619457098636,13.348980953848733,7.095741633792961,1.198596117745463,-5.506095104670117
A/Italy/8601/2019,-3.640454766978589,1.6130374694083676,6.564927204057021,0.5574142723890071,7.240605163447016,2.9303741803331183,12.816721093121231,6.393143665243046,1.2013225306338564,-4.4547845148690755
A/England/9617/2019,-3.842893496462672,1.9114963077800715,6.480405958333383,0.8118671328010211,8.047942146611927,1.9888370109897646,14.183778450114838,6.046684139514375,1.7734778896248136,-5.225087741975997
A/Italy/9366/2019,-3.610433107874458,1.8151760482345551,7.2941064285934365,0.34949366327223,8.62412145819633,2.512732212510879,13.286652354232356,6.229182407757096,2.140989999047297,-5.167483027250336
A/England/8887/2019,-3.1108134086588253,1.830832943628175,5.926353253097449,0.26950890934200883,6.413656931873473,3.620732217836151,12.776659931711192,6.41150929948287,1.7124472844018876,-4.4203710088528485
A/Spain/8527/2019,-3.9734377473089784,1.269981434087947,6.3322959613818615,0.7751594922526333,5.9527013586083815,3.209766956770814,12.09013316949613,6.205935655828678,0.8353429301802184,-3.758119182801714
A/Germany/9490/2019,-3.9234461716094438,2.0985433333520054,7.645730240543641,1.2068471439513127,8.225115551097334,1.674185334258912,12.613087048579692,4.750225104364983,0.9056296877460321,-4.230926873078954
A/SouthKorea/9579/2019,-3.755846795257817,2.6527710688573074,7.020264765393063,-0.24769115580555762,6.606484273826631,2.0703608302304075,14.508012539551373,6.135306424453718,1.8731454312590337,-5.249412181965841
A/SouthKorea/9645/2019,-4.270228307090174,2.3324540289435944,7.0696280244609175,-0.9170614563704176,7.87278231202458,3.1700479344822403,13.178468141015811,6.379902847634647,1.8665509742286535,-5.7612718921347925
A/Germany/8752/2019,-3.9766918524852475,1.643533082177851,6.670059942918441,0.31262753811970634,6.851123697485391,2.8769824181278763,12.96077971921459,6.184610548071814,1.319362012058928,-4.424015820796908
A/Spain/9001/2019,-3.514313185752666,1.9252465757471662,6.134944157198524,0.814949856148912,6.699201389748974,3.3744866451869178,12.967597709898723,6.786268471308687,0.710283963266403,-4.580165434423387
A/California/NHRC_OID_FDX100449/2019,-4.049950334292567,1.491427186673399,7.7315405211350186,2.1484940151682563,5.907698038997325,4.302134305230632,12.287680477847488,6.19273135731699,1.6708373086553732,-4.327650461148712
A/Italy/8442/2019,-4.311845655520333,1.11368878261184,6.541583451470254,1.2648340261749798,5.7288880159775,3.811388803478093,11.753087660090504,6.254491937839867,0.8176174297757642,-3.6780680330989903
A/Germany/9676/2019,-4.485992687924682,1.3559767749230263,7.047376353742535,2.053512304754536,6.389450539215956,4.9618678433867505,11.90699730269636,6.358130042619967,1.2321624938110516,-4.7224098386193365
A/Italy/8259/2019,-4.4591561735250975,1.4400377177905348,7.642495519653271,1.4441071192488395,6.312011890602027,4.721528405611672,11.804726150425708,6.24186697247264,1.645273831733868,-4.6636328475839495
A/Japan/7848/2019,-4.818549354953474,1.407460507219188,6.981093301560335,1.3353323888549047,6.471939895764332,5.08686878609571,11.74171573218448,6.3767239746059605,1.2048648878748702,-4.880943845076107
A/Japan/NHRC-OID_FDX70557/2019,-3.684672119030578,0.9802568987588218,8.391085431965632,1.022684130122385,7.387689188849961,6.331504176486472,12.387623828421386,6.735943906811129,1.1478205486605686,-4.002525325150294
A/Japan/8604/2019,-3.7528059444744435,0.01508611373949891,6.3396769992208455,0.8989094515015456,4.93852652913884,3.472431751830383,11.381807729132332,5.518512013724415,0.20750982956805658,-3.1088629436446458
A/Texas/7539/2018,-3.68636296902743,0.0599254610530652,5.945449359479409,0.834972785364787,4.627925418414485,3.15171093660122,10.678621072485296,5.542713061067709,0.09181222911707491,-3.095483981893102
A/Japan/9505/2019,-2.1156522445106543,0.5711292659761155,5.55204544361134,1.3816648310843753,4.131749525615686,3.7881276465203144,12.765026376376023,5.880851861954781,0.8826133890633152,-2.8948958916108567
A/Italy/8941/2019,-3.2178072524217685,1.2971949281740707,7.130663993966887,0.0645676328972279,7.998435501477399,2.110938901250528,12.120400778314607,5.5431402825677125,0.6423916102726509,-3.984462964812731
A/Japan/NHRC-OID_FDX70521/2018,-0.701326571040553,1.8389232580664663,6.270247945435196,0.03419754957540709,3.789524650117319,4.378245171268372,11.211346947343783,5.6822918086166325,1.338018242914418,-2.864438578627941
A/Japan/8261/2019,-4.48281638821257,2.0623482864561753,8.405890036796707,2.4288155700499963,6.20183755480331,5.37378229677617,12.394973679107046,6.0755300889519575,2.4559357002438,-5.882840662439889
A/Spain/9580/2019,-3.1075013542927743,2.3454494910481527,6.888330494458219,0.8209755732634575,10.21858329764966,3.0429894100361783,13.456483354353061,7.2479837375365435,1.8421225438549496,-6.273608422566461
A/SouthCarolina/9855/2019,-5.200929738890585,2.602192859545872,4.576008401287286,-0.5498297444448075,6.7271117303510195,3.5974977233264864,13.968548398166778,7.006187864717474,0.3906601181911836,-6.004533340079665
A/Japan/8263/2019,-4.178942350377234,2.2466934299517898,5.9661484705947805,1.6779270427736706,4.806058312787774,4.72328759482914,13.08347583328704,6.9595601644760485,0.2957899899278947,-4.656331643627567
A/Homosapien/China/LS329/2019,-2.5735161714042603,3.7587149357958607,5.879926873062519,-0.6996873560778117,7.8952730122831065,1.5428967541352967,15.129570193000735,8.562626706315818,0.835580370127496,-5.2720168760459485
A/England/8741/2019,-6.144823690699522,4.37171118817767,5.034347888458839,1.9828685744658254,6.81365909383647,4.261597402964807,11.455591579998286,6.363086537938182,0.07296768078609032,-1.8319400589696864
A/England/9338/2019,-5.198332486366096,3.2398359173189633,5.682216500840499,1.482845133450026,6.090282792270738,3.713389868711969,11.78338880465324,7.087601650937833,1.5829317782636825,-1.497422542073483
A/Germany/8917/2019,-5.358605382109157,3.0517971735042346,5.966013445758773,1.2756649810740137,6.456327084293818,3.866357192266015,11.363278938705292,6.998782743299732,1.841937756431981,-1.599698650798995
A/Guam/8597/2019,-5.615809498006029,3.1581310121749593,6.0211866619273495,1.2093380297596956,5.965112338677751,3.815381420162209,11.68423640148039,6.676401737451993,1.9540294827509952,-1.6633580411454925
A/Japan/8603/2019,-6.085822346875018,2.9825021536453495,5.350856146704803,0.8799850785450173,6.273992108430821,3.6252589198413063,11.71103340666042,6.573593521924049,1.7459854959368735,-2.141117804537012
A/Japan/8769/2019,-5.707971201106087,3.1527408592427566,5.950043505634209,1.144393077599463,6.06719819983004,4.207379200810792,11.407918065681962,6.844556714992907,1.8073469798987165,-1.8119372157822269
A/Japan/NHRC-OID_FDX70564/2019,-5.572449712570331,3.3033712343329418,5.672696159878724,1.166073154020081,5.924418729395476,4.061722613280544,11.607906644659243,7.070905420393608,1.530199170915058,-1.74261490443021
A/Japan/NHRC-OID_FDX70587/2019,-5.424347692139774,3.304125453366585,5.762694181036756,1.6494423266086504,5.614303670708138,4.031531002033973,11.82092480295146,6.934971691308233,1.6341185479655316,-1.6650218992187236
A/SouthKorea/8825/2019,-4.821319264557173,3.876859249178758,4.773318716098893,0.7717040093203866,5.9228583536443,5.334218108942304,11.621405026544029,7.546368938489566,3.2774871054862595,-1.6099088966782216
A/SouthKorea/8832/2019,-4.695965212074234,3.0708338488935913,4.864381080192859,0.903884684427574,5.583505855378864,4.304696845131986,11.344763247566437,6.723586501802692,2.792230337119822,-1.575259897678112
A/SouthKorea/8824/2019,-4.660463047898772,4.050123226596051,4.929134948311982,0.8116498842756218,5.556388486932618,5.0989847656487175,11.911676715568753,7.4721908747417,3.3753244683986696,-1.5406901301333755
A/Germany/9343/2019,-4.7048606195511855,4.163463977197083,4.182920363051603,0.8141293786796796,6.12437855105963,4.73573175245091,12.222777870206748,8.127435079820936,2.1195475285156338,-1.5988525936911637
A/Texas/9844/2019,-5.457403085612954,3.854882810809312,5.214568195645801,2.6231338340909827,6.883779363397799,4.946404416563494,11.667848541419112,8.61016922256767,1.173496144596341,-1.8358418261465683
A/Japan/8142/2019,-4.982888812462775,3.318606506022416,5.609565060924023,1.3325164348485303,5.845193127383345,3.8195508627709804,11.018616956718999,6.1477859175551375,1.8788292918480207,-1.3513854252476654
A/SouthKorea/8822/2019,-5.299147496802376,3.6480065780483355,6.426318601063854,4.016726574445076,8.97287372875522,5.210916099493596,11.414235130110818,8.636436809153437,2.42341786829004,-1.6387389148875806
A/SouthKorea/8823/2019,-5.738288736621374,3.2262773444927957,6.270360947245864,2.536825213641846,7.806084490340409,5.215903483899761,10.98253016593351,7.743822848604412,2.20759511799199,-1.7511274672197474
A/SouthKorea/9704/2019,-4.044041098287143,5.008041531950063,4.899444643916095,-0.33873888053424134,7.011775553438251,4.5440327518205725,12.299637031211603,9.113643925503546,3.3007929369405202,-1.192705687058292
A/SouthKorea/9578/2019,-7.950130188547759,3.41451542753154,4.352350516993156,1.0599737425534914,7.459871805272592,3.0902575954385747,13.519203746066054,5.797138390710842,3.888675785201311,-2.7308866517752977
A/Guam/9841/2019,-8.496106349038017,4.201315947321033,5.641230148263264,2.461204040032378,5.704824914849739,1.8500122444801848,11.58521023993411,8.395341116977873,2.4405269346735894,-0.6272097205165803
A/SouthCarolina/9843/2019,-7.601820042078018,4.441837465134893,7.027646265529352,2.297187415886872,5.904322004656804,3.6186297471970934,13.061633318591651,7.621435687442962,3.27901989722095,-0.7904693783595969
A/Washington/9847/2019,-7.000621625095757,5.500215282029144,6.668556439178164,2.618696849510959,5.9410782838529315,3.511518803544201,12.331726030016753,6.9684685095361525,3.8060781732921765,0.7487870469539506
A/Texas/9846/2019,-6.670629244589361,4.840824550811056,4.802468971371023,-0.18837014232030844,6.945151939684894,3.9355778944725324,12.099167140833037,7.220748857551473,3.290547187636742,-0.8880595642485163
A/Japan/NHRC-OID_FDX70574/2019,-7.740564214050883,4.677001959011652,6.591767825925308,0.7714430846390957,6.991245610230328,5.083483862317932,11.582532509098506,8.772966632356162,2.4363918245100478,-1.6100159155224958
A/Italy/8139/2019,-0.43608186503657037,1.2660461579782674,7.600774203110511,6.709136663931656,6.258792856505014,2.669913567825338,15.425647546833035,7.3143245051106325,0.7492749764333427,-3.4886931038871434
A/Italy/8955/2019,-0.4493642267390043,0.8923634986672917,8.451434752301905,6.062220586381583,7.335719468782936,2.0280000418048103,15.21742884178094,6.343283183937478,1.6556938747082586,-4.095798002039371
A/Italy/9062/2019,-2.2697689158558476,0.7628931716899163,6.456227255063888,3.817180559550629,4.5033740968487175,2.5306807434606453,14.644709467117021,5.924136154641811,0.15972866458308016,-3.049649648205546
A/Germany/8912/2019,-3.76894482741038,1.0994400519606666,6.62146260355677,0.33242486731125437,3.830405214968734,4.572067567175677,12.099361218763395,2.7776266014936803,1.613537183486679,-4.094989236839074
A/Homosapien/China/LS318/2019,-3.246285983681482,-0.09805839232419429,7.291481646003235,4.082381482825601,5.2559962409958025,3.7181298532771865,13.734602650680015,4.386548074584052,1.3748957733476093,-4.24575182901946
A/Japan/NHRC-OID_FDX70487/2018,-2.9003090006728227,1.0383275161527366,6.556471937284308,3.3405223909354262,3.613654530819274,6.11016082820979,12.280438608257741,4.866034194166013,0.5080288189441681,-4.257321202880033
A/Montana/8150/2019,-4.748266670594392,-0.06266822392790192,6.556255116310162,0.6063654374949201,5.090909230629788,4.649831008423792,12.047567189094272,4.728037675887681,0.5653326438036113,-4.224180809052314
A/Yokosuka/NHRC_OID_FDX70622/2019,-4.048250269803447,1.733352174710364,8.685425967720883,4.194464529727277,10.918288061574646,4.77795600303472,11.939797672640491,8.228104200327795,2.641723856807567,-6.231569626070841
A/England/7821/2019,-2.866686249025132,1.3298172175729241,7.603055988371133,5.342079978833706,3.034799989488607,4.718893765450498,13.897442165133965,4.64398969191146,1.5392335226841949,-3.7761445421350177
A/Homosapien/China/LS323/2019,-3.6111456584330006,3.7390703972695567,4.725121729291848,4.718990754761433,6.559954175813861,5.870789533082623,15.088836786843753,8.244205363306646,0.21005679233911365,-7.739447671407673
A/Homosapien/China/LS338/2019,-8.36570133451174,3.4862257601819233,5.390867655306121,2.3300427631772194,5.468458916925137,3.3596033139413914,17.599267672815724,5.125099844090443,2.46135645336556,-8.309730624747365
A/NewYork/9524/2019,-3.5184962054283795,5.391642385796954,7.96619292958978,-1.1825729760892756,8.457062695736733,4.705332424990519,14.253029435572188,8.683240628921036,2.556520583346427,-9.337566666890684
A/Homosapien/China/LS339/2019,-5.762029524484977,0.7177369614424887,9.274398176737666,0.014709081492015096,7.455589834615101,5.666197182119548,12.522713790734432,3.4518570977707705,3.5485109607183807,-8.505829003227493
A/Homosapien/China/LS319/2019,-7.614432734718491,-0.2506995417418027,9.102151292402679,3.164448210875524,8.283066806415519,6.186069272790658,12.828363897712935,3.0461441986326117,4.14047512276455,-8.292070848764013
A/Homosapien/China/LS328/2019,-6.858686584790719,0.17755400579199457,9.616624527701706,6.213927978665494,7.992100858579366,7.662648962915153,13.030264312751852,4.054933288131678,4.02902432975764,-8.746560597348097
A/Guam/7834/2019,-4.605467773630196,-2.8307226464812274,9.370528912437312,4.9534128170832155,2.5820891256431913,3.4243206179294625,17.360969892349768,-1.0344194045210284,1.9010374764832285,-8.879371562588648
A/Tomsk/243/2018,-6.046586712962833,-2.787678299767396,9.251349415479456,3.629609512938848,2.837193054037469,6.283561064849724,14.604700384432745,-3.151169620450998,2.5150155632529643,-9.939457959722874
A/Tomsk/244/2018,-7.315788724107283,-1.8519808038493342,6.779639077302864,3.1669236345133447,1.188597481786254,8.251870149316444,14.831222431004887,-1.838880800677145,0.3910569593554415,-10.6106084518002
A/Tomsk/245/2018,-5.130605712686688,-3.0090517581448952,9.47481262876434,4.683039937061827,3.4829219446780715,6.9133293727124405,14.029242051641347,-2.785513908576203,2.3985838414747778,-10.075397695932175
A/Alaska/49/2019,-9.143304263316557,4.90792077690835,4.866562746813432,2.1987694528301627,5.504750862456901,1.7867170458993724,12.062914189404282,9.197133984914142,3.189655926418334,-0.23026549254281892
A/Arizona/34/2019,-9.770171310076753,5.020273701867261,6.1760797918100625,3.1680481944480783,7.94708865869279,1.2221644737929045,11.730387282908996,10.367551620289653,3.086585259339392,-0.12990219935680833
A/Illinois/39/2019,-11.27394722517141,4.750878583212188,6.222100102424567,3.588084707318089,6.851364251098424,2.097292177157422,11.917565903145455,8.951270126156263,3.6171581472025247,-0.9956597033221464
A/Brisbane/138/2018,-3.686362969027404,0.05992546105305846,5.945449359479447,0.8349727853646972,4.62792541841454,3.151710936601085,10.678621072485326,5.542713061067698,0.09181222911711596,-3.0954839818930515
A/Brisbane/154/2018,-3.7344266439022813,0.09322527532608822,6.258806497167491,0.9389174229275992,4.773120187876795,3.50691627308882,11.465546443225927,5.570109136562767,0.12573500197076598,-3.1304770301024614
A/Iowa/60/2018,-3.7437548319514335,0.058921820882433515,6.2161305827886295,0.8343330730326709,4.947998760521437,3.573311148633522,11.360393647142642,5.613812174225523,0.0886677592574914,-3.172297732857267
A/Iowa/68/2018,-3.5780069772462166,0.29840031891687424,6.874477864449323,0.4945320070962454,4.451416522860605,3.243288654799105,10.938300255266544,6.167840856836244,0.008521684641544632,-3.575523439505067
A/Victoria/2051/2018,-3.69678884326834,0.0489589018287552,6.193449721104357,1.0253921123917993,4.931389124710145,3.532889771250125,11.371970907619652,5.722228620247821,0.033186378445350086,-3.0471147753412073
A/Washington/184/2018,-3.4642858694102037,-0.032862084735678636,5.613824315754235,0.7759652349594959,4.530761055786773,3.2248827160782016,10.503599345156198,5.504038261387771,0.42359412716927863,-3.002550115589256
A/Pennsylvania/02/2019,-3.0780415633643363,-0.11614871621743285,5.367817998621553,0.7284195835228253,4.752177962801738,3.7631901679705253,10.938110707780506,5.5272002817919255,1.0864953403112922,-2.9475457111346834
A/NewHampshire/28/2018,-4.204170307793618,1.32942302668793,6.1673620357319,0.7524171497925783,5.529571637343191,3.709167470090798,11.947835111044162,6.418851103276064,0.7289419671744027,-3.6649990747891037
A/Tennessee/71/2019,-3.7279906430519927,1.0794084118401945,6.958389760265049,2.5023166452615664,7.06644292794243,4.272506712993465,11.950640808605085,6.678242261650722,1.149125078586028,-4.387288176655662
A/Minnesota/50/2019,-4.3173003644923105,2.731449487658992,6.800312075234034,2.3788148828625264,7.392586045448835,2.755096230579628,11.747299848218775,4.344393672103186,-1.3902926763066776,-3.941355735501625
A/Utah/04/2020,-4.667410464479447,3.1708576512011195,5.765998932175489,2.3099646091946613,8.806929611699802,2.5153096077584953,12.526281806509735,4.6443378141863505,-1.9207302936570367,-5.333262332017608
A/Grozny/89/2019,-3.973429033032174,1.2699850224220512,6.332275138917906,0.7751651162510352,5.952710797807005,3.2097834537042575,12.090126416682693,6.20595506218584,0.8353218983050005,-3.7581255248003615
A/Yaroslavl/82/2019,-3.709317547574122,1.987293878628183,6.3468833861235385,0.4480842694046364,6.345207656277226,3.1094986921412895,13.178173782136485,6.483222403431327,0.9692080832619878,-4.589727959543288
A/Moscow/122/2019,-3.891449774601517,1.8456857798394481,6.696091568823706,0.45791310571881905,6.380759967975364,2.978146626379445,13.15063069857819,6.10840022757156,1.3411281479061767,-4.597888718101493
A/SouthAustralia/159/2018,-4.0745168622728345,0.050476579676533684,6.22448646637118,2.1710939448862883,4.6108769102944445,4.864528176436456,12.343130882078459,5.307494497747858,0.02044219101746834,-3.8022103712510518
A/Victoria/2120/2018,-2.2412724999077525,0.8624924347937157,6.660316556779796,0.06402012362936355,3.8540292793752897,4.1280620103368255,11.763341930260134,6.4542158121561615,1.0264683853526628,-3.4314157287831617
A/Moscow/121/2019,-1.983420592218664,2.530664551150345,5.444277124994485,0.5344750115302056,7.077593333977671,4.433245988986718,13.190335710586378,7.148002981820514,2.030936170106714,-5.458908994546975
A/Washington/662/2019,-2.4884387604245983,4.614075352923292,7.805814831803641,0.2685421696902717,4.793106392620155,3.673957180852124,14.24422737101717,9.110311208693904,1.059222906964608,-6.138405122198206
A/Mississippi/26/2019,-4.819191164906261,3.641665195522309,4.46625689102508,0.23415916614698606,3.9712903373674955,6.227529033160067,14.584566905917173,6.668638809425431,2.3044473698070718,-6.684041080878048
A/Florida/86/2019,-2.2236614393010607,3.0273039934859396,8.552714640770557,0.11677777062076852,7.994644752127389,1.0825797284073475,16.02406823896711,5.932083562332137,4.425457174877947,-5.223133986997732
A/California/159/2019,-7.073008602804174,4.605341057317314,6.536370246043862,2.0571434977244984,6.399074108035085,3.0260807338369844,13.28615638544197,8.224681597109177,2.7469955217592616,-0.5094810259845947
A/California/166/2019,-7.665842101118579,4.526387635499238,6.6829128558353625,2.3053695230562985,5.977486755637206,3.612408912509218,13.107628180635846,7.886780845212698,2.943686548702427,-0.7265062303237265
A/Connecticut/43/2019,-8.193778413036146,5.4692711527715,6.707606193882853,3.069477106395268,5.550071265151696,4.043443766014263,13.929585572601685,8.702797346989277,3.0047024418647936,-0.7407286344071725
A/Montana/55/2019,-8.952236809381388,5.252066332640529,6.742761910622355,2.215783732563775,5.947185914016203,3.8696070996444654,13.836753296875761,8.116910782829438,3.3619696666047374,-0.9635591990849424
A/Michigan/383/2019,-7.114632900500256,4.413227430859001,6.953119779646518,2.263718782174579,6.574252179270736,3.1904042459100093,12.943866526417189,8.183228236509917,3.007335428937419,-0.3811306137298904
A/Wisconsin/552/2019,-6.761003137755616,3.8387299231265506,6.517642726913511,1.8847870211725848,6.055020102136809,3.279244370175142,12.391583625055981,7.401280316626293,2.6026923334629077,-0.9236320534006227
A/California/177/2019,-7.388296700157085,5.498044573653897,7.519001889710995,2.1785484166560773,6.292853639937153,3.030457613326822,13.741986423031607,9.032708554179807,3.3148009576849295,-0.08609832245215429
A/Florida/10/2020,-7.63098882293777,4.992954283954124,7.712445752807649,1.6007665804878661,7.375746497137014,2.6909123359080462,13.335477086208222,8.829180832308582,3.6273711591503837,0.013753982464273142
A/Maine/36/2019,-7.343347883406205,5.210746568931528,7.487070342198904,2.0803458515209274,5.7872470000114475,2.709527946123096,14.67503457303985,8.091579413931374,3.5268089548077346,-0.05655412335833312
A/Minnesota/63/2019,-7.704640626727514,4.990538309069554,7.184527879439933,2.6038847099660125,6.768149709907349,2.393195406016305,14.19663019694371,8.28657383351456,3.5868537909981772,-0.14924002655038524
A/NorthCarolina/27/2019,-7.527816876238688,4.78969829844952,7.51318641352793,2.435003112620102,7.5279750575661275,2.4937759274649687,13.703551982078816,8.421330250122368,3.748088315262153,-0.019744749315428828
A/Missouri/25/2019,-6.461896554910044,4.1618272326651775,6.565585571558832,1.1868026949172041,5.709266325650267,3.6660276499085946,12.356755714789484,7.571172063323639,2.4380843896664826,-1.1514732483558352
A/SouthCarolina/13/2019,-6.369421352319319,3.784977120347752,6.904158727034617,1.4285014913111047,6.231267773358629,3.464062659727306,12.201160329214309,7.262217385970398,2.7962993122850706,-0.9653106361445225
A/Virginia/27/2019,-5.442997694782375,3.115173687467268,6.089697324589157,1.6888879816344529,5.96268597668533,4.1075348719667035,11.514533578867647,6.819564523869289,1.8995409208640748,-1.6418832686150988
A/NorthDakota/29/2019,-8.577587391011116,4.921353559130423,7.79915530037338,3.15554342169659,6.243344169376819,4.315046310288349,13.197529345409267,7.660253185836965,4.170470066276282,-1.357245345870358
A/Texas/358/2019,-8.228273045179247,4.715304781967702,7.647895322999506,2.2761078344210866,8.020401153605398,4.098265196855418,12.273477748265693,8.882969057518954,3.6765055486721008,-0.7436512889341368
A/Idaho/43/2019,-9.254235671303384,5.485279429928264,7.335641374983885,1.8301642239920008,7.913983258059145,2.388739861511495,14.413153801493468,8.372214086112342,4.3482200264329425,-0.7015537469060454
A/Florida/65/2019,-7.420287106450021,3.342707673198514,5.6221060651318,1.94635806561444,6.5996973441063735,5.271944717393172,11.827191696684462,6.467799806513652,2.3851033588476773,-2.5283138328778634
A/NorthDakota/25/2019,-5.57867135191327,3.8669060624496443,5.242933579856723,2.6144256646441666,6.771358683852724,5.105152893940023,11.618009796494816,8.555637091636076,1.2000258540846265,-1.9263670654645242
A/Washington/648/2019,-5.614042275572663,3.933919030481424,5.370392224702549,2.869408202987164,6.344615628089857,5.223919346569747,11.740284232675496,8.401902543313353,1.3070992719038295,-1.9789218619993378
A/SouthDakota/32/2019,-6.035814018330186,5.024940442469386,5.794332754873774,4.034267768803606,8.407666977435813,6.608239464254509,11.536423886027166,10.404487999347564,1.585636255325184,-2.6356218281877837
A/Florida/91/2019,-9.691139162814235,4.6011875419879384,4.766554061715933,0.24280027957206585,8.41591786576363,5.647845087084618,12.318146275966468,7.672006509147473,2.519346560129721,-4.330273418946574
A/Hawaii/36/2019,-3.630239503007944,4.0555382014609,5.992574448510939,3.8190620325468445,7.197435764900945,2.469007043075198,13.543158443948814,7.301705439922533,4.136519727600045,-1.5690422405578706
A/Washington/669/2019,-11.334300149312874,5.378276392493424,5.620585803500354,1.7034146923767806,5.3603375566130245,3.5296876356563063,11.182740686419585,8.81135990207485,2.938135041010927,0.07067545577754762
A/Wisconsin/558/2019,-8.964618862579066,6.837476190709118,7.802563253877501,0.6077834451429731,6.733655951600165,2.139435967917566,15.191516782736329,8.348920024015797,6.071128027139233,-1.4846769985237325
A/DistrictOfColumbia/37/2019,-3.0056542418323446,4.7021063374692265,7.44440222410234,-1.206190960832648,10.939030925529227,4.156601270998631,13.387765441543708,10.143792274177457,1.8355637441274617,-7.742705456833871
A/NewHampshire/44/2019,-2.0463867828906164,5.474438387367725,5.776655350532753,1.7617771343914892,4.945885755625609,4.231589289243581,15.58050492892514,10.874260099422807,0.935271021856249,-7.989861969524338
A/DistrictOfColumbia/31/2019,-3.646090688034724,4.3675366089894,7.105318170977933,0.6581686461844638,6.973859697496499,0.6655873802069346,16.567236416743842,4.486926180472533,1.0203804342015486,-6.230763055846628
A/California/03/2020,-2.3529680782111355,7.907117375474849,7.378143950469276,2.7563533533408813,4.879045415477979,7.527371014383884,17.04144518794889,9.965292330699716,4.152954009791685,-10.492140682966234
A/Iowa/63/2019,-5.800346459180965,7.220573509730151,3.1936078813599664,1.1785662567161261,6.115398825248425,7.046653286439923,13.353156944835998,10.591000886802812,2.6359713817167405,-3.6064048311819983
A/DistrictOfColumbia/39/2019,-3.427048942914,4.577187760253094,9.950334509485671,1.8440831998299656,5.014235118658302,5.429567117571518,13.777247877934306,7.915901276177658,2.78757570952093,-7.81207598225706
A/Minnesota/73/2019,-6.876266414381707,6.52849843913397,3.8146550902998344,-0.2069117403937281,12.542477440707565,2.534018061225903,12.36925786517751,8.702955871174447,3.086488877647877,-2.4633552439059105
A/Makhachkala/86/2019,-2.4135847988216974,2.2152216667498053,6.120645772041606,-0.24653589333851134,6.555375774607378,3.8638591028399443,13.553011657687902,6.00631859265683,3.320665652404463,-4.987796140800721
A/Pennsylvania/1029/2019,-4.410655859735839,9.703864980430275,5.682843772344862,5.018699595480656,6.66617994566506,3.57444066420189,15.101991409202324,12.118461873215306,3.732519373779735,0.947753939394506
A/SouthDakota/31/2019,-7.001767430840557,4.923408773987403,7.833354653866159,2.9994322829715374,7.0995253263007925,3.3407164918027044,12.506505080700137,7.343278785223029,4.42121352443308,0.17749603007750575
A/NorthCarolina/02/2020,-14.93749326348905,9.756178985721018,4.657124274976668,9.593311713993304,7.5823174603563555,2.7042432816058577,20.300509957777205,8.380792432450008,7.40053987112986,-2.369085048775255
A/Arizona/48/2018,-3.652344562439511,-8.17575627629604,2.2940804245868285,-2.3010650749014987,1.7156676109941678,-1.2950013426897842,8.048123155808629,6.814253382291234,2.133943040521426,-7.780225034797055
A/DistrictOfColumbia/35/2018,-5.305904334334001,-9.751821483275897,1.7344114417280072,-3.5290240241993627,1.4030149372151641,-3.419911106289497,10.296103857697284,6.402371817792612,1.7234103222649608,-8.328392855126758
A/Brisbane/14/2018,-4.865985927662736,-7.912298721066385,7.585785424876111,2.226759825459569,-0.4207329027282783,0.7651581562599661,7.5915645805945315,5.524260685055024,1.7595667696304882,-6.739921671463445
A/Brisbane/31/2018,-4.206291620111121,-7.881245897267561,6.931506565407999,2.309049098076048,0.5777479447170456,0.829260097526269,5.504997954788516,5.023302498735331,1.200439900548621,-4.587648161354314
A/Newcastle/19/2018,-2.228701178559944,-7.926256514951118,4.706908888908776,1.5157685644463816,-0.8663339248140437,3.080209887016697,4.904407308888022,5.583040127689553,2.993146437903901,-5.28883587397917
A/Brisbane/140/2018,-3.1804109677841974,-6.484680588109748,3.7925576931900133,0.973004224791118,1.617635929411142,-1.2360518848900848,6.741081219581779,6.413335983565765,-0.43174108476292,-4.1132119348434495
A/Washington/181/2018,-2.755972370040578,-7.713100831696475,4.109816191451084,1.5514553979596886,2.307008807789176,-2.325723142670474,7.220507723499699,6.650364112907919,-0.6851479759349108,-3.7973361656602087
A/SouthAustralia/179/2018,-3.72756703397873,-8.351160047425967,4.035624809403156,2.1145180911041463,2.548519891192916,-4.162665615749815,7.992193962052884,6.9961675756118415,-0.5084855735258893,-3.3944282928850273
A/California/95/2018,-1.0745528748201794,-9.615729674379091,4.284640333053019,3.570490418972055,4.736471751315196,-3.4154133647380513,7.405667954127958,8.015883674099763,-1.7871838428471303,-4.687101730852988
A/Darwin/1001/2018,-1.4206589532961678,-6.772224926479046,5.544235896355797,2.142131971843028,1.18408309492202,1.3557946403447318,6.538843854875896,8.612281147624381,0.0764690760779026,-4.642936662970332
A/Darwin/1007/2018,-1.5177968268839224,-6.391769234512821,5.52519665800033,1.8116760818313276,-0.07795595870503959,1.1662361152143055,7.1740605104282436,8.683197256736456,-0.06405484615262859,-4.164207826598956
A/Indiana/20/2018,-3.8139787176746043,-7.729373402055165,2.0367578629143233,-0.42911169049406234,1.180942706335811,0.8137127863096397,7.396995688860573,9.095721907469478,-1.1243241989072834,-5.52915196096741
A/Minnesota/42/2018,-2.988470697227575,-6.2100537269979865,3.503815712980472,0.3540969635858626,1.0881169402296478,-0.08817369865746073,7.160410205935359,7.370855076188424,0.3622672962741687,-4.580065129588364
A/Michigan/401/2018,-3.6378986175244794,-6.455859619947146,3.544139191027709,0.2988541209572524,0.9700638433711963,-0.018938829844786616,7.157330417127398,7.085397993525496,0.37207613330304196,-4.3812148540374
A/Moscow/1/2019,-3.0344025956100587,-6.2848321967510605,3.581991486982362,0.3381334375499581,1.3041492437205477,0.027903021989856638,6.986530378773582,7.318752853377572,0.43092153427578367,-4.63023502519671
A/SouthAustralia/263/2017,-2.8840923843031567,-4.883461102418271,4.363341167914264,0.45142340606142534,1.097097040450798,0.3674672961855742,6.4656057147587775,6.5082543463668445,-0.26408174215610375,-4.196845617447952
A/Texas/291/2017,-3.0833586813489147,-5.1704254090742205,4.722152564929785,0.4630408045652326,1.1744956235023736,0.4001151521737584,6.990583101247774,7.0472627622405914,-0.2786640914574659,-4.558382980106492
A/Sydney/205/2017,-3.1786455910568745,-5.851518744435458,5.11922126306245,0.705603198290417,1.043110419552505,0.8675025432140876,6.784054746372602,7.839836151374167,-0.4889934702692771,-4.736857651842575
A/SouthAustralia/12/2018,-0.9063103278495781,-7.625776125416482,2.555257337615189,1.3056359412947682,0.7897424795560357,-0.0009280263151654184,7.765481403848272,8.175878405876954,1.3008617874710193,-5.541969805093088
A/Texas/131/2018,-3.5015256177034844,-7.081738935934457,3.310012483383225,-0.09887011193681249,1.5254723899842637,-0.2310077327893238,7.256061353798873,7.321137969210417,0.6450804783054269,-5.665243497326613
A/Victoria/721/2018,-2.958084429548638,-7.307677040591371,3.961393657264176,0.17940652396259088,1.7687737888431065,-0.49377036580794365,7.084573227298597,7.687743394146302,0.8633818918029668,-4.657936126811211
A/Victoria/2052/2018,-6.5092403931416145,-11.44489215656876,5.203290164683468,-1.1334511480042537,-1.64208679713305,-0.2864572990149494,9.67793527624424,9.79533257935784,-2.1985485107861127,-1.7826731701626548
A/Victoria/733/2018,-5.652956537811929,-10.910666737009846,5.577224025182702,-2.2320621186763057,-0.46570797136356895,-0.44475144029472924,9.114201126168636,8.261028500771634,-0.9272804280141287,-2.865129429321773
A/Nebraska/09/2018,-7.932369156361463,-9.58693567791798,2.2340705972085892,-1.9475058990966807,-0.7022687269032997,-0.2108774818229857,8.35550263471639,7.195298039608889,1.5966240662683973,-5.512124772906338
A/SouthAustralia/167/2018,-9.044143778353302,-9.904704804209938,3.163339850059448,0.858830550850147,-1.2707115392150512,0.595926462028332,8.53887589055503,7.215412783600398,-0.1309998338304112,-5.889483767718074
A/Victoria/722/2018,-3.6313643524812944,-7.718566778237292,4.896763035164204,4.64135040876453,2.943488104726322,2.1604444329841304,5.336751157789585,12.052624095015053,-2.4013077067981854,-5.298858774480386
A/Brisbane/7/2018,-1.0194451821899901,-8.056860193372083,1.6043317607496046,1.5648502456994533,1.76014609836317,-0.25492813599022884,8.787177900908263,9.170815658827978,-1.750141313521873,-7.8708381980188316
A/Pennsylvania/1016/2019,-2.5114449965268757,-10.093050828433174,5.49916729669498,1.1570317538060018,3.593023718832377,-3.304997915889571,6.8725888621076905,4.660246468465603,2.8024345105237964,-5.39753738647455
A/NorthCarolina/36/2018,-0.5024353185527634,-9.034372105447913,2.335407401193252,3.215915891564987,0.8647801779496892,0.01846898149686411,7.5802794204981945,12.121148273276036,-0.6164958834186471,-3.156136170095219
A/Sydney/1002/2018,-3.921140747279252,-12.532538492428948,4.2683260167316694,-0.4188348457180792,9.248610051111964,-0.2889358538048878,3.647500687082659,12.461301796321381,0.7664136477628507,-6.611713500522863
A/Brisbane/64/2018,-1.4729014416840418,-9.39775483159348,2.424543235233777,1.2721129452381834,3.47765848463327,0.8641901322804725,6.218216235240245,9.631792191978164,0.8295236721100511,-5.127872937189956
A/Arizona/66/2017,-0.9900882788926517,-7.473153530723473,5.226828930315003,3.3383611420238375,1.0125775756115283,2.6059399697154837,6.374905997481952,7.971942718423222,0.8374950120349494,-7.1963277443858145
A/Maryland/13/2018,-2.1218371210544973,-8.760563976627637,5.810871217246024,2.4486165582068677,2.88564248532839,3.6283558323109077,5.167628767237248,7.460345168268428,1.14980645035177,-9.177530204015742
A/Perth/352/2017,-2.558192088421475,-4.605237983867904,4.317947193448604,-0.036822355872632585,0.644489082721505,1.7346634884694416,7.627969729626681,6.838179730896185,-0.3652277492941848,-3.7585347083046026
A/Arkansas/01/2019,-5.427373801731317,-9.072491208735372,0.9202594770103888,1.0393536089595394,3.907357315809855,-4.945619776879287,8.569575873283506,12.001058100763668,-0.5934117043399448,-4.2868510339160215
A/Massachusetts/26/2018,-4.835266670026217,-8.304416170457385,1.5746007381769809,1.2374308243687577,2.4561542211715026,-2.9431551967861154,8.059170026230186,9.718432033351018,0.5165951125548293,-4.067657671178689
A/Ohio/31/2018,-5.887267499929028,-9.001494850661066,1.5153227811578422,2.0240626469649743,3.691254970084008,-3.0417613427506853,7.134176312649529,10.928093078829654,0.22397701775936044,-4.4793310424696084
A/SouthAustralia/153/2018,-5.07295868124814,-8.5227725718459,0.7393841981763508,1.4765358907221675,2.5255872561950916,-4.367089106686636,9.242641243442385,10.087469032112732,0.12422864719407387,-4.868013635214946
A/Massachusetts/39/2019,-4.959969498895167,-9.687250520849497,1.4201871619670778,2.4808944635361883,4.319734930700055,-5.203193028162446,7.944317604739347,9.486137800066393,-2.0408177485505457,-3.3136937452149513
A/Makhachkala/84/2019,-7.516042357558964,-11.050088168062258,-0.2197412694635293,1.200922316911827,2.0615154866575427,-6.008876380524855,10.522852051257154,11.580720652737526,0.524462717682858,-2.422818492305724
A/Vladimir/87/2019,-9.384710342320073,-10.327745391475368,-1.5663920104014397,1.9186453767214757,0.05400615458760883,-3.942004230596291,10.441926686528932,11.4548832730638,-0.11931279885799376,-4.098986537952963
A/Perth/1036/2018,-2.254663000358746,-8.07834908592825,0.7635645514322115,-0.40383345174833407,2.549793828433897,-0.40909807701056444,8.14723672980864,12.51059775601328,-3.67932475891694,-6.015870635044331
A/NewHampshire/24/2018,-6.528744965033947,-11.299627216517376,5.43059220919219,2.59906773111451,4.433581872547783,0.8973110318338741,5.20886279184651,8.134511835476047,1.3788278940669756,-5.866460818127418
A/Sydney/1205/2017,-6.904539433526063,-10.345001936648421,7.969180397108955,2.249042625774694,3.575648402621785,-0.07895751733215346,4.034641180208499,7.671441620168693,0.4357752409538632,-1.4707598209794925
A/Townsville/23/2018,-1.4029341132886772,-9.069549033607213,1.2350220275187462,3.451966114915166,1.4653497955509611,0.19687513765828116,9.291931239961826,9.016230071041887,-2.463232699657476,-8.924851923592316
A/NewHampshire/27/2018,-4.505710911979086,-8.908696946916379,4.825777113456558,5.318619256060792,3.8852598345319644,2.3124451786352984,4.503829094743374,14.726789180728172,-2.770246468394866,-4.055548030107227
A/Brisbane/115/2018,-2.338817302589738,-7.156066672320519,4.24258609931407,-3.60726563102122,4.102657991442558,-1.8804272833756992,7.023230789755276,11.900569771677532,-1.0579495977492388,-3.1966219260955886
A/Brisbane/67/2018,-3.249988411743014,-5.193265093973726,1.6208074211103611,0.037156678032640514,-4.489148501136326,-0.1748079764042091,11.95713158815271,9.243363071084728,-2.3190274616577726,-8.589027050713554
A/Perth/348/2017,-5.404494669167006,-8.200060978644863,9.258276031924355,3.8600873420935153,-3.8006937445646223,-0.8501433691604126,9.92269207482749,5.280460348798007,1.8595683699529681,-6.810471756292951
A/SouthAustralia/174/2018,-1.153964350624368,-7.970873539013015,2.70702436828065,6.754996497471028,2.2086926412959724,2.6646439444763375,5.533055250590223,19.360460617805643,-2.936853119810737,-3.65974502436929
A/NewJersey/43/2018,-8.096892752328987,-12.161373296742154,3.6668797856388506,5.188967012037961,0.9216742607525107,-0.6911342704723804,5.862723149247862,5.174557555138451,-2.3961657696254783,-3.010635801167545
A/Sydney/34/2018,-3.003157248968811,-9.835472435737692,7.035645970921106,8.057371559076353,-0.1013994366707444,-2.2071929207217087,10.34423512458325,4.160766409825557,-2.1565331765160933,-10.415644497232691
A/Nebraska/11/2019,-8.753582064025087,-11.868510134578365,-0.2306010449062466,-2.5217701045615097,4.973906915875541,-1.2721648872768272,8.203061609536565,5.592112452009514,-1.6594466386769715,-14.951938241069035
A/Florida/94/2019,-8.344995368941628,-10.443220376938095,0.7260831324482603,-5.532798498381969,3.3975536455561115,-2.335269503414625,8.478315920904166,5.53076515175203,2.8939870365338636,-12.74125639144014
A/Canberra/1000/2018,-2.894800445263304,-4.808569936759068,9.587832719386823,-2.117885928706884,-1.7539906632701887,-1.8382066418495218,3.796194228216093,9.908279503083108,-2.5148371670468217,-8.116710267129296
A/Michigan/386/2018,-2.808168349831452,-4.867051913183706,9.589419876636917,-1.9987560025633986,-1.4476685561036793,-1.753357064548431,3.5706636786581925,10.122179885651159,-2.6044469938726214,-8.041749727699909
A/Hawaii/46/2018,-2.8513428572687323,-5.32457667899872,11.416335679950395,-2.375699702945559,-1.4393281644649303,-2.8169084654656107,3.3297078472668464,10.672668965913449,-2.131561160876518,-7.769814674815407
A/Maine/37/2018,-3.109026858435703,-5.596079724203759,12.514831069550004,-2.736829386713519,-1.802966232145836,-3.2270083354890153,3.3174995302798194,10.994737103514876,-2.085580102572153,-8.472666091453299
A/Newcastle/39/2018,-3.0070970214620876,-5.475501879003215,12.203868442179012,-2.902949111443723,-1.4498074065013626,-3.3010377231892964,3.144545930272493,11.696608689628905,-2.4615260594967205,-7.993360652572399
A/Newcastle/17/2018,-2.8521230755437537,-5.3231863240426796,11.413605315480382,-2.382020715016956,-1.43974562041982,-2.820116144625204,3.3323704261815736,10.673592442754426,-2.1332556224646795,-7.768216682464219
A/SouthAustralia/186/2018,-3.043327055820975,-5.570648475983289,12.520004457269307,-2.557090719284012,-1.9490388929307925,-3.3512903284076963,3.3897565855238154,11.279812937751364,-2.227947375550096,-8.033970833660506
A/Sydney/121/2018,-2.8586744597131837,-5.324220890112512,11.414100673329786,-2.3839555971035487,-1.44231093799615,-2.812932259838131,3.329762226277552,10.668140523855152,-2.131320064854363,-7.775134636974566
