,pca1,pca2,pca3,pca4,pca5,pca6,pca7,pca8,pca9,pca10
U26830.1,2.22260908462329,-0.2357757587175004,2.1706179128741656,1.8357741521885598,1.856852119115972,0.5859344859578858,-1.6614419405601446,16.975935383880657,-1.006501680695779,-1.7122201231575922
A/Alabama/30/2017,-1.942113264136865,4.284939452288395,0.3209943062891446,-0.3085573564970922,0.05215625084321736,0.3267336567247383,0.2503138948124631,-0.026282502517930732,-0.01820243191390813,0.3405864708495148
A/Florida/84/2017,-1.9435380937400388,4.2787401698151974,0.23984647046949045,-0.24364537190412716,0.11860804852210263,-0.15724065578808727,-0.16630084064156658,-0.02438705996112407,0.10736039076206266,0.35397142264575165
A/NorthDakota/23/2017,-1.9424051277195582,4.279251259490292,0.2408677382572548,-0.244149866369501,0.11630711077260365,-0.1583566020800787,-0.1666868403337477,-0.02484719046194349,0.10365853704716854,0.3553168347270733
A/Florida/18/2018,-2.216793102524075,4.221553762964148,0.3154428726201703,-0.25573100827746215,0.11152965656106367,-0.07165734901451118,-0.13106971110577129,0.022087062757755408,-0.011414486779718755,0.37967771233170633
A/Indiana/31/2017,-2.210462775611371,4.22048875404337,0.36398657834980275,-0.17701539590201026,0.07666768867663275,0.06266577493654568,0.008471621437915602,0.016319915309263987,0.04411246880650739,0.35437920219247426
A/SouthAustralia/13/2018,-2.170311956600581,4.079537027435443,0.31065399279975797,-0.2384149765311849,0.09323187636172711,-0.0039954478132713704,-0.10825206602051704,-0.0028398896568185695,0.01262976185611638,0.4846584057768684
A/Sydney/25/2018,-2.2179300568724534,4.207788740463427,0.31417858242377034,-0.33800345519447317,0.12819158597414146,-0.04255162744779589,-0.16045867940552985,-0.016199296446062713,0.012668494077857589,0.4907143839205732
A/Newcastle/21/2018,-2.332069331546436,3.809557803083969,0.6480771692346404,-0.2261289704879074,0.3531529125517107,-1.331231430005749,0.8048891846011912,-0.018497565416907665,0.13544404902293877,0.7334490113834029
A/Sydney/55/2018,-2.239304857712634,4.094989588665519,0.7247747002338822,-0.23963192735248448,0.4052168764135866,-1.2212041264380797,0.882865042472688,-0.00013536013932923853,0.1314558165541302,0.5773368957695844
A/Sydney/93/2018,-2.239454464806363,4.095692742586991,0.722736406643223,-0.23891803422977254,0.4165767976426337,-1.2231218056624682,0.8854859596033591,-0.0017144271981582022,0.12833168709426446,0.583873275184526
A/Sydney/47/2018,-1.869909888661925,4.162997350832069,0.5844477966432623,-0.31442976349207724,0.45092349715142294,-1.4210956244259911,0.771202535075192,0.24938984045578824,0.386734244811953,0.608770607100816
A/Alaska/46/2018,-2.2521426288736057,4.319115334043753,0.3428314674001048,-0.28421470827582324,0.16677041027574666,-0.12183753977075118,-0.2578545144255355,-0.08650202581891042,-0.010055053288547139,-0.38613124608872573
A/Brisbane/161/2018,-2.254396496410914,4.324773064285826,0.35418576608511676,-0.26400691549506733,0.16893728456247137,-0.12410091155220586,-0.2668355392249568,-0.09318034266323559,-0.01075562533614279,-0.39228396439683993
A/Victoria/2036/2018,-2.252040407728919,4.321925149462289,0.38059890486270576,-0.19457728832448629,0.17092277561089736,-0.12133232500319982,-0.2593539536686293,-0.10760846405581063,-0.015333831844020526,-0.4373989933627382
A/Brisbane/28/2018,-2.250876246769356,4.318885238726999,0.3796369267894736,-0.193911546316279,0.16968075075608638,-0.12016791712252224,-0.2564888485531188,-0.10658155316307379,-0.014935417178878495,-0.42516430327594656
A/Brisbane/6/2018,-2.2505309245911254,4.313443869652311,0.3308335942472522,-0.30544342543386993,0.17134460614632147,-0.12320379568332249,-0.26097343861276034,-0.08795097707301927,-0.00893135573750621,-0.4051502763595179
A/SouthDakota/37/2017,-2.2502068189468174,4.314220046399083,0.3417525248028499,-0.2835713574801448,0.16682927681598594,-0.12342173848202709,-0.2600744852970106,-0.09125818403108701,-0.009729232302010681,-0.4070595368917181
A/Newcastle/22/2018,-2.2504103961407056,4.313950067855391,0.34073412930237296,-0.28295533348716945,0.1644594826592273,-0.12374836344429581,-0.2594567777457333,-0.09086154425840827,-0.009757365531124955,-0.40773178802790344
A/NorthDakota/26/2018,-2.2507501710453512,4.311328595607413,0.3461865866374449,-0.28596866821465666,0.17694724279108257,-0.14241287074882025,-0.2398657136396972,-0.09026152775982849,-0.007828796735825712,-0.4049132738113422
A/Pennsylvania/274/2017,-2.249972097616466,4.31353097235459,0.34071645777381926,-0.28275397635029376,0.16566352504807993,-0.12363912114481737,-0.2579650652070981,-0.08906785111168793,-0.009054293783419952,-0.3938839756482979
A/Sydney/521/2018,-2.2497882426440827,4.313857584090665,0.3820120330976062,-0.19401396881484237,0.16860951425229787,-0.11481346635625556,-0.2622189202405713,-0.11196810804053722,-0.013076059577135177,-0.42300243490609585
A/SouthAustralia/125/2018,-2.248545349694024,4.317064783756356,0.3837075949859108,-0.2182045878145521,0.17827403936711947,-0.109500720653138,-0.29993285300546746,0.04290501372001466,-0.03801543342377952,-0.49615954833816706
A/Victoria/1003/2018,-2.2516294536447106,4.322797787438788,0.38138465145034967,-0.1952071766490148,0.17139843262538534,-0.12154990186126026,-0.2620479654191905,-0.1087021466457638,-0.018139982388704415,-0.4442350601061045
A/Sydney/525/2018,-2.2541776673789027,4.321314987851221,0.3166208312137713,-0.35428308710692796,0.16739210439077518,-0.12858869441196216,-0.27259264323446974,-0.07526316400848689,-0.006034080599591336,-0.3871313878396464
A/Brisbane/23/2018,-2.2511380219279795,4.316651086951888,0.3425098455071309,-0.2841121503450265,0.16780348018525115,-0.12435296482669843,-0.2622545233394961,-0.09257805926655745,-0.009939558619718855,-0.4162332166463737
A/Missouri/45/2018,-2.2511380219279795,4.316651086951888,0.3425098455071309,-0.2841121503450265,0.16780348018525115,-0.12435296482669847,-0.2622545233394962,-0.09257805926655746,-0.009939558619718881,-0.41623321664637375
A/Vermont/13/2018,-2.2514832492617813,4.316019633161694,0.3450606469677416,-0.28547738710211573,0.16678162228151525,-0.11848720941709154,-0.2573270849250539,-0.09001996332344156,-0.009676870179124586,-0.39735189293035994
A/Florida/53/2018,-2.2466663865414382,4.3094521087868065,0.35681589839410477,-0.29076062250194956,0.16537700227294946,-0.12690888504536743,-0.2784325046547208,-0.1161340456881855,0.05645970251868054,-0.43763781978616173
A/Newcastle/7/2018,-2.250666140712189,4.31394227951683,0.34110756139696385,-0.28331042442039417,0.17199551494874613,-0.12094562474956833,-0.26341635881237285,-0.09174289296821084,-0.00947025080829949,-0.39744532787197084
A/Brisbane/36/2018,-2.4431671088337503,4.261922311059162,0.34042580237643133,-0.21369544598285894,0.32583343272153986,0.024297914941870107,-0.18179176042245573,-0.2302667433944416,-0.13673506810126468,-0.4155432876133277
A/California/38/2018,-2.434923402371652,4.280211380286664,0.41195175345276147,-0.24614910912329957,0.14394308175441478,-0.0232821037415185,-0.20412493702022064,-0.21641837017534138,-0.1378593426344931,-0.42286205009875444
A/Arkansas/24/2017,-2.2012804036430547,4.183896373032564,0.2955406682434902,-0.2721824606791511,0.11830091945495694,-0.07160806916691004,-0.1414346768864969,-0.09727410535833747,0.0016674614900496635,0.1360015617240669
A/NewYork/07/2018,-2.2023644589671596,4.184119752455939,0.2874405381759793,-0.26618170721761175,0.11389597006626581,-0.07291652129408381,-0.1324627721406256,-0.03831024616719475,-0.0034512571476411633,0.11951587230710918
A/Vermont/04/2018,-2.2001626102569545,4.1864808514637755,0.2944771029726517,-0.27206807740691197,0.1127990347418558,-0.07377619518116732,-0.1314769792380466,-0.0956914873555406,-0.0006535460583134067,0.1311367587821839
A/Arkansas/29/2017,-2.1123877537929627,4.205218714277835,0.2728130848820238,-0.2951428843743353,0.12909808201719325,-0.0648314259993486,-0.17512330869931203,-0.015120471527652037,0.039087261054984036,0.12012238070365001
A/Connecticut/20/2018,-2.226694953413524,4.2505303315110865,0.34388972820082886,-0.1956976138719415,0.1271612629500122,-0.09866861685383768,-0.1894220585221822,-0.1336831510961423,-0.0002396332930086799,-0.1549145673325988
A/Idaho/34/2017,-2.2240323885300923,4.251237388497077,0.35096170849555736,-0.19976203715458773,0.13281948186832646,-0.10215743099375002,-0.19162814731014638,-0.1352166759152138,0.010272606557456153,-0.15531488554302808
A/Connecticut/32/2017,-2.2203726651180355,4.232507614278363,0.33094412076971896,-0.23791737632726404,0.11555572137104543,-0.08145502115219787,-0.124351518609977,-0.02988316300449059,-0.0014646611399218989,0.4735916359115327
A/Iowa/19/2018,-2.1999389362776314,4.187451598687612,0.2988024135850447,-0.2718452599888421,0.11982094501926883,-0.07090040751754921,-0.1441284350492929,-0.04272691206436026,0.007185565213717491,0.11932091697793017
A/Louisiana/57/2017,-2.1990400627985816,4.186935765396064,0.29224092002973834,-0.27119801673523786,0.11012998514719591,-0.07801004910420381,-0.13465677169931267,-0.09688304673089253,-0.004017886286784673,0.12873208477125864
A/Sydney/515/2018,-2.2019104367705435,4.191209022938654,0.33318522255023447,-0.18228962476441,0.11283742542545354,-0.06058498635095462,-0.11670141030622071,-0.11151408336217278,-0.005340032364924963,0.14386341621747592
A/Brisbane/43/2018,-2.228806723990257,4.155994499400801,0.16931627447117847,-0.20885041355775916,-0.13603997301539333,-0.11976250399401811,-0.08923582142243915,-0.06993242561350864,0.007243054143851064,0.10492505010908963
A/Florida/62/2018,-2.229045267903296,4.154525373687392,0.17351879165067352,-0.2095524408912882,-0.13333744894805336,-0.11634339306173878,-0.10050471002880842,-0.016698079121864814,0.0015067848716107026,0.08794656701299991
A/Maine/24/2018,-2.250616137223856,4.316263365356183,0.33995095531576347,-0.2830545256459697,0.16281167263530488,-0.12577137544107556,-0.26104291130129276,-0.09137040207667005,-0.01389954901281746,-0.4143333693560563
A/California/64/2018,-2.256346324470209,4.328119483176317,0.3531967146020409,-0.26301628522564163,0.1836868064725964,-0.12939206040639845,-0.26762602585969486,-0.10303283293881646,-0.0096003171461505,-0.4538016713069079
A/Hawaii/57/2018,-2.261459129852362,4.35468986122267,0.5088459155163977,0.10578275234128577,0.18215208653471784,-0.07106572680498761,-0.19212084356530942,-0.19062045715445702,-0.057686802243758606,-0.44879695728018754
A/Montana/38/2018,-2.2565951797932073,4.330687146806586,0.35467897520015884,-0.2644891985598632,0.18468021143581465,-0.13023247179900044,-0.271467172823633,-0.10494032222145461,-0.014283452301184127,-0.4519365958027779
A/Sydney/1038/2018,-2.2567728791245973,4.326431389645835,0.32629518004693625,-0.33127938094568027,0.18256233503394398,-0.13164389360798975,-0.2743278306267244,-0.09265878049897729,-0.0069274337401109215,-0.45156851143394344
A/Washington/180/2018,-2.2575007167730803,4.328828460395111,0.3605520939412268,-0.23972899305507808,0.18237528862064847,-0.12884860601290735,-0.2701750073919542,-0.10564364021833982,-0.008334826143620582,-0.4378373709905913
A/Wisconsin/497/2018,-2.2570392236673644,4.3329295311855365,0.3913805928776806,-0.1732457726443781,0.18298274382801277,-0.11405054998690553,-0.2494376686780874,-0.11831198940963274,-0.016369952099020056,-0.434504966528644
A/Washington/186/2018,-2.2554921161264296,4.327862685494229,0.3836845034036582,-0.174396992734588,0.17432007997748938,-0.14124330026118,-0.23008049129757932,-0.3413663782939422,0.004070566079774116,-0.4012320500394763
A/SouthAustralia/5/2018,-2.437563044215224,4.314370815527208,0.41649793578830685,-0.1957497264304976,0.1825992208393218,-0.09792177067647144,-0.19248579509107747,0.00715600669547704,-0.029839531404719972,-0.3018818037776007
A/Brisbane/57/2018,-2.277343587620396,4.282529530433993,0.2040302698443564,-0.26907730447340095,-0.08337747870105501,-0.1626364767438939,-0.20867056437360046,-0.05527293141441491,-0.002287266826336932,-0.43049299638155675
A/Brisbane/12/2018,-2.08885226539612,4.340627532339044,0.28766954392260213,-0.2707209057909702,0.16299029848126306,-0.1975927271503883,-0.28330402027504437,-0.07537899799062757,-0.23249010398040973,-0.39540639194748894
A/Brisbane/40/2018,-2.2492472929245766,4.314218028536203,0.3381482331871905,-0.2821338469506551,0.1661591717835463,-0.12421869114178426,-0.2600359758184943,-0.09191143562545806,-0.0036512558193074356,-0.413504592422461
A/Florida/65/2018,-2.2023916830470847,4.183590394262303,0.24228986838915567,-0.4091103573114516,0.1302130478332222,-0.0939118549236259,-0.20886916543158918,-0.03854599127546701,-0.004263412699483444,-0.4021817150765356
A/Sydney/11/2018,-2.2518870284616774,4.315652678249561,0.3415790354707513,-0.3097490629089664,0.1732552852249877,-0.13120936520636384,-0.27226186872931074,-0.02565430595489508,0.004528778305143039,-0.3561188822093009
A/Brisbane/19/2018,-2.2511544610243566,4.3178158931724555,0.3776550735520888,-0.19467845876663328,0.17010360905061905,-0.11540642440101578,-0.24155997812040853,-0.16996289468391676,-0.01549287039943173,-0.411399849622413
A/Brisbane/25/2018,-2.252215350482899,4.317791788774626,0.339858435363046,-0.28659381061075123,0.1573591206249032,-0.11531334020270985,-0.24657796103983723,-0.20472180154977473,-0.0045946958161576165,-0.37884087836430147
A/Newcastle/20/2018,-2.2508709084587055,4.315936016123443,0.3438414110966827,-0.284158367371218,0.1658576162405494,-0.11769905316053655,-0.2587446874054117,-0.08431865542620633,-0.007460475978630993,-0.3872912846304098
A/Oregon/10/2018,-2.2497324509506957,4.3193343577800745,0.41936876150923175,-0.10134276995926618,0.1763698050434797,-0.11245103131146682,-0.25776750870048887,-0.011618625991481548,-0.027790670376570292,-0.44797098886288444
A/Perth/43/2018,-2.208302756563643,4.193329366536459,0.27167113537263665,-0.34326678770085334,0.12693646785799131,-0.07602888580164605,-0.18346469793821107,-0.04369694665910103,0.0030194037435499624,-0.32107319396153466
A/Connecticut/22/2018,-2.2553007593184105,4.325653117227433,0.39891911231389654,-0.15159634411389192,0.1679911007058561,-0.12063570486004277,-0.2512278947641906,-0.23666003288824325,-0.000934760630280648,-0.4594780406641229
A/Hawaii/42/2018,-2.224254755756877,4.250043639181317,0.3586141516197159,-0.23578541362944236,0.12399162258679455,0.009510349127574706,-0.11064362924315004,-0.13776882960239678,-0.01850771552657704,-0.17428108204527742
A/Victoria/2020/2018,-2.2527666636282064,4.325225879280652,0.4150758567231701,-0.12680169998822272,0.17079786846769293,-0.12061157673090384,-0.26575002309244544,-0.00029862960708498213,-0.021317813568166068,-0.4561010159956744
A/Missouri/23/2018,-2.254753500675932,4.3261868386592335,0.3289384782925718,-0.32984170328611107,0.1759059792586064,-0.1273530616526084,-0.2804644083087109,0.026034412250091666,-0.01236890833662308,-0.4630514035454873
A/Hawaii/43/2018,-2.252054893226689,4.322030244724021,0.34961665829967914,-0.2288793090279685,0.17822315817180473,-0.19120498752650647,-0.35292958915160505,-0.03485930642454237,-0.00837281956419875,-0.4453831413606374
A/Victoria/2088/2018,-2.255676858572903,4.317992476217465,0.3235101633225412,-0.30340789143225166,0.19795393475569678,-0.11416656868176386,-0.2750732999319388,-0.09876086052892251,-0.016444642800834634,-0.4393118546034999
A/Michigan/85/2018,-2.200843087884959,4.184810235455845,0.3028316331533056,-0.2776312797087085,0.12023106845585167,-0.09944235585199432,-0.12894133251971698,-0.10503087820702857,-0.006246534861935983,0.10824982428682273
A/Brisbane/32/2018,-1.8849775968964733,4.3899404159023545,0.1763838211796158,-0.4293485935862846,0.2134053628089963,-0.3291174143725244,-0.38506930574926335,0.17481736421845284,0.25020293319060044,-0.3576362441905764
A/Canberra/9/2018,-1.8831638331799152,4.3838267651473455,0.19787602484812478,-0.35936673493569166,0.2217108215539034,-0.32585750824588505,-0.385795584349639,0.16527084572930362,0.26498727941090106,-0.40779393718245194
A/Newcastle/67/2018,-2.252667143748037,4.319014867890244,0.3876595771220691,-0.1958675655219575,0.17485818597909414,-0.12491867788879936,-0.2669326835449557,-0.0566860267912306,-0.021746387545196505,-0.4870366174984765
A/Texas/299/2017,-2.198774385326266,4.160410034427744,0.39509530465692216,-0.15741969310618342,0.13273143985180957,-0.14774938877315752,0.020083646095311252,-0.11690806503620382,0.011512496085278113,0.11235509252943952
A/Newcastle/11/2018,-2.0747510125373303,4.636297672424495,0.3512359946321643,-0.4436259966451097,0.1824793263722408,0.08714976193720993,-0.05840178640886608,-0.12852004398993308,-0.010579211927557413,-0.46165372275230954
A/Perth/341/2017,-2.1226208338744765,4.237338318802278,0.2854902654670352,-0.27714665671651395,0.10789118583299932,-0.06463735009532544,-0.10661176661345406,0.0750970723507239,0.02298217973323738,0.3926150994082474
A/Arizona/30/2018,-2.202653210640193,4.191056306745394,0.2860206237724856,-0.2953735654995625,0.11186310642726713,-0.07620467448384989,-0.13926351738520354,-0.09520825432061895,0.015342984064189893,0.13831369522278883
A/Delaware/49/2017,-2.205545399827476,4.190268230013977,0.2951050090202298,-0.24559988944715674,0.0936144902171644,-0.08027449407905443,-0.1380005936315602,-0.1005469768044531,0.0008362906407633325,0.1437810958870477
A/Arizona/37/2018,-2.2449622883185945,4.038838359171259,0.27447538476208294,-0.2894434672927678,0.10081794288010773,-0.11351336411451,-0.26274580143215004,-0.15279682787023077,0.10378131733603817,0.12076267304050078
A/Brisbane/1000/2018,-2.233404941418865,4.000369126459979,0.291358341313283,-0.12234899989678004,0.07167403697881604,-0.13573859358957682,-0.13658317331464237,-0.04884873735682203,0.0036566840800635516,0.6205492470307542
A/Brisbane/58/2018,1.1963804538124019,2.886677084862265,18.10227815382303,36.19858477912804,0.27931229471176916,0.5696769883446854,0.7618521864452135,-1.1213018738954486,-0.31242064352172416,-0.2662087509397107
A/Brisbane/54/2018,-1.8640099723681571,4.0683768886265295,0.1510314377226629,-0.19714683603637276,0.11738065771665195,-0.33563009157747903,-0.24824568071214234,0.2006764632382954,0.25893511233788247,0.6519829583619866
A/SouthAustralia/4/2018,-2.2750785221457113,4.1173948317723115,0.31334641968075144,-0.17578049227980022,0.10054377526091965,-0.17148551531567557,-0.18382139327469746,-0.06680286763004105,-0.0019837332746829913,0.6201589884392192
A/Sydney/24/2018,-2.300387062330441,4.095931490074781,0.2386779290151351,-0.0774459099622862,-0.11110476729571797,-0.2159301397509736,-0.1588198724679484,-0.004359244084740898,-0.04238048381055804,0.612582617866588
A/Texas/68/2018,-2.3005520353244084,4.094314489876076,0.2356114023235867,-0.07734785515297544,-0.11307062327912358,-0.2205103794229251,-0.1492421622128021,-0.054454754657507244,-0.042855805905342916,0.6345383407206101
A/WestVirginia/14/2018,-2.0929482449218018,4.146465738122692,0.26252339610852327,-0.1875892761402081,0.1107218924550963,-0.18698581962530586,-0.2417458484458627,0.11295022758837392,0.06457541418737826,0.5887433818805278
A/Missouri/26/2018,-2.2069700455896717,4.136648576422765,0.29297951690653823,-0.1722574960257845,0.10258369746889946,-0.22541161770314788,-0.21636216487850043,-0.036050879477172594,-0.2624221111518134,0.6655076577507988
A/Indiana/28/2018,-2.2760276090071496,4.117146041395423,0.2902766362161149,-0.24297275300095494,0.10185632663570222,-0.17413365111506574,-0.19844931514123065,0.05785585985822475,-0.008319328754115679,0.6274095015700366
A/Virginia/53/2018,-2.277238580605378,4.123371304576898,0.29345854012921396,-0.24539450099139334,0.1044253324309882,-0.16129309230001568,-0.19289478015672873,0.056972515281666705,-0.017417636902560346,0.6528304865458515
A/Brisbane/1002/2018,-2.1847086381825775,3.0586230422103937,-0.02363425312199067,-0.17530644639151974,-0.21932173682961775,-0.02209689793136693,0.19960833370421893,0.1738915139629457,-0.010478233639735827,1.2777940037222273
A/Brisbane/112/2018,-2.108262351562181,3.0691847879363956,-0.06698934999296483,-0.15361729871304033,-0.21324439311698304,-0.09630968741607257,0.11024558281988885,0.2596097500951177,-0.20723682558984274,1.2182540089173846
A/Brisbane/73/2018,-2.1809292740726685,3.0579524497769417,-0.0433497192971296,-0.16095827334360124,-0.2122515654310916,-0.05101046831188568,0.1345830570807344,0.16894441708121705,0.011638090397108267,1.2004558619677916
A/Brisbane/89/2018,-2.1818316420667814,3.059674438085936,-0.04343827210747935,-0.1613606639827977,-0.21347853672085715,-0.05140860822566362,0.13573096534934476,0.17111873105980194,0.011819219087759668,1.2270610044373722
A/Nebraska/08/2018,-1.8998303170504915,3.6426091113119283,0.052039795300630076,-0.2821300058593572,-0.11632256265601276,0.21509108198198462,0.34735245634417744,0.13380340155361994,0.0336782618840261,0.8208278138159971
A/Ohio/22/2018,-1.9005056672032756,3.6429706496199072,0.05237205081954115,-0.2824455567420537,-0.11768139726237296,0.21100893775739418,0.3515122684134609,0.13564953901711596,0.03275235088640832,0.8283529909145427
A/NewJersey/33/2018,-1.9837169853499823,3.6264562400992824,0.13143549706989854,-0.11777182496472051,-0.10245329549415841,0.18378289498091063,0.29887011489050247,0.1275924418728673,0.09894481962974891,0.7812790418783124
A/Nicaragua/8899_11/2017,-1.9909823708280336,3.626626372842999,0.13757940049275236,-0.12130972285974634,-0.100559549204253,0.19085725979387244,0.3011857062603608,0.12461381095784818,0.005139863329955577,0.8019940348377803
A/Nicaragua/9379_04/2017,-1.1536522472990416,3.799298413920499,0.042744195748179455,-0.16730790625015418,-0.29922575136416674,1.1312178733590834,1.3923488365550396,-0.06841938284418775,-0.02018631511490592,0.7845985340036925
A/SouthCarolina/02/2018,-1.8953366376902698,3.6322353652437203,0.0729224314637459,-0.23095817824067263,-0.09147761484029795,0.18877514202024476,0.24483119679550044,0.21998333233132747,0.045221624482208456,0.7961932363467945
A/Brisbane/1101/2017,-1.8519475142926434,3.229573284559635,-0.0318806713672991,-0.03744782043455556,-0.34362943977227073,0.2966626264023716,0.5254167184691638,0.29981786737737853,0.0356444918958486,0.8824060582720566
A/Brisbane/45/2018,-1.8609912995480093,3.208122154439836,-0.16667038563482778,-0.09133545913922773,0.25312894703260824,0.446223307412083,0.5302366975656992,0.18575457875610424,0.0027229661649039944,0.9665601357741012
A/Townsville/4/2018,-2.26741466980786,4.135429229552813,0.7034371692462552,-0.4918988265729848,0.23568949259942445,0.01789195559247965,-0.2972665155429264,0.08462088470660023,-0.09424044473333046,-0.45320973274509735
A/SouthDakota/39/2017,-2.197069626409508,4.186610460889863,0.3783791023245269,-0.31940695182272016,-0.004459290505027822,-0.05028459211921763,0.059226864036060874,-0.08425511508943737,-0.021771430138882577,0.0945868381182486
A/Hawaii/45/2018,-2.255308351641227,4.313960892760116,0.3135816026168768,-0.3526711655429894,0.17794174422347395,-0.09905602537769272,-0.23619055515448736,-0.08711885358396522,-0.04967907782383485,-0.41714463136200997
A/Montana/24/2018,-2.205194423806202,4.1952102558548585,0.3171626984185203,-0.25473856661825767,0.12136406272753245,-0.06287347687206812,-0.14169765482976754,0.004585794888075359,-0.0029823471211539287,0.07882902714568342
A/NewJersey/38/2018,-2.2968149245204033,4.168500522793051,0.31260535133146633,-0.29561141614367925,0.17041319092525029,-0.16472198041240543,-0.3828751666214824,-0.06215418428432732,-0.0012989638361364003,-0.4081093324847912
A/SouthAustralia/2/2018,-1.8513534983349582,4.285939511763541,0.18270499798520184,-0.3373141923687785,0.17510551286109693,-0.2882995971906172,-0.27121375537762155,0.21541720301880282,0.2645104270505292,0.43720214690453507
A/Alaska/52/2018,-2.11375447919354,4.012827579742399,0.19301903621106492,-0.2516587365890339,0.23869119304330663,-0.41200007117011544,-0.45530924720891613,0.18423738059537786,0.0885034320322258,-0.8083684078711313
A/Brisbane/120/2018,-2.247570951704052,4.365830116083174,0.4092535874380415,-0.26069937369178814,0.27062175465151944,-0.13347555006167186,-0.3237028285678478,0.06969751963219799,-0.0642213329835499,-0.6691624505042155
A/Brisbane/142/2018,-2.2480310323596697,4.367033755560544,0.4096128602210587,-0.2610319805477471,0.27117530927297967,-0.13388260323517637,-0.3246766153629759,0.06961298665481509,-0.06446364784349415,-0.6721460580924679
A/SouthAustralia/82/2018,-2.2478033648946973,4.36644447608224,0.4094622688201331,-0.26086200383018826,0.2710111648981463,-0.13373448060080353,-0.3243886861651437,0.0699196274376579,-0.06446832610995827,-0.6728094147278721
A/Maryland/54/2018,-2.6166077841911988,4.295774647372755,0.5510971627452123,-0.1862241860147656,0.22603850918332552,0.06812919810633329,-0.20949383938198085,-0.18037590862754843,-0.31819143281775814,-0.6963323136038977
A/Italy/7836/2018,-2.254566204415781,4.379971690079986,0.39067893531176506,-0.3359814507075427,0.28200344743839917,-0.1594807969316848,-0.34697881279142423,0.08935633568650032,-0.06154523650165103,-0.79006941357451
A/Alberta/017/2018,-2.2511044627521657,4.316494538603833,0.343119094697124,-0.28420710042749736,0.1691688170023065,-0.13350277698579782,-0.25298832092957596,-0.09052828539812405,-0.006721817661234458,-0.39341573653854683
A/England/7400/2018,-2.2502068189468174,4.314220046399083,0.34175252480284984,-0.28357135748014467,0.16682927681598575,-0.12342173848202707,-0.26007448529701055,-0.09125818403108704,-0.00972923230201065,-0.4070595368917181
A/Japan/6791/2018,-2.2494566079611995,4.314039100471372,0.34118800569040214,-0.2830647016463725,0.16400188504364763,-0.12127682993040342,-0.2585113363964362,-0.08758687121495576,-0.011193912007759266,-0.3937264253177864
A/Japan/6956/2018,-2.2505043257847643,4.314300921776347,0.34312876531487985,-0.28438604880932566,0.1680203631138255,-0.12761870111093,-0.2563942027892993,-0.09097118910939309,-0.009325442895416862,-0.4060423690857774
A/Ontario/212/2018,-2.2510296713430593,4.314182441490614,0.31435870660036835,-0.3516824170161414,0.16637278217644502,-0.12784572593274354,-0.26661697274085233,-0.07966642295290738,-0.006020873530458501,-0.4114185444454888
A/Quebec/217/2018,-2.2505707821517382,4.3011021799067874,0.3565668332251501,-0.31283955056919016,0.16967260662931108,-0.08393470168225915,-0.33759876571888414,0.03357326908548353,-0.001976644352525425,-0.22071076344108614
A/Bahrain/RVT0140/2018,-2.251090626002286,4.318211121189567,0.3136287961791691,-0.3524292664964517,0.16970741637675216,-0.13186643887145827,-0.26143232831541996,-0.07732694416884428,-0.0025644674344813146,-0.39535226524385625
A/Bahrain/RVT0147/2018,-2.250169793947006,4.318498033466661,0.31418715944822484,-0.35277960431711547,0.1681501474043743,-0.12982823838693372,-0.26482776549441683,-0.07674720020129804,0.01855315081106837,-0.4045311517772112
A/England/6942/2018,-2.250168381415821,4.3165082296648105,0.3422046911234677,-0.2823428898703821,0.16810695447066157,-0.12436198085086804,-0.265737855003225,-0.03696371882751844,-0.01787761487962377,-0.42607511307482687
A/England/7013/2018,-2.2504010631972875,4.317115649083668,0.34237918378545973,-0.28251902172143195,0.16834885139681327,-0.12460323188698927,-0.26630089712290456,-0.03708151255265737,-0.017946371596227192,-0.4283972408224368
A/Japan/7163/2018,-2.2501320621738006,4.3198869823139034,0.3807615921019728,-0.19126452132250635,0.17299280282693005,-0.11925531624980902,-0.26404893381751665,0.0023603245772849443,-0.02652674317190087,-0.44147221694784633
A/Bahrain/RVT0142/2018,-2.2521723155228894,4.320281345799343,0.31384063205652246,-0.35304845926048,0.16844926868710727,-0.13212553453232473,-0.2668919126994251,-0.07651757389939734,-8.477689910228872e-05,-0.41354266220134545
A/BritishColumbia/071/2018,-1.995794200721737,4.083769734610383,0.8438437425596237,-0.45139301174565133,0.2527991929513897,-0.0018335072846074629,-0.3130392516538804,-0.07631781046089917,-0.022741403204943087,-0.40564116890735324
A/Kentucky/7231/2018,-2.2507909459500803,4.315010321056384,0.332842351592274,-0.3065140366735226,0.1668315674336941,-0.12491731146550601,-0.26253286903168993,-0.08827283085291969,-0.00855590026497624,-0.40716439459521864
A/Ontario/054/2018,-2.250613474116106,4.31740477865286,0.37823769193220597,-0.19306336594962042,0.16701763202958234,-0.12009296824353122,-0.2547026576769759,-0.10586094395052649,-0.014501862972254755,-0.42059749233651333
A/Ontario/217/2018,-2.257390609309563,4.306548869396579,0.2954375344147562,-0.2626158738752853,0.31238578384529325,-0.08919955357904695,-0.23666517781556345,-0.10699663005825817,-0.02055376715044913,-0.39247528226952905
A/Ontario/221/2018,-2.2520642954330965,4.315932589284337,0.3429427229306546,-0.28387252439928845,0.16911546218708223,-0.14535700106965507,-0.2707889375475245,-0.0940273319751717,-0.006338479443834505,-0.4049473973260765
A/Quebec/105/2018,-2.252066028940493,4.312186506389076,0.3403978356382484,-0.28182756104156226,0.18996073497908073,-0.10192294281822506,-0.272709123721476,-0.09431832669806124,-0.018146211021285826,-0.4256985869255948
A/Quebec/320/2017,-2.250433984660537,4.314881135413674,0.341976380246878,-0.2837963078293186,0.16725074653338942,-0.1235147729407287,-0.260915553147554,-0.09250567140430986,-0.00970725837471298,-0.42105982820890425
A/Spain/7191/2018,-2.250595069097262,4.313260864412954,0.31091055692588065,-0.3718498888688694,0.17569235411829592,-0.11108101219897344,-0.2965042984418587,0.1476925492722762,-0.02332605953581678,-0.45496285896786354
A/California/NHRC-OID_QV9602/2018,-2.256113027974321,4.327510515514825,0.3530167088135573,-0.26285231203583365,0.18342287076117522,-0.1291415374611571,-0.2670601820097139,-0.10270553719578973,-0.009563536102038727,-0.45134183881398493
A/SouthKorea/8204/2019,-2.2900302435639133,4.278054643902994,0.1597968065426073,-0.16875339653260676,0.1037346042058651,-0.1336132073638189,-0.19483148858204952,-0.08505921351219409,0.007138686003305773,-0.4762758825846907
A/Guam/7699/2018,-2.2561403411504135,4.331457879772868,0.3529840213608086,-0.2617186742401204,0.18426423367641098,-0.13179142999660914,-0.272876935752937,-0.050244758607109724,-0.007226224860810703,-0.4803901794752299
A/Guam/7833/2019,-2.256185252822404,4.332398502863247,0.3723953460879002,-0.21710778388578586,0.185437543992216,-0.12907994684477664,-0.2716796237117448,-0.05771765749062199,-0.010174219252989945,-0.48756806122324076
A/Alberta/061/2018,-2.2531827699819966,4.324981789176398,0.3475207295664291,-0.28623440562053076,0.17390671183772696,-0.1278489052214411,-0.2670762204513839,-0.033955057627894115,-0.014096870531344941,-0.4478285449315159
A/Germany/7133/2018,-2.2540360758502356,4.3252076898109655,0.3457980527421456,-0.28517913693358504,0.1732801919124085,-0.12555430536707826,-0.27195172634872505,-0.035481677542185425,-0.01091152753441712,-0.4493486564146787
A/Japan/6686/2018,-2.2541248092166506,4.324570648168309,0.3462157205082156,-0.28394488777774135,0.18026880033092732,-0.12063734782525161,-0.2730062944413418,0.018878558053174725,-0.016906525664423702,-0.45295731050756427
A/Japan/7160/2018,-2.287302649285268,4.274086899935795,0.1535575652924312,-0.19192223226382213,0.11997526358343541,-0.0985172403375775,-0.1797661551167676,0.03183398585571101,-0.02215501867375412,-0.4762584007586566
A/Germany/7344/2018,-2.248689054315717,4.330774727450879,0.34387736177513084,-0.28381317641054127,0.17426006659005766,-0.1327262905267725,-0.2825991065923644,0.01841504207604494,-0.05015695372276067,-0.48726158589882573
A/Germany/7356/2018,-2.249387051423203,4.330301266642272,0.3428227727617682,-0.283462276860504,0.1711445222316256,-0.13293623064460452,-0.28450749502201766,0.018759631174644822,-0.05002472555264265,-0.49103802155798437
A/Germany/7360/2018,-2.2492686230811914,4.33100066550557,0.34565769825596454,-0.2849238529437993,0.17450306803754556,-0.1319910674811295,-0.2865150187850826,0.01779056586463923,-0.05142211283796731,-0.4899267612121949
A/Japan/NHRC_FDX70352/2018,-2.2808201151306817,4.293593971187765,0.22160343213308528,-0.22213252644553452,-0.08020901307648348,-0.1714271414411256,-0.21908065003413194,-0.0052332427956343,-0.0021720074069326188,-0.46640408435636754
A/Italy/7366/2018,-2.251249807321394,4.337486140951688,0.345816039319714,-0.2857725688835256,0.17705308786154159,-0.1355947051902078,-0.2892905904292279,0.018902799769490577,-0.052198608199870086,-0.5177626091356078
A/California/BRD21615N/2017,-2.1091674531501936,4.205655436736398,0.262675509520809,-0.2915032485012795,0.10236474628984801,-0.10591849311874071,-0.15231517647270387,-0.11097318785763238,0.05029938646584593,0.13883762182794304
A/California/NHRC_BRD80876N/2017,-2.113057059785346,4.2032654768751145,0.25883425555796347,-0.2893901224172814,0.11058965163515119,-0.10943998724307437,-0.14948409392846485,-0.11336769316465856,0.012842505024593318,0.12496551042723399
A/England/7126/2018,-2.201238724836929,4.188376934239512,0.2963137978891911,-0.2734194052027121,0.11437275930832116,-0.07664960630410729,-0.13848417172525532,-0.09778817875538795,-0.0032330736631818514,0.12565197512657297
A/England/7335/2018,-2.2040703539585804,4.195353618335594,0.29789076298300493,-0.2742905578031676,0.11335618182911265,-0.08150727307361058,-0.14226391824638626,-0.10095377426422468,-0.004871049648022423,0.1638038994776996
A/Oklahoma/7177/2018,-2.199424053929876,4.186651873657805,0.31344382879362137,-0.22711228487379104,0.11523455830625932,-0.06901380370780866,-0.12954310857250606,-0.10054211523814166,0.01931918178133745,0.126223645917382
A/Ontario/321/2017,-2.2002436020901928,4.18557586206543,0.2927717377706138,-0.2711385858422993,0.11822782865249172,-0.0750743598078897,-0.13387941578385404,-0.09680107003844377,-0.0021928319787454455,0.1277117212189312
A/Ontario/322/2017,-2.2009841453029506,4.185789244703576,0.294801776462479,-0.27195206273243844,0.11327818567775837,-0.07570524898100037,-0.13436126200373474,-0.09585789745808475,0.0014925608832691462,0.12693478225181848
A/NorthCarolina/6698/2018,-2.2256818354049996,4.25185992289918,0.3489666633632405,-0.19876857729634892,0.13899170280038517,-0.09719900179615368,-0.19263043180097628,-0.13579714474586838,-4.7941781830162006e-05,-0.1517834636646005
A/Ohio/6410/2017,-2.226253641431005,4.250905597280984,0.3214680980128379,-0.2651485048531157,0.13861849923687056,-0.10021124248460479,-0.20108748285261555,-0.07055485338324018,0.00033924672871711337,-0.15327090521648215
A/Ontario/100/2018,-2.2016770196924624,4.187600262190227,0.2953309511782438,-0.2724760874326297,0.11407259854708904,-0.07635542012845112,-0.1358933634809941,-0.09622400229455427,0.0012164083784246015,0.12171585035742709
A/Spain/7259/2018,-2.108170809666047,4.196500496144448,0.2703837672852248,-0.2923098492986095,0.12625626216144403,-0.06368139639803701,-0.16978404041336403,-0.014775042908811977,0.03331430964729645,0.11079575536099283
A/Texas/6835/2018,-2.2187240944805087,4.153238670885546,0.14008448365648205,-0.2010194072092194,0.5696886259901103,0.044393639736402264,-0.05748562788463632,-0.1383932977673695,-0.032174365428824604,0.19403184381066765
A/Ontario/140/2018,-2.2189665686912274,4.2543509963733985,0.28583120709919435,-0.35793836427755693,0.14242637124877977,-0.10869807085139649,-0.20743618883699,-0.053641202267835815,-0.027542820144682425,-0.13238245125153167
A/Ontario/239/2018,-2.2012363524599916,4.179411412912878,0.3477964067225243,-0.18700454088477003,0.13326949264010335,-0.030175470324573093,-0.18281166031988644,-0.05465184529487063,0.021869146171195154,0.18796437101640842
A/Quebec/058/2018,-2.2054979369681207,4.203597826556849,0.3457827424789996,-0.16031431697875886,0.11995641873722736,-0.07768137025851107,-0.14030056013130615,-0.0592115199348451,0.003310108202289648,0.19003155822293333
A/Alberta/020/2018,-2.201649519540149,4.182757247107197,0.30943005611557073,-0.2834389254976288,0.10290754423201143,-0.02160054708954839,-0.06857063417330737,-0.09401252849814942,-0.020519598496206135,0.10482594015809997
A/Ontario/222/2018,-2.208740795459825,4.179728207171135,0.2505417466884764,-0.2524139994348297,0.25783093067772145,-0.03744606864657479,-0.1158447842772223,-0.11523787623216708,-0.016004893964146703,0.14547604884931095
A/Quebec/102/2018,-2.2075460406566205,4.179527344649964,0.25412285971137427,-0.25495843755055636,0.25760513145993297,-0.021836424169411287,-0.1044355968353487,-0.11217477973347899,-0.023807851018656487,0.15355844345227188
A/Quebec/219/2018,-2.2034744812061176,4.1775149672925105,0.2585611961135207,-0.2560589834484858,0.25832917441447295,-0.036164563912145585,-0.13353278794909182,-0.13651831952656396,0.05526386196423964,0.11178120733549972
A/Ontario/245/2018,-2.2079312612084943,4.181246343632342,0.2495008043285264,-0.2557171703965406,0.2545439914747422,-0.042760533419543646,-0.10720758877814031,-0.22305914700268042,-0.014281229915874133,0.18835522794654772
A/Quebec/128/2018,-2.208588212953654,4.188011276517597,0.2612179181370314,-0.2324634045371234,0.2653510325733541,-0.04242638091585767,-0.09854623695902408,-0.11529003530216173,-0.019367764714216713,0.14770549538260475
A/SouthDakota/6967/2018,-2.1964174090325463,4.185302062247271,0.3053195327226446,-0.275234924774468,0.11348643230576701,-0.07056753239055492,-0.16514485545315477,-0.06631796145803272,0.0641683963416594,0.07237550579447981
A/California/MAP4166A/2018,-2.205231036604774,4.18237431773212,0.32288116617821366,-0.2291059407472675,0.10712326575219126,-0.05989708296957554,-0.16982894176321447,-0.11374502294862282,0.0031487991833852517,0.08450151967833033
A/Alberta/040/2018,-2.2270032853799826,4.251781559875133,0.3488405250822511,-0.19894856376851774,0.1355313980925718,-0.11156258344423298,-0.19789676380829635,-0.1400491937185298,0.011852630161885582,-0.15949851947507446
A/BritishColumbia/052/2018,-2.2510371726959115,4.322633497282387,0.33262799353226374,-0.28070144026398264,0.17033544885828716,-0.08596935223524083,-0.2182510851604155,-0.0960189600535563,-0.013483825254812358,-0.40874430604323786
A/Japan/6850/2018,-2.2515160304677506,4.326396135166583,0.4551322476465172,-0.013200121176348289,0.1746368101355971,-0.11284273851939693,-0.24707203172356507,-0.13900130351604342,-0.025131512112971693,-0.4534123413404392
A/Guam/7222/2018,-2.189077179441747,3.9829778847501984,0.9824420228732269,-0.7319478219483885,0.29844905111874287,0.007874218346812232,-0.4426665838441246,-0.21385880515208372,-0.19136468326026154,-0.5996305138115253
A/Guam/7362/2018,-2.2807855655743383,3.962354800988285,1.002430770868275,-0.7327323471311651,0.30634607906650924,0.037384956839515184,-0.41940369900458,-0.19037068376906877,-0.221007583501509,-0.5822251622521755
A/Ontario/220/2018,-2.257051036173536,4.324455011210014,0.3540362115943205,-0.289029900211446,0.18973273932973406,-0.16475653803648305,-0.24121971404989742,-0.03423079131168581,-0.016587312912148964,-0.4705271696294339
A/Bahrain/RVT0145/2018,-2.248489027098148,4.32057163205774,0.3136087277954452,-0.352914354579943,0.17059513953342692,-0.1291080694015079,-0.26173344135266463,-0.07794768958944147,0.045360980994254,-0.41098657262807553
A/Germany/7402/2018,-2.2517111840582253,4.324927276242635,0.3304065430182691,-0.27476746454744777,0.15702877366452597,-0.07871715128083183,-0.2874916059981428,-0.02332258627201389,-0.01247358513429742,-0.3942048122181319
A/Texas/7051/2018,-2.250176959745863,4.314180197131413,0.3454703758020504,-0.28405382437156035,0.16736511163341752,-0.11870826341590072,-0.26855047657849146,-0.03901430651021441,-0.02230829341457873,-0.4264883089591429
A/Quebec/044/2018,-2.252757538300123,4.322074203506122,0.345135817746643,-0.28438428543499417,0.1800706260888263,-0.12473549260891943,-0.27001336319361785,-0.03701213885238787,-0.014846659828729207,-0.3988955913166338
A/Quebec/169/2018,-2.253432020858058,4.32528688031906,0.34745421990654907,-0.2853287100529342,0.16942221692059595,-0.0836786352705199,-0.2472881847655935,0.06636685061466364,-0.03749641676375333,-0.46532100132227655
A/England/7127/2018,-2.202930605985693,4.1965648166825495,0.3511864406371879,-0.13902007200607802,0.11153879843443108,-0.06798559840108044,-0.1078477565213211,-0.23193027303680708,-0.006782426078277102,0.13616435768991017
A/Germany/7218/2018,-2.2010808452840367,4.188126053381844,0.28737547238752376,-0.29451938806515693,0.11863781535284947,-0.066997283456424,-0.14960329828528005,-0.04050880788519031,-0.0035255405992293946,0.11183235509221981
A/Quebec/188/2018,-2.205103157471414,4.195451656299022,0.2920402953363382,-0.2705925308182135,0.10682780338395309,-0.07048985654312592,-0.14526481556766097,-0.09817926198510545,-9.265932473472839e-05,0.13759333192524148
A/Texas/7002/2017,-2.203255055622844,4.19556417378381,0.3523438598317114,-0.13802885880689086,0.11485542696215156,-0.05808508143903273,-0.13699737024420072,-0.12048955949601041,-0.011541982455557829,0.13288976468206493
A/California/7330/2018,-2.446823937281041,3.2377940379788375,0.05518883327180079,-0.1854511568404578,-0.0794651170888729,-0.36452134207492964,-0.291944466379859,-0.05704411732320017,0.014671469376975969,0.8845567391815385
A/Italy/7152/2018,-2.265788835774653,4.250950180129243,0.19048240618805679,-0.2785637090124754,-0.10588745064425059,-0.14290515559707023,-0.14375475995614864,0.15449292667879766,-0.01350239241854812,0.10407925801577265
A/Texas/6583/2017,-2.213944285524056,4.219926734088121,0.3394250492077537,-0.27491666902983797,0.10230128893883875,0.050731715923502924,-0.01783239154629993,-0.0330403285363388,-0.04511980929707235,0.39401009034109696
A/Quebec/308/2017,-2.211874772996917,4.217960782902481,0.326564966362417,-0.2888583845796356,0.11390891872304225,-0.051175577701751136,-0.1271820909998194,0.005915986424579695,0.060307334061903556,0.34441360395756876
A/Ontario/078/2018,-2.249350717828475,4.172437037748493,0.12536460587623666,-0.16469224484628445,0.03448502625259292,-0.07955701562334905,-0.04535872063261807,-0.010263994709134567,0.014414101278978976,0.3785047556729886
A/Alberta/053/2017,-2.2772727602577585,4.124338360589416,0.3190679263204807,-0.17804867443781824,0.1063849825354246,-0.17296303616544167,-0.20047324266972041,-0.01587432771488955,-0.011878199795726296,0.6147998670277678
A/Japan/RGN0214/2017,-2.2767906084388714,4.121161729297654,0.31740565993387954,-0.17641178791378873,0.10512764186078495,-0.17187210182759843,-0.19606625185580123,-0.013639542689224614,-0.0071582835965808694,0.6153946240165604
A/Alberta/419/2017,-2.2770812637370033,4.1212342178997945,0.3183448017783121,-0.1769349920270637,0.10531674250591834,-0.17134997100362584,-0.1985274646921577,-0.014406239944141065,-0.007544267069457479,0.6166406820731343
A/Italy/7027/2018,-2.2784285462711082,4.1207590017728535,0.2627016128612082,-0.31102250124444514,0.10408389040686283,-0.17881007207322064,-0.21054737458288442,0.06200270948269763,-0.0031439198251643104,0.6234527387624818
A/Quebec/141/2018,-1.907395639388163,4.189169491464203,0.17707875634325954,-0.25120962405338126,0.15083426259862107,-0.37176359981550033,-0.307728759253301,0.23588565790589275,0.24812014466123788,0.646828335347793
A/Germany/7135/2018,-2.3071019425972623,4.111726405856053,0.23662453535674036,-0.07764593593352419,-0.11630905171737121,-0.23984004503218703,-0.1633679139998901,-0.06304321783807852,-0.04786040002941087,0.727491047826151
A/Germany/7401/2018,-2.3089291713612736,4.109263538660392,0.23961371746550442,-0.07951328232702129,-0.11734886530959399,-0.2593407829414297,-0.15217655029497454,-0.062345431311048236,-0.0449904372635694,0.7271672219808737
A/Germany/7409/2018,-2.309056738856793,4.111728830753005,0.239514979220099,-0.07942246708388354,-0.1149224630299999,-0.26012776544498484,-0.14956337069289455,-0.06217566129009587,-0.04415179545571083,0.7369008790940487
A/Quebec/074/2018,-2.2950500438280383,4.092843808301274,0.24579440076969994,-0.08031390642249553,-0.11260300202268614,-0.21282972947275078,-0.17723690101764225,-0.02681857678079622,0.029220382688607445,0.5788775332532438
A/Quebec/301/2017,-2.2998074935649653,4.095705552020092,0.23689759253430126,-0.07633523342902807,-0.11134776874320561,-0.2166653627966165,-0.15490396027523018,-0.0037347678733351043,-0.04111532469535148,0.6152477931799569
A/Florida/7501/2018,-2.0910227899731137,4.136674369480514,0.24749094438791627,-0.25963533693361573,0.09918897423260077,-0.18146233865138864,-0.28342127793192556,0.05968559243933035,0.0994818972012534,0.8910262393196023
A/Ontario/201/2018,-2.299801034589621,4.091257409947055,0.3499142858824981,0.09541616493795543,-0.12377127879792217,-0.13167123239527226,-0.11089037344003098,0.11448938385102567,-0.022274923923692142,1.0112039973247302
A/NewYork/7243/2018,-2.2377266669547464,3.9698363843566637,0.23905721061219656,-0.06870663049637804,0.25062997403362947,-0.06884582544770769,-0.13563340690049186,-0.03153306536991855,-0.009130149872570357,0.5894015800849333
A/Texas/6658/2017,-1.8304092944980537,4.253000772752855,0.15774499702631933,-0.3490589033733588,0.1464714102942881,-0.2863095200324116,-0.24158010460616045,0.15571556108446558,0.2879348141953049,0.15713054545816416
A/England/7014/2018,-2.198043392173272,4.198618234355504,0.3637606238969333,-0.1166320410107576,0.12828897062324943,-0.070222634702847,-0.12414618759915674,-0.12583321383593224,-0.00023115209095076971,0.13366735042763492
A/Spain/7044/2018,-2.2198855349532303,4.233830647712162,0.3088667165966944,-0.3024151968361405,0.1274137352899042,-0.07048992446110192,-0.14261730142254447,0.2830296782023839,-0.0140257489005883,0.43440678613399764
A/Spain/7190/2018,-2.220560885106014,4.234192186020139,0.30919897211560554,-0.30273074771883757,0.12605490068354389,-0.07457206868569217,-0.13845748935326052,0.28487581566588016,-0.01495165989820601,0.4419319632325429
A/England/7211/2018,-1.1503158279776882,3.783032099609599,0.004860140813173842,-0.25930229666867155,-0.28397737724813965,1.0609651637326551,1.298276919959834,-0.040760098454289836,-0.0013652482950095135,0.670437019392433
A/Utah/6872/2018,-1.0613686557561826,3.809251773960129,-0.017451006238045116,-0.2785744479680133,-0.28612150092987193,1.1394563692589077,1.3501697712802867,0.027126672978577848,0.01755770195165175,0.774856455402682
A/Japan/6631/2018,-1.9909868645222417,3.6235651012791505,0.0953202178110804,-0.20921662021581702,-0.10535857323428471,0.17360397406277414,0.29120628589307235,0.1425000438258495,0.011583236649833795,0.8010035844757014
A/SouthCarolina/NHRC_75751/2018,-1.9908175516607975,3.623718691809919,0.05724345627405449,-0.3002112871523949,-0.09424426983052916,0.17082767430470835,0.28058111774332745,0.1534713446476309,0.024986614712196892,0.8019093859555289
A/Japan/6790/2018,-1.843077827578904,3.2434735311163614,-0.02600249882163679,-0.15423644848149615,-0.21475940635835322,0.31113886051813205,0.48167216638346083,0.28467098896752135,0.023330412048692642,0.8515127199027067
A/Germany/6943/2018,-2.2023301618285496,4.187618168325739,0.30998970897039646,-0.279346827004504,0.11515876327354532,-0.038262949617416456,-0.11529805303186291,-0.04546253109512982,-0.011098446849802854,0.15447061261041337
A/Japan/FDX70344/2018,-2.1278260461312577,4.24155763187395,0.3015503961706736,-0.26024592283701503,0.121161574308954,-0.09422842778046654,-0.1640841026444038,0.009164600142559185,0.04006896309149947,0.44656127218367403
A/Ontario/052/2018,-1.390622830475921,4.369790921815332,0.037889664197381115,-0.27648298925314707,0.11595547821600007,-0.3309822090720884,-0.22927331095756198,-0.1815024868060601,0.33122797265725884,0.366296277782067
A/Quebec/211/2018,-1.8532198016743637,4.201205755519419,0.09133848446458853,-0.14177011472106385,0.5782669844230002,0.01560877469587077,-0.24728642299376816,-0.034997273528242966,0.15484426669803977,0.7187058863047177
A/Texas/6972/2018,-2.2454045198529724,4.3161335426548195,0.3980897866116697,-0.2414314251341624,0.15194018034162335,0.0037475562251260844,-0.06832480240957357,-0.23431805732971597,-0.05820712030046059,-0.42997889669758027
A/Quebec/306/2017,-1.843590313252793,3.2556711291201057,0.04438891344492492,-0.02314065207649541,-0.21167232600007801,0.34378499771627613,0.5005457944084332,0.3977297731526228,0.014310257380513685,0.9129025828894111
A/Italy/9367/2019,-2.260967957978846,4.31071812495497,0.36885146191863283,-0.18703740119978998,0.11888666845527662,-0.11340522427781911,-0.2898547791938941,-0.11862311560961422,-0.035966495931294036,-0.5241746810427196
A/SouthKorea/8668/2019,-2.0938834883892903,4.328645636412359,0.3467666023190624,-0.15754730805876693,0.18590537447449595,-0.13543549343260633,-0.34404228968476774,0.0579175814574776,-0.21996432647801006,-0.4656118969470522
A/Santiago/PUC-MVL_012/2018,-1.8324693436698871,4.254824738766922,0.11814014442023077,-0.43838411324571397,0.1619001387863123,-0.30149910244758166,-0.23460279453338895,0.16875488370672703,0.2659476078424142,0.16282335330119735
A/Santiago/PUC-MVL_025/2018,-1.9939969767080814,3.638344284731289,0.18124400379198147,-0.029776684031707655,-0.09020344996999982,0.19702463770053522,0.303553120576487,0.29199840960759843,-0.009092068756303733,0.8330694499603938
A/Santiago/PUC-MVL_042/2018,-1.991204566191402,3.6301246801019267,0.17512626687285024,-0.03162908212287359,-0.09849873071595334,0.19062973452060514,0.31367864322632133,0.123071179239769,0.003570271958164255,0.8325380312501346
A/Pernambuco/9511/2018,-1.5571096734573338,3.753285689694387,0.3946799072727724,0.7006972059488032,-0.5623895542287498,1.4005848866462784,1.6936343522846573,-0.41959495420225357,-0.40748144485874427,0.8198194045031101
A/Brisbane/158/2018,1.0100304300429166,-0.27666983594418276,2.005444891624575,-1.3957185514510442,-0.7795852396448528,3.9870690544665885,3.3331560773612896,-0.20558607088406364,-0.5526387759760509,-0.3106933254993074
A/Minnesota/47/2018,1.371903953867688,-0.21684469298120082,1.9099685451844748,-1.3803381647456932,-0.8030820469945628,3.9247965392351793,3.343036564137929,-0.3135600320298747,-0.5937680169429544,-0.3642426433706131
A/Hawaii/51/2019,1.372244270765041,-0.22647236595237544,1.9377967942101246,-1.3855239903637482,-0.7958133913569738,3.9407460325681023,3.325902919941508,-0.0763869018019212,-0.5912827457859005,-0.24333736399010905
A/Victoria/2118/2018,1.5304334293664281,0.1680395559989364,1.452479600135857,-1.0527615579046274,-0.8657137829419356,3.788484087486956,3.228251760555592,-0.15766617377575418,-0.27962096355024124,-0.37882959849271786
A/Victoria/25/2018,1.0719694909993318,0.12715898071914816,1.5347143478979017,-1.0371225404752136,-0.8415927469941715,3.825674611946799,3.4114046607597994,-0.11128502483372983,-0.3346370141155106,-0.08035085823614461
A/Chad/9833/2019,0.845693375077492,-0.22026539270622958,2.1785442830458757,-1.3395902876565182,-0.8093728198775209,4.05432011361461,3.2088711409875237,0.24656860785064183,-0.7025225385045648,-0.4405982029350585
A/Chad/9834/2019,0.8453801512768643,-0.21965011068630103,2.1776341686483165,-1.3390430427662796,-0.8083328261963717,4.0461542778188635,3.202319135082156,0.24519821967934244,-0.700166839457536,-0.43910543660567203
A/Florida/95/2017,0.9313234400612143,-0.29868184989879826,2.423173891781585,-1.0420841438993627,-0.6772484032186693,3.6633490322220688,2.660630990783277,-0.1672409190833019,-0.7392962177469681,-0.7450205341708569
A/Homosapien/China/LS203/2018,0.7073088096740858,-0.10775903158911368,2.1728137193712413,-1.6513177596747888,-0.6273252803501049,3.6039421105577683,3.176274687921038,0.014533162176477451,-0.5835570879390848,-0.16320578472819586
A/SouthKorea/7184/2018,0.7070407589768342,-0.11010481211855574,2.1706988901673494,-1.6502598782121107,-0.6317063065679266,3.6042230211477277,3.173592624379833,0.010861337889579527,-0.5705922246579852,-0.18413978143539345
A/Italy/7413/2018,0.7068328889662047,-0.10940646963707307,2.214864531979196,-1.5638622885097553,-0.6301825086268298,3.6208814513665413,3.201729284966695,-0.0030905244332578748,-0.5837055163551881,-0.22816020882441992
A/NorthDakota/24/2017,0.7067598054885552,-0.10939107611519239,2.2137357320216076,-1.5628873242118337,-0.6292770126255987,3.6138708675431124,3.1949598430957735,-0.003080707023973153,-0.5814692049898129,-0.22692346614420478
A/Townsville/17/2017,0.7079074185434159,-0.11412058315003261,2.1737166332446884,-1.652668410209203,-0.6320382204381344,3.607756281308482,3.180469138831503,0.009463394151115648,-0.5861058426702794,-0.2405517456782825
A/SouthAustralia/266/2017,0.7074211354453166,-0.11325231698250059,2.1721040561621043,-1.6775959106510265,-0.6292446317495892,3.630944130744719,3.1877313798447746,0.1207795580154067,-0.6008165389170916,-0.2698073404394148
A/Sydney/19/2018,0.7215625458127711,-0.07632290595893795,2.296660779923733,-1.7088873513342298,-0.9961683712732579,3.4890696316201346,3.1024340206481087,-0.08132278546289826,-0.5401007716403284,-0.21648977589455853
A/China/GMU-SKLRD03/2017,0.7887024853772535,0.2754858245331656,1.7190572627298397,-1.2377633264207057,-0.295241180971834,3.406766892133883,2.9633130921110333,0.3068722551459446,-0.21780780025105898,0.187685305173263
A/Japan/6684/2018,-0.2132145847809178,1.1462502149778462,1.860607989090375,-0.7958000366123117,-0.1578147871633309,1.451871900345815,0.9238605781978444,0.43472393306973367,-0.07894857075588887,0.1338577607350064
A/Alaska/40/2019,-1.5693961538547125,-2.5668551398350314,-3.3881166725982785,1.2276863331722037,3.439352994873031,0.6069394333138275,0.29145657577392703,-0.13118658453080223,0.0347443926095498,0.03333437313587401
A/Arizona/47/2019,-1.9329023250976964,-2.6298823698362326,-3.2554498897572,1.24535234739348,3.400820088456397,0.7287296571651811,0.3723545864941005,-0.10875490610245711,-0.12699246043835774,0.05477051610264382
A/Massachusetts/43/2019,-1.9376679909193595,-2.626990658738965,-3.2660261092919365,1.250061102762712,3.4019439689210835,0.6895505516696813,0.3381055999243991,-0.1642551394817531,-0.1081958092353514,0.06310373719505534
A/Delaware/47/2019,-1.9346135977549956,-2.630037968023977,-3.2608965663853007,1.2485057423789496,3.391818154213731,0.6857266174314489,0.34737691613334026,-0.15766650823507541,-0.10372519892230567,0.07917117965520264
A/Michigan/438/2019,-1.940650107236571,-2.64463977899172,-3.269608770483418,1.255046222675939,3.3349104245555576,0.6961543066927482,0.32242540335962216,-0.1610796040596901,-0.12045549646754386,0.012687035269918752
A/Texas/357/2019,-1.9356491230987698,-2.641528099492426,-3.245069767490233,1.2413775127436433,3.4068890315554223,0.7268319874227586,0.29417746849402043,-0.15599289892110063,-0.08705105480791173,0.15251961195946936
A/Wisconsin/564/2019,-1.9362396646365012,-2.6395201232963945,-3.239534061272915,1.237673705626063,3.413187097226373,0.6224272099981021,0.4174783322020181,-0.15255162315645573,-0.10066671754765885,0.09211605395620578
A/Maine/31/2019,-1.9371052095341523,-2.6352247920355993,-3.287925374725891,1.2609492044348007,3.471875572610675,0.7067781581572543,0.35898427263033494,-0.16689596901553772,-0.11399536128335853,0.08782380598402058
A/Illinois/37/2019,-1.9280520677363038,-2.6231371207352625,-3.2462438530625257,1.1889709485987068,3.3022392702562406,0.659825689914055,0.32614804386594803,-0.08870123386368134,-0.08244675042854625,0.0631646496880997
A/Louisiana/43/2019,-1.9339359008828814,-2.629295015642486,-3.260232508005388,1.2455705269496513,3.405876389005499,0.7320832015742567,0.3961264953816863,-0.15850976099572545,-0.12182606034748641,0.08267298757541125
A/Virginia/42/2019,-1.9360378217007996,-2.6320779864334964,-3.2622710298418873,1.250258329823093,3.4137038487980482,0.7022997116793183,0.33743527600149237,-0.16085611762788318,-0.1154662119526089,0.05844641047575403
A/Mississippi/28/2019,-1.9408363038956589,-2.6396587449673246,-3.3068383998726008,1.2723337185069141,3.5082436256782046,0.7203408527339021,0.36676271703000574,-0.10809363310950348,-0.11910573516288704,0.08260166299937981
A/Mississippi/29/2019,-1.937625518006078,-2.633716333000881,-3.2798732542096976,1.2596422690390146,3.427588881227916,0.6980258004578858,0.3543555274277449,-0.10259968172240759,-0.1118045875324354,0.07543778441673243
A/Delaware/41/2019,-1.9273807259299311,-2.633880612922731,-3.2270937416931376,1.3412784359445895,3.4080479061050135,0.6636416653072604,0.35801645954996436,-0.12349536180463017,-0.1445099723418947,0.0726001196357965
A/Maine/47/2019,-1.9356245668275132,-2.6440580830521814,-3.2613901641955922,1.250341980002251,3.4592800581758874,0.7498695482556856,0.30735331050781356,-0.10246945329788829,-0.0860570695938596,0.15799930593739028
A/Massachusetts/38/2019,-1.9338044627237814,-2.6283858557022133,-3.2274449280291697,1.3404028693704966,3.403422015348946,0.6918931312652629,0.3545337028373525,-0.1735791055210891,-0.11226255595880706,0.07222416588637645
A/Connecticut/33/2018,-1.8595607291423495,-2.5044724428114447,-2.674181906139096,0.9243691544832513,1.5609318137123844,0.18001463778452925,0.06910161089713666,0.025680788261765206,0.04624380800680608,-0.13183246890310465
A/SouthAustralia/151/2018,-1.8581652340926618,-2.507358875665693,-2.676282587405043,0.9233321435202302,1.5603787677145473,0.1923876249107024,0.07438429852727613,0.02395613514167845,0.03289263321566289,-0.152607978637404
A/SouthAustralia/26/2018,-1.863646729906557,-2.5092979289933237,-2.6988527232886397,0.9342921128039683,1.6019583253287704,0.1875428983260619,0.07368560892695707,0.02878950443114847,0.04997755789164609,-0.13163579196716893
A/SouthAustralia/184/2018,-1.6853325381407278,-1.9188618439890937,-2.5472031257108996,0.9634602569543909,1.5760177584247452,-0.06786080387721238,-0.1972286492637086,0.10023843590175219,0.19976457756202834,0.023177972281207875
A/Maryland/41/2019,-1.9379099425522734,-2.6290723480656695,-3.3112828264967,1.13722116607014,3.417253211238436,0.6820238557192518,0.3375750009101152,-0.08349898619267342,-0.10496265765013348,0.08411150942654834
A/India/Ker-1851650/2018,-1.8193944800300297,-2.4302082568418113,-2.3268399880545183,0.7037925692184304,0.5187060004533917,-0.08285608995650194,-0.0821977107814647,-0.044856164541019476,0.1030546434863599,-0.19898922757205043
A/India/Pun-1847908/2018,-1.8283884990171866,-2.4432536240304423,-2.385732385487908,0.7597957078242422,0.7074914607764076,-0.03726904776081807,-0.06610493357090408,0.04919673787648578,0.08977129654140645,-0.218136085010822
A/India/Pun-1851148/2018,-2.008769126208759,-2.4745993483825512,-2.3354508449413798,0.7509814283191842,0.7185663841217566,0.0004501775135441844,-0.07499392867612098,0.09501012574546679,0.1122450949625191,-0.19818475651488357
A/India/Pun-1847054/2018,-1.829551980331121,-2.4444699033788875,-2.3809471767777173,0.7846058801443975,0.7075054903071204,-0.03528537006522441,-0.06704134462430343,0.04479472151299035,0.08853717734698219,-0.20008178114832167
A/India/Pun-1847933/2018,-1.6387667197951685,-2.408372249930946,-2.4759316145563113,0.676823461385309,0.7604477678155745,-0.19822521508893254,-0.18384451894250578,0.3435987155514258,0.3655776947323338,-0.15905560277526093
A/India/Pun-1920970/2019,-1.929917487773304,-2.6216011461758995,-3.2376753118243577,1.183890508877225,3.2664707546009626,0.6491179456078917,0.32563350675892344,-0.13840382624667258,-0.09099384126016642,0.07048499741641873
A/India/Pun-1922253/2019,-1.9344135670379217,-2.62966792092217,-3.2592346589175136,1.2477273819481667,3.386944521998462,0.6843989451516388,0.34664245433730145,-0.1571656622863488,-0.10332780360098971,0.07874203218278845
A/India/Pun-1921693/2019,-1.9434793668377044,-2.648449284604637,-3.337740141557856,1.2834555793718756,3.6172847062713296,0.7489457154233015,0.37814764135185547,-0.1812399926194963,-0.1217911174605184,0.10346071888628525
A/India/Pun-1922218/2019,-1.9472241057439816,-2.6619904108130825,-3.3551605444980663,1.2912223829406408,3.7017684312112427,0.7831929933194262,0.3641119126535052,-0.21230399723966206,-0.12108555127367476,0.1007729238498657
A/India/Pun-1924667/2019,-1.9448622536410933,-2.6510009095280966,-3.349033917073276,1.2885752342438497,3.651403954100196,0.7586537481261524,0.38286522698302156,-0.18507513103581613,-0.12484170161297035,0.10780133799871176
A/India/Pun-1922260/2019,-1.938398034903668,-2.638513312140043,-3.294938649123575,1.2621775814539173,3.492084542100498,0.7153088136663615,0.3639915568305371,-0.22599578122985864,-0.10991036708193976,0.10622812679735888
A/India/Pun-1921994/2019,-1.9371483234635007,-2.641516234549772,-3.324201145735432,1.2228134182922643,3.525166464547457,0.7219604767352394,0.3604764534610951,-0.16641982196540828,-0.09673805000245156,0.0968220435245834
A/India/Pun-1922052/2019,-1.8845692851086444,-2.4849419292726718,-3.2001184845343187,1.1636732487484611,3.3335350416740352,0.719952504064028,0.38715648677154285,-0.10997484945363906,-0.07605059480776057,0.12509796394123543
A/India/Pun-1922016/2019,-1.9479712857033706,-2.66247954490566,-3.4228509935309765,1.2420470237643546,3.8180165766307748,0.8065162740981059,0.3945932872039727,-0.1396474656669584,-0.12678662450802117,0.13344690757205188
A/India/Pun-1922295/2019,-1.9510144516110648,-2.6583970629004563,-3.421265885420549,1.2675343182667427,3.8226263584239595,0.8058290582868337,0.40508291760277415,-0.19795784657052995,-0.13770944148154693,0.1455914545669526
A/India/Pun-1923665/2019,-1.9140803472553285,-2.6128969977249774,-3.196867773441644,1.2128725619579812,3.871927322524348,0.8117969930239883,0.3278525621908746,-0.2169756018578635,-0.1584523443724769,0.16432225945629012
A/India/Pun-1923690/2019,-1.8634600515300712,-2.4658865672905312,-3.1423598341799135,1.1313925274053107,3.808160162743453,0.8665806476862024,0.3487077005350881,-0.17049155309120184,-0.13303829619742566,0.2107383948327253
A/India/Pun-1923708/2019,-1.8933402215921473,-2.5776277693394487,-3.0236355736242606,1.1284418839005173,3.398442674533013,0.8116367283144135,0.3717960489761593,-0.17710668879655397,-0.1762053549374112,0.10968795172107722
A/India/Pun-1922030/2019,-1.86816566377211,-2.5283047538495476,-2.720583118455989,0.9159153363341018,1.6666229730545683,0.23456703454331854,0.026253373868005376,-0.029865391305948424,0.04696708982988527,-0.04793195597333584
A/India/Pun-1922292/2019,-1.8695485505754985,-2.5308563787730103,-2.731876893971408,0.9210349912060766,1.7007422208834342,0.24427506724616896,0.030970959499171242,-0.03370052972226824,0.043916505677433264,-0.043591336860909
A/Italy/8453/2019,-1.7550277496720645,-2.467976425554679,-2.618854743787816,0.8604894100049819,1.2375272801571207,0.09118527769514506,0.0496802793350292,-0.012234835658050091,0.08093326850104929,-0.15589549828250665
A/Italy/9061/2019,-1.858601302330968,-2.504474460390411,-2.677784360836892,0.9258057688203746,1.560262671539782,0.17921922814778984,0.06914003895475401,0.02502961179684429,0.05229849835034171,-0.13824258900276493
A/Japan/7503/2018,-1.8595607291423495,-2.5044724428114447,-2.674181906139096,0.9243691544832513,1.5609318137123844,0.18001463778452925,0.06910161089713666,0.025680788261765206,0.04624380800680608,-0.13183246890310465
A/SouthKorea/8203/2019,-1.8583836886222516,-2.499390878817056,-2.657803176975678,0.8869691123628175,1.4234207190606518,0.1304586435544222,0.04484965123757954,-0.007885055050700782,0.047896773850656084,-0.15049821185753604
A/Italy/9363/2019,-1.8496170473030675,-2.5001189334823626,-2.6025412783016852,1.1589290199810622,1.6093142945576289,0.16912065049857153,0.09630161871234741,-0.07757315110986156,-0.015718231761008093,-0.15661211297208738
A/NewYork/9854/2019,-1.7537854682892828,-2.6014197966242585,-3.34136706886633,1.220281136889272,3.4613658852639615,0.6656044262068331,0.3229301937346763,-0.09628167467285685,-0.036531894553571455,0.023079184096760273
A/Belgium/8725/2019,-1.9809188412534626,-2.0266895476026785,-1.9893463266742573,0.7472843262581009,-1.3438313919564346,-0.2171378815096162,0.1784877150775314,0.007591582451422218,0.03654398424963283,0.006085689892593519
A/Italy/8601/2019,-1.9807140227735656,-2.0264043917979073,-1.98833246148442,0.7468184440996455,-1.34190046887449,-0.21671746914870038,0.17811033707197546,0.007567466909334062,0.03640397576072231,0.0060527024033746706
A/England/9617/2019,-1.9810790960644358,-2.0292720425867348,-1.9849501916176704,0.7459043366181272,-1.343761693550011,-0.21030885073890235,0.16073463548531328,0.008938523429979577,0.03988778952382308,0.063230335463933
A/Italy/9366/2019,-1.9801964734853947,-2.0259783257188944,-1.9887228073100005,0.7471483120208963,-1.3444881471654517,-0.2148115240801081,0.17912360840526317,0.010948887520254713,0.03490202110696697,0.017179347278942683
A/England/8887/2019,-2.1623580636282242,-2.056777711084447,-1.9537477535980508,0.6635848161891105,-1.326887895869819,-0.15440702285943228,0.19136578568486787,0.057704389290220696,0.012862195452939849,0.027448320240593942
A/Spain/8527/2019,-1.9794498023165394,-2.024792330675727,-1.9823272189388137,0.7440459439074592,-1.329724296278747,-0.21518768241685263,0.17484457538625295,0.007445731512110024,0.03632803143723822,0.004139311934587163
A/Germany/9490/2019,-2.026014554442152,-1.901888087276966,-1.9164068212909446,0.7172171241827381,-1.3147490705460392,-0.12989929949401108,0.20714380897901694,0.037715851012674405,-0.013037083459333488,0.013780013850494504
A/SouthKorea/9579/2019,-1.9802926458869605,-2.026425771996713,-1.985879124198601,0.7456245685547014,-1.3331744896904292,-0.21572469866467253,0.17344139917236068,0.007037244391664858,0.037364765687070686,0.0019695368668096983
A/SouthKorea/9645/2019,-1.9800640162398746,-2.0256474677348644,-1.985362987260406,0.7454402563237853,-1.3354777464905259,-0.21644349447975006,0.1759553314588494,0.007515835984363527,0.03675280156346628,0.004195470921617061
A/Germany/8752/2019,-1.9802058357230279,-2.0242041277226943,-2.0293971243789386,0.6585476880912229,-1.337558469911795,-0.22880195352052643,0.17549439965085997,0.02387077328353846,0.046284851158219384,0.005158082049997093
A/Spain/9001/2019,-1.981042910771892,-2.026922146984654,-1.9903959227893353,0.7483239313528942,-1.3466514011683226,-0.21804832341225563,0.17938244897866262,0.010242096609368883,0.03382218007144538,0.005058988129789613
A/California/NHRC_OID_FDX100449/2019,-1.981152494151157,-2.0147019551311005,-1.9701368229144491,0.73919732584011,-1.3081202565773784,-0.21395914570005212,0.1607922877903778,0.06484619237951843,0.0272602937202332,-0.052351576595777216
A/Italy/8442/2019,-1.9807204839720494,-2.015007543285234,-1.9693255877253213,0.7389356144155911,-1.3062342386144703,-0.21344752915068968,0.16032709953546448,0.06490784707344938,0.027239264609378387,-0.05258051288052224
A/Germany/9676/2019,-1.9811526979068634,-2.014701909354222,-1.9701807454003692,0.7392273996591386,-1.3079553687317944,-0.21401293058815699,0.1603814895123744,0.06480595045700543,0.027328573263760886,-0.05216548352845463
A/Italy/8259/2019,-1.981131323412157,-2.015585191062691,-1.9712552824527299,0.7398097762449536,-1.3098552883713248,-0.21539363833100986,0.16204552947728054,0.06541565810740689,0.027730961274765997,-0.05289192111127888
A/Japan/7848/2019,-1.9809253031200764,-2.0152910953244785,-1.9703297611719286,0.7393965790874241,-1.308113839896585,-0.21386159812267616,0.16066679863465158,0.06511469144247001,0.02734402592177073,-0.05286707894410254
A/Japan/NHRC-OID_FDX70557/2019,-1.9907941531283841,-2.033307285190217,-2.0695469287441823,0.7038379465095027,-1.1268106025851174,-0.17070068608523167,0.17673792741778419,0.061367586544195094,0.022192296056493234,-0.04799080954403729
A/Japan/8604/2019,-1.9536501623137652,-1.9913671468140366,-1.9070220067292885,0.5655975475327932,-1.0758809211458007,-0.1592059712562682,0.12028664209647588,0.0065110167778865795,0.07561011520068638,-0.058353838545609736
A/Texas/7539/2018,-1.9530770615331376,-1.9898684919822198,-1.8783727607456306,0.6329471771918982,-1.0731309965667406,-0.1555887769847058,0.12486468962486257,-0.004195502557081033,0.07172956721176063,-0.06236648603763014
A/Japan/9505/2019,-1.8850276896457994,-1.980676114439098,-1.9149286088880448,0.6186763291369873,-1.0835879706787586,-0.21161292806970244,0.10221907659761562,0.09340248377567435,-0.17074141986215835,-0.05964946285942735
A/Italy/8941/2019,-2.32236557084803,-1.3212363220207044,-1.838367903876094,0.7108368147057056,-1.7484491531498565,0.28769541655849723,0.6681310742641129,-0.004413709247354507,-0.1650302986810433,0.2542220406803044
A/Japan/NHRC-OID_FDX70521/2018,-1.8419995631253174,-1.8499616773306922,-1.8406920153578752,0.5822365234579981,-1.0290457974756617,-0.24996917685764702,0.24067721716111687,0.12226652633794914,-0.16809442968514732,-0.03500087943749192
A/Japan/8261/2019,-1.9832760195419643,-2.0185882928144268,-2.015294378779183,0.6521465587861016,-1.3247250396583194,-0.22194020305954315,0.1562255818438587,0.08117404569183885,0.033912425577753876,-0.04837048392258518
A/Spain/9580/2019,-1.9817385389391118,-2.0278309738167604,-1.9934121481102907,0.7491536819877926,-1.351610975887394,-0.21883596975435457,0.1800133554682426,0.007689601463573547,0.0371149558287497,0.006221315647281806
A/SouthCarolina/9855/2019,-1.9750907675643954,-2.018095749648032,-1.944208915182923,0.7826851314460905,-1.3117766405077569,-0.19579300815592898,0.1318393958624883,-0.00816067177398,0.13383655016579019,-0.10529308709416636
A/Japan/8263/2019,-1.9797094312726724,-2.013728300480516,-1.9685276540627306,0.7370541374950957,-1.3013135218062415,-0.21543996110792962,0.161982122000671,0.0082816576534073,0.03362291971730843,-0.04607165130110377
A/Homosapien/China/LS329/2019,-1.9730395821882005,-2.015194181369596,-1.9686229835228681,0.7375783582385612,-1.3068001730026213,-0.20742738797326823,0.1547515597653987,0.0053207651062056735,0.12060931889811184,-0.07077989210390459
A/England/8741/2019,-2.004216475950888,-1.768704085333673,-1.9868176042388366,0.7701098191975728,-1.4829757524485623,-0.22962184480411252,0.2116611860800991,0.11710510495473894,0.04516136997089249,-0.009980764107022639
A/England/9338/2019,-1.9552154850956176,-1.896724794187794,-1.993632719603455,0.871313457168196,-1.5169530758228353,-0.19006568605879423,0.2763589519508865,0.12711994740066165,0.020640423429219762,-0.027958006163552197
A/Germany/8917/2019,-1.9572753352880075,-1.8985349328519592,-1.990208948363019,0.8696821097348522,-1.516086579393348,-0.19054004278176784,0.2766145120543834,0.12746767454242125,0.03183004472238607,-0.028747769544168227
A/Guam/8597/2019,-1.9559423251481498,-1.8975035769974482,-1.9934632860521442,0.8714481207750489,-1.5172836107256191,-0.18905771521004153,0.2772247376812979,0.12734317888889124,0.02424613657297171,-0.02410379788320407
A/Japan/8603/2019,-1.9588367996334433,-1.9036309339341562,-1.9652254699173226,0.9145066893732415,-1.5221973002598748,-0.17200333443265742,0.24346818355229183,0.11078970377102391,0.0258155138912009,-0.06316048231585326
A/Japan/8769/2019,-1.9565488853807464,-1.8983458024721809,-1.9963591533671934,0.872641487254842,-1.5220767797039811,-0.1898556316759405,0.2781369723651352,0.12724884379585097,0.02541156328489189,-0.025639725278291028
A/Japan/NHRC-OID_FDX70564/2019,-1.9563090927779927,-1.8979358785335863,-1.9918805420420633,0.8704217162794108,-1.5174010006037097,-0.18821188644147296,0.2736337902268503,0.126361467421857,0.02279971747417982,-0.02544096393401172
A/Japan/NHRC-OID_FDX70587/2019,-1.9559423251481498,-1.8975035769974482,-1.9934632860521442,0.8714481207750492,-1.5172836107256191,-0.18905771521004158,0.2772247376812978,0.1273431788888913,0.02424613657297164,-0.0241037978832041
A/SouthKorea/8825/2019,-1.862341812676556,-1.8825084888789325,-2.0210936290981274,0.8790262974769415,-1.5284964041312044,-0.2216876334795653,0.266675900994717,0.1724760891370576,0.07100292588822539,-0.038436222170844754
A/SouthKorea/8832/2019,-1.8637611336317257,-1.8824841923961622,-2.023266524184298,0.8801436763450822,-1.5225238974555197,-0.21654101205341966,0.26608089656868505,0.17232699568571427,0.06068256122503709,-0.034082057849147765
A/SouthKorea/8824/2019,-1.8645322720705813,-1.883544253278213,-2.027399559869599,0.882344007953716,-1.5313252135087883,-0.2182311282731183,0.268350398153177,0.17454484343753932,0.061626990464285755,-0.03483740257564764
A/Germany/9343/2019,-1.8877210794541586,-1.8867279544219908,-2.0182638329766953,0.8775938630568029,-1.5224716721749272,-0.24799404750888132,0.26350312475521265,0.16169688621143397,-0.22693235568147832,-0.010576586541888835
A/Texas/9844/2019,-1.9580064796693177,-1.9267918900898335,-1.9174439033870756,0.9528852454272203,-1.5364492553565061,-0.11424316642887133,0.09237754280219392,0.12080518917847319,0.07736229232372437,0.5736867868603116
A/Japan/8142/2019,-2.0465284695593597,-2.1885505356409483,-2.070297970078466,0.9100110730977979,-1.5651271731358327,-0.3247221561491709,0.18783689422633668,0.06931684472681454,0.015663139915422113,-0.07072604329385072
A/SouthKorea/8822/2019,-1.9551751413917642,-1.8962877403128744,-1.960177231606752,0.9636764297905012,-1.5230705989756415,-0.1818029544724045,0.2871811318939142,0.11667885741139182,0.04064061710297699,-0.030618122271021453
A/SouthKorea/8823/2019,-1.955235083308739,-1.8982530173782433,-1.9962741164543238,0.8729263474800302,-1.5227274668317903,-0.18563036683877587,0.28066930167683035,0.13089227483475954,0.045328297575295114,-0.022400368111515155
A/SouthKorea/9704/2019,-1.8675475685501834,-1.8801171564432484,-1.9859861248361952,0.9192703763080271,-1.5757384883625436,-0.23851796708224898,0.2668258584142726,0.22876321628980464,0.029550841172706767,-0.051196324834451974
A/SouthKorea/9578/2019,-1.9096566510126645,-1.9063189123083475,-1.9999922130378973,0.8472602609469805,-1.5272740026555005,-0.2066961401275234,0.1997465942780956,0.23570620105051993,-0.1668494940331553,0.17411084920373382
A/Guam/9841/2019,-1.9349479945542247,-1.8685761299263999,-1.801402795300795,0.8938620589480564,-1.5817595196219845,-0.18853151183692474,0.19436411756427527,0.10958818903219503,-0.003937260682721472,-0.10301147181561388
A/SouthCarolina/9843/2019,-1.965349728024368,-1.9181088062183778,-1.9931804800913164,0.984870901066571,-1.6356044184135763,-0.1680022776303376,0.28879307166438645,0.12244473620921528,-0.01469677172682018,-0.11615690500624229
A/Washington/9847/2019,-1.9235748415164315,-1.773881873551393,-1.9583374421136353,0.9680160693151696,-1.6301963027345534,-0.08522777151490313,0.3366122867245551,0.15624198665243544,-0.012136063532490714,-0.09495781273464275
A/Texas/9846/2019,-2.01848625503473,-1.4990488756921894,-1.8786537772109444,0.9545411485022985,-1.4705383232526255,-0.32047570783450746,0.12760829186391043,0.1400899341984495,0.0120867206729304,-0.031792493451096714
A/Japan/NHRC-OID_FDX70574/2019,-1.9679773753258123,-1.9025026889607912,-1.8208704667855198,1.3461527002799878,-1.5975134052004338,-0.17822139335470333,0.33402832111967146,0.36456413663040593,-0.04044504108602333,-0.050922953709215193
A/Italy/8139/2019,-1.9511124901667922,-1.9891647066696783,-1.8901713563426148,0.6107640975141225,-1.087570928681547,-0.11951013060408837,0.1384935632228328,0.10628221034203653,0.04704262210400192,-0.0989588233584401
A/Italy/8955/2019,-1.9572410311327908,-1.9915580926983723,-1.9221285170336688,0.546099625328338,-1.0887101440052636,-0.15534140427349838,0.1057154046739351,0.07169987887870197,0.08263825485232036,-0.05943351742912702
A/Italy/9062/2019,-1.9553816290616661,-1.9931409347415068,-1.9005354548400384,0.6131237927240574,-1.0913686260359274,-0.16372939984829463,0.13202634017863682,-0.05105948359277696,0.08797948134512297,-0.06668404890527935
A/Germany/8912/2019,-1.9065198112562378,-1.8555071233347589,-1.776701222468141,0.7735650724713141,-1.067230077675879,-0.06565945706183561,0.18612138799692396,-0.05834652433251807,0.06000117447186753,-0.03945195014551719
A/Homosapien/China/LS318/2019,-1.9573053589295004,-1.994759919871925,-1.9163939002704964,0.5438775976768216,-1.0827461770009903,-0.15034167501223575,0.11716506101830054,0.06648355975401825,0.08565847650398495,-0.06438537545653068
A/Japan/NHRC-OID_FDX70487/2018,-1.818439088868941,-1.5549895226412447,-1.7777739373522996,0.5810471629815451,-1.0302283392563218,0.039450751451485966,0.2610211885774045,0.08648679087300475,0.08071295747330474,-0.005828395872303875
A/Montana/8150/2019,-1.9552636053836254,-1.9950373004478614,-1.8930679161896609,0.6376634673984107,-1.110342122480335,-0.1371054177260804,0.1435151886922332,-0.009867463513293422,0.10100855574740254,-0.093939769852602
A/Yokosuka/NHRC_OID_FDX70622/2019,-1.9825990170373458,-2.0285718864370827,-1.9605111778854094,0.7124183164230177,-1.3037807237555412,-0.2068143255965781,0.1411352328341031,0.19352050963757741,0.036053237853748296,0.07683580411183884
A/England/7821/2019,-2.043557284967417,-2.303349777015323,-1.8796067016599018,0.7527490150439443,-1.1135008496810317,-0.25058507567631544,-0.14747768699032845,-0.00411366857270775,0.12725033174179862,0.47623851438686965
A/Homosapien/China/LS323/2019,-1.971586332291022,-2.0128475646119965,-2.0033024011886083,0.6456165766996708,-1.3122531486551827,-0.22593139865996245,0.12261959473052426,0.05509090312804669,0.07061641143874064,-0.12321439113392343
A/Homosapien/China/LS338/2019,-1.9748135399541709,-2.0248301844364365,-1.9429966869893602,0.7545371853237791,-1.2870982219243956,-0.1739041412463569,0.11502019515011858,0.06401883282550312,0.13675132111025481,0.0006975348654049769
A/NewYork/9524/2019,-1.9732533290710113,-2.0135122587285306,-1.9162361552115272,0.8744184082439341,-1.3250008267050186,-0.22018417405116167,0.18853180378800044,-0.01080653151331697,0.12246388595654083,-0.055795171402836345
A/Homosapien/China/LS339/2019,-1.9511493512518394,-1.992857184203522,-1.8977621344653757,0.6404824666351219,-1.1005413553601513,-0.16658618511593876,0.12787066515606713,-0.0055381134109005,0.04832321605666605,-0.07217047113838272
A/Homosapien/China/LS319/2019,-1.9391353754984844,-1.9939988858179292,-1.8946373690748832,0.6664987341413863,-1.091044423679298,-0.1814402935050844,0.12706912391629038,0.04653884455446429,0.06827611401354126,-0.09669274084757225
A/Homosapien/China/LS328/2019,-1.9393358944807093,-1.994279481517041,-1.8956034584553465,0.6669145110565426,-1.0926143783145146,-0.18179227132421155,0.12733835642317115,0.0466871517063856,0.06853870169392383,-0.09721972045662336
A/Guam/7834/2019,-1.786082897762934,-2.2608808947821912,-1.7962172262714236,0.6697187246379487,-0.618507933176138,-0.3909468115714906,-0.22800899785271686,-0.06702252693808221,0.141576500573207,-0.505681208219572
A/Tomsk/243/2018,-1.7422478319552643,-2.1171295698815786,-1.7571417965872198,0.6496014761455059,-0.5983852771948258,-0.34624616766921285,-0.1638062781278763,-0.03280061695196195,0.15228601819703586,-0.4776680597752336
A/Tomsk/244/2018,-1.7422478319552643,-2.1171295698815786,-1.7571417965872198,0.6496014761455059,-0.5983852771948258,-0.34624616766921285,-0.1638062781278763,-0.03280061695196195,0.15228601819703586,-0.4776680597752336
A/Tomsk/245/2018,-1.7422478319552643,-2.1171295698815786,-1.7571417965872198,0.6496014761455059,-0.5983852771948258,-0.34624616766921285,-0.1638062781278763,-0.03280061695196195,0.15228601819703586,-0.4776680597752336
A/Alaska/49/2019,-2.3066935129097623,-1.9449304790431048,-1.655556614775558,0.9642679112352283,-1.6643858334176607,0.07996441361023912,0.3510919427802276,-0.1326443196484218,-0.2893042636165398,-0.18432460234863404
A/Arizona/34/2019,-1.9366129925086983,-1.8775366089689074,-1.7963941410188837,0.8896350035396132,-1.6210061178755066,-0.12008256529621143,0.23764555575556373,0.11693678094408187,-0.03828193656623497,-0.1554548488540383
A/Illinois/39/2019,-1.9372413726123097,-1.8768361540290233,-1.7592954551197793,0.9805001427346273,-1.6217621201547052,-0.11430400904439603,0.24250033997246567,0.10186915494295264,-0.03996849782156869,-0.16830373454966602
A/Brisbane/138/2018,-1.9530770615331376,-1.9898684919822198,-1.8783727607456306,0.6329471771918982,-1.0731309965667406,-0.1555887769847058,0.12486468962486257,-0.004195502557081033,0.07172956721176063,-0.06236648603763014
A/Brisbane/154/2018,-1.9532790221747383,-1.9901485064519475,-1.8793305566839589,0.6333420238904873,-1.0746751747373902,-0.15589060519136155,0.1251292514033065,-0.004208872528791347,0.07200543675912884,-0.06270638607709442
A/Iowa/60/2018,-1.9532790221747383,-1.9901485064519475,-1.8793305566839589,0.6333420238904874,-1.0746751747373902,-0.1558906051913616,0.12512925140330644,-0.004208872528791342,0.07200543675912885,-0.06270638607709435
A/Iowa/68/2018,-1.9571688432322956,-2.0151189454017207,-1.8263328553565843,0.6073434011056021,-1.0354060221170822,-0.34484622882826416,0.28686242445842725,0.0051816911860919175,0.09357730349311999,-0.0447564224782201
A/Victoria/2051/2018,-1.9531126969995063,-1.9906835768233075,-1.8774997845048287,0.6340399503939135,-1.0719489638314716,-0.15415774289508322,0.12007655919521555,0.04969427275513699,0.06759102180099014,-0.07405618864454745
A/Washington/184/2018,-2.0452915645658636,-1.9999210281740756,-1.8211190966892115,0.7454922268754036,-1.090809781550268,-0.16519181867648258,0.16784928465209592,-0.10092714456035988,0.032231305003616026,-0.05273959813713827
A/Pennsylvania/02/2019,-1.8612136535168278,-1.9793168884570747,-1.9024358230513392,0.6125308433554677,-1.060116306313119,-0.14285315310223284,0.08974279566414874,0.07700593054737341,0.10693394776466497,-0.07890881354295096
A/NewHampshire/28/2018,-1.9729027495003972,-2.0126364770945426,-1.9693596874147044,0.738376723106953,-1.3015536716247675,-0.2099396849583275,0.16447252478993798,0.008431342067007718,0.125791937098563,-0.059111985291931686
A/Tennessee/71/2019,-1.981653393184139,-2.0203491264083513,-1.9439357478109864,0.7784775244066777,-1.312208660960883,-0.20187288537346992,0.14136341603691782,-0.07228910024379136,0.03760641829869481,-0.06472201644339973
A/Minnesota/50/2019,-2.0771751407663106,-1.765640512957786,-1.860715996283646,0.7006306386330543,-1.2565389357561247,-0.16837108781106702,0.1357133130899733,0.004434437425950557,-0.024246443137800524,-0.05074233843563287
A/Utah/04/2020,-2.0765077797559934,-1.7717597527259008,-1.8072356988742702,0.7881148008487587,-1.2543665379715074,-0.12961909290348642,0.12030303910825259,0.08757047734170371,-0.05065036602834692,-0.12762977586654325
A/Grozny/89/2019,-1.9794498023165394,-2.024792330675727,-1.9823272189388137,0.7440459439074592,-1.329724296278747,-0.21518768241685263,0.17484457538625295,0.007445731512110024,0.03632803143723822,0.004139311934587163
A/Yaroslavl/82/2019,-1.9788637476214128,-2.025439411212398,-1.9827791112102067,0.744184719348753,-1.3315796883842537,-0.21448755807254138,0.1738802441070329,0.007139652138596303,0.04491432017338941,0.0006823431821499564
A/Moscow/122/2019,-1.9802688073933192,-2.0259325278432216,-1.9863766256965916,0.7459060354500745,-1.3374110878061694,-0.21686723581361234,0.17633588891531926,0.007541558047175681,0.036893420478192634,0.004231049571292286
A/SouthAustralia/159/2018,-1.9530150773731305,-1.9916451762632204,-1.8806414839903478,0.6340923956412495,-1.0767427740837965,-0.15570871483609458,0.12654156815986506,-0.003985677789483897,0.07239807689977389,-0.05867818837221893
A/Victoria/2120/2018,-1.8873937533387535,-1.9956186463031385,-1.8796173390647828,0.601789644639362,-1.0540576551454737,-0.31798441974561276,0.19627636467526863,0.09345561944507139,-0.17233948172442734,-0.058377329475199344
A/Moscow/121/2019,-1.9091407715688429,-2.0187693063407544,-2.0385456872922547,0.6852243525730805,-1.3455273867269717,-0.280315461786177,0.1569834510469328,0.11059716804820426,-0.184329471689949,0.01709091808717266
A/Washington/662/2019,-1.981301657893964,-2.034696825062728,-1.9410473626768951,0.7533316000685452,-1.3082058334769047,-0.3299179056693903,0.26588315693399694,0.06764605188504041,0.10736433937399448,-0.07007562235170549
A/Mississippi/26/2019,-1.887372397582112,-2.001826233250207,-2.027579965268326,0.6771925704864591,-1.3124177482199102,-0.22980595187955702,0.12557875379293704,0.0018906170350627507,0.07254820513235358,-0.018698576118506293
A/Florida/86/2019,-2.163312205059603,-2.060901947963811,-1.9634219996638809,0.6977134720172019,-1.3073188154735538,-0.17395845057442674,0.1594289280403899,0.17139799088539562,0.03188833869233625,-0.0003975515716357736
A/California/159/2019,-1.9691224527966331,-1.919582339104772,-1.9926542472947983,0.9856795442277542,-1.6097631883544414,-0.14488797561154748,0.2754847494437809,0.1193263211763528,-0.015511965263018011,-0.13736080871715886
A/California/166/2019,-1.9682738250337701,-1.9188871645702477,-1.9963728166256232,0.9870595801161998,-1.6447650855929112,-0.1678056150785515,0.2914703586495288,0.1243589743189521,-0.007249586783012586,-0.12046913809618606
A/Connecticut/43/2019,-1.9682874325936517,-1.9182194237055539,-1.9992026788607775,0.9886010216362173,-1.6487402462146263,-0.16023699075805828,0.286233977084325,0.12456412926744412,-0.00853053171293512,-0.12171532228503144
A/Montana/55/2019,-1.9687100639251067,-1.9185501311072168,-1.9972170388392319,0.9874988161966536,-1.6468951662682947,-0.16837120352385154,0.29153818863351966,0.12446572188642022,-0.007314994960133786,-0.12334785593073498
A/Michigan/383/2019,-1.9670041526559803,-1.9184589125420024,-1.991382384495431,0.9858716445013389,-1.6328124420959538,-0.16533345946524575,0.2857606514677156,0.17716516928046683,-0.01095582755615768,-0.1264819788911158
A/Wisconsin/552/2019,-1.9670305811055104,-1.9181558111014887,-1.9914737314170652,0.9841125357016923,-1.6331343599989117,-0.16614780779231825,0.2886692654355331,0.12267635604853741,-0.007057711595736166,-0.11651529198491908
A/California/177/2019,-1.968832691221078,-1.9163411663208478,-1.9980583851361888,0.9907650268600047,-1.630836417430277,-0.16468486297201015,0.28407042693274215,0.23392407660942421,-0.02018146880496062,-0.1444681946746478
A/Florida/10/2020,-1.9714110640108917,-1.9193743628143463,-2.0104009479025544,1.0007266795209444,-1.62394803587657,-0.22263126691046295,0.19894796161961265,0.24444307637589124,0.008340117598581833,-0.12243412847921724
A/Maine/36/2019,-1.9718396166430865,-1.9238736207516227,-2.024069161716199,0.9739160599479765,-1.6236703599659676,-0.16886317119838656,0.2874062749355979,0.18479551741638364,-0.02955177728683125,-0.12910998136939233
A/Minnesota/63/2019,-1.968581295807881,-1.919149798745766,-1.962096661497277,1.0807434148017554,-1.6354367160412087,-0.1578825817868712,0.29335457879598154,0.1649077776073224,-0.01793847374218855,-0.13865899532544032
A/NorthCarolina/27/2019,-1.9688420368449417,-1.9195064367034071,-1.999703868627874,0.9903307526300104,-1.6347026784862448,-0.16382284336083613,0.29089872370768344,0.18049286011381355,-0.012041946773483235,-0.12391784863742374
A/Missouri/25/2019,-1.9608174938926157,-1.903135110483252,-1.9625319800724603,1.0220724759746689,-1.5818068064148856,-0.17893691174588602,0.31903170051383933,0.11956531892627079,0.007977518201081675,-0.053729460167207053
A/SouthCarolina/13/2019,-1.9612426946273542,-1.9050420272771023,-2.0095500553723222,0.908819222200148,-1.578478910446773,-0.18499882078424856,0.3097541768732873,0.13983816260593354,0.010515073179830584,-0.0502728537772293
A/Virginia/27/2019,-1.956066038527825,-1.897909790451478,-2.0026937694005875,0.8488666286558183,-1.5176855261950892,-0.190162837231677,0.27561053457902096,0.13091647532445042,0.025447696053490884,-0.02265294870604264
A/NorthDakota/29/2019,-1.9693570658167938,-1.9205199821872803,-2.0253445976756197,0.919165302097828,-1.6499777889940455,-0.17171821090508382,0.28398722129053694,0.13556572661427468,-0.0037871166947887436,-0.12888200169899083
A/Texas/358/2019,-1.9692755394819774,-1.9238080215180027,-1.9873171221764319,0.9816171917074277,-1.6416116416284503,-0.17506720108094873,0.28813270525464807,0.12298218963037762,-0.010334144443422387,-0.13710236473849893
A/Idaho/43/2019,-1.968595196776966,-1.9189445977782524,-2.0054550700421268,0.9916404756961406,-1.6510009058253627,-0.17592714338949683,0.30839466218301304,0.13374125442143114,-0.014611037442789956,-0.11401975774346361
A/Florida/65/2019,-1.9604181739840878,-1.895405253805661,-2.004084548597781,0.8768637317984223,-1.5428382065018509,-0.1934231506632795,0.2803441972804501,0.12781082934937935,0.023593831940154554,-0.019234858683938975
A/NorthDakota/25/2019,-1.9580064796693177,-1.9267918900898335,-1.9174439033870756,0.9528852454272203,-1.5364492553565061,-0.11424316642887133,0.09237754280219392,0.12080518917847319,0.07736229232372437,0.5736867868603116
A/Washington/648/2019,-1.9580064796693177,-1.9267918900898335,-1.9174439033870756,0.9528852454272203,-1.5364492553565061,-0.11424316642887133,0.09237754280219392,0.12080518917847319,0.07736229232372437,0.5736867868603116
A/SouthDakota/32/2019,-1.9581912752002868,-1.9275935474445725,-1.875455938603938,1.0710213416475858,-1.5373486201529847,-0.11126763540659737,0.10257664317570553,0.1569468320962377,0.06881384037548224,0.5692459215170608
A/Florida/91/2019,-1.9589194893782493,-1.90389393182913,-1.972324469928837,0.920338144941853,-1.5376414054491612,-0.16990070480351005,0.24174449241326287,0.16719077111891076,0.028240304462454305,-0.07107866334175386
A/Hawaii/36/2019,-2.0437372568055956,-1.9135772153170723,-1.9537726447938377,0.8850583463318181,-1.5315225855343357,-0.19192074204673154,0.2717520984198631,0.025855297231905508,0.0723485103243594,0.009360594685192984
A/Washington/669/2019,-2.026320774848174,-2.153950620581479,-1.8430461776516271,0.9965371417939092,-1.614267550535612,-0.2715957118474886,0.1467571642204139,0.07309157235512355,-0.036432841273008436,0.060192888049497226
A/Wisconsin/558/2019,-1.9225086097003385,-1.9133929182464264,-2.002061675771113,0.984386879530016,-1.641244012099435,-0.24984570116910151,0.2841642256142982,0.102779581698498,-0.20933228448090405,-0.0906505598066228
A/DistrictOfColumbia/37/2019,-1.9730017906052992,-2.013722241111013,-1.9535303562912818,0.7822165096374786,-1.3314420214280482,-0.1880625092320385,0.21530568467470135,0.0015752281326681346,0.12351471914049963,-0.06095500361532863
A/NewHampshire/44/2019,-1.7221691815424311,-2.250406570974066,-1.496841905716646,0.5561692276049557,-1.2726100398190732,-0.11271281801683293,0.12755900500288936,0.03199021393549023,0.13137696323843157,-0.048523013805639795
A/DistrictOfColumbia/31/2019,-2.0334997366983716,-1.8999163665376704,-1.9466935190000665,0.7627861524244546,-1.290010628634276,-0.2528964378700191,0.11174351559887345,-0.028902115600288134,0.019614010401478515,0.0023448412622852823
A/California/03/2020,-1.88473656839622,-2.006681806165601,-2.0550454671234206,0.6626474453966545,-1.3823579996732918,-0.2508669616133007,0.16608852596886514,0.0712138331962655,0.17305757382044815,0.01721823658777335
A/Iowa/63/2019,-2.2728766989698648,-1.9547581213265521,-1.876525096254032,0.9535762184700364,-1.5808662985570041,-0.04979155782404035,0.3813279208962953,-0.084943510224732,-0.46683956633774404,-0.07835261752808159
A/DistrictOfColumbia/39/2019,-1.9923362467345556,-2.0899342939859404,-1.8150776107695852,0.6623633309235756,-1.2102245535437473,-0.7897481317175199,0.6507168184069321,0.09444346178938551,0.10060807970309128,-0.004558159730671438
A/Minnesota/73/2019,-1.913985064616822,-1.787552480700217,-1.8476059789277568,1.028687970258986,-1.5345874653438405,-0.058285325088343554,0.15824558723624282,0.14041612211307206,0.10673763149994256,0.6098516344932228
A/Makhachkala/86/2019,-1.8870716101035772,-2.012666239970319,-2.019604871095008,0.7536830988220112,-1.3085112072702363,-0.2388750754051489,0.16415716218735274,-0.016864035505690378,0.06248782732280333,-0.008388256065442327
A/Pennsylvania/1029/2019,-1.870927083520518,-1.7573918836020088,-1.9675874775100204,0.967170484928939,-1.5984652555037657,-0.15132326460932113,0.3571847839384841,0.2098321207004429,-0.19733689542215355,0.037357578409272986
A/SouthDakota/31/2019,-2.058443514670068,-2.208760849022967,-2.070282333443411,1.0235960568982536,-1.6858832605999854,-0.3020909400962015,0.20152504604804106,0.06617007501131714,-0.015518514568596556,-0.15542700256748554
A/NorthCarolina/02/2020,-1.5585974093409505,-1.8837881523588438,-1.6001266576113966,1.1260441456075678,-1.5977176169783247,0.43264207617717837,-0.4318797831426535,-0.1808730292142127,0.049120713937887084,-0.07810858643075543
A/Arizona/48/2018,-0.164971484998982,-3.5698160986672725,1.5193537940530175,-0.5149167831044859,-0.00014974431863933662,0.43094457603078545,-1.0644134909957834,-0.2671956601815263,-0.12098414313290955,-0.7154876422314728
A/DistrictOfColumbia/35/2018,-0.164690764378276,-3.5807128782974664,1.5471170685933833,-0.4729250627238099,0.011508017537944584,0.48441962950343587,-1.123395210961558,-0.27315933810928555,-0.10333283013552966,-0.6569557011714102
A/Brisbane/14/2018,-0.604731508689896,-3.565521633848966,1.4190072582308906,-0.7176964883182001,0.013393762819342507,0.3213150484858358,-0.7028906842896391,-0.11125793982366587,-0.18785083163532268,-0.3447013283214693
A/Brisbane/31/2018,-0.5730867328541975,-3.4258426555737818,1.430880609633259,-0.8263165165335197,0.05113556018260646,0.4222681621252394,-0.6912731216317283,0.16461693072731795,-0.14792422848090775,-0.3414557637542179
A/Newcastle/19/2018,-0.11120744393928765,-3.3469311199026825,1.2971584383270307,-0.8330753672082969,0.10075408039037871,0.22301052521978712,-0.8010778322778074,0.25668272332873737,0.15619268251162882,-0.2764545911537969
A/Brisbane/140/2018,-0.5922267269474518,-3.5115338804127467,1.5316604572956156,-0.6550732941563056,-0.11603908369261821,0.5281790845085753,-0.9366167225218854,-0.24640257132118829,-0.2065647577215214,-0.5105586053586777
A/Washington/181/2018,-0.5922879669733081,-3.512028023770167,1.5324414621076283,-0.6554819436247797,-0.1162060577345138,0.5292037043363026,-0.9386012145874572,-0.24718779201002553,-0.2073591989600503,-0.5133411717839461
A/SouthAustralia/179/2018,-0.5910132759389278,-3.524226696816818,1.5467532629368328,-0.6848477534579077,-0.1132072932722375,0.5672238121550375,-1.0172907753997515,-0.12287669317538581,-0.20519345652925639,-0.32746575477114576
A/California/95/2018,-0.5957908874517652,-3.5181685476833655,1.5217378016923246,-0.6715278373824947,-0.10858487946217117,0.4816275965486203,-1.0583681199054282,-0.1979832409722703,-0.18247577211590418,-0.5413868686411036
A/Darwin/1001/2018,-0.340401798145366,-3.5272030211139533,1.3509143330935498,-0.7515242620438315,0.07407723590130759,0.3520577021118679,-0.8222284142519793,0.12782430669301223,-0.01846689006096411,-0.38032745660114
A/Darwin/1007/2018,-0.8006895067196469,-3.592861712772663,1.4932669718059866,-0.6528763424647444,0.012179854771524399,0.41379657945840037,-0.661031478671088,-0.2405425929179098,-0.2517192458485869,-0.3464173297507939
A/Indiana/20/2018,-0.5340154530617283,-3.606035544687357,1.524383794860097,-0.6622948994553676,0.02628838746810333,0.4410242040383611,-0.9655474125215713,-0.22695036753850323,-0.09320229525110722,-0.3867619280337867
A/Minnesota/42/2018,-0.5279306788307285,-3.6030342837652354,1.5184874341926455,-0.6597484403593515,0.026034650038419153,0.4324800636887244,-0.9571317529585356,-0.22418634157591613,-0.11588267109866555,-0.3810153383091573
A/Michigan/401/2018,-0.5273133208211985,-3.5993132515158504,1.5108720253189853,-0.6550150432605129,0.03991660419645433,0.4480961119755359,-0.9501755685510247,-0.20090435511611007,-0.08861926296482206,-0.24278977358761683
A/Moscow/1/2019,-0.5269288272234779,-3.5901330050623907,1.4973901633877262,-0.6491859781562127,0.030194751983460104,0.4122325060432708,-0.9075264261188852,-0.20469401303078913,-0.10615577751140132,-0.31006673742528107
A/SouthAustralia/263/2017,-0.7086741929797585,-3.8432672287246636,1.3346761205898958,-0.6978670803442075,-0.014408719968312134,0.18369679790143784,-0.7906774773678242,-0.12941829312607014,-0.1131288052224583,-0.1633938875082599
A/Texas/291/2017,-0.6159734081444578,-3.558336102060526,1.4120933212836773,-0.7118138058529759,0.037709427777747107,0.2942938997573616,-0.7142116829780059,-0.11140999461712735,-0.11756746595164233,-0.32124732462293315
A/Sydney/205/2017,-0.6138509327767288,-3.5592021014833604,1.4044719632370022,-0.7357583854819332,0.037617301613722974,0.2946415494615329,-0.7211334696749646,-0.1076858719405252,-0.1117367282994134,-0.32681108835092204
A/SouthAustralia/12/2018,-0.4402116200185741,-3.580910969096547,1.4989355604330674,-0.6056130284775549,0.016280667475715986,0.38971368249260296,-0.938572893267451,-0.3598486570470145,-0.12236836984534656,-0.3502257735482644
A/Texas/131/2018,-0.5202653687958326,-3.5765436233919297,1.442792636673081,-0.7364488804095184,0.03925333838640225,0.375632513727465,-0.8355948036381313,-0.17121928985038928,-0.11008268860036075,-0.24276278479960656
A/Victoria/721/2018,-0.5246324264730613,-3.5926146186051784,1.4666311827666674,-0.7433323893033988,0.01932419666005021,0.4051458903119997,-0.9135298627813981,-0.16652814109468322,-0.07146377109825222,-0.30866257505385064
A/Victoria/2052/2018,-0.5416517129017502,-3.6387772088275048,1.4642795908706143,-0.6873827876304724,0.24780380589247863,0.3964376031963385,-0.8587241419556452,-0.15304000946179147,-0.08578056221598337,-0.2596252657946445
A/Victoria/733/2018,-0.5412246066818294,-3.637046762924096,1.4912106617490046,-0.6192520079290923,0.2486517557089652,0.3989789859819493,-0.8520761640853136,-0.16323969645803474,-0.08904278504597257,-0.26254692127859613
A/Nebraska/09/2018,-0.16259611877423202,-3.5753405176056265,1.4608286966445208,-0.654247100110769,0.018937927949478312,0.44132617057440904,-1.115185531255654,-0.28672279596747596,-0.0894418383192534,-0.5636413861537276
A/SouthAustralia/167/2018,-0.5279467102240654,-3.6125320998532047,1.53228681134346,-0.6659762630566498,0.035561382058877954,0.4665133643762404,-0.9936026408928446,-0.21008359275509284,-0.09865335770138743,-0.2717520083472568
A/Victoria/722/2018,-0.6130427857538149,-3.572405850389677,1.434338003804232,-0.745916138729682,0.043955866530923406,0.30814534132189664,-0.7476245119273316,0.023155230597164494,-0.09109710346947031,-0.1970877943723541
A/Brisbane/7/2018,-0.5275593260334032,-3.5985943860613356,1.5532147275186,-0.5709774947462669,0.01923249478036213,0.44835967483991507,-0.9228537462514167,-0.35591744998647934,-0.10664572564247886,-0.353702541728264
A/Pennsylvania/1016/2019,-0.4798277210457175,-3.4534753831224276,1.545703513643389,-0.6739493210051766,0.019369298205720743,0.5103012155989944,-0.8610704546513749,-0.19516939928073077,-0.041130111132832374,-0.3765532329857292
A/NorthCarolina/36/2018,-0.4357942162899979,-3.5822865702291598,1.5625389008392088,-0.5269900398031149,0.00011472700922835205,0.5303183922470223,-0.8288423216470936,-0.18835895192614924,-0.119228276866597,-0.3455980814741385
A/Sydney/1002/2018,-0.4372346058719502,-3.5839791907176153,1.5648916907483383,-0.527957952175331,0.011823664553320297,0.5376122716267322,-0.8422855643934436,-0.19558870722621052,-0.12382943399674781,-0.39072518107051557
A/Brisbane/64/2018,-0.15659708975933073,-3.553365621056772,1.4604424471621404,-0.5443619491835169,0.029888427224564033,0.3595410057019503,-1.085140631568844,-0.2523634190252084,0.06652943388007049,-0.31183911559698557
A/Arizona/66/2017,-0.5286963584229462,-3.549267387220257,1.4378558856496397,-0.6213992714003471,0.03897228790438959,0.28243056779791864,-0.7586060522166014,-0.11115211149080834,-0.15144364343792766,-0.377856472406304
A/Maryland/13/2018,-0.528255889155254,-3.549007953628725,1.3982556353700626,-0.7125397506834156,0.03510378229902621,0.27577654746629693,-0.7612047352533758,-0.15198031540800985,-0.12058815856042328,-0.3688225002087076
A/Perth/352/2017,-0.5853301470328813,-3.2062179286179324,0.7560839381226917,-0.2640911609076774,-0.1034599582719736,0.14386873602179143,-0.5510241125124763,0.0005432014894420471,0.09871370615383687,-0.10280667418264355
A/Arkansas/01/2019,-0.3490429789605001,-3.6747340317452206,1.7563501062996751,-0.4215117616006928,0.0027287834382124575,0.6606282692710572,-1.6294265534788148,0.11272802153057605,0.1526842102618905,2.1730959209413063
A/Massachusetts/26/2018,-0.34574983403574805,-3.65926663964791,1.7128761612021128,-0.4300178145779648,0.0005062779721643431,0.6570019403420362,-1.5997457692117731,0.09354504201802533,0.13551117311527153,1.901666992183322
A/Ohio/31/2018,-0.3483452301106773,-3.666009725316832,1.7063446641825843,-0.5073033377052422,-0.001305798508467392,0.6556222796510018,-1.6075290654406185,0.1286816468940007,0.15212171147191764,2.0887161286521887
A/SouthAustralia/153/2018,-0.34615792708454085,-3.661452797105629,1.7323633969731977,-0.3866850604146006,-0.0051393963372294675,0.6632544543393714,-1.6088885905385764,0.03356831732558523,0.14321462516186434,1.9555004838497863
