strain,pca1,pca2,pca3,pca4,pca5,pca6,pca7,pca8,pca9,pca10,pca_label
A/Alabama/23/2019,-2.9586440892435646,-0.4378656363318766,1.507052778684089,-1.5457227620260912,-0.06750484390000011,0.031361954362023985,-0.06649585813251488,0.8725864846795762,-0.2515202219855033,-0.0024523884103073673,-1
A/NorthDakota/25/2019,-2.9577610532902354,-0.4365442792771941,1.5058968654110338,-1.5492211593589922,-0.07685444769462135,0.030376758859706424,-0.06579532182841497,0.8642925335585521,-0.2469301657855172,-0.00275927023872952,-1
A/Hawaii/08/2019,-2.9495613031757424,-0.39649539682628854,1.5782322460752014,-1.5512261809396997,0.13816261103666574,0.09765533759151912,0.03369424648811799,0.09591775478744625,-0.3385112487476141,-0.08412087944986768,8
A/Montana/60/2019,-2.9478296254062015,-0.389795723909589,1.5784876075084726,-1.5486291222440334,0.1376649006110267,0.0849983490519851,0.04209210313439658,0.10397334353333204,-0.373418677841722,-0.10076625145518686,8
A/Maryland/31/2019,-2.9536323852931767,-0.4052157680610781,1.565467483778199,-1.5668940889191492,0.10293650958208066,0.08705337699719744,0.03381459085169299,0.07616391044346069,-0.4120598353187137,-0.07267735812820754,8
A/Utah/37/2019,-2.8766770281380043,-0.2699138758274132,1.5294249858599647,-1.5389863608127563,0.09079495750896406,0.14538269489091987,0.07934937306452346,0.07746388882361262,-0.4329624468924112,-0.08492642548202801,8
A/Texas/361/2019,-2.9547103699467345,-0.40167476917929396,1.5666030011642553,-1.574843504391711,0.10562022079643756,0.08207143559470081,0.03510893125015135,0.07984410781129733,-0.425600860872337,-0.05337597168306794,8
A/Hawaii/36/2019,-3.0380959597217214,-0.3908335798911244,1.5344352797064547,-1.5598416786221683,0.0984361237124995,0.06919593219304335,-0.0292862313987365,0.12108171050228637,-0.39070011705980523,-0.021158816605260308,8
A/Alaska/35/2019,-2.974005096453071,-0.41096056077056253,1.6394125349500153,-1.7182750135712073,0.13847664021794387,0.16148487293819405,0.14777012767141043,0.20634671073786365,-1.0562005328346389,-0.3609240991440412,9
A/Florida/110/2019,-2.9789323753649466,-0.4129540898902606,1.6566084148349085,-1.7578043911879249,0.14507086310113587,0.17159229339202306,0.15927595038313852,0.23024906615410615,-1.2089432948473477,-0.42174243547257145,9
A/Minnesota/49/2019,-2.9766309483224873,-0.412021374878949,1.6485389978570326,-1.7391334168244597,0.14191710322890952,0.16672251149643846,0.15369141037900783,0.21844086305965524,-1.1325132144421468,-0.3909958046531721,9
A/Wisconsin/560/2019,-2.9783381422117317,-0.4222475647255518,1.6516376329531106,-1.7419015457258173,0.14289987878562496,0.17985229072822687,0.1494514879110979,0.21801580796192058,-1.1334843072837066,-0.4197091744773369,9
A/California/177/2019,-2.9732316507267997,-0.40923648946739677,1.6390888504090415,-1.7177785189666892,0.13849460068206818,0.15682257154623225,0.14890629902754812,0.20639103171044218,-1.0566022374313806,-0.3652357729417485,9
A/California/218/2019,-2.972448644941825,-0.4109558469297092,1.6393402178829157,-1.7178840974401677,0.13558382332764343,0.17943093482988154,0.13029648708164163,0.20372985215849657,-1.0567809478306807,-0.3607199401210756,9
A/Hawaii/60/2019,-2.9725775129366716,-0.41148005517637987,1.6412286274750543,-1.7216993377798342,0.1385531313348947,0.1611754666556084,0.14608077868320937,0.2172012741302814,-1.0413284347618599,-0.36427880558053816,9
A/Iowa/38/2019,-2.9745120785289605,-0.40960704170871787,1.6406564942408643,-1.7124464086247537,0.1426224165705736,0.16196734384220396,0.14698066085524297,0.20906601139404868,-1.0607840108592466,-0.3544549524578407,9
A/Maine/36/2019,-2.978278281281406,-0.4150046684708052,1.6584022677673895,-1.6995981700328011,0.13742623951400093,0.15474349211722785,0.12699150827477554,0.17251174199030037,-0.9026463850225744,-0.4159592474254133,9
A/Utah/56/2019,-2.793157219186602,-0.4405214793985533,1.6744562666947598,-1.7344828411967494,0.07398418286631722,0.14948490946422752,0.009652788773759705,0.5024403888482627,-1.0509379223132924,-0.3662878460241153,-1
A/California/166/2019,-2.9691733182836235,-0.40911300605174533,1.6248912275568013,-1.6946949005686942,0.13313980115075805,0.16120287326017493,0.13106461086235852,0.18602942201899209,-0.9519780919633678,-0.3227107850580816,9
A/Michigan/390/2019,-2.247292602388904,-0.5276152565894965,1.767231609329815,-1.7648468211193382,-0.1230848834844978,0.10708763419879755,-0.41298309608358535,1.3743580230724928,-0.9490072259155156,-0.3517549256718415,-1
A/Wisconsin/571/2019,-3.3454076498911522,-0.39612503235305546,1.5402919097617804,-1.6961477580153301,0.10529198181638666,0.1760215385594583,0.472966659652478,0.2229886217231041,-1.1746644097001138,-0.156768586366642,-1
A/Idaho/33/2019,-3.1317719643529274,-0.6478774020504243,1.6873571807600591,-1.7602626237618548,0.15779069422663594,0.037061779117895696,0.05051002825804325,0.1615796406560025,-0.9963595901114123,-0.07766345771130988,-1
A/Wisconsin/554/2019,-2.917101135235648,-0.41677623245954415,1.6489798269268316,-1.717356707569289,0.18362243049773536,-0.02300118731162662,0.28167519895566595,0.2115716505500387,-0.9897887454668769,-0.34987400148206854,9
A/Maryland/36/2019,-2.976330073817038,-0.4108706138433012,1.6490259020416673,-1.729927722568013,0.1513094463727366,0.15148321391618058,0.1655033426230507,0.23228050240679715,-1.085143326606381,-0.37873750421941504,9
A/Pennsylvania/1034/2019,-2.7953754241954623,-0.4096759299390217,1.6817158889772434,-1.7125404043257473,0.15728192847960618,0.05591051750752285,0.12730525132271617,0.17294902742096166,-1.0282928199764478,-0.2803108815419801,9
A/Texas/358/2019,-2.971010366274865,-0.4095014527002228,1.6281514530153098,-1.7024693827469117,0.13525463881938976,0.15560413052992053,0.14000849285656441,0.19086968383052655,-0.9755097891326762,-0.33237761937626925,9
A/Arizona/31/2019,-2.9956778094171836,-0.5012231003608938,1.4995129602002415,-1.3224675679327929,0.08030392148984193,-0.02772989075137801,-0.08531677177876407,-0.11903386345941398,0.4079049251631423,0.03274630718948681,7
A/Minnesota/50/2019,-3.019775308565712,-0.2480836997403723,1.3757941183375717,-1.2483173437231905,0.02901149572038868,0.0002963393203437482,0.008887117889035937,-0.12632204277010847,0.34417591677072673,0.30682750144040283,7
A/Brisbane/138/2018,-2.9566661979655646,-0.4951391364309401,1.3809313035730097,-1.067699528666934,0.037636449265421194,-0.037583994807235774,-0.071427254019791,-0.14123190401275373,0.5359183366094227,0.07375868292523113,7
A/Iowa/60/2018,-2.956992227947037,-0.4952984881701859,1.3818869238476632,-1.069300218636062,0.03775050071571822,-0.037731583889994064,-0.07177123954493872,-0.1422093311158494,0.5404323419282778,0.07446778560781495,7
A/Iowa/68/2018,-2.9636496463233586,-0.5168566306614514,1.3314898778621784,-1.0559205887117231,0.29459405646731335,-0.028913591771880416,-0.11065138722071727,-0.1001624648410819,0.5498782219314445,0.07014590370895561,7
A/SouthAustralia/143/2018,-2.863969306110473,-0.499695329576611,1.4187517738036282,-1.0774194848901641,0.01709006209550405,-0.0361809537366254,-0.11340584767131758,-0.15200799561958486,0.5318757640077492,0.07736400993935025,7
A/Texas/136/2018,-2.956798610678799,-0.4956638063523686,1.3839578254895863,-1.0724699211597886,0.0371607635550447,-0.03067703961644353,-0.07980497457742546,-0.14537114913732707,0.5486795997177084,0.0758586468235666,7
A/Victoria/2067/2018,-2.9571672476001503,-0.49347702483897066,1.3811000938016846,-1.0685602451793899,0.03712733315416383,-0.038998998934517075,-0.07261636265475915,-0.14206514880924656,0.5381306358559456,0.060565706352922286,7
A/SouthAustralia/136/2018,-2.9687058246259923,-0.5080996629863753,1.4515268511517052,-0.9108842609280274,0.037932645142693296,-0.02074802775832828,-0.04175793282457449,-0.11667453107332441,0.4582537755378451,0.09921337347722597,7
A/California/145/2019,-2.987591264987511,-0.5091072702332518,1.5009752562319445,-1.319412474283268,0.06563093288485308,0.05254311832009328,-0.11839455958253407,-0.10384472705442652,0.3393470819439198,0.1795931848059208,7
A/NewHampshire/28/2018,-2.986273649992745,-0.5084520925502108,1.4968233611330137,-1.3115120913003975,0.06483779870777388,0.05172101759294433,-0.11612479163588778,-0.10098976247677974,0.3280093849632665,0.17275264251879793,7
A/Grozny/89/2019,-2.995078984369332,-0.5257947590072953,1.5164322568272721,-1.3480452599320534,0.07870041351675632,0.0091167879865539,-0.04436833738113252,-0.1162031326972183,0.43070385465382566,0.42480592223501723,7
A/Yaroslavl/82/2019,-2.995592455492202,-0.5268380208886118,1.515838810719763,-1.3498266631500997,0.07426460273457489,0.007457670164499168,-0.04674656691615041,-0.09843472210678363,0.43788068119311174,0.4309390958450804,7
A/Moscow/122/2019,-2.996400484487153,-0.5264722839836086,1.5206385431657068,-1.3561657141027403,0.07966312337049045,0.009261698477139845,-0.04523555814092887,-0.11948817683957338,0.44559120244422956,0.44162709980139014,7
A/SouthAustralia/159/2018,-2.9573183298387136,-0.4954579425115035,1.3828438676385393,-1.0709057153046821,0.037865245497682484,-0.037880336681549644,-0.07211855429351581,-0.1432003815094534,0.545023035534441,0.07519065501192608,7
A/Kansas/21/2019,-2.975478387645045,-0.5099748077672732,1.5055797068294077,-1.3182276463811962,0.07793362403080968,-0.028770441622710367,-0.04591642629641793,-0.09923783369987114,0.3534588545942974,0.177461711541737,7
A/Moscow/121/2019,-2.927162525691099,-0.48605370091986755,1.5303485452700014,-1.3615351167636425,0.0891763443129788,-0.20405109714429243,0.05237670308581391,-0.16490234261043524,0.4129628131383307,0.6152923955943721,7
A/Florida/86/2019,-3.181759182399632,-0.5190202636615412,1.480760449545225,-1.3278205233247846,0.04846503335770844,0.0578117011435535,-0.05652166325129163,-0.15200374474389555,0.6465736095276117,0.36441354835350903,7
A/DistrictOfColumbia/37/2019,-2.989572092216669,-0.5074307592651727,1.506810334085397,-1.337367660736259,0.08421854794922934,0.11811984358782308,-0.05076176591424688,-0.09329154432757153,0.4288791103443313,0.18083412830704526,7
A/Florida/127/2019,-2.915753894556008,-0.37957225851050486,1.3917563233115806,-1.6653858990054073,0.06712034111530783,0.32949627341172905,0.2962390457492364,0.1805864037442583,-1.191247177989442,-0.42959116423900845,-1
A/Pennsylvania/1017/2019,-2.9342090959847926,-0.24511863702918976,1.3358426614113323,-1.6275480570428755,0.05837840770226382,0.23583351467030167,0.3148298949865795,0.17010980514387689,-1.1914172048812202,-0.3874317772594408,-1
A/Wisconsin/569/2019,-2.92080501560319,-0.37935282687532446,1.390928369958036,-1.6651330772197888,0.07483239297549261,0.27462503140071376,0.3519495980266815,0.1838583784337176,-1.1757823838369703,-0.437027039555168,-1
A/Florida/85/2019,-2.7807279354434216,-0.41270571480732604,1.634147947423734,-1.5803160800858882,0.21162476884268794,-0.03565354897817652,0.07223470975895108,0.10585049696466722,-0.4175288211543139,-0.05852768052249871,8
A/Alaska/38/2019,-2.9089782057767453,-0.40911695839218065,1.636441531706299,-1.6665194647116315,0.18866192643845003,-0.02695465519785015,0.2457198793982395,0.27418344898193836,-0.697357937494854,-0.23607697383013096,-1
A/Montana/44/2019,-2.9088738492297184,-0.4089962023596752,1.6362263548087848,-1.6645101142603587,0.18856757754499875,-0.03149599902898707,0.24910977933939743,0.2652570866474861,-0.6947313644652972,-0.22445090615711738,-1
A/Texas/394/2019,-2.9736849853228406,-0.4207684457837422,1.6483553073963697,-1.733039927124562,0.07325610637002551,0.14358072866687355,0.13255076821676115,0.2441339067380948,-0.9875651440932743,-0.45025523618027813,9
A/Vermont/33/2019,-2.966950638976122,-0.41497314019315906,1.6516894095345485,-1.7245081698629376,0.04189398373174932,0.23113261740958935,0.27460016634531176,0.1725185339166048,-0.9154678587939781,-0.4357083933503255,9
A/Pennsylvania/1022/2019,-2.6449701386878957,-0.593291582095748,1.5798853908328105,-1.3929361053380425,0.13147506535308884,0.026659049560988333,-0.1581158780462462,-0.4043331509865923,0.3813031205380208,0.610797151629863,7
A/DistrictOfColumbia/39/2019,-3.0135467924607275,-0.5705827454656097,1.3477027812067268,-1.297130481025388,0.8534645087490625,0.015351528306261856,-0.177840380876027,0.030077358070235306,0.3620867770577997,0.1684522512312731,-1
A/Utah/65/2019,-2.9982070013401807,-0.5375108183131594,1.5097038864199377,-1.3895420065945687,0.04907583679608718,0.012936063146575534,0.018105394522760807,-0.18384714455795131,0.4551731941876925,0.48763335038154665,7
A/NewJersey/43/2019,-2.8395659292648503,-0.28925544737666903,1.6154444365288665,-1.6978676726176987,0.16937010285454648,0.029239654873815305,0.3400638229557194,0.21565152612152358,-0.9955148506177952,-0.3331761598171324,9
A/Makhachkala/86/2019,-2.9050702858584216,-0.5355429277770893,1.559049988842859,-1.3314103081931836,0.08688454521331117,0.0035801973915209296,-0.07371176268222696,-0.12324656664758893,0.41185371260137077,0.46626510869216037,7
A/Maryland/07/2020,-3.0049639975785496,-0.5223959954019639,1.5197034095289705,-1.3781948845844738,0.2194648984874346,0.07786573816050926,-0.18566164226436546,-0.11734031103822758,0.5540515140494848,0.3014895774974122,7
A/Montana/63/2019,-2.9060200459375944,-0.5212049816365003,1.5791524728435011,-1.4106383558562177,0.09428841581583781,0.078584646029661,-0.22938556505203597,-0.1324692787784064,0.5638527017612508,0.33280890287659987,7
A/Vermont/02/2020,-3.086837408486333,-0.5107789121273757,1.5208083946615816,-1.3980205474811658,0.0621613338710015,0.11688645105513425,-0.24487608983058193,-0.14402741497972463,0.6019356741880549,0.31877488982463753,7
A/California/77/2018,-2.8620516277593735,-0.8205249492362268,1.3480715091249087,-0.6962192664572441,0.006714588573864578,-0.33407353055567823,-0.5180523271727175,-0.39727582577189036,1.1691200774256847,-0.6518520228497935,-1
A/Minnesota/54/2018,-2.8613363512240935,-0.8186207419901599,1.350147468968232,-0.6957022454113339,0.011242999639440372,-0.3311059952671373,-0.5165269655995807,-0.3872764086885178,1.1607627685343642,-0.6469072479173956,-1
A/Michigan/418/2018,-2.8410858560671786,-0.8273232967115747,1.3623423672804937,-0.7033175361081947,0.02263353663391621,-0.40127899908814557,-0.4675795260841361,-0.39432676606455463,1.1982563774237858,-0.6386857033361937,-1
A/Tomsk/243/2018,-2.7845835737135958,-0.6929307633694864,1.315263689095004,-0.6670799222332091,0.030658530641579335,-0.2836793796684441,-0.49672389266826633,-0.39162344379214664,1.2434571114210693,-0.6857288451187791,-1
A/Tomsk/244/2018,-2.7845835737135958,-0.6929307633694864,1.315263689095004,-0.6670799222332091,0.030658530641579335,-0.2836793796684441,-0.49672389266826633,-0.39162344379214664,1.2434571114210693,-0.6857288451187792,-1
A/Tomsk/245/2018,-2.7845835737135958,-0.6929307633694864,1.315263689095004,-0.6670799222332091,0.030658530641579335,-0.2836793796684441,-0.49672389266826633,-0.39162344379214664,1.2434571114210693,-0.6857288451187792,-1
A/Guam/7834/2019,-2.860316365253084,-0.8224324371667069,1.343404931799753,-0.6975734437601031,-0.00014049397392790553,-0.34657544697908804,-0.49662455204281714,-0.41171278033180786,1.2178893316510122,-0.6358715438398398,-1
A/Belgium/8725/2019,-2.996491673479957,-0.5274075460610382,1.5276582453614627,-1.3692678219983174,0.08209793264887523,0.004329317461468598,-0.03811594421051313,-0.12542399838171214,0.4702330316393459,0.47492553143607286,7
A/Italy/8601/2019,-2.9971114657995988,-0.5271634037865248,1.5261989943264926,-1.3670941377745969,0.08126791412717965,0.007456695564506502,-0.04041919874054617,-0.12482285597045668,0.46579625394322244,0.46998971691795705,7
A/England/9617/2019,-2.9973952193672493,-0.5317889213777318,1.5194029277283898,-1.3678020686422,0.057826474164331024,-0.004310749043992423,-0.049073915691710025,-0.03390129117607594,0.488824781014252,0.4834647015782722,7
A/Italy/8444/2019,-2.9966834132153135,-0.5256039042745686,1.5268736907945808,-1.3686668375424362,0.08113141803215707,0.005524350906294315,-0.039977612234615476,-0.12600915567372942,0.4712684075519119,0.46934362526483814,7
A/Italy/9366/2019,-2.9964984725615613,-0.5274052033547655,1.5276269907600555,-1.3692331680906262,0.08180881481438107,0.00528930094534796,-0.039191494864249596,-0.1262148855524726,0.4698516420543302,0.4757618139009167,7
A/England/8887/2019,-3.178759970136314,-0.5128067358301301,1.4557589634642798,-1.336861711355489,0.06011367265884554,0.021831025232223134,0.032844116936729825,-0.10317079813953732,0.4661058528117674,0.40605941093360975,7
A/Spain/8527/2019,-2.995078984369332,-0.5257947590072954,1.5164322568272726,-1.3480452599320534,0.07870041351675638,0.00911678798655383,-0.04436833738113244,-0.1162031326972183,0.4307038546538259,0.42480592223501806,7
A/Germany/9490/2019,-3.0075155523026416,-0.3995733440665944,1.452189520409516,-1.3214330879472616,0.0514194532119294,0.055149507968160344,0.05936596134452147,-0.11708129303513946,0.4606608126342784,0.5087115970076354,7
A/SouthKorea/9579/2019,-2.9965683803481187,-0.5273063602976014,1.5195924053234926,-1.3515162425866463,0.07687159560834327,0.0073274430387660905,-0.04763212711300677,-0.1260643136812678,0.4523102645534801,0.4346977285263675,7
A/SouthKorea/9645/2019,-2.9960700551049384,-0.5263030621988096,1.5195847907334057,-1.354122523416863,0.07941249779502095,0.009217559609184895,-0.04502825208286345,-0.11870129794207537,0.4418632102937765,0.4372728982320715,7
A/Germany/8752/2019,-2.9960011303038643,-0.5248367137399771,1.5236393491598965,-1.3567008434513725,0.08415878552512539,0.01080266163698409,-0.04640438800613498,-0.11239403629179487,0.4469592925627001,0.4391477942022877,7
A/Spain/9001/2019,-2.996400484487153,-0.5264722839836086,1.5206385431657068,-1.3561657141027403,0.07966312337049031,0.009261698477139901,-0.04523555814092889,-0.11948817683957337,0.4455912024442296,0.44162709980139075,7
A/Germany/9676/2019,-2.992842925214284,-0.5092328028564032,1.4981465084053218,-1.317991379401577,0.07323647513958281,-0.007727048676417058,-0.06068627654787428,-0.10138300121996988,0.34863671173161753,0.17233757669169547,7
A/Italy/8442/2019,-2.9925129424317123,-0.5090689680481955,1.4971104908027821,-1.3160184109651805,0.073015213804078,-0.007696823917501371,-0.06039541908407802,-0.1006861799044616,0.34572469509418113,0.17069653101073923,7
A/Japan/7848/2019,-2.992842925214284,-0.5092328028564036,1.4981465084053214,-1.317991379401577,0.07323647513958265,-0.007727048676417162,-0.060686276547874354,-0.10138300121996975,0.3486367117316177,0.1723375766916955,7
A/Japan/NHRC-OID_FDX70566/2019,-2.992842925214284,-0.5092328028564033,1.4981465084053218,-1.317991379401577,0.07323647513958274,-0.007727048676417112,-0.06068627654787433,-0.10138300121996983,0.3486367117316176,0.17233757669169547,7
A/Italy/8941/2019,-3.157031165047155,0.2580093996235053,1.3878680441079279,-1.6642849993144595,0.0384998583994468,0.3351244620425824,0.5452201633808081,-0.0034035542509050754,0.42214545637770334,0.6819436974286373,-1
A/Japan/8261/2019,-2.9946326877505,-0.5105787345544106,1.506568716689449,-1.3338219409750727,0.07359679655307808,-0.0007123254253979938,-0.07118555747301811,-0.110723606790858,0.368787971508057,0.1851885977148065,7
A/Spain/9580/2019,-2.9987646442762568,-0.5280127881289055,1.531494388119357,-1.377403666351033,0.08251437227339181,0.0076054409845438984,-0.04141158695740215,-0.1292651546818204,0.48609708203538815,0.49348522536257805,7
A/Italy/9062/2019,-2.9569975845547516,-0.4870290772219752,1.394999455694424,-1.0817596160327168,0.05199496703200852,-0.030090412388603962,-0.07953281860551122,-0.17896134280255205,0.5568582601696266,0.0697205184037626,7
A/Japan/9505/2019,-2.883966441440647,-0.4997136006031587,1.4088842447446122,-1.0810512932525724,0.0893612942129716,-0.21823627650446553,0.05533090445687066,-0.1327105202574685,0.5669543846236781,0.06665028891021267,7
A/Japan/NHRC-OID_FDX70521/2018,-2.8120645924046244,-0.395135055331998,1.3175130397057322,-1.0210817867413553,0.2665290236403411,-0.1728696757586387,0.07912478869080411,-0.12554205817178055,0.5701479421486086,0.05763086895886202,7
A/England/8741/2019,-2.959736304240827,-0.2624411830630527,1.5174226100784787,-1.5110955491803608,0.1168196218847386,0.07565851817762466,-0.01197138028211748,0.08895522918196368,-0.3833715568791054,-0.02530749810384924,8
A/England/9338/2019,-2.947845585158695,-0.3941052495288526,1.574406648745016,-1.54796141679414,0.13769303121831966,0.09340148376633034,0.038471652595657824,0.10132752759755498,-0.3648267567208491,-0.10451438166747234,8
A/Japan/7846/2019,-2.9482829124172008,-0.3957579201516212,1.573763962643067,-1.5463488442061712,0.13747224466141159,0.0973874704647288,0.03722505619381736,0.10014849149331585,-0.3580848264270365,-0.07891728254009743,8
A/Germany/8917/2019,-2.947933937548661,-0.40083921319087323,1.5660518408020374,-1.5470314871691733,0.1359054020262777,0.09062097604309753,0.04385760345444019,0.08449670638346632,-0.37054136958736306,-0.08188046581552612,8
A/Guam/8597/2019,-2.948608017978301,-0.39588528781104404,1.5748530253258533,-1.5486671229140196,0.1378888330799596,0.09776990260138012,0.03740432782730227,0.10084159161544495,-0.36110095164737954,-0.079675979069537,8
A/Japan/8603/2019,-2.9520999822573883,-0.40619198220190206,1.5560754576310503,-1.551652120676617,0.09592022672651872,0.08249941405214177,0.033226893240655996,0.06483263108767916,-0.38840631944676884,-0.07041257337076391,8
A/Japan/8769/2019,-2.948608017978301,-0.3958852878110441,1.574853025325853,-1.5486671229140199,0.13788883307995978,0.09776990260138009,0.03740432782730218,0.10084159161544491,-0.36110095164737954,-0.07967597906953702,8
A/Japan/NHRC-OID_FDX70587/2019,-2.9491270937286065,-0.3905501520103598,1.5727061913582447,-1.5471395138160213,0.13610028150683307,0.09298199242854391,0.03457067623896865,0.0969065534874187,-0.36795177894716496,-0.06857551650399796,8
A/Japan/NHRC-OID_FDX70590/2019,-3.310858747618241,-0.37384210725444084,1.464524547185881,-1.530067190902774,0.08101308303361324,0.17321118372478392,0.005116080194472941,0.09018689026315514,-0.25664335843341834,-0.10566338897273272,-1
A/SouthKorea/8825/2019,-2.8572000379684988,-0.40357847407905234,1.6054796170583587,-1.5682422406625127,0.14453174192586943,0.10773079422183718,-0.014911453806788304,0.10051645622213864,-0.37350466301092633,-0.09169427475730255,8
A/SouthKorea/8832/2019,-2.857960431749885,-0.4029349502706963,1.607470523645373,-1.5609498153815242,0.1459447638551277,0.10993766635696106,-0.014684635589454278,0.10438041987717205,-0.3759422979509445,-0.08786282625150073,8
A/SouthKorea/8824/2019,-2.8592214318994595,-0.40345416140386436,1.6119293323212012,-1.5703527796701182,0.14773004624420066,0.11168511525992753,-0.014971660562327025,0.10733123780208503,-0.3889368037540508,-0.09134195901425472,8
A/Texas/9844/2019,-2.9577610532902203,-0.43654427927719486,1.5058968654110303,-1.549221159358993,-0.07685444769461884,0.030376758859705835,-0.06579532182841244,0.8642925335585553,-0.24693016578551802,-0.0027592702387298647,-1
A/SouthKorea/8822/2019,-2.94959369449166,-0.3966910932551992,1.5800421811438752,-1.5595124194322691,0.13846486194927496,0.1087118959585446,0.033078069065547416,0.10602740914045283,-0.3691921933162034,-0.09039684860274685,8
A/SouthKorea/8823/2019,-2.9492684802525266,-0.3965634663450385,1.5789495299891072,-1.5571779058475856,0.13804653323783803,0.10828666363709777,0.032919532344842864,0.10529866607871523,-0.3661084853383242,-0.08953606501265957,8
A/SouthKorea/9704/2019,-2.857543589910419,-0.4001263892572374,1.586570215789873,-1.6211555905516826,0.15654274368096874,0.11055563699126594,-0.038607522543494095,0.09658924615860065,-0.3436238135920141,-0.1230850891255719,8
A/Japan/NHRC-OID_FDX70591/2019,-2.952319249025149,-0.4050547122545294,1.5669258655074556,-1.5441483639698272,0.11222578119874084,0.08170114774531702,0.03590137532959599,0.04284666221696478,-0.3167717454032261,-0.118356420818702,8
A/SouthKorea/9578/2019,-2.90287429393414,-0.42040057982699897,1.570574336347464,-1.5733404345857265,0.10155060427179768,-0.1105286819449118,0.12731426128887047,0.3710646928417837,-0.2713616773056009,-0.13900683100788716,-1
A/Japan/NHRC-OID_FDX70574/2019,-2.972447184452328,-0.3851465895277702,1.591677858314488,-1.6612950597502645,0.1708140380792858,0.14169280569337286,0.1219538390050339,0.1249762432856028,-0.7655012866600631,0.1479580584919329,-1
A/Japan/NHRC-OID_FDX70593/2019,-2.9599282088193264,-0.4003949978258983,1.611134310751295,-1.6307801156288209,0.1486014012764555,0.14597071084139004,0.10817898316641597,0.16295863667979846,-0.6463522064635309,-0.18939742676608678,8
A/Florida/9851/2019,-2.9171011352356455,-0.4167762324595428,1.6489798269268305,-1.7173567075692868,0.1836224304977356,-0.023001187311626866,0.281675198955667,0.2115716505500368,-0.9897887454668781,-0.3498740014820692,9
A/Guam/9841/2019,-2.9154170609245007,-0.3731250704785896,1.4076288490714954,-1.6325963251326485,0.09836928959695578,0.11916769728521366,0.12264388005230113,0.16973337377142858,-1.0631535282717197,-0.3017222481277145,9
A/Washington/9847/2019,-2.8910481776158496,-0.279039255861436,1.5889287859090309,-1.6635786917989188,0.12243411984636483,0.221183033104519,0.17740175911389416,0.1867719188369195,-0.9567435147510318,-0.31451569988019346,9
A/Yokosuka/NHRC_OID_FDX70622/2019,-2.997643169638553,-0.5225008714911874,1.4824817708269218,-1.3120668722293496,0.04172563811461568,-0.009377564152807815,-0.058177275158108936,0.01390471874462563,0.3902576761827892,0.18284759832453412,7
A/Japan/NHRC-OID_FDX70571/2019,-2.8447714398849566,0.6863363922742326,1.1020431044259855,-1.0007480677514338,-0.032567476505793176,-0.46695353156458547,-0.47734872086053187,-0.23513643700870418,0.15315180462911995,0.6885011059472378,-1
A/Germany/8912/2019,-2.8815192071730378,-0.37341584548226237,1.3460101136556697,-1.0499381952295128,-0.005660358941185548,0.011576024803226625,-0.01811179561981231,-0.17497385773991106,0.5839375077377349,0.09097164398087962,7
A/Germany/8926/2019,-2.8803313296424857,-0.36857711981473584,1.3552079871820237,-1.0496230467490268,0.028210037604405398,0.018226886238404932,-0.028544899156044738,-0.1399413801980941,0.5849141506908188,0.08740940646146211,7
A/Homosapien/China/LS329/2019,-2.985837411637815,-0.510120353836561,1.4910513023731966,-1.3102736291343895,0.0519427771939915,0.06246979023068395,-0.1321568454288045,-0.12619735934925913,0.34834478099584654,0.18451290296698916,7
A/Homosapien/China/LS318/2019,-2.9580451477417657,-0.4979236366591057,1.3837443580694098,-1.076956386714466,0.02898137558836816,-0.043156982489232346,-0.07668963088193693,-0.10829166336801906,0.571739779028847,0.08260077122940435,7
A/Japan/NHRC-OID_FDX70487/2018,-2.7253746032210975,-0.11390679347063544,1.283644567469169,-0.9900361159187147,0.005760563560690853,0.13728008699234184,0.04287711844749014,-0.12768334585135005,0.6452228666035504,0.0959847524458874,7
A/England/7821/2019,-3.1198515637634205,-0.7921871613114351,1.3902013104939588,-1.1344886668889564,-0.1344014762859954,-0.22674453250873902,-0.2682162687482629,0.6531613582323902,0.6981712750638225,0.10202769365463386,-1
A/Homosapien/China/LS323/2019,-2.982088190546416,-0.4957349225214404,1.4840491255437769,-1.3168354051849351,0.03683143952557161,-0.030200040879988458,-0.08499025915302746,-0.18684986319166882,0.2684330135769633,0.1347117217839957,7
A/Homosapien/China/LS338/2019,-2.993260712165761,-0.5222665159302743,1.4487202423525651,-1.2663518118808619,0.016968087490719718,0.007975676607680343,-0.11835372101788455,-0.08748824309997016,0.37731748000831017,0.16701735243004853,7
A/Homosapien/China/LS339/2019,-2.95960220158333,-0.4903619875843213,1.3978718751364883,-1.096587394879054,0.03814345866206401,-0.048470324675895154,-0.0693572640931864,-0.1669216634386756,0.6932705000630516,0.0015589578111381687,7
A/Homosapien/China/LS319/2019,-2.9480616249953413,-0.5024467810266174,1.4140132158599852,-1.0980652889564118,0.05755903376122682,-0.11151132786647454,-0.04346906479881614,-0.18391632015334378,0.758405868720317,0.0637788821968209,7
A/Homosapien/China/LS328/2019,-2.9485699115394395,-0.5034825287757937,1.4133488946033606,-1.099471923411075,0.05305915729087751,-0.11364414182074968,-0.045842963539438016,-0.16661653388061715,0.7683429080260739,0.0664412069193576,7
A/Colorado/01/2020,-3.1414229847621518,-1.2079452615811552,3.102123730727141,3.386714606787152,0.007474720881828704,0.13888687841936773,0.11587973288519596,0.14325468538967318,-0.39847144753437425,0.14079020448073354,3
A/Iowa/40/2019,-3.145527148456586,-1.2090915132555746,3.0987373042049744,3.3735423885961717,0.008507277683216772,0.1424823224762941,0.20720049625025078,0.1434965692206107,-0.4235076543134021,0.10102182691412213,3
A/Nevada/33/2019,-3.1465680971309546,-1.2102593185647135,3.1051924913189235,3.3888054726528947,0.008615202900088267,0.14419886006566948,0.21025527683362433,0.14672340628341216,-0.43449120489213156,0.10399380296607051,3
A/Montana/45/2019,-3.151056338395576,-1.2319836525546917,3.036614655742781,3.377217008521051,0.19727751059054402,0.14164762229599093,0.17763028503625364,0.138797436869202,-0.4132469286787798,0.08554594671606201,3
A/NorthCarolina/31/2019,-3.1446591698246245,-1.208798351174325,3.090622155326045,3.3583879815976485,0.003612415350100183,0.13881538138557886,0.201729354592476,0.1582762796327374,-0.40832286220262687,0.09953828715361406,3
A/Utah/53/2019,-3.1484839529619033,-1.2097745206756174,3.106888213176481,3.3344576824908403,0.012633755112709158,0.1491834649742632,0.21413969761524124,0.16014729797644287,-0.52189453457787,0.05698655080568461,3
A/Massachusetts/01/2020,-3.150758242521223,-1.222562411039672,3.0606492909129552,3.390335033721792,-0.07128719764302827,0.11531465606034368,0.19356652278454553,0.15445422904869466,-0.3707237407958414,0.08693989409561931,3
A/Texas/357/2019,-3.1497451746960192,-1.2237905087970011,3.062156149198829,3.385253687959746,-0.07265656125725936,0.11371921191439494,0.19786723052896812,0.1539607044209439,-0.3884275865361015,0.0780809049009734,3
A/Delaware/41/2019,-3.139314971338018,-1.2161308919304445,3.1039878398169476,3.361773640053858,0.02551471462651872,0.09524876514402587,0.21458785913531517,0.12319025126560833,-0.33810533136295057,0.060371140896106394,3
A/Maryland/40/2019,-3.141898761374997,-1.2059967410138872,3.094193962697068,3.3615469346046036,0.006829511826027887,0.1265472509632437,0.2133734098749807,0.13794126989184402,-0.4170717428588315,0.08742543284005096,3
A/Pennsylvania/1019/2019,-3.1529072507113,-1.2139692895494663,3.1385997904236405,3.461015858995201,-0.005798886440914049,0.1601743862094772,0.22341637297625852,0.16236929044763623,-0.4962778976757417,0.12076044168391588,3
A/Maryland/38/2019,-3.1479499475767523,-1.2092641743997503,3.124220927681221,3.418504126142058,0.018492340084526295,0.15044017250603572,0.21685751265690323,0.17603714062715145,-0.4460062848808698,0.10412019016524829,3
A/Illinois/40/2019,-3.1511787973327445,-1.2239064823961625,3.066702059588994,3.406525131550396,-0.07369830923052352,0.1261788691958715,0.19101645654709837,0.15928962416545223,-0.37231945233246194,0.08262439237577054,3
A/Utah/58/2019,-3.140391977887186,-1.2048616752506063,3.025034964380221,3.2687127801721405,-0.027759322122485813,0.11981364762276422,0.18316616926035809,0.23741114395273555,-0.2994687524633156,0.07358967023319526,3
A/Washington/652/2019,-3.1594639311481814,-1.2352664341351927,3.0747688345216195,3.4114040923391626,0.11969893010595666,0.1727083275776629,0.18381166498260287,0.1345417738615711,-0.44633226270588555,0.129630185756744,3
A/Michigan/437/2019,-2.9653524739285007,-1.2131218593192432,3.14493065969055,3.4007947691612954,0.012226360321768699,0.1954516739320829,0.1582407302694013,0.10747284873704728,-0.4897034377724665,0.12788850614040018,3
A/NorthDakota/38/2018,-3.0214215486256704,-1.0637087223866102,2.3161272359710257,1.419760580974451,-0.004873831130422298,-0.1116496816340615,-0.27573419968282403,-0.36409431566933764,1.4653624256399036,-0.49773299886447203,4
A/SouthAustralia/184/2018,-2.706937501677499,-0.5539985993636898,2.2122603838933546,1.5658668679020376,-0.03775328720408231,-0.26373482096370604,-0.5806289573263114,-0.4004226436297238,1.4097931031973532,-0.31817695358143877,4
A/SouthAustralia/151/2018,-3.023882848853587,-1.077189910007407,2.3568569147841703,1.5330143854092004,-0.0007320995944093955,-0.08909931960927603,-0.21217692326590448,-0.2846272584684304,1.1268406631503156,-0.41692676304676307,4
A/SouthAustralia/26/2018,-3.028271940073643,-1.0806134374579603,2.3736314478228575,1.5836516935264842,-0.002349345956847559,-0.08313103263025498,-0.21734769984066307,-0.30192789125776004,1.2364474186948333,-0.42872352881990317,4
A/NewYork/57/2019,-3.4282480723881417,-1.1998036641233965,2.9959037461775324,3.233402244183952,-0.04492449466730866,0.32486181346505766,0.7268322704528062,0.1789418369354856,-0.7576148946889457,0.18511427906304959,3
A/India/Ker-1851650/2018,-2.948780282415641,-0.9992176957851442,1.8831067560670225,0.5118454657363873,-0.02962904527163748,-0.2003203598638999,-0.35857097291165513,-0.4502888973498816,1.4096340473593376,-0.46654543541436544,4
A/India/Pun-1847908/2018,-2.9634137776464566,-1.0097608398423443,1.9700771611451693,0.6978041215682285,-0.02931846317248254,-0.1955106950987844,-0.35441784792404124,-0.4564326763124621,1.4918096857403005,-0.5324025144821664,4
A/India/Pun-1851148/2018,-3.1447016952469764,-0.9988029333937535,1.9154574534165754,0.705944948219925,-0.057548043986381685,-0.15759883846875697,-0.3704723359237135,-0.4614134769275424,1.5425304197371106,-0.5457755676984841,4
A/India/Pun-1847054/2018,-2.9657053804204097,-1.0146917140804528,1.9772067344039357,0.6964425990479858,-0.0283320552155058,-0.1936882002271008,-0.3569059690306171,-0.46707259773266424,1.5378816117824394,-0.5225258266616192,4
A/India/Pun-1847933/2018,-2.7751485075894995,-1.0197282602111917,2.0211678545058818,0.6800361437992847,-0.022083130492295374,-0.16552104716182428,-0.691077269354398,-0.4782296981735818,1.6681344611105942,-0.7305884191403476,4
A/India/Pun-1920970/2019,-3.136529061143743,-1.1989324859326729,3.0429819834060945,3.2395526485173467,0.007973286966829512,0.12723102694825428,0.18007521115335773,0.11506837911618932,-0.3206742024783721,0.07126336121736605,3
A/India/Pun-1922253/2019,-3.144138702854509,-1.2075324486487797,3.0901127891039906,3.3530765304317165,0.008388157669331733,0.14016811056801115,0.20305100654476843,0.13915594720769556,-0.408413942690712,0.09682120844215782,3
A/India/Pun-1921693/2019,-3.1606566903902347,-1.2258722865349125,3.1899663852730513,3.5929663338491706,0.004588561026505898,0.16512172639312575,0.24958508402009555,0.17951260270179353,-0.5449950606984372,0.14321836568262516,3
A/India/Pun-1922218/2019,-3.166242311684317,-1.2322153110383642,3.2256567496386355,3.681133965132478,0.004821634227006084,0.17614578288816438,0.27031408537541285,0.20169287209985917,-0.6290639959851394,0.16896059127347954,3
A/India/Pun-1924667/2019,-3.1630556738360096,-1.2285214135188518,3.2044069299003373,3.6285569473165316,0.00387582519140623,0.16911665045970223,0.2571815426782235,0.18629402763075065,-0.5694647095905477,0.15230956416090916,3
A/India/Pun-1922260/2019,-3.152731814268674,-1.2172834218148028,3.143439675998301,3.490843988690024,0.0038133510713095533,0.15451373831292597,0.23146157357706393,0.16527535429860343,-0.5030662580170718,0.13200022903937322,3
A/India/Pun-1921994/2019,-3.1535339355008616,-1.2191315401466813,3.1527821578315884,3.508729009102766,0.0038188964728349535,0.1523388903059611,0.23808207698973785,0.16038227261988466,-0.4747700013778758,0.1349861565355847,3
A/India/Pun-1922052/2019,-3.0610486414181204,-1.0779384238118095,3.015105496119423,3.317841687347224,0.029144173278860847,0.1883059930308686,0.23026546995580155,0.15645797146809157,-0.33310462000621405,0.10801447946488804,3
A/India/Pun-1922016/2019,-3.1726028477510173,-1.2407551899586866,3.2688876784341145,3.8120162435811604,-0.0031464997008600927,0.19088993327078266,0.31725566782846076,0.241298243688799,-0.8399891181528545,0.28726643268464624,3
A/India/Pun-1922295/2019,-3.1736765778631226,-1.235098578527669,3.2745036194659733,3.819473228891702,-0.007310883202685906,0.19569281771783195,0.31494916535431855,0.2533502432329064,-0.8601937990341721,0.2698497317025773,3
A/India/Pun-1923665/2019,-3.1145598254639495,-1.2075225939800407,3.0457421314226107,3.875389473635506,-0.04396948664814339,0.17220458602932964,0.31266831515466437,0.23401918766722235,-0.8994980102141478,0.3269507327542235,3
A/India/Pun-1923690/2019,-3.0299805176044745,-1.0742960226175595,2.9755943027890437,3.834232994119931,-0.0613862215709857,0.21760037109940583,0.3440583948812723,0.24388183404534236,-0.8182157668992123,0.3375396225769758,3
A/India/Pun-1923708/2019,-3.0794509357807542,-1.1696714453480603,2.844391819307524,3.39849605899205,-0.04163955040777245,0.21913510975894693,0.3499759770940644,0.1986827964012583,-0.5851010615741228,0.1980282114741479,3
A/India/Pun-1922030/2019,-3.042191886846909,-1.0989973665497808,2.379415279353789,1.6928207369678037,-0.08858255208498314,-0.11094408846486088,-0.23291992659763186,-0.30163133659705793,1.3304181875702619,-0.47103955100115713,4
A/India/Pun-1922292/2019,-3.0445908702926867,-1.10164649353372,2.393855823981077,1.72841135043517,-0.08929528792008286,-0.10694916439828389,-0.22532346793950295,-0.2948499116681,1.3059485386781506,-0.46194835252287303,4
A/Italy/8453/2019,-2.91639953337889,-1.0562416962691086,2.263052926347373,1.2441629713737923,0.0025362398150922407,-0.04593013303205131,-0.26595507952562814,-0.3397108391253929,1.5188059380295562,-0.5329328899964144,4
A/Italy/9061/2019,-3.023500558645755,-1.0716508598358094,2.3465084030872774,1.5407147202755427,-0.002438660306939592,-0.07445536335894938,-0.1950072757411253,-0.2686844583828478,1.076852673968489,-0.34399324250436836,4
A/Japan/7503/2018,-3.0222619364514873,-1.074355479021194,2.3440854514429312,1.5409800134386646,-0.0022215851707951097,-0.0772779470023846,-0.19859700894305585,-0.26457432920913204,1.0505519119936562,-0.3552399139379762,4
A/SouthKorea/8203/2019,-3.0197347015409277,-1.0663639795872686,2.3127410575969107,1.422877573404566,-0.005339102772878656,-0.11102748026781573,-0.27033746845225437,-0.35869001864147776,1.4382254993951264,-0.5115991154938918,4
A/Texas/7538/2018,-3.0214215486256704,-1.0637087223866097,2.3161272359710257,1.419760580974451,-0.004873831130422398,-0.11164968163406139,-0.2757341996828244,-0.3640943156693379,1.4653624256399038,-0.4977329988644721,4
A/Italy/9363/2019,-3.021439826136977,-1.083195066721615,2.360847316873791,1.586917144910038,0.06725462692367945,-0.10857677927271042,-0.20222071765064908,-0.29188412186676965,1.2397254182717286,-0.4718868793081113,4
A/Alaska/7957/2019,-1.8130552624478666,-2.546240510125688,-2.167749526896989,0.15400482444271607,-0.7360101970129741,-0.14702170390097719,0.19666343615958407,-0.489502328158838,-0.1740089439139379,-0.10084614924618639,5
A/Germany/9056/2019,-1.8141423808241246,-2.5473147629497377,-2.168841797179579,0.15269720896368152,-0.7316476830984359,-0.13870896338520391,0.18797734361621768,-0.48545557546689105,-0.1553036765795285,-0.08170299735906354,5
A/Bahrain/NHRC-OID_ESX0121A/2018,-1.8262766047421264,-2.5839447953879646,-2.242708267872427,0.20939234147783645,-0.9269691476789264,-0.2732091788777551,0.026619101432947708,-0.2489432949042682,-0.008968158939118362,-0.027872625665556258,5
A/Bahrain/NHRC-OID_ESX0123/2018,-1.8264779872749242,-2.5847763921391773,-2.244260247674285,0.20970626146338958,-0.9297781846028906,-0.2742820475900475,0.0267472959955278,-0.25066616287290794,-0.00904369715900347,-0.028140588064642494,5
A/Germany/9360/2019,-1.821083915757042,-2.568069042726951,-2.206425969902872,0.20497278855349538,-0.8389610251388916,-0.2492791667075151,0.060479501546581424,-0.5111049214366189,-0.05111497011946435,-0.036049293414922676,5
A/Germany/8914/2019,-1.821818634408516,-2.571076432241344,-2.2161989588018285,0.20586828816996264,-0.8515623447280838,-0.22441208945336766,0.10242214571719448,-0.5208818022732115,-0.05194066076583315,-0.05476664189671906,5
A/Homosapien/China/LS205/2018,-1.8220479220849555,-2.5737514763911284,-2.233125137404653,0.22426249479866503,-0.8680446886460684,-0.22948827288549098,0.1106135533544189,-0.5325190366695498,-0.09275751060969098,-0.08167951797557711,5
A/Belgium/8876/2019,-1.453243223695256,-2.6179189931242104,-2.1247724971766564,0.13941595327172093,-0.8633112364765151,-0.18176162114830965,-0.09085102012653783,-0.8901738835859676,-0.2737848463350726,0.155463769715386,5
A/England/8892/2019,-1.457648384155947,-2.6173795138386433,-2.1234785719977634,0.13871840153226547,-0.8616063453678944,-0.2210648463420575,-0.013282157778330134,-0.8775696072123461,-0.24739152732978187,0.1160390416491595,5
A/England/8893/2019,-1.457575801594886,-2.6166432985232198,-2.120324745454878,0.13864030929300955,-0.8581183235020362,-0.23485957672795807,-0.033404702750412,-0.8745089901486854,-0.2530287159209824,0.11973919924349893,5
A/Italy/7842/2019,-1.4570782192979626,-2.6167067218859605,-2.1166651743920477,0.13766170289302107,-0.8522271684857514,-0.23242488682373913,-0.03279002501418864,-0.8624516578103689,-0.24879670969343504,0.11603609944432663,5
A/England/7823/2019,-1.4617506400690323,-2.6393273630199725,-2.157786460252577,0.14805384558663162,-0.9242683990618623,-0.25811855115380444,-0.0325083872389916,-1.0485836953923469,-0.2959686589353218,0.13728917626736475,5
A/England/7964/2019,-1.4622288213783574,-2.641742945702047,-2.1623442244371436,0.14887362508506413,-0.9327074214969616,-0.26172440395558155,-0.033634500261259706,-1.0701324001428707,-0.3043815442273285,0.14311798562275155,5
A/England/7963/2019,-1.4625664567627883,-2.6408193356185454,-2.1645670170208153,0.14963133509611226,-0.9360453956968966,-0.2631433574688967,-0.033761297419837286,-1.0777256291144284,-0.3065122226724416,0.1426172204281486,5
A/Belgium/8877/2019,-1.820993704125456,-2.5900191016927443,-2.2308024639020436,0.16337296357880646,-0.9471159607192218,-0.22275710031182924,-0.14058333014501787,0.1017476656204901,0.008098328605330845,-0.04500159529550143,5
A/England/8122/2019,-1.6403722275678483,-2.6001547192699443,-2.177316377324039,0.1537011189463249,-0.9219933849953791,-0.2629886102789922,-0.12498158660823018,0.10709421850807278,-0.045498519620664764,-0.03749653335797131,5
A/Germany/9482/2019,-1.6408215914209232,-2.607571521263929,-2.1860422516410773,0.1421318689482699,-0.9298046766128967,-0.2724846218826873,-0.10347904800636061,0.10562262096212144,-0.05476509553658359,-0.11606608534554742,5
A/Italy/8938/2019,-1.2685775670549733,-2.6146516518414313,-2.0900087944955215,0.1391468346298441,-0.8836548257827463,-0.21837329610753,-0.3765836186358873,0.10487556973045352,0.15173773981485433,-0.2243637668314271,5
A/England/8581/2019,-1.6656139427192913,-2.7204149623828853,-2.394844979893793,0.20001046244464638,-1.5927031210612166,-0.4677234681623024,-0.44471841255374905,2.551949300735309,0.42279459617421433,0.17882774738752694,5
A/Germany/9483/2019,-1.6667881097588169,-2.716736397261125,-2.3857426178496515,0.194926187460044,-1.5834788793943764,-0.48444892414198754,-0.43240738493725667,2.5865138745807728,0.4348040326984129,0.18097616798734648,5
A/Germany/7830/2018,-1.6648792336130571,-2.7200890332124756,-2.3916386454863607,0.1658546436294773,-1.5521147503862707,-0.36899814123543584,-0.280390210172061,2.531494861377743,0.390131476404383,0.16590874083555815,5
A/Turkey/8543/2019,-1.7078674466238866,-2.2249149601869376,-2.546370015919621,0.3150924250887896,-1.537648043262465,-0.6969813043152543,-0.6276083589450164,2.4748453340197205,0.26711699822363416,-0.4256158744055992,5
A/Iran/ClinicalSample/2019,-1.659680883949833,-2.6948520944787453,-2.3424170548267926,0.16257539543901578,-1.4662254827567256,-0.44169212301695787,-0.40712312543355095,2.4280230659581306,0.36009359468790775,0.1730404490434829,5
A/Germany/9669/2019,-1.5720164825792138,-2.736981629470091,-2.3808952577790143,0.15447058454767015,-1.5972644549871406,-0.38512269546510614,-0.3569517073398,2.716098446314173,0.3819541916267572,0.16681079266417903,-1
A/Italy/9065/2019,-1.8914092324404455,-2.4852880405250866,-2.0786768185662363,0.14015460905863403,-0.5339696952499028,-0.13902878176411768,0.08571190647053638,-0.29470124921689533,0.03132470386126786,-0.02397599909147345,5
A/Guam/7502/2018,-1.9028768185074398,-2.4205594986375147,-2.854851349474627,0.48697577035340506,2.745276952556107,0.018133611003496822,-0.365866097173474,0.12818115255615076,-0.006232464006259768,0.028732438185261982,6
A/India/Ker-19298/2018,-1.8288164735100947,-2.5976834765121217,-2.2491096557955337,0.20858721523397827,-0.9319759099699524,-0.2868468011775674,0.04203909004726803,-0.5396615232821337,-0.0449595999962649,-0.07732433449359002,5
A/India/Ker-19299/2018,-1.8601924286556417,-2.449257574819999,-2.175179175481477,-0.0005072424042852134,-0.8049868731025884,-0.1499689045796195,0.2598256953969249,-0.4613857547941593,-0.9517350177694202,-0.3476073265792849,5
A/India/Pun-1845890/2018,-1.8466561829803552,-2.5761307019739297,-2.1079866388308544,-0.03311591199717154,-0.7772110573849819,-0.19567937423629864,0.15511028102682306,-0.44823477766140757,-0.9756418789769781,-0.4383045260692607,5
A/India/Pun-1846768/2018,-1.820445861939702,-2.565312475754666,-2.189387951571304,0.19457072194840883,-0.8190907711881056,-0.25266464408742906,0.062234261034063716,-0.5074971271736115,-0.05050744932869036,-0.065222829518107,5
A/India/Pun-19533/2019,-1.830503772751778,-2.425089181840328,-2.235326286471137,0.2122613263468068,-0.783475028646109,-0.17581452211426332,0.16298453898301868,-0.5401080042964442,-0.02861617073219074,0.04149485490893685,5
A/India/Pun-1847030/2018,-1.849627042784652,-2.612972762005624,-2.1741689189714197,0.4167823362632634,-0.6614497464508948,-0.24190896277611923,0.04048615435694205,-0.5814152448689985,0.0721798918364778,-0.1075972372732583,5
A/India/Pun-1851127/2018,-1.821172362832063,-2.5926131926549814,-2.1149007106967157,0.39479984828911385,-0.8410337036782045,-0.31541557155246785,0.12012416645941135,-0.5847705815526528,0.10195423758884455,-0.08673824515281027,5
A/India/Pun-1847593/2018,-1.7453667359382885,-2.4453006606280123,-2.2512129852467333,0.2162395403340346,-0.5645360516699253,-0.1244429264607162,0.07521136589692619,-0.5386288696394899,-0.040016361457499774,0.026612219863390726,5
A/India/Pun-19615/2019,-1.830211183259617,-2.5944818993378354,-2.2310237510090607,0.20536708373717022,-0.8992913105932543,-0.19743469476486467,0.1747341243128621,-0.6253162668086598,0.1198809981086623,-0.15112016955304386,5
A/India/Pun-1847801/2018,-1.8358063297558889,-2.593943135166336,-2.1292343125105275,0.41028064031894695,-0.861826842812957,-0.2676095152747057,0.08696248682315484,-0.5908420764238864,0.14531725513944316,-0.09205938599601245,5
A/Germany/8918/2019,-1.7519342655757841,-2.284309645532492,-2.2655540064030597,0.2302351069704509,-0.7854218829744091,-0.16083804561536322,0.25063007477512994,-0.5277515388996793,-0.09204558954926281,0.11966908820837675,5
A/Homosapien/China/LS340/2019,-1.3613459041177263,-2.645625254106212,-2.157690406417792,0.1700554232249134,-1.020693851969433,-0.1565824616879983,-0.17238719935462488,-1.0292955843129252,-0.5039526184991724,0.333237612239022,5
A/Homosapien/China/LS341/2019,-1.3614189678500503,-2.6413534328519135,-2.159928418794264,0.16974511836539588,-1.0248077720556317,-0.1623456505859051,-0.17290523625429932,-1.0376540076617267,-0.5075379292306226,0.32749141828249734,5
A/Arizona/39/2019,-1.6653647491493033,-2.72608907926392,-2.390191182402937,0.16931987872271162,-1.5176570994400556,-0.4539648266163568,-0.437828172746551,2.786672599426731,0.4118913574281124,0.20976867394919688,-1
A/Minnesota/44/2019,-1.661433603269465,-2.7158378045149107,-2.373999146714331,0.15980555520387865,-1.5424973842663663,-0.4316160300945955,-0.44946175922695114,2.683623711702588,0.4213538345573726,0.21314795770461,-1
A/Makhachkala/84/2019,-1.5763994669952799,-2.724927999846482,-2.360632654848179,0.18566975444702322,-1.5868277108592068,-0.4195226707768447,-0.4024172021291463,2.6297998046488713,0.47289583247117883,0.15963101209672434,5
A/Vladimir/87/2019,-1.5758170840390242,-2.7258910977733817,-2.3540466133649964,0.18979186744114032,-1.5843609579640592,-0.4846445827979153,-0.4774868848620571,2.6236086059652513,0.4192273335098441,0.18580097320147768,5
A/SouthAustralia/153/2018,-1.6603497436887653,-2.697222467730478,-2.3488160203936705,0.16345939060698056,-1.481017530635993,-0.44486661889095286,-0.4093802325509746,2.4802237697019534,0.37021178544032257,0.18943409193810307,5
A/Wisconsin/105/2018,-1.6624507888309017,-2.7123877605250764,-2.3708501876523083,0.1688629998027373,-1.5227763658235418,-0.4539034564365651,-0.41653480303204465,2.6865678708383207,0.4292601807725372,0.20258060407595738,-1
A/Brisbane/64/2018,-1.449519312800635,-2.598605221684724,-2.0800632637832526,0.1570725025373776,-0.8088937144237824,-0.21854448712744842,-0.13735623858708063,-0.6753064554265196,-0.25254243975674145,0.10755349712374387,5
A/Florida/64/2019,-1.818961855108231,-2.5564567283367383,-2.1698358037663574,0.17277238977094236,-0.7470595398634093,-0.13695507138125795,0.19412162589949158,-0.5106698682317915,-0.1767958133635304,-0.08105865831167411,5
A/NewJersey/48/2018,-1.737166812087511,-2.5559232927192603,-2.147404875636244,0.14387442951193558,-0.7115691737632298,-0.30749810152145823,0.31313214764179154,-0.49299253284115024,-0.15179478706925312,-0.04567730769914377,5
A/Florida/87/2018,-1.7765518853056173,-2.5215341456753317,-2.2978793655743672,0.4807033319668307,-0.8053514607240609,-0.2052754716546505,0.07701117182889784,-0.9195526502618512,-0.028175752421291132,-0.030954532403260907,5
A/SouthAustralia/121/2018,-1.8468942047020285,-2.6089684735688268,-2.181428345908297,0.4234355282451336,-0.6557023951617708,-0.22831743589179815,0.0402329044525432,-0.5342341669814941,0.015326419464305314,-0.06030168876536834,5
A/Victoria/733/2018,-1.845652772641378,-2.60516785810938,-2.171352614586598,0.4179131028175986,-0.6403376599754121,-0.22716730813683067,0.04314412064289438,-0.5338774123586726,0.026521740392600603,-0.06352138982058181,5
A/SouthDakota/44/2018,-1.8457369192464324,-2.6060662164588275,-2.172740367422875,0.41722710101319993,-0.6443739814712924,-0.2285393456872515,0.042098359333864105,-0.5459378469308012,0.018991526214994822,-0.05857718879813284,5
A/Victoria/2093/2018,-1.8447735593439705,-2.6120700972865767,-2.182996680422258,0.4231388399959006,-0.6590423251168155,-0.20896284208290916,0.020660251513872845,-0.5661421673455925,0.02540891589577197,-0.0697768830256225,5
A/Louisiana/27/2018,-1.8123401478864638,-2.540716734894991,-2.154971377986079,0.16884029951222324,-0.7204785771983592,-0.20998167020893999,0.06351048540901144,-0.478882947229702,-0.08455186553095762,-0.021423162565839184,5
A/Michigan/397/2018,-1.8117559874022178,-2.5383633279731117,-2.150792141292573,0.1682008446106215,-0.716337134275474,-0.20836805507611114,0.06522229242495305,-0.47355705059630354,-0.08884357542530727,-0.01983258069451545,5
A/Michigan/401/2018,-1.8174625235747635,-2.5531219805620102,-2.178674999426061,0.19937747547919113,-0.7907837066449217,-0.2316255685650804,0.05410991408824186,-0.45185573933075357,-0.04671291379305018,-0.02622102180915872,5
A/Moscow/1/2019,-1.811015127638343,-2.5405811575170807,-2.1475876831832243,0.17266358961151676,-0.7150698257479872,-0.210853111952662,0.06942791631356794,-0.4717309842273187,-0.09114991888955622,-0.014404703672833098,5
A/Minnesota/42/2018,-1.814390079208655,-2.551649936508545,-2.1713315029315323,0.17131906671514666,-0.7490461794323535,-0.21851795951144748,0.07112081043555803,-0.53158006764871,-0.10604003473550491,-0.014801347522746392,5
A/Perth/90/2018,-1.814528675363274,-2.5365219506784435,-2.17262900518901,0.18124321810121172,-0.7309220401460428,-0.21098663944890217,0.04486418340361962,-0.5428939413050426,-0.13798600552018636,0.045285737806190406,5
A/SouthAustralia/12/2018,-1.728738885043073,-2.5514595974111645,-2.137576057670156,0.1601903373842304,-0.7322341848804802,-0.28565006693072614,0.08033718088116266,-0.5509875734285337,-0.1513589079675525,0.029499114646443256,5
A/Victoria/2038/2018,-1.7332317601972484,-2.4119198786130034,-2.1828686510883872,0.20375590118949338,-0.728003774961115,-0.15628095549252644,0.10726509043480863,-0.4674993344528538,-0.07038900652119214,-0.010658277322371243,5
A/Victoria/721/2018,-1.810362704797944,-2.542356575559534,-2.1587254727847487,0.1628664405223069,-0.723385789833737,-0.19324864163654804,0.047189592970081594,-0.4552876627599098,-0.07440416531803927,-0.05726548734541454,5
A/SouthAustralia/167/2018,-1.8209577968484725,-2.573618758858128,-2.2122272989259786,0.19937467470156042,-0.8352612850075382,-0.2502919881984725,0.06033401355605862,-0.5189169883342798,-0.044142242541622995,-0.028193634605030007,5
A/Minnesota/58/2018,-1.82476929603179,-2.581893271018977,-2.2297436571189437,0.2013721401634606,-0.8913905147245003,-0.27135295176277047,0.06050597665942682,-0.5621766811477996,-0.08046886849956496,-0.03092064183124628,5
A/Victoria/1004/2018,-1.8153465773444142,-2.538820214037896,-2.1842982500997583,0.18415572824514212,-0.7478467760238375,-0.21957123280087917,0.04634326653877614,-0.5723332504450969,-0.14821932524335577,0.05710039176955356,5
A/SouthAustralia/179/2018,-1.8606934034275413,-2.456103714488165,-2.2053810077180187,-0.0021345774618158537,-0.8715082954384344,-0.1637461793873412,0.23270646860047825,-0.14536294524853463,-0.9663028079196782,-0.3032483603363569,5
A/SouthAustralia/1028/2018,-1.89072239546042,-2.4862413884458965,-2.0934240696368436,0.16191289199564476,-0.5457738393424845,-0.1379841723893896,0.02465597189805457,-0.3300604669645844,-6.110531117188212e-05,-0.03120636100450629,5
A/Victoria/722/2018,-1.887996340972508,-2.4831866687092714,-2.086849608589202,0.1607298296908341,-0.5381244728054515,-0.14104376071153413,0.028169922767262313,-0.32037028647362487,0.00012544638634725617,-0.029531289238004663,5
A/SouthAustralia/174/2018,-1.7105924749191568,-2.511837333522812,-2.01104651200477,0.0923594478351384,-0.5231088854072421,-0.03963023524399167,0.07044628601029017,-0.3466313517970543,0.1486438336623192,0.22920199701393004,5
A/NewYork/40/2018,-1.822893664703445,-2.5484575315016005,-2.224680596335184,0.1804485906063003,-0.4975317342933198,-0.2131688597171061,0.028587517482452737,-0.4856319568206451,-0.12397350244369135,0.09243801126448241,5
A/Townsville/23/2018,-1.8221522682133078,-2.5577319878971987,-2.180291127570882,0.18811951254362566,-0.8051644072774765,-0.22636304483053082,0.07671983429536655,-0.6235053179098374,-0.1501175691243531,0.013724925916647337,5
A/Massachusetts/14/2019,-1.4635151584763102,-2.635315432193798,-2.1606254953989774,0.17564704491210795,-0.9536957718476423,-0.2588296358754439,-0.053933674707965736,-0.8941842856773632,-0.19846273349061969,0.11828877446436162,5
A/Wisconsin/555/2019,-1.4549513678526493,-2.617848553890249,-2.121832537175048,0.13521767367262616,-0.8575157666000742,-0.16984677483476518,0.015415715139943756,-0.865896026109981,-0.21992992810143053,0.10044240435711368,5
A/California/96/2018,-1.8102114491814865,-2.538575822752191,-2.1636753373111417,0.17766951618970336,-0.7350303297073743,-0.19389395987228406,0.11959823889083616,-0.5018875361932252,-0.07916006206544526,0.12522591802788424,5
A/NewHampshire/24/2018,-1.8150763578621838,-2.559573066251907,-2.1863644619676132,0.17316699152257653,-0.7705673044278689,-0.23069165016474535,0.08019333934076606,-0.5556872457884567,-0.08939406620406493,0.0073410300526883,5
A/Moscow/119/2019,-1.6700770985164561,-2.729678928154568,-2.4064327724444685,0.1967787977857184,-1.6148904958202213,-0.4840424768989064,-0.42338782258627805,2.7370742000756425,0.4680120791189688,0.2029485763424462,-1
A/Florida/94/2019,-1.4121629638417252,-2.2255732191826594,-2.2639019672254483,0.24912788179181375,-0.9245244418518271,-0.39697913228016285,-0.1675632967207109,-0.9873393468712054,-0.39632598132353153,0.3263884483739855,5
A/Brisbane/115/2018,-1.8139063785614873,-2.4813392691553555,-2.0422511696352275,0.14396577222905127,-0.4673567396945888,-0.34651603279883203,0.19016666735616974,-0.47534110207452773,-0.03949259573897461,-0.0015425629347581844,5
A/Brisbane/67/2018,-1.8115510259589582,-2.484791175211126,-2.046559796795957,0.14297789740095862,-0.47862726930472815,-0.3257211468851074,0.16736587913693796,-0.4884670718731434,-0.04980479024370235,-0.0007414846814258713,5
A/Sydney/1002/2018,-1.7271920900589146,-2.5457395809193843,-2.1740663114889927,0.1639390056339101,-0.7585081567679494,-0.130976424888549,0.1377255496021603,-0.582444394840747,-0.1366210527147825,0.04429886016208867,5
A/RhodeIsland/10/2020,-1.1339756365119777,-2.660118684815297,-2.3314009617679767,0.20738635951159504,-1.6753376150082988,-0.3771734394629717,-0.5550168321571135,2.53034062918298,0.2420248558799393,0.36422901388210077,5
A/Sydney/34/2018,-1.907294977143159,-2.370594184364841,-2.1830302936684083,0.19627356671786966,-0.6370613898413007,-0.13171187050655647,0.1410333623712203,-0.7366864555801413,-0.07684378856373657,0.13525983370163358,5
A/Grozny/88/2019,-1.8093708272477373,-2.5436314499785264,-2.155509732180958,0.17817869494827746,-0.7145204360727512,-0.21800799529692788,0.07260613716729886,-0.47493918445658706,-0.0984621875480773,-0.027416691753126537,5
A/Hawaii/44/2018,-1.9054434432121168,-2.437699332454583,-2.9099326474191756,0.5026496310463164,2.958995860159375,0.11497236150219918,-0.27118524135110583,0.17818995720941672,0.03154766551197069,-0.016536044846487297,6
A/Hawaii/46/2018,-1.9118801985492222,-2.4445155229232696,-2.923641624614069,0.5105995768997494,3.039388442615301,0.13065018278715876,-0.2937066341201361,0.18738154717493477,0.0394386143266045,-0.009830085739152885,6
A/SouthAustralia/186/2018,-1.912091020543981,-2.4453022468388848,-2.925664818095931,0.5113650653157686,3.048598840159765,0.1311632347056314,-0.29512109183887975,0.18867836324570306,0.039770803211882616,-0.009924590411568728,6
A/SouthAustralia/87/2018,-1.9133694449723082,-2.4481480694487834,-2.92850108896507,0.5165212133308332,3.0775611931476705,0.13339228017993962,-0.2978822504357099,0.19482092505720988,0.03346569369616637,-0.00922570453917486,6
A/Sydney/100/2018,-1.9135804311854643,-2.4489359624349945,-2.9305276452519045,0.5172955794355474,3.0868872673206456,0.13391610007667334,-0.2993168174473399,0.1961692270130061,0.033747573059166286,-0.009314398799674233,6
A/Victoria/2041/2018,-1.923861572712704,-2.457109979358913,-2.874060004690684,0.6611901577981629,3.096090921721208,0.14978845276971314,-0.2717529139531029,0.22607912473192815,-0.06802313948878351,0.022158944020030276,6
A/Wisconsin/98/2018,-2.1936575498260997,-2.4279447130540253,-3.0429742997577516,0.5304980487048595,3.116469155449262,0.12629804898781277,-0.1653044494378356,0.21233752594750951,0.01906818465787106,0.06312181781442694,6
A/Hawaii/47/2018,-1.9109069932034246,-2.453057179634015,-2.939517441861158,0.5209644747973441,3.1366655921520765,0.12525741361803266,-0.29425617134205734,0.21093958846399619,0.04008813668268835,-0.025690965499217053,6
A/Wisconsin/95/2018,-1.9098113771171004,-2.4488089864785954,-2.950678482991847,0.5165685296988711,3.1225969867644423,0.2148860411830241,-0.17426580852102663,0.21693271480126422,0.08340999681346531,-0.0647728602766509,6
A/Hawaii/50/2018,-1.9222663522854717,-2.4372488032414994,-2.8191546203864113,0.35794666790309354,2.8373204882885865,0.03316448137558576,-0.34165718576539267,0.21103483523650846,-0.34737818455265973,-0.08156496577490326,6
A/Michigan/386/2018,-1.9030866477043544,-2.421338512732078,-2.856826939298396,0.4877058420729128,2.7535960906261834,0.01820482011867567,-0.36762806665272735,0.12906825900345326,-0.006284959645523578,0.029008666666930957,6
A/Hawaii/53/2018,-1.927270882474418,-2.455484577727584,-2.8703270501780933,0.3728250007216312,3.025710506896402,0.13535219131657866,-0.26387643227061003,0.35716234370646616,-0.2961685533292216,-0.1123695047479213,6
A/Michigan/385/2018,-1.9144216021331917,-2.4458751541368726,-2.943255298776563,0.5232660368910343,3.133694935522271,0.1312760011922062,-0.30477427259427037,0.20300369191248022,0.03634458085137968,0.010364617548971377,6
A/Minnesota/50/2018,-1.8708503526788027,-2.495618580271403,-2.9995303935522686,0.5146837728772139,3.615004524116352,-0.02090602294590203,-0.23887248996623575,0.2972715121010416,0.036863224050892186,-0.03982472437115284,6
A/Hawaii/51/2018,-2.2300719239679903,-2.4507810624992943,-2.9678842363751365,0.39304952799760595,3.221940026343357,-0.03827147423261783,0.2113963380046816,0.34650410131061776,-0.4732065195944186,0.02584887088140403,6
A/Hawaii/52/2018,-1.8593765919723093,-2.4663088077851687,-2.8655669491681732,0.37570647008635066,3.255430805639798,-0.053600686529499404,-0.11417999931145874,0.3259642418281978,-0.335022306126396,-0.18534948972518184,6
A/SouthAustralia/1006/2018,-1.9175980633728171,-2.462343974298178,-2.9737721787412426,0.526042868459944,3.2747772281292056,0.17670797304116892,-0.30069036442830904,0.2192999751384554,0.10533627814538186,-0.05463001850621712,6
A/SouthAustralia/1009/2018,-1.9173866341863814,-2.4615517675697274,-2.9717157174366697,0.5252554080926881,3.264883502610681,0.17601677047375933,-0.2992492142744272,0.21779269191219497,0.1044564482704338,-0.05410981648387709,6
A/SouthAustralia/19/2018,-1.5462684671294424,-2.475495354274338,-2.865286929731213,0.5063386082364586,3.278616721698611,0.15930785671740091,-0.6219501584338513,0.19424862577197002,0.24088835083952226,-0.2642727265521414,6
A/SouthAustralia/54/2018,-1.9010515188105455,-2.41356346598895,-2.8218691118987653,0.4689211409051996,2.5545893806022653,0.0017020768700648499,-0.3570705893564873,0.24179257173251564,0.1255491409465364,-0.012607177561357553,6
A/SouthAustralia/69/2018,-1.8836157335651342,-2.385258695898715,-2.71096739805128,0.42145063754271495,2.0709858424186214,-0.008527778116128142,-0.25338403112792734,0.00868116746079217,-0.00584282576660406,-0.006661938566619627,6
A/SouthAustralia/161/2018,-1.9105290442791227,-2.4224054440455522,-2.934690879545379,0.5155098677714012,3.0255260848421957,0.10006487940139674,-0.3045980623319265,0.19026242599463455,-0.008052300352005562,-0.29074899978050384,6
A/Wisconsin/99/2018,-1.7387690874074306,-1.6499349380543684,-1.252287956890717,0.10825359719488688,2.7198348853568732,0.3028555211527825,-0.5918531445669537,0.40732932663446936,0.5562561240105167,0.11795655965936001,6
A/Brisbane/101/2018,-1.7517085015094953,-2.407375380926228,-2.7374585474427606,0.41498221922031714,2.506336532745991,-0.1505191998879149,-0.18499990420052487,0.10159963678099758,-0.01855877075240043,0.07498591265464011,6
A/California/191/2019,-1.3613763412003728,-2.6506833752798835,-2.2041693992779017,0.18286416115926235,-1.0915265269766754,0.00016929521106886922,0.04319481609868156,-1.2770622570771573,-0.543036733762748,0.3749526076794756,5
A/Hawaii/01/2020,-1.3626816199037561,-2.6563073313226733,-2.200896800059655,0.18447717093675964,-1.0952104660469997,-0.062933178478762,-0.041691197865576034,-1.2994243301117814,-0.5876189800660027,0.3735849284602243,5
A/Colorado/46/2019,-1.3597338352820592,-2.6392090284347893,-2.154807420226173,0.1741427070189604,-1.0047736405661276,-0.17227174981559487,-0.1495811035777419,-1.0941480688296235,-0.5075790616356775,0.3344134343967726,5
A/Hawaii/03/2020,-1.2707467923065148,-2.666819584509936,-2.1400343600728324,0.13903875171034338,-1.0524424131406116,-0.043468012738866614,-0.10149277198680813,-1.1596392820417623,-0.5673320940043604,0.34590434396399933,5
A/Hawaii/65/2019,-1.3609236166155823,-2.638396505980803,-2.1760253696692393,0.1666480742339725,-1.0260926651179791,-0.1190608469588443,-0.0800021754957852,-1.124826954561588,-0.5306532633498869,0.2261043529065862,5
A/Santiago/PUC-MVL_022/2018,-1.8124803443632878,-2.5563138603621502,-2.193445952830733,0.17251717872945846,-0.7949103037773627,-0.20531016972039975,0.0337075246254129,-0.63535127325601,-0.16991137319865668,0.05221684138984565,5
A/Santiago/p003d0/2018,-1.8122217348449694,-2.5634581449199216,-2.2012568230709975,0.17258646639211328,-0.8007326416300898,-0.21758893307127702,0.03994445284214865,-0.6634855791192064,-0.16948265917864033,0.050315710820989235,5
A/Santiago/p016d0/2018,-1.8159856889404435,-2.5581479387714117,-2.1958559050610535,0.17246581323474713,-0.7768003319907788,-0.13812660180848743,0.19942474665085014,-0.5515900593414669,-0.10949670874236649,-0.06907771931745317,5
A/Alaska/43/2018,-1.60459645239159,5.593339153245316,-1.0724264468314788,0.3949649905132236,-0.20315441813626767,-0.23490498590433254,-0.14687859745050683,-0.045215330426929344,0.0357937502929905,-0.4677953397804192,0
A/Alaska/46/2018,-1.6058670318951485,5.592162005293995,-1.0687595106903283,0.38413546298185597,-0.19248488763647298,-0.2262133055321456,-0.12752318144047653,-0.036080816346323874,0.026756657127215932,-0.36183932843290784,0
A/California/71/2018,-1.604210485783097,5.57971542974988,-1.0647287605591833,0.3800010039605424,-0.19335714732944306,-0.23353447474338737,-0.131992518737,-0.0414558462373577,0.016255357592898773,-0.43772311404361347,0
A/Newcastle/22/2018,-1.6043143094161225,5.577237966021981,-1.063226003946674,0.3808814696947512,-0.1898166996336333,-0.22866572389893922,-0.13210764797676283,-0.033326481035156286,0.020007784984160268,-0.4361298683326337,0
A/Sydney/521/2018,-1.6052154506073406,5.572114083842054,-1.0723710726992524,0.38253361873971303,-0.2096964064343962,-0.22940512885117875,-0.1320859242139783,-0.08681994284224645,-0.008562533797824418,-0.4145409534886909,0
A/Vermont/22/2018,-1.6042527669957034,5.582321143894999,-1.0639716652107851,0.3802114452659603,-0.19135984929748884,-0.23496770762285293,-0.13282964692560473,-0.0329036039924884,0.017887370537080928,-0.45344130552162737,0
A/NewJersey/26/2018,-1.6045307938017939,5.585871397971132,-1.0645449587961948,0.3881024158141058,-0.1930667309005141,-0.23519263178320063,-0.13456476640645534,-0.028618192153620003,0.016601913012298193,-0.4572065725194472,0
A/Brisbane/161/2018,-1.6072250377910287,5.60411005921031,-1.073434536797066,0.38785637185043426,-0.19578355044797116,-0.23647781513374502,-0.13405208730167706,-0.04020177534376079,0.024503287348273086,-0.37524916218036836,0
A/Victoria/2036/2018,-1.6059124342125062,5.593436758736363,-1.0698168035894902,0.3867074278642064,-0.19509367797534763,-0.23712245759018324,-0.13803911696566754,-0.036415503651257806,0.023510630923891218,-0.4765811382619128,0
A/Victoria/901/2018,-1.623154145772895,5.572513976552458,-0.9927006057269814,0.5747123870261834,-0.21134419635052076,-0.2351384675772708,-0.1286924001546581,-0.0748828258963196,0.09886731633922873,-0.525671389274391,0
A/Victoria/1003/2018,-1.6056614175220731,5.596796908447858,-1.0698819657019127,0.38571212021790774,-0.19582178897903138,-0.23999354969058936,-0.13826018450438168,-0.037862035077532025,0.029226904643049195,-0.481815206482861,0
A/Newcastle/67/2018,-1.607455708089764,5.596376818293771,-1.0911341614803913,0.40139401074541464,-0.17019280592998073,-0.2465950152581683,-0.1457989818849201,-0.052017521162555126,0.04358217371176528,-0.4827820958276453,0
A/Brisbane/43/2018,-1.6285158600106053,5.429773963968081,-0.8880365133399004,0.08430953722688671,-0.11212079131209708,-0.12111781958926773,-0.056636415137024665,0.032675661623636845,-0.14108626328989868,0.1782111206311423,0
A/Sydney/515/2018,-1.5911329932800813,5.448837943369236,-1.0137179211350211,0.3431467291629332,-0.14432595395471884,-0.12484616378334049,-0.05417787649252722,0.0006383483355287639,-0.030731139391977257,0.1957222891438919,0
A/Sydney/92/2018,-1.5911329932800815,5.448837943369235,-1.013717921135021,0.3431467291629335,-0.1443259539547191,-0.1248461637833404,-0.054177876492527505,0.0006383483355285446,-0.03073113939197718,0.19572228914389175,0
A/Brisbane/57/2018,-1.6429082046433447,5.565067086842676,-0.9411235072688684,0.12490095945634136,-0.15824894481922305,-0.212237698599968,-0.1210588040025448,0.002086857065164554,-0.08332856489803442,-0.4036652758507306,0
A/Brisbane/40/2018,-1.6055530681925871,5.5799434556410255,-1.060801375592047,0.3806157788054032,-0.1900344325824723,-0.22583205621472754,-0.1285006270283323,-0.037465055280681225,0.046530076567766886,-0.42477507342708515,0
A/Florida/65/2018,-1.5899937682428102,5.451245377792122,-1.0133820603270782,0.33879523770838893,-0.17698158090926233,-0.2019554202559184,-0.09116445178579416,-0.02591735306322821,0.04413720147393042,-0.5059074889025226,0
A/Montana/43/2018,-1.6069505242703666,5.603389067703675,-1.0715655983850403,0.39024190302490225,-0.19077960455657572,-0.246722242535633,-0.14408669025680748,-0.038314893865516834,0.042351430075339674,-0.4980774015011189,0
A/Sydney/1038/2018,-1.6073089386588135,5.598881565585914,-1.0726828410489597,0.39366461316927476,-0.19054274805875066,-0.23920056272296025,-0.14345228733929655,-0.036053215074915594,0.02422840911587581,-0.49030651662750996,0
A/Washington/186/2018,-1.6091609932088555,5.594301075534524,-1.0740661909750817,0.3848637980248513,-0.14712246368294568,-0.2377214055001974,-0.14185954438337506,-0.016192682900921657,-0.022838341522609253,-0.5349459376077077,0
A/Victoria/2020/2018,-1.6050171273348852,5.588898842996065,-1.0737643787489477,0.3818574547188445,-0.1952949530682878,-0.22284270208703133,-0.14714035639284678,-0.048065249573239426,-0.012022423957859619,-0.3733122471821589,0
A/Brisbane/55/2018,-1.5883673383791879,5.44562465766478,-1.0077745498608999,0.35001711471139746,-0.18416793538591736,-0.13460483074307011,-0.07057495665901797,-0.01726820828452929,0.011184973437909192,0.1996815925308999,0
A/Idaho/20/2018,-1.5976950806792871,5.43115587051805,-1.0481662365440556,0.37637440280108403,-0.23022029964437268,-0.16651122494997997,-0.0815632541543191,-0.002185389632417299,-0.0062501913313095445,0.15310992538005275,0
A/SouthAustralia/11/2018,-1.5895731406649396,5.4328891207367285,-1.0382648010190285,0.34785808602826707,-0.19782495354053964,-0.1395586056398239,-0.0846206081207168,-0.09681949065060232,-0.09539531409747186,0.1999807993465488,0
A/Hawaii/42/2018,-1.599683227039241,5.511592382646815,-1.049730635811181,0.3565375646309444,-0.168808572361979,-0.09961628926892555,0.007305564324589576,-0.027040147927924252,0.05142002391505567,-0.19520604298859504,0
A/SouthAustralia/13/2018,-1.5890143150907383,5.337107846385418,-1.012983640261089,0.34631258863308184,-0.19132886304462976,-0.11040854450492332,-0.0422945781982747,0.01567840586651478,0.023714171285520644,0.4216669656725462,0
A/Hawaii/43/2018,-1.6053397839781043,5.588667310430034,-1.0569382872649118,0.38415756673292095,-0.17933310045567072,-0.3702366989327481,-0.29783387217238555,-0.05030492164148594,-0.07536659841512469,-0.5026160997875858,0
A/Virginia/44/2018,-1.6819037246883632,5.465081271556143,-1.0236653559013218,0.36696795229303963,-0.19073598320295626,-0.2939325977403903,-0.1744627700438202,-0.026489650560646196,-0.04072426920123849,-0.5381141233087948,0
A/Connecticut/32/2018,-1.591005380695758,5.456249558357035,-1.0202694049749699,0.346825399268276,-0.13976591356358736,-0.15161925488233793,-0.07501674695397904,-0.002368895598101917,-0.04969519705518709,0.0473493504916221,0
A/Canberra/9/2018,-1.235000599195307,5.57166479447297,-0.9648243687635224,0.37567964233848133,-0.1687586050827389,-0.2681785230911931,-0.48356909888209015,-0.09029092146845882,0.25743388162464537,-0.7438539195413304,0
A/Arizona/37/2018,-1.6730699148040542,5.315810204972648,-1.0311213494744147,0.33572671210204735,-0.2480298657106144,-0.20769502148529775,-0.16793937062905787,-0.10510007651682957,-0.06974756469311008,0.2045884728535008,0
A/Sydney/47/2018,-1.2606027368204913,5.40029585757398,-1.2464600277195876,0.4656993573187723,1.3806909204137412,-0.0887484405473621,-0.6461214425244705,0.2588091881709884,0.0975816599997738,0.32559181591565634,0
A/Sydney/55/2018,-1.631298068816172,5.415823602859851,-1.3487773149265496,0.483042415230028,1.3472001411173016,-0.07341922825048092,-0.32054510520833085,0.27934904765340846,-0.040602553468248745,0.5367901765222426,0
A/Sydney/93/2018,-1.632312931084281,5.4187882838302475,-1.3473313719014053,0.48702790365596776,1.355860594776269,-0.07258903658855265,-0.3221704386325157,0.28544853439155826,-0.054462938942862596,0.5450122611865336,0
A/Victoria/701/2018,-1.630306208663547,5.420431917425646,-1.3492246618565547,0.48190753612628173,1.356868127767262,-0.07937392861397882,-0.31950495354397207,0.28355408349337824,-0.0453545642916817,0.5680748740074538,0
A/Sydney/83/2018,-1.6343281744831044,5.441057767486288,-1.3704171092314679,0.49143923042478205,1.4050820487094906,-0.01526539299742807,-0.2660790027120894,0.3119903202334546,-0.0036727135344479583,0.5972815737490377,0
A/Hawaii/45/2018,-1.6044694835923106,5.590206558119351,-1.071992293328137,0.38062193980093556,-0.19807452717881432,-0.2229448573329133,-0.10625263863025226,-0.032868109218872274,-0.03353180295814905,-0.49128372020158,0
A/Texas/137/2018,-1.243612625944197,5.51515597092626,-0.9111629671187369,0.3008455118546916,-0.11504287017766256,-0.4339733948235301,-0.1052237616925696,-0.08280952006250375,-0.27905341830327385,0.3147786443997281,0
A/Wisconsin/502/2018,-1.5915113388502338,5.5138381885334695,-1.064694731743726,0.3472411923159571,-0.23591734457870187,-0.23649586860234617,-0.12818819698774533,-0.2249880719549814,-0.21238829083987934,0.3443421602112558,0
A/Wisconsin/504/2018,-1.8722152750929586,5.548387083004213,-1.126452191471491,0.3708660883007011,-0.23925350339617296,-0.5487861700426654,-0.3549847528294979,-0.2607900043601478,-0.3219122219135007,0.4955152146909486,0
A/NewJersey/38/2018,-1.6904952631798356,5.467975007970236,-1.0723866815200658,0.390778102586236,-0.2714284682698745,-0.34075453826671914,-0.20026772075141278,-0.027475756640856625,0.03762210340052556,-0.5674633141616314,0
A/Brisbane/1002/2018,-1.871139043126106,4.455771222106213,-0.6706102429436039,0.0215620646483164,0.014403535236503942,-0.032936078330384116,0.04457727119731468,-0.11720811229099799,-0.06564833704184261,2.2486079566087445,0
A/Brisbane/112/2018,-1.792368062033114,4.429724963609174,-0.6373745983203505,0.01108655322434913,0.03072459322763324,-0.18847627111551096,0.17104981168456745,-0.10700447967698687,-0.03518755245421208,2.0801200080975777,0
A/Brisbane/73/2018,-1.867835567675616,4.438287180181101,-0.6615964234352996,0.021494765470385646,0.005120554108643793,-0.02979788363742064,0.045114983331253154,-0.10553208280268181,-0.05343922981830216,2.0019667390385965,0
A/Brisbane/89/2018,-1.8705615558787752,4.444156088091721,-0.6642445873947851,0.02187115552458253,0.003966827715758786,-0.023842889593656044,0.04088045049320511,-0.1092755890260621,-0.056389656557500924,2.081323606095418,0
A/Nebraska/08/2018,-1.4474913176034498,4.9007418451823925,-0.7629728684760236,0.15420728564840305,-0.043893335134953096,0.33761970434005995,0.33016734180114143,-0.03756469210891633,0.15770146014041217,1.2983744091402378,0
A/Ohio/22/2018,-1.4482924630850427,4.902055766732282,-0.7612361307858762,0.14944460903191745,-0.04288321132583511,0.33871597694897126,0.3341404334503935,-0.03409134764559955,0.14730429157410807,1.3064293146490342,0
A/NewJersey/33/2018,-1.5341825120710755,4.895742411670997,-0.7751972375221539,0.1585950568951477,-0.04988053050803626,0.2497434044849022,0.1630492760644831,-0.040941670569211316,0.08368566044612885,1.2266566733976043,0
A/SouthAustralia/10/2018,-0.7082393530110754,4.904158035662331,-0.6093289147082478,0.09898436367449588,0.010004039257041086,1.2470447146709882,1.1618037769485732,0.05868511681082251,0.49868673599966573,1.8196391149044804,0
A/Maryland/48/2018,-1.6013455631706113,5.488451376403813,-1.0406463038472695,0.3562497747773527,-0.09657362820939391,-0.1259168788231057,-0.06907509935214114,-0.00764738556209417,0.00897807624654819,0.4743523077400151,0
A/Connecticut/39/2018,-1.5357778526706765,5.599773438433669,-1.036415426451251,0.4066925802224147,-0.15011333031828888,-0.4436253072219107,-0.015607428937545579,-0.057844090472490436,0.1803735068149541,-0.5798910492832022,0
A/Brisbane/54/2018,-1.294691287996969,5.237780089788307,-0.8488224771028496,0.2697420614141475,-0.06738265032899615,-0.16561862148692788,-0.41924863935145756,-0.019454193021344515,0.14929184993668018,0.20223757217001384,0
A/Indiana/28/2018,-1.6769117895531234,5.3800759412200065,-1.00190482869033,0.33173291565311336,-0.12092970623059308,-0.19421568606813155,-0.1158776164649752,-0.015307312660597433,0.027609425919049576,0.5126181808239039,0
A/Virginia/53/2018,-1.67533088715737,5.388277397740419,-1.010270711219082,0.33357082817918343,-0.13835115810616921,-0.16764134238587491,-0.06778885669654018,-0.0026855555233216773,-0.011298047982498505,0.5119903604482353,0
A/Alaska/47/2018,-1.5945305074305778,5.733285326970614,-1.1735493458223756,0.5295513192528987,-0.21863230047447355,-0.390802191507955,-0.24544857359496675,0.03170361495079374,-0.4551280871846449,-2.4523985605645273,0
A/Alaska/52/2018,-1.553921770404717,5.352665945508831,-0.9719717358705046,0.4317253104742374,-0.1353048533216513,-0.5279336004779899,-0.5595948167052727,0.0711565463490491,-0.5268486708073183,-2.724490159034453,0
A/Brisbane/142/2018,-1.5871997110832474,5.659667005441566,-1.1370188242151915,0.4935804722651227,-0.20564240308373163,-0.322750975626483,-0.17548652088601852,0.020833412151269073,-0.27326651222476783,-1.4460515817351012,0
A/Italy/7836/2018,-1.5940931801720732,5.734937997593386,-1.172906659720428,0.5279387466649295,-0.2184115139175659,-0.3947881782063531,-0.24420197719312522,0.03288265105503359,-0.46187001747845774,-2.477995659691901,0
A/Louisiana/17/2018,-2.0675662977319575,4.637362056280311,-0.7957424008988069,0.1115461599134092,-0.0491566769998567,-0.38238217231257154,-0.3203415507307163,-0.1433513031184232,-0.2638201806970346,1.884654282900361,0
A/Alberta/061/2018,-1.6039153407049214,5.591005958916003,-1.057996426731541,0.3870571280262932,-0.20282119539285753,-0.23360766048979134,-0.12842458558030115,-0.07263611796136164,0.014776926790537843,-0.4635356770790752,0
A/Germany/7356/2018,-1.598081507321227,5.598261554700963,-1.0641926493318712,0.38428507880647966,-0.1950221004421594,-0.27790146182985204,-0.12053146350465008,-0.0323717627826494,-0.00525100357155986,-0.5556227655272337,0
A/Quebec/217/2018,-1.6093301110358595,5.559567855834565,-1.0987730461522696,0.3847308617444007,-0.27725134978327987,-0.2517012980157211,-0.16533488195095952,0.22906420364379423,0.06198747950469376,-0.42380025233772234,0
A/Guam/7699/2018,-1.6073887319801279,5.608386323894037,-1.0734942817602788,0.3942316921373188,-0.1879013228708113,-0.2460045209664019,-0.1472139938138974,-0.03330034603917686,0.030598110731432066,-0.5154818458850479,0
A/Guam/7833/2019,-1.6094476076129043,5.6103384310456095,-1.0750037785726905,0.395058017376111,-0.18960519846349067,-0.2405858728176276,-0.15353129926758868,-0.03422554962020442,0.029683049310290914,-0.5213385554905471,0
A/SouthKorea/8204/2019,-1.663058050924018,5.565088903400966,-0.8551821390822445,0.3007625598693164,-0.15347332384081885,-0.21705453358471483,-0.14657577615618994,-0.022709263749105663,0.0846214222461191,-0.5413698778704914,0
A/Ontario/239/2018,-1.595908317789982,5.427431630133551,-1.0426894688978283,0.37432269267726886,-0.22268281681325136,-0.1625334463114549,-0.07648777041957475,0.014266064082459525,0.005002979662543526,0.1398630366046408,0
A/Ontario/245/2018,-1.6041289989422236,5.438330547501151,-0.9570899179636059,0.48432045803953716,-0.13798831584699706,-0.11387835626490442,-0.044870455840270475,0.026282403605215644,-0.15097506985970152,0.18633085146220146,0
A/Quebec/219/2018,-1.5979544664790413,5.433404520143224,-0.9695812252964927,0.48620660327272164,-0.16891846749716344,-0.10058990891133865,-0.07941067586962049,-0.05348405190653355,-0.19757675596124796,0.2480457513631699,0
A/Italy/8443/2019,-1.5909561646272257,5.46337778888899,-1.0214956152116865,0.3403652883813524,-0.18457039772564143,-0.18397720009237697,-0.05686050422224551,-0.030052213068607798,0.06456115859767128,-0.4782169914834186,0
A/California/7330/2018,-2.0680120292431647,4.63466304569643,-0.7871559588552373,0.11395061563374959,-0.048653305840393415,-0.4301025669271347,-0.29024310473024323,-0.06014607760994671,-0.18409277787813905,1.1390691482682629,0
A/Virginia/7393/2018,-1.662370155546908,5.235465202758272,-0.9464273673555952,0.2839882174357955,-0.10517853220300052,-0.13891678680543956,-0.07666830833885697,0.0056908714258345336,-0.02453351632890249,0.4275948277722615,0
A/Guam/7222/2018,-1.5896085496642085,5.215695972484592,-1.80822433073736,0.5459692686201102,-0.36299960207737547,-0.42689033749217,-0.09613246533973326,-0.13635711100469766,-0.2559519947943595,-0.536917417736436,0
A/SouthKorea/8668/2019,-1.4493338559962974,5.557675046026265,-1.0285739915893588,0.3983847664405847,-0.21203110045814608,-0.4121090359964188,-0.004590712786527471,-0.13372373275863658,0.12676102935265743,-0.5253659146261481,0
A/Italy/9367/2019,-1.618741556352126,5.596661728387705,-1.0582054552760585,0.3115429418486574,-0.21895215844624683,-0.23760266626476967,-0.10870309794397882,-0.024605936883747428,-0.3553584020976464,-0.6590430835267985,0
A/Pernambuco/9511/2018,-1.1156753436918172,4.957496164498597,-0.6227579672979171,-0.1173713438025517,-0.03309061686831529,1.4858907933667547,1.800765518607324,0.12659769642152893,0.15485230005038123,3.118419497396128,0
A/Santiago/PUC-MVL_025/2018,-1.5439273708890064,4.93260351237452,-0.7983310300930886,0.16968117741106756,-0.050505832417081245,0.21719257999081734,0.22241935967364393,-0.048290202579211364,0.12016324842533083,1.4688319584888674,0
A/Santiago/PUC-MVL_042/2018,-1.540829326297345,4.90643397679735,-0.7852720934839585,0.16323384296839175,-0.04191592764858396,0.21377777762193437,0.21190235569291022,-0.03741240590627203,0.11018372707707301,1.3372133222971152,0
A/Chad/9833/2019,0.3120470177064846,0.4711063220502796,-2.6177588508346905,-0.13112105345904115,-0.3664356521148057,3.6396895677216214,4.172548046769633,0.3433442579789247,0.09567044784517278,-0.8504220382784095,-1
A/Chad/9834/2019,0.3120126122445983,0.4709547536252173,-2.615948584459906,-0.1309247716746042,-0.3653285802410052,3.6254527297879102,4.15254983940733,0.34098439888382986,0.0948713526080352,-0.842324086341882,-1
A/Hawaii/51/2019,0.7993467519648126,0.3290685457452228,-2.437152648700758,-0.08655086745660825,-0.2929127037140793,3.7477283167613256,4.211772762369617,0.43226959041716245,0.9222952585040993,-0.5046182266077773,-1
A/SouthAustralia/79/2018,0.5035949535752219,0.8409931881735194,-1.8862427597645386,-0.21823140987909861,0.05643480694133275,4.254239857479721,4.277770101473251,0.47647310549467725,1.2394461197511617,-0.6832559494524125,-1
A/Utah/27/2018,0.5748952074993745,0.7724990432013679,-1.9644790617272891,-0.18405411225824564,-0.1570639659797597,3.939322056882394,4.022696378410422,0.42433692385769123,1.1746962231975135,-0.5450750698111642,-1
A/Victoria/2118/2018,1.02472786451989,0.6967554787473612,-1.8855695563336066,-0.20084335951337606,-0.25378435272254685,3.9692460010212525,3.9247244560862424,0.08231624684631914,1.015384350146289,-0.412049448275302,-1
A/SouthAustralia/22/2018,-1.6116781628561527,0.6869484718338791,-2.224273020360495,0.05622534588379494,-0.25872651928724405,0.45533745315486884,0.902840691615702,0.10407710542515922,0.22893639406960406,0.9785128234578067,-1
A/Italy/8602/2019,1.9629136639185858,0.0342650120910954,-1.3261429337883268,0.3322614074920325,-0.15781027616947513,1.1697972117320212,-0.9394496942281836,0.9888391734298111,0.3934018146751143,-0.9383526712559515,-1
A/Arizona/16/2019,8.580795481586646,-0.2251292979951236,0.5666936147601292,-0.07133155615432916,0.1744047321729535,-0.667064729716368,0.41589802249122854,0.04480840639992596,0.011045096863991811,0.025542723830651357,2
A/Georgia/40/2018,8.578343226049396,-0.22489871093719752,0.5624279535503419,-0.0702294137613101,0.16981436491941557,-0.6636005717228143,0.41010211812961045,0.03950089327357419,0.012110851751629757,0.026112469435028422,2
A/Indiana/05/2019,8.578979513617348,-0.2270220179350693,0.5652890861137382,-0.0654954460642036,0.1688279124792857,-0.6534943340031603,0.4035647779278021,0.03892297320123866,0.005252942842981322,0.026651455635300577,2
A/Kentucky/35/2018,8.578485990957015,-0.22658439745573747,0.5630153484240774,-0.0706338097550923,0.17001855764069843,-0.6629502017832091,0.4121211718557222,0.039635530384509135,0.010853376202389844,0.02416819386966373,2
A/SouthCarolina/04/2018,8.577424805302003,-0.21963396335244342,0.5611450877582532,-0.07062793796117142,0.1673882771525586,-0.6675534588399943,0.4087907905300783,0.03955692804534991,0.008809424703076005,0.0024736722632726065,2
A/Georgia/41/2018,8.580189877267777,-0.2250238085095878,0.5628813335919959,-0.07016419168982502,0.1752403487369675,-0.6688095414948377,0.4143212725799962,0.042165854399307916,0.01058111811473736,0.029187722743808927,2
A/Wyoming/08/2019,8.579037647840847,-0.2285814068960846,0.5515615549719853,-0.07083418103177794,0.15648998769882982,-0.610815494706481,0.4929892582608649,0.05848559884083122,0.01318564375370688,-0.004879312757620693,2
A/Wyoming/14/2019,8.569871505586052,-0.15708841908502835,0.5422822076954066,-0.049304818445284226,0.1470067618857348,-0.7165990828310002,0.3684384371923464,0.013291055684808206,0.069552051629384,-0.2773427514865409,2
A/Utah/30/2019,8.581823977486597,-0.22605553907411763,0.5617840726436552,-0.07025664754987598,0.18146482778714929,-0.6566802770231027,0.4176622399568466,0.04251783661614021,0.011594433097005835,0.05501893862362332,2
A/Illinois/13/2019,8.502684623997151,-0.35387275583701316,0.5977044341475645,-0.10038526339605518,0.18399099659483512,-0.7261687692428422,0.37541955643868147,0.03607768606612134,-0.017216359041832496,0.012314454439641132,2
A/Kentucky/36/2018,8.496607095418645,-0.22138899395138134,0.5025184540459091,-0.030822126500436815,0.08410115763096561,-0.7513375828675105,0.4755859716550881,0.06316436310193876,0.04699998995788234,-0.11076189254457836,2
A/Mississippi/19/2019,8.411694961601052,-0.19971040520929173,0.5096442065648962,-0.05847624989195178,0.16314786286385574,-0.7925741532792437,0.4564218228191999,0.02901172053552165,-0.03909071852449503,-0.08152086331581188,2
A/Pennsylvania/05/2019,8.578532838066824,-0.22763646378807031,0.5547576612583249,-0.07229021007058505,0.14542685903633548,-0.6636890160465474,0.423718652428967,0.13345599636135966,0.05049631882488034,0.02345231995996024,2
A/NewHampshire/09/2019,8.508204848022348,-0.33782891612325133,0.6330689692018294,-0.10317162086798373,0.2724181912667999,-0.7018589848274303,0.40994330351060826,-0.22857465597198068,-0.0659681758228016,0.003963909507202092,2
A/California/54/2019,8.618148894161239,-0.23126789853732252,0.5814532256321973,-0.0807538340117562,0.19238556065882884,-0.8038697454235201,0.5188645897386254,0.03882968476307389,0.056992609709532446,0.03885269969505046,2
A/Minnesota/36/2019,8.618148894161239,-0.23126789853732296,0.5814532256321968,-0.08075383401175523,0.192385560658829,-0.8038697454235194,0.5188645897386248,0.038829684763074065,0.0569926097095322,0.038852699695050806,2
A/NewHampshire/15/2019,8.618296251728353,-0.22263515036541995,0.5777979256122847,-0.08069114151653087,0.1905256423181389,-0.7754803932952042,0.5649635509363409,0.03947633817394875,0.07345873830756804,0.18424874959593687,2
A/NorthDakota/21/2019,8.628844877041127,-0.23401859242719258,0.5811254669716491,-0.07646873392089105,0.1899047724692169,-0.8153518090177487,0.5874606007553962,0.06516918451749944,0.05617599230406779,0.027507530589749328,2
A/Tennessee/66/2019,8.620816569525966,-0.23258361427474836,0.5862165116119581,-0.08197658986520784,0.19887269613145225,-0.8088916662618442,0.5235202897726221,0.05377681160988335,0.0638383379202936,-0.004259998596756775,2
A/Hawaii/48/2019,8.619482546493588,-0.23161767767098318,0.589193800284598,-0.05298346965313549,0.1852599702592245,-0.8170320883712054,0.5337554273895235,0.056709015946869105,0.02767483819574074,0.05412903531461014,2
A/Oklahoma/14/2019,8.531962376327844,-0.22860915900323334,0.5539116993514335,-0.0784737699715588,0.18718485736492096,-0.8129396192634861,0.5822749347071535,0.05019279815146621,0.06961868505969664,0.0468575487505255,2
A/Hawaii/43/2019,8.507218746148947,-0.20005593045456577,0.5395932633477978,-0.07113025383695874,0.13555444699893068,-0.6886851998696694,0.4416837059972303,0.033904854781289705,0.0016231655922069126,-0.08210449874914465,2
A/Arizona/28/2019,8.620541066126087,-0.23245908171223695,0.5725693678509357,-0.08143415769066559,0.17872296776189897,-0.8298552189316813,0.5449616342257796,0.009644186330772905,0.1177044888860669,0.03915204247182803,2
A/Minnesota/26/2019,8.630071541410027,-0.23232886281335902,0.5874281436626784,-0.08513143199095319,0.19843897280823397,-0.8342872439670304,0.539252619362453,0.03928654468398993,0.06569646282922868,0.04519460302637322,2
A/Ohio/08/2019,8.571932586180377,-0.09996745034737256,0.4978453781123594,-0.04506161932150418,0.15196819061524217,-0.5423846748283777,0.6395512347862614,0.07885960767286453,0.038083399429515906,0.0319720350178823,2
A/Michigan/384/2019,8.460746650228389,-0.10204190983929265,0.608772895559687,-0.2828428613947796,0.18143789494134416,-0.8003385620430634,0.46335201815977534,0.10004147847783351,-0.12554939332696027,-0.21843617438147458,2
A/Louisiana/34/2019,8.470446592581203,-0.21698706973516022,0.5226048269529396,-0.0429195843197525,0.08448823483501187,-0.3169880975218585,0.14460541774145919,0.000769383028624085,-0.012409950526822314,0.03266246724374177,2
A/California/138/2019,7.676074403228373,-0.15683627204879655,0.20814846125774725,0.04325595407045009,-0.32280855017549953,1.909969410530109,-1.5554315090650592,-0.15936330189900172,-0.156456626426568,0.05712245495579419,1
A/Florida/127/2018,7.674838639016123,-0.15575033013582265,0.20815805110276384,0.04484806946348821,-0.31971681738123753,1.8947116994726818,-1.5401632750474012,-0.12328903738412499,-0.14519036107355823,0.049495314276975386,1
A/Wisconsin/133/2019,7.675011984422858,-0.1548694811969206,0.20980565788397046,0.04461648791027778,-0.3148765539888388,1.896224042842898,-1.5384442362549071,-0.14208640653851828,-0.14840753640566018,0.04789162538407546,1
A/Iowa/02/2019,7.680736936312165,-0.15530938180995696,0.21212755157254465,0.04333201223588927,-0.3116236975762327,1.8774984955423555,-1.5247502344315622,-0.14170389521179938,-0.14525952759149097,0.050609872365138746,1
A/Delaware/18/2019,7.676171278339569,-0.15481619150193815,0.2060671207554123,0.04721697577019104,-0.323324108031101,1.9079391192391797,-1.5560589198357724,-0.15940845257508024,-0.12857050844044604,0.057619879352420855,1
A/Pennsylvania/78/2018,7.596819821022581,-0.14837721548837624,0.1886992112350105,0.0485414655575204,-0.33596678719438755,2.0447871749249935,-1.6439718633612612,-0.14519042150346914,-0.14466965228453438,0.00830230410596115,1
A/Perth/1001/2018,7.510864582351702,-0.1403971554777552,0.15423029251251943,0.06524566855251877,-0.3514354383282477,2.0982225981159703,-1.6474548296645168,-0.13768755204696173,-0.13606860520186276,-0.005221782791883246,1
A/Perth/1008/2018,7.512532726996885,-0.14049120455479402,0.1544640541876086,0.06540450207649887,-0.35371370532921137,2.1153726070635095,-1.6645032421339923,-0.14034443306552452,-0.1394588364743919,-0.0041422539531132795,1
A/Perth/103/2018,7.513261300011015,-0.14136375771321927,0.15275578202341814,0.06610887764953179,-0.3420322707994152,2.1120953283314887,-1.6625343296106332,-0.1372386520909166,-0.13796864747412363,-0.005175667568444968,1
A/Wisconsin/91/2018,7.666433983582265,-0.1517113909825043,0.21007714172087713,0.04443982918730409,-0.2792304922994705,1.8183278108168839,-1.4689413203066979,-0.1243988810739469,-0.1343226700943128,-0.0033222449744784444,1
A/Wisconsin/93/2018,7.666633153655736,-0.15198168618635569,0.21244651775815063,0.03947174563790605,-0.2793021798874014,1.8269698224124507,-1.474530035576346,-0.12267975607620653,-0.15153109925632455,-0.00948036500445895,1
A/Ohio/23/2018,7.059260282912296,-0.11623057153818463,0.014949854262942645,0.09210445707581906,-0.41824561665913373,2.2046258058206285,-1.6587678773567984,-0.13987892652616843,0.012908152204512696,-0.05735294054923179,1
A/Florida/106/2018,7.057491386918586,0.0073234440376903,-0.052251351498746684,0.1303753309228615,-0.4773080738660112,2.285008770103508,-1.8141666928027207,-0.18905958230817413,-0.03445443871354808,0.01061799723173819,1
A/Florida/83/2018,7.066831395369177,-0.12389849161073868,-0.0011230743771088237,0.09643002089900043,-0.45675925193134076,2.2746415812172023,-1.733533749197455,-0.17603682611832125,0.0024394263240821237,-0.03720599725189667,1
A/Indiana/24/2018,7.506225046975035,0.06828015248857196,0.2222012574555652,0.07923626902254319,-0.1028925152909739,2.086612392728052,-1.6199116137677285,-0.10870776904267769,-0.12027605947260607,0.0363138364961951,1
A/Montana/01/2019,7.617029066083866,-0.15183297020464498,0.18357000669490214,0.040700193520106356,-0.4003820981565241,2.2690777142320133,-1.8925815935862744,-0.24621459656121358,-0.26643138670270217,0.11751105666314769,1
A/Utah/35/2019,7.619411184145119,-0.15010449789849825,0.18233860274598027,0.03348074515153692,-0.40481890009771554,2.2981495818906814,-1.9222064111280872,-0.24702230257689814,-0.2690245344129115,0.13372673371061494,1
A/SouthDakota/60/2018,7.557457314193539,-0.17244395861602344,0.4019966272958813,-0.4285379704914651,-0.33158222577272783,2.394505881119163,-1.9125196347473423,-0.18701903776800904,-0.7333301649724588,0.2879222658218996,1
A/Montana/07/2020,7.615474746921616,-0.1727203147693093,0.1269932372157334,0.04587383766375282,-0.5901421599242446,2.2690020400546853,-2.0623013878962926,0.6205675955825719,-0.1055775068799911,0.025710529083584736,1
A/Nevada/07/2020,7.778288587639722,0.1153863178436681,0.11920750923156913,0.10636410769672404,-0.4131970368364509,2.4442386613699822,-1.8562636758994713,-0.16606856777683793,-0.19264576553134646,0.07485959097076908,1
A/Minnesota/39/2019,8.826591067235347,-0.25395732933483306,0.6415391962603858,-0.0955129189363083,0.19369816281607644,-0.8893427828275337,0.4716843434490741,-0.02388445676729386,0.1264330292126383,-0.012593838132497186,2
A/Minnesota/76/2019,8.484650866550437,-0.223942800065389,0.518661734289924,-0.06764735930313306,0.06951079699651576,-0.2595404068939514,0.2703731006399933,-0.008727754756708428,0.15464985960712205,-0.055378979623416785,2
A/Florida/11/2020,8.349168178617088,-0.21385906463006804,0.48660315269386495,-0.05888750276537969,0.16413309922380953,-0.8250214508582859,0.6669524631002228,0.0031071225635063066,0.09069054534827611,0.09771851477814296,2
A/WestVirginia/35/2019,8.49420035304642,-0.5260511883918072,-0.2384412087297459,0.1274896906679554,-0.035775630780583996,-0.8622944154701484,0.5266509101541608,-0.03208665881113192,-0.2506294889736716,-0.28495483288440004,2
A/Belgium/9021/2019,8.470732741093926,-0.2183014201943778,0.5196906392199017,-0.03667632372506447,0.08616464633308552,-0.3242570666969017,0.1401327295076731,-0.009608180157058024,0.05676275367632548,0.035919941079900534,2
A/England/9336/2019,8.469597224219328,-0.21566146177339268,0.5189864808887334,-0.04787046770468821,0.0891496424904742,-0.3126777877201343,0.13655806382639757,0.0007480778830983495,0.030057475297677452,0.0514305268417269,2
A/England/9658/2019,8.472240688216301,-0.21644709283893807,0.5146375495774163,-0.046477344369193714,0.0813749930054103,-0.2993066891390918,0.120599032225555,-0.009069718503194045,0.03145949549137064,0.05018711608473139,2
A/England/9662/2019,8.473174917611702,-0.21651675249248073,0.5149936846546633,-0.04654702297907207,0.08162158736145039,-0.30048204050714,0.12117982343756026,-0.00913248752655577,0.03172447677727807,0.05066960597250359,2
A/Germany/8908/2019,8.472044095401126,-0.2161935728067611,0.5211801523518851,-0.04998399713604412,0.09061484415435572,-0.31839599911513455,0.1364969321046221,-0.001586391445881023,0.04273345563698946,0.06197994530121241,2
A/Germany/9050/2019,8.472497794666904,-0.21728580452327595,0.5211123035265589,-0.051946392321560425,0.08788854449269445,-0.31935800471565573,0.13548621277981238,-0.010619688518425516,0.04338486046341567,0.06896591566810528,2
A/Germany/9348/2019,8.472058292196461,-0.21527007559156353,0.52887110189993,-0.05901324547401962,0.0975447519739864,-0.3163067351476971,0.13266630285822273,0.002402182198634964,0.06275449821355122,0.07504749595238284,2
A/Italy/9498/2019,8.467327154534113,-0.21459881889684607,0.5153534157422657,-0.04540347387501683,0.0952395915863764,-0.313381244410643,0.13021480778815253,0.006018009013269255,0.041872644538721006,0.04160732392097863,2
A/Germany/8910/2019,8.47613543873778,-0.22000828939594824,0.5240690787120879,-0.05135809620954497,0.09231397112371234,-0.3224561551860393,0.13983996143581276,-0.001523143291765578,0.044055380060036245,0.05504264433848977,2
A/Germany/9353/2019,8.475782162854001,-0.21647215402649636,0.5226258041077311,-0.050285094413765025,0.0917232983474619,-0.3234568736797808,0.13916489264037119,-0.0016312384806029992,0.04421054438249044,0.06443418525149404,2
A/Germany/9673/2019,8.472978303118337,-0.21626315086938067,0.5215408149851694,-0.050058932902787394,0.09088943845312403,-0.3196463125452053,0.13715428579286618,-0.0015973704240820055,0.043093396756485075,0.06257580932340458,2
A/Colorado/9737/2019,8.579256040930964,-0.2249100582651302,0.5626831785747851,-0.07017783725893707,0.16985848164643458,-0.6662045840374968,0.4137453660478974,0.040011168157312794,0.010988067755502134,0.025760468392946767,2
A/Italy/8440/2019,8.581331010049274,-0.22680560341801903,0.5642127109482242,-0.07091568809501475,0.17168650922587497,-0.6716206728941879,0.41889731576732525,0.04067497307598549,0.010916135642296444,0.02524722550548144,2
A/Italy/8946/2019,8.582277268775417,-0.22687859677426092,0.5646031526048088,-0.07102200455160193,0.17220677869219794,-0.674258068934235,0.4209146775590436,0.04095647336007538,0.0110080815433509,0.025489947780659744,2
A/Mississippi/8271/2018,8.577403903826598,-0.2218513938949774,0.5637011743361098,-0.06683966463120768,0.1682211313844097,-0.6674961735396445,0.40164374202720304,0.031408734207031615,0.04291647226430868,-0.007651048376683387,2
A/Italy/9503/2019,8.608690781035413,-0.23019022351202875,0.5826288477465745,-0.05845506833293979,0.18881865868084155,-0.7653487448340991,0.49187818715632803,0.05442979452615419,-0.0017710729820283324,0.0431663077324829,2
A/Italy/9504/2019,8.609640056708699,-0.23026430614814913,0.5830320335807012,-0.05854270388865011,0.18939084448173787,-0.768354202870676,0.49424701651760133,0.05480648814051645,-0.0017859906146523185,0.0435813008342629,2
A/Italy/8767/2019,8.579969428558437,-0.2283411733412097,0.5607508486318863,-0.07058211538759539,0.16598538747695074,-0.668699993256396,0.417435051469418,0.03539611918816462,0.0019300787400832768,0.021364406786126302,2
A/England/9619/2019,8.503816848878174,-0.20681890455449622,0.5344680941952074,-0.06309992205723025,0.1640567875375783,-0.7288841377864346,0.4883386938564187,0.049266284396240534,0.006265621828163042,-0.10101460142218238,2
A/Germany/9356/2019,8.579461936921419,-0.22311546730502185,0.5582000690626796,-0.06851088378818844,0.16510492951559197,-0.6723886685253597,0.41552046293659295,0.03299460676440835,0.00937890624077958,0.01843501629374702,2
A/Germany/9668/2019,8.583314431520927,-0.22338870014862758,0.5456832872429163,-0.07510971732033597,0.13433020391085246,-0.65352379947469,0.3756371764125029,-0.04526905892475441,-0.041784621774115564,0.07939538566436567,2
A/Georgia/8132/2019,8.499202699304185,-0.5915535930851876,-0.20253925564900632,0.10459852910948374,-0.0037129915805277527,-0.8449191638843154,0.5047830239031692,-0.04844899264771876,-0.2502466974387288,0.012542611536116502,2
A/NewJersey/9382/2019,8.581226181936595,-0.22994729668498973,0.5506283348719987,-0.06839724302614136,0.20408698894049015,-0.5992676082806252,0.45790243222612037,0.047513732174029766,0.04058985039144373,0.006841171644377621,2
A/Spain/8834/2019,8.476085387176688,-0.21789707683713913,0.5171327402426321,-0.04540382477012545,0.08136334987986202,-0.3267826753141172,0.13564986727017095,0.0396759433830468,0.047014035215426374,0.0635729297636024,2
A/California/NHRC-OID_28773/2019,8.620049950646772,-0.23141685334762996,0.5822590855410851,-0.08099669371465891,0.19355865994503701,-0.8102331760211678,0.5239107790944987,0.0393746874946034,0.05796915048351568,0.039614390922663105,2
