,mds1,mds2,mds3,mds4,mds5,mds6,mds7,mds8,mds9,mds10
U26830.1,22.961782422829096,55.96389191852308,37.931864622179,-25.381929393734733,-91.57719452522588,-27.090983942088442,-56.563865509693976,-68.75333849473303,-30.348803275789745,35.868257052984326
A/Shiraz/1006/2015,17.999900123343895,58.75282564548226,4.2862032156191905,-43.02820739397092,-53.7989562475509,-0.8994796533590246,-22.80035155594813,-54.02159790789829,2.5081614486825643,-17.063859040137363
A/Alabama/04/2017,4.880987382316463,3.1450448832913582,8.934708243860543,3.0340218684654285,-14.095842681507637,-2.6400057665701677,9.609204731017543,6.1651066787681135,-0.26687920079573363,-2.577545745709652
A/Brisbane/101/2017,1.7407160832975692,1.4855371069910348,8.241015094196118,6.671103397267783,-9.413261715249245,3.5426626628632856,5.362979449090916,9.410542116136634,4.405811188105921,-7.571404051531186
A/Texas/93/2017,1.8818111225181866,0.8116495373298397,8.250356637276269,3.955152324287872,-10.71181480616459,2.6956727304927344,5.8198050719948675,7.510987379410472,3.598422614801431,-7.045126720973452
A/Brisbane/290/2016,1.365310867668767,2.012841433353983,8.819993368346516,3.2786365642539104,-7.987743952397558,0.390693676465409,2.4296799409549656,6.271235032960849,1.3447136459315236,-4.577655532873492
A/Sydney/76/2017,1.6663638549668354,1.8817045242632064,7.726269322582963,2.8854939082280637,-7.401405562964831,-0.06664082059619629,2.4105526519462623,5.969156678705883,1.609218306356113,-4.376284169370377
A/Minnesota/85/2016,2.6102000677265296,3.713004695679572,9.815089114144955,2.3991407926980055,-8.939080442468866,-0.2998667288492197,4.279369148656253,5.091650486092671,0.7185504742802753,-4.22936223033221
A/Ohio/31/2017,4.11733963260188,3.458566267473992,9.260246984050097,2.832246494614661,-8.021459977531896,-0.8967124318212316,3.3584041891296734,5.9536695563505075,0.21278270891549886,-5.733024665800901
A/Ohio/33/2017,2.937835359687082,3.9942901125626107,10.882585540983177,3.6943998674875584,-9.23224758177105,0.8822806683589384,2.0231108831210296,4.74687898159584,-1.284700959105711,-6.618324450900778
A/Sydney/34/2017,1.8130735000257596,3.6409890111828678,8.568855089180678,2.096273604762458,-8.325475694763496,0.8016366960906165,1.7520494463530287,7.582831995548526,1.647126691632489,-5.876763972473596
A/Darwin/1005/2017,-0.387545343541964,-0.35595372598381136,9.065893573785878,5.07502836579169,-10.217685602005659,-1.7887700161203433,2.471644812366435,8.78247874326974,-0.3628477463532494,-6.114044815644661
A/Maryland/84/2017,4.776555956483708,3.665377744853181,6.9728098785288415,7.398637969400693,-10.368962728789995,2.8042776879280225,9.43755776101304,9.970566048095822,3.543426670966147,-8.317639587317801
A/Canberra/3/2017,2.160017720613962,3.119375200620597,9.412109930182947,3.614892115345362,-8.311289742373628,4.982438718209179,7.1497618442367825,10.732478502219333,2.0017793777406023,-8.74709745550734
A/Alaska/31/2017,0.7417684336904925,0.19894163861800956,15.06197660946193,10.497965114830272,-11.391863882845948,-1.2193415541916581,6.136217521211323,3.9022326206922604,-0.9493892670969613,-4.445096217829979
A/Alaska/36/2017,0.12277775207090953,-0.10882419562149831,15.262653956449418,11.037834264686802,-9.80950414308933,-0.007488085864740675,6.63533112504787,4.66947392657911,0.7005190818867186,-5.192090048891411
A/Florida/43/2017,0.2523185876337715,0.1417728267585296,14.189935293234166,9.546027476806206,-11.330080269395829,-1.1332052063538542,5.509681373616297,4.008486951670474,-0.450541766940379,-4.3322145779635886
A/SouthAustralia/219/2017,-0.52886419405089,-0.16347739704435213,13.723005466569473,10.568717189033169,-10.706398289373414,-0.35697282164774874,5.300117710006858,5.098936664884667,0.5055342014080261,-4.48186284346598
A/Wisconsin/317/2017,-1.7799364954323305,0.9107056988150598,16.927935424380273,8.683776848005937,-14.604190175957658,0.9801950405671818,6.61733347529219,2.7876162657962125,-2.848840130355734,-5.081698479466631
A/Brisbane/20/2017,5.310069226227832,-1.3016722234129936,11.458019896134582,5.583603239717691,-10.29338138011121,-5.249780421339577,6.5399282582922025,4.798922276663128,0.9847001147964124,-5.792866901142026
A/Sydney/18/2017,3.2468158217325858,0.3256128619064364,10.058542101577652,7.895710042067262,-8.56189031600165,-2.984172720556834,3.3949841614022267,5.630434770564366,-0.9334202237161942,-6.235580631606773
A/Brisbane/324/2016,2.2059098524992433,1.173676577246585,11.288383466038091,6.792864273755622,-8.354889177743432,0.5044914469541606,2.4051103037347326,5.428373229418186,1.3955799343775384,-4.854178302403331
A/Iowa/38/2016,2.8051744635796467,0.9307834077489591,10.28995394230571,7.544581910470697,-8.74834219770806,-0.2984301689235408,3.7990801769850746,5.805870518389668,1.0280063742497823,-4.172033296319835
A/Nevada/06/2017,2.651766034731468,0.2907822251361856,10.43469827181342,8.677661495743841,-7.951829149274742,1.655835936300115,4.569302321245181,6.539809496421217,1.7727529549280567,-3.936351634820644
A/Sydney/27/2017,4.8746652023607275,-1.2222360038851052,10.169148698276626,8.729334921555761,-10.073535756140437,0.1692805022838641,4.1118221229390155,6.636007251402992,-1.0081806074423985,-3.2534955950837308
A/Hawaii/42/2017,1.46347351220755,1.1548186248192573,7.836817733374915,6.5629116354469295,-14.640762027938173,-0.6243169991889768,8.962785647310373,7.598086878629288,-0.36056679120248086,-6.31979400532746
A/Alaska/42/2017,1.7848356346432117,1.906000725085864,11.156548583110201,0.5914983407031011,-9.465649206041844,-1.9082688204709712,4.796618633154542,12.028513454568527,-2.7956781512558186,-8.169991283534111
A/Victoria/89/2017,1.2151998226261207,2.0664717590005486,12.046821659038327,-0.009262713977916167,-9.015311935684549,-1.4010623058281277,4.0173629906657675,11.86374908559229,-3.3292242570439674,-7.448385202871396
A/Sydney/156/2017,0.23844009723343212,1.7840516939941722,10.150285205305464,0.7269251590693899,-9.320731729343255,-0.824659807201135,5.121203451185589,10.048659516079772,-2.5639748710211676,-6.694441762841835
A/Sydney/195/2017,0.3057862531662353,1.6381098804743262,11.191604946933644,-0.20327251036205227,-9.765214004115023,-0.7467195785446821,5.6420188026563665,10.204183956028977,-2.69366583031492,-7.301412750655837
A/Townsville/17/2017,0.5966881749376755,1.9806687279851791,10.68728748898348,0.541820569544023,-9.566611853626382,-0.9006007100519591,5.860963688710968,10.734916870379507,-3.15453017314296,-7.21918485278028
A/Victoria/142/2017,-0.1341861912868494,1.6391365227764378,10.529296653184156,0.39373003417037583,-10.260256642674324,-0.7077734499329578,5.911253052979648,10.664502443927695,-3.023151821760172,-6.792299919661187
A/Wisconsin/326/2017,0.9657427128448615,2.2530437259624905,11.121975261943895,-0.07760863686074351,-10.37424246776407,-1.0010463876148525,6.883961947776666,10.78107699320777,-3.9353156498878086,-7.734258913278912
A/Florida/60/2017,1.4766841576781597,1.524131901675367,11.287790266973696,-0.3856515577955264,-10.003074910804495,-2.0258469398440084,5.632539399935274,11.631557228570166,-2.3737943706324613,-7.598208977365215
A/Newcastle/610/2017,3.0593223004542254,3.2067196002708456,10.862716243323414,0.4065740710066807,-8.279346787787452,-2.209757049158671,7.010217120715976,11.446119548126354,-3.939047775551541,-8.413356243668826
A/Alaska/55/2017,-0.9647608582100943,0.9825254227019723,10.84040634603628,0.7893682625913391,-11.420955864353528,-0.365429705977031,6.627928354928663,11.424342844315323,-3.2817018475081734,-6.542746327674952
A/SouthAustralia/266/2017,0.5821411746300587,0.8757459324599562,10.127200318102814,2.2410023944500654,-11.6703467482842,-1.2711613750289106,9.061937466531063,14.150004037501244,-3.4540987849622473,-7.241599878617955
A/Brisbane/8/2018,2.419734609490732,-0.8332787695001059,14.375857363545027,0.07998528885611743,-10.008140275644804,-2.3456206817938914,5.599509369224257,11.64523886762922,-1.3883633481582172,-9.181901652096492
A/Sydney/19/2018,-0.22924018318932482,2.205943971791168,11.294476342439157,1.14056622542783,-11.725028833647144,-0.5076690378155362,4.394692717576893,10.160879196692399,-5.4127183210338945,-7.213624286268291
A/Missouri/29/2017,5.281046655257258,-0.07895494641933334,6.950945380518815,3.9514712543651487,-9.208840255271179,-0.29605527530485237,2.904480691976791,13.646051529599049,2.01619499417649,-8.174096327608062
A/Kenya/001/2017,3.5048192614539397,1.6631907079832426,8.61232086909302,5.529787568510859,-9.63263618451293,2.3064856746245375,8.693276953430782,7.761945330694777,3.9395256913803456,-7.110456360484864
A/Kenya/005/2017,1.9592354170916273,3.3028316594961926,5.670116083564583,4.246785332681252,-9.20854443262116,1.7718061982039626,6.099401052647501,7.704658015060479,1.9362073239803177,-5.2901180284005145
A/Kenya/027/2017,2.5696038501427383,2.0639514755555703,8.167605073869206,3.3556666896080163,-8.422663580143817,3.5455439826993054,7.171658035774922,10.657674999683373,2.5711119718513316,-7.620523514528158
A/Kenya/030/2017,1.7227648678882266,1.8028280519688613,8.418841307179317,1.739354328759061,-7.271484597534949,2.2285950713579186,2.7768223077637555,8.256259033811434,0.387329221777301,-4.763838182311878
A/Linkou/0153/2016,1.4160937545280234,1.2133714660668933,10.67117760801531,7.4073530263817995,-8.867607164717207,1.1483156457980392,2.566759235047239,5.865370162311378,0.7197395568820196,-4.693146388068964
A/Linkou/0166/2016,0.9414159573068173,1.8648877737157918,12.129306086798335,9.518878207905438,-8.930895288626887,3.3300855446157014,2.139091322899095,6.060287176695836,-0.05418199751050779,-6.6600237712270065
A/Taipei/0123/2017,3.487987511762406,1.0793939632426313,10.61151867919566,6.911770099686701,-8.944540815026487,-0.5705400707057071,3.2520052424134267,5.22502947364568,0.3172759984435911,-4.777772362091959
A/Linkou/0181/2016,1.6974441477623394,1.4672018073895856,7.605410532213968,2.567247643003979,-7.490714579156488,-0.14802448300600704,2.165914210773262,5.977854519313762,2.019996555029644,-4.500650720251952
A/Linkou/0185/2016,2.025250747532906,2.2488920655268267,9.593358409630627,5.613208615005179,-8.939971461408534,4.172664879110687,7.034546234063909,7.651189226713581,3.5744037680974596,-8.232812697270996
A/Linkou/0302/2017,0.15646124011167906,1.7167084758110527,10.187881271989449,0.7110142043375626,-9.343496377069014,-0.7940747386227767,5.1731198720598135,10.034024243877885,-2.5029006545054218,-6.637655790356001
A/Linkou/0304/2017,-0.758426833698697,-0.3684239218206981,10.250315628039454,-0.04143061377291264,-8.53251133208638,0.03922221870500133,4.911913530332458,9.00730292865909,-3.5294244409135986,-7.327605434136003
A/Santiago/p024d0/2017,4.316105666784194,0.9737989516733042,8.092741036585572,4.4910433074920695,-11.982441238356486,0.8032267411839379,10.142972514020745,7.47446858465474,3.5421704092665056,-6.756192548861386
A/Santiago/PUC-MVL_161/2017,3.160260339699578,6.363305115504161,14.432800086635401,7.109599506576376,-9.646616328118748,2.9992808990017465,1.8340676668748344,4.856730193575459,-5.372424162385984,-10.645991372208655
A/Santiago/p022d0/2017,4.374051740071152,5.757293447091449,12.976083553393979,5.25780021073976,-9.724961730209332,2.1428574314275397,2.503894333314773,4.14013702750182,-3.673518496053552,-9.360405166556324
A/China/GMU-SKLRD03/2017,-0.40481279950562726,0.20978965069334407,13.93236567761777,8.398653627252063,-10.341062621746767,-0.5264652431518835,4.903044434499841,4.158175291270085,0.2543788586877229,-4.533203110420964
A/Asturias/26760/2016,4.056856158716793,2.741770592643501,9.490857270384685,10.485207018404333,-11.346184748240534,4.897865935034154,6.076059685971595,7.9781948765327675,0.5650106883547206,-10.862362795972066
A/Basel/USB001558.4/2016,2.486824757291671,1.8325827965944417,7.943403099861062,5.559939656052104,-9.543067456515319,2.623202194782483,6.419912158994322,8.081913733281368,3.3564799657800632,-7.022416839274582
A/Basel/USB001583.4/2017,2.1811003283113966,1.9761933436590384,7.768457105149909,4.219615700483905,-9.404208507033543,2.02438776724047,5.323755513887436,7.759775717067725,2.9073088372368825,-6.4460094870046385
A/Karachay-Cherkess/CRIE-296/2016,2.1581225684076615,1.8305442784136896,7.595284325302916,3.8875904940638564,-8.738754761425302,1.229182388137892,4.705322835478342,7.28969925051822,2.7040488441936574,-5.639401110875316
A/Israel/B6105/2016,1.763960075650461,0.7494612687957262,7.317547463051944,5.4235237062287425,-10.801941785043544,2.482036036614027,4.949237500217699,8.65804570477591,3.316201947233546,-6.764969197898925
A/Israel/C3365/2017,2.1402859576259656,2.231523012970522,7.2124304885177315,3.9684337873577,-7.280159024762727,2.146492752109364,5.013895332086382,7.448006913213108,4.2114785301764694,-6.458761687888708
A/Israel/C3587/2017,2.2369828563689746,2.544231298464872,5.360398758375023,3.4625159589632934,-8.978078746529878,0.9088981897762247,5.228193044773779,8.434046385034033,3.824409839432755,-4.937019325760639
A/Khakassia/CRIE-360/2017,4.12355653752834,0.5522643872723373,7.431786999996042,5.247094464405489,-8.441750158824346,3.2743686615028134,5.981838993949057,7.924411662661933,2.7365307710249267,-5.659265399371276
A/Basel/USB002093.4/2016,2.388366268613557,1.792262233291977,7.803699516015879,4.663745017841584,-9.465277052494416,1.800226342383042,5.475465978082883,7.5449517028358475,2.8698648497771666,-6.240600677706452
A/Karachay-Cherkess/CRIE-301/2017,2.0075293039714976,1.596655701504018,7.456691006311715,4.52869910823551,-9.855757887946343,1.613159491854979,5.54035536494561,7.9736349000298645,2.9850397733317235,-5.680134354965455
A/Moscow/CRIE-226/2017,4.21075405557366,2.8021707333373427,7.930345934236262,4.521128789406649,-8.581370723733878,0.9150466309631715,4.381380405430975,7.336848311483697,1.6079696477151446,-7.5960561469064265
A/SouthKorea/6160/2017,0.845280209090478,0.25718348026064763,8.133357360093912,3.975184275339539,-14.250430943303371,3.273438602480295,7.770331235649232,7.904518518377369,3.2188731635171215,-6.13157382944531
A/Basel/USB002678.4/2017,0.32281229843129644,1.025712937233014,7.120289896912269,5.077525658171493,-13.704909427100528,3.4739872195725097,5.7531622591690414,9.729786760251766,3.9811937156726707,-5.789467177826804
A/Basel/USB003317.4/2017,4.362607743024728,2.3608978941363388,8.58649467859298,4.467771665102387,-7.846577845381721,0.7576113077875462,5.649956025253883,6.984810201394749,2.4609531265009132,-7.154345684612649
A/Basel/USB003323.4/2017,1.3298067339804758,1.9670432514197067,9.03894779223097,2.5255158301632563,-7.827217564308091,3.4777974075196654,6.14860873940041,9.830665653915636,2.4682680727475446,-6.638270792674265
A/Basel/USB003036.4/2017,0.3504431921539216,3.106944671871979,10.708418210127354,4.643865853165956,-11.788611271083745,6.459432274419631,8.486567871656217,7.249789637435547,2.352937570947258,-8.708635697634886
A/Basel/USB002756.4/2017,2.4106327071997296,2.1803907659452544,8.183281990083499,3.7626983711691837,-7.391245973569903,-0.17414581096161214,2.573807693602619,6.795554124295139,1.5480740269742446,-5.068542662369468
A/Basel/USB003318.4/2017,1.8081493932886092,1.967818403936845,7.577308457760478,3.076449877508897,-7.2809639948663705,-0.17213396988219418,2.461251260675393,6.090232457094588,1.6773739010657913,-4.375820144692728
A/Thailand/CU-B16712/2016,1.6850576123744492,1.818126627066877,7.662688713957936,2.824007279477919,-7.485502999850945,-0.1905693007040947,2.522508936291698,6.019861209790564,1.6608488734554574,-4.254259923582148
A/Thailand/CU-B20929/2017,1.7661714188318234,1.8630312902076438,7.725980117384544,2.4744820446025217,-7.405426439737236,-0.34356623231639116,2.6574411535052187,6.204865330034297,1.3234637081763874,-4.321019088510243
A/Kostroma/CRIE-143/2016,3.2348093027273173,3.7391714059242935,9.559430751943436,2.5349976440738518,-8.6242278755603,-0.7836887746609114,4.569617927148488,5.325038346661789,0.8477379221674732,-4.270651049162737
A/Moscow/CRIE-07/2016,2.0987764436721106,2.9690219760831686,8.663611760583228,2.538398310774088,-8.367712218077962,-0.4433275771384844,3.5554175213820325,5.550476430691735,1.3477906466722767,-3.8544091168471017
A/Moscow/CRIE-10/2016,1.9203985969279793,2.116457892406399,7.751195677119356,2.705389451206348,-7.547556015413795,-0.3408474352583279,2.506732849333173,5.790473512396735,1.3746553073762542,-4.267730510606103
A/Shiraz/1025/2016,3.06549769084035,1.611323415478191,7.741939980593347,4.619309586023305,-9.432614522458678,-1.333408813053571,3.160738941424143,7.423574931330589,0.9974891857337325,-4.146193119527546
A/Thailand/CU-B16949/2016,1.3904146252685072,0.7746216462903636,6.850345799752239,2.285651420221688,-5.965310917137853,-0.11131071417571406,2.369310110723563,5.192864816035567,1.0048392303894111,-4.156845548422222
A/Thailand/CU-B18041/2016,1.621843770068263,0.39588046725005277,7.6925627227544,2.4621241721972895,-6.261425793676523,-0.05182933072467786,2.6296226752176532,5.6326918166271955,0.9253304045628927,-4.77420559955758
A/Thailand/CU-B18308/2016,1.7646376346514037,-0.5780366051738792,8.497084642373343,2.25528205648846,-6.680532711213311,0.275785314478385,2.3271509225071636,5.8837643733804335,1.306555395438258,-5.8998902764592405
A/Thailand/CU-B19865/2016,2.391167514754944,-0.65035362860459,8.145952315284829,2.524361129143869,-6.6253789613853655,-0.6486661793055933,3.635503164252219,6.241279967955487,1.2456297521585817,-5.19347327196912
A/BritishColumbia/001/2017,1.9254085042636442,3.6384304123064775,9.948719989281384,1.9808425380283818,-11.355006599430714,-0.14081476345933674,4.978960557081343,4.9538184996522245,0.014375765906926926,-3.474145391993781
A/Thailand/CU-B20276/2016,1.621502727129854,1.1547202778120884,8.137245329594853,2.855896746194019,-8.5121283205685,0.04461989848163493,1.9855863880756506,6.387015115706731,1.86451626771246,-4.958714181825067
A/Israel/R274/2016,1.7210785827627608,1.874823103219516,7.736667747438162,2.857984029438415,-7.451471330662108,-0.1817927651252614,2.409718559402321,5.940044829121061,1.56608762640493,-4.318978489135591
A/Thailand/CU-B20273/2016,3.7532455920079464,-0.7378621597963577,8.726759587282013,2.727195593115435,-5.89376040331443,-1.282935761118143,5.232585301245832,7.05993956606331,1.1729714882447302,-5.699654368983685
A/Thailand/CU-B20489/2016,3.3518780135906474,0.08704549671952927,9.975055536377665,1.931820666433452,-5.552830131008937,-0.22160988079836913,4.575115956574835,5.912198231826405,0.5811487288360789,-6.692607868523504
A/Thailand/CU-B17573/2016,2.1800875098113712,-1.1974132906170964,8.819456982016879,4.00582989558454,-5.604900125946793,2.6369551568434066,2.8274540433827946,5.771659836310985,0.8122270816224377,-5.071700284682732
A/Thailand/CU-B18515/2016,3.3074090961603195,-0.9729865080745622,9.374253611385987,2.4234113075910644,-5.7349974870877185,1.8577472168727536,3.2429333835562852,4.933477889856668,0.09713889788763046,-5.477402409169577
A/Ghom/55457/2016,1.5515885721359197,2.1915453361835304,5.836298764667316,1.411119650670246,-5.608088579208531,-1.2193207206314427,0.9691121851510048,4.943031250837739,2.9550719114548127,-2.82438595658364
A/Thailand/CU-C7086/2017,2.830942056246127,3.551886078053063,10.831016510137603,2.3528319765665735,-10.31816761417211,0.1291324806725857,2.3527657366380708,4.6417012453826265,-1.8965227903802646,-5.58324779427059
A/Thailand/CU-B19855/2016,4.232252920366748,2.4734301478179956,8.514588680897752,3.938559409506884,-8.709239851907444,-1.4259150789709547,2.796683748814785,6.397867512433904,0.0028119953804711098,-5.441703256457251
A/BritishColumbia/041/2017,2.0619748663830366,1.6244753806968169,10.436338633056435,4.226489841720348,-8.395204825932236,-0.32777694225047566,3.4363054180558223,5.003051050078374,2.427683877353527,-3.8866286311128637
A/Israel/R199/2016,2.1483433818472495,2.130592211221069,9.428815536660467,4.585212051653565,-9.652218415999664,-0.7869346236400282,2.9807091790593097,5.424650464751624,0.5177877855330544,-3.6237043939764892
A/Hawaii/5933/2016,1.8315343164351554,1.6476447011421225,10.617150959276971,7.131634993262543,-9.23490405527664,0.8430453024852333,1.9857460986421893,5.598810762312247,-0.1721777798565618,-4.96423603143209
A/Basel/USB002202.4/2016,5.475714166411409,2.804060709770021,7.74114680829651,5.753424882095797,-10.289485494296247,-2.1856835777143653,2.7413041414627286,8.32898861336652,-2.0246486046503582,-6.427985358325825
A/California/NHRC_M2921/2017,1.1615637848938358,2.2645189778396206,10.605496318326809,1.4302567378723512,-9.974717078590336,-0.4885248459133408,6.624166957879956,11.421178298902875,-3.560618091964892,-8.346971581282649
A/China/573/2017,0.2777200710482428,1.7465142182600737,10.135449910715668,0.7379061833910302,-9.32958332178857,-0.8837596084663077,5.167332835020815,10.057012316103622,-2.548990674507485,-6.660148367417874
A/Italy/7413/2018,-1.0498940964057295,1.7735739747344752,11.12468706212431,0.17557513405516267,-10.680737326369892,0.14068203258772013,6.452695223446873,11.582224210811585,-3.0402954351492775,-7.069517843922307
A/Israel/C6062/2017,-0.5257430213311076,2.320542264053364,8.768047088650436,-1.0871399608662202,-10.862046163995071,-1.3552829267768813,5.21712827560465,11.918849244875531,-3.810711102314168,-6.288312926654483
A/Jeju/737/2017,0.2222164372047162,2.2603771556967063,12.259800105422734,-0.12767816090670062,-12.823756991743684,-0.6283693793432902,8.108696646993712,10.922565875807182,-5.508259809025963,-7.497765357719395
A/Homosapien/China/LS203/2018,-0.9057041706435823,2.829920060750065,10.747804194038922,1.104235248063844,-12.372588041919908,0.8849799876957943,4.802701061806356,11.342876359998366,-5.660087299748638,-8.557042497883788
A/SouthKorea/7184/2018,-2.0487752537618285,2.020754134391114,11.272236789193245,3.2581988825645922,-12.254426309598404,1.453264498853819,4.034682748434608,11.49249769878731,-5.31336014318256,-7.950057498177132
A/China/587/2017,1.1449944245594972,3.200039845500947,12.323710490650646,0.999499127795797,-8.80553009845012,0.2871368981459111,5.415089594444248,9.954149284916898,-4.489812174355558,-9.475276556208854
A/Texas/6299/2017,4.092739743120472,2.375557556891377,12.105145295845137,9.176046691151187,-7.439675599662483,1.4459976051426406,2.526665334235154,6.113854915882067,-0.59179808334304,-7.722197062696885
A/Saratov/CRIE-250/2017,1.4051086555900403,2.2176026452649342,6.382203273583331,1.307898133164559,-5.7486471209697205,-1.5592183067145569,0.475890686057329,3.766996236256896,2.2899136372048643,-1.98848195508797
A/Thailand/CU-B17430/2016,3.915094652573732,-2.998374688739286,2.939904223632914,1.5950882559767383,-4.331690202801078,3.305015923914337,1.117324800888835,1.900787185596888,1.7199854454885188,-2.303982094303119
A/Israel/R246/2016,-4.012986846135987,2.908462040561002,2.907155735493865,7.041057787164265,-11.210575555595542,1.7847073306860008,-2.1542752833532495,9.780113767172486,-0.5629314536297902,-3.4202202356975686
A/Israel/R256/2016,-4.253305564673405,1.00225587123003,3.139844434586752,6.475561080371535,-11.278528543630395,0.8407839308136623,0.690894448021008,8.434118106243728,2.093467779359634,-0.9259381801731957
A/Israel/R250/2016,-3.908689339462037,2.664248789694812,2.127648466182656,3.5223866936999997,-14.002461259420278,-0.338366828076109,0.24570546836603924,9.126030765414868,-0.9981714117551561,-0.8754854818458403
A/Shanghai/32/2017,-0.9863886907386166,0.8150703740978821,4.347186571759246,-2.3797896355035784,-10.133737829036518,-2.87898947268474,7.595206390785436,9.695051666165789,-3.282892054495523,-2.7687566512482165
A/Shanghai/41/2017,-0.32412397170688045,-1.936168410505533,6.712193848201564,0.2762284478506622,-12.277907418347661,-3.9162381249797007,5.677505906667358,8.61103676049345,-3.751465451390992,-2.713454043035334
A/Shanghai/56/2017,0.4301020863181474,-2.7650463647829495,4.374835502856754,4.79145794751035,-11.373287757591495,-3.6376270025107633,6.023423007771472,13.805822677603285,-3.319452234578572,-4.631609406272979
A/Alaska/22/2016,-3.873753913602306,8.41654230466188,6.078946652409505,3.0025794625343663,-5.429910344680403,-1.3573038700293585,7.265419138586603,-4.086526748741744,5.763186609856186,2.5017936370120673
A/Alaska/23/2016,-5.337417142173504,8.454754498780439,5.939482131972489,2.364319847765782,-6.352008918197629,-0.4644065468443392,6.416561475508011,-3.781669849993335,5.242416053702243,2.690706391058969
A/SouthAustralia/148/2016,-6.202325834497641,8.5816397116574,5.212254009619072,2.4088222708923963,-7.947549457448889,-0.546840264891415,7.314863347290467,-3.7616914371628387,5.1710350511673315,3.949561526927275
A/SouthAustralia/18/2016,-3.668914303373793,8.032228107747105,5.691884592456441,1.1412881303721176,-5.420231364669343,-1.8959949966426972,6.39493768136943,-3.0043082988872376,5.080909362757801,2.142318044005412
A/Washington/75/2016,-5.442882512103819,7.201529181540979,6.221036723041209,1.6657745431046862,-5.638734687192259,-2.640453440382031,7.382488974895057,-1.462215072785756,5.4658104063712285,6.591875841019791
A/Gainesville/10/2016,-5.445441930594127,10.156988048623719,7.9068797178490575,1.9572782959425996,-5.958105008893051,-0.2879338541947722,6.235970179346007,-5.626860343015677,6.511482679427542,2.591184539128484
A/Hawaii/64/2016,-5.462170221980918,9.090327666365253,5.481616118991717,3.0913604795424825,-7.579064588177262,-1.2570524616352936,8.896880515361204,-4.6086211669352295,6.173861078626252,4.309111085133145
A/Wisconsin/74/2016,-5.075645765122268,9.601208035890142,6.505509556913134,2.2732302128792368,-6.504472445974501,-0.874089584346024,7.234710562801879,-4.762870313062441,5.001236860556657,3.002336240147901
A/Montana/62/2016,-5.563370744022514,10.146591713024836,6.718127738742851,2.17349236822228,-7.051645924896761,-0.4615587647886637,8.229484737300732,-5.363308694282566,5.032868414627946,3.351574458607657
A/Pennsylvania/86/2016,-5.392101052419559,9.595087960377064,6.280570044023738,2.981244661029393,-7.395766250257242,-1.3748966720525673,7.389532813995434,-5.053548426894118,6.003143122649035,4.180451061314978
A/Texas/180/2016,-5.147118107233204,12.08069174963303,8.319507525505033,4.604294213764488,-5.104642042082495,0.9066313024594559,7.728855146292249,-6.714148790544507,4.817547767217967,1.79298640653649
A/Texas/186/2016,-4.080539553329364,10.391529367854284,6.836223260812385,3.1253522104811085,-6.158270514342729,-1.141124835754003,10.502440100152068,-5.986151447945632,6.490377240246485,3.23702411307571
A/Nevada/37/2016,-4.233484964787501,10.771171875950126,6.541700628141378,5.370888766906585,-5.712506147151353,-0.4808159595212527,8.204916813090465,-5.47740941345518,5.1216305968226745,2.9652567391340905
A/SouthCarolina/08/2016,-3.55131426609006,5.96042037138857,3.822623611800139,-2.1819033467327342,-8.099216356390496,-2.0315480675526296,8.704042579035146,-2.637804888859869,6.16539851580435,2.080463586508174
A/Arizona/26/2016,-4.544346299146684,7.7566542845126545,6.292217700195896,1.7238148703512497,-3.5289360757721875,-0.17390226641661397,3.7346491214003663,-1.8321027007673754,5.4817273454346696,0.27329074711576923
A/Pennsylvania/41/2016,-3.2288124608092375,6.489937050788134,4.771252091153827,1.154094958840711,-4.011115690824432,-2.278508925124898,3.960324484022859,-0.5417481328292324,5.381477947343311,1.0355914282942231
A/California/62/2016,-2.880367531426993,5.9825401083914365,4.713416683524218,0.7316923070983056,-4.2285992272412924,-2.7644142978425723,3.2918675615250157,-0.5739666954565027,5.88230322367663,1.0477573000804978
A/Arizona/32/2016,-6.55083448853068,7.223829726842269,3.9179206669982034,0.02271938289907249,-7.557259156066897,-1.4796003115347265,4.614167122847471,-0.16449686918966575,4.851417390800102,3.2704132298762025
A/California/113/2015,-1.8033485993790883,7.859428727338095,3.952795302769678,-0.47797618901915284,-5.081413161265751,-1.1770046928503768,4.157320786216203,-0.3366813543080747,5.573364183950762,1.6958645277824778
A/Illinois/11/2016,-0.3769761545095781,7.449549402647145,2.4954254193141723,0.4016080737877443,-5.1508008937499845,-2.2328733031471177,8.505624501137635,-0.41331938395539775,8.409479546080432,2.849363243016099
A/Utah/12/2016,-2.51241751438267,6.8082681854760025,2.254376318616848,-0.1743867365117777,-7.816802928159934,-0.9690225581293668,9.482592002296354,2.050501622395413,7.958410815501394,2.8815380121300764
A/Alaska/269/2015,2.579637065838672,4.129423922439824,-2.903636234499976,2.4222082049525224,-3.7791591097949975,-5.0447749809801765,0.7237159060536136,2.0988262709519505,2.2435433371020044,1.0467572099977223
A/Texas/73/2015,2.517771239463591,1.6742364187513032,-5.344452887021527,3.7229146938422275,-5.451015546308792,-3.781003341046791,3.509042577269556,1.2852007465060293,6.450450339215832,-1.1777040285777616
A/California/127/2015,6.348513497595767,3.158963474921731,-7.563138300061094,7.922699013770125,-3.6388513866128784,-4.25230464369963,5.975885496937891,0.7385810414735251,6.827636381488863,-3.2481121930853853
A/Brisbane/1008/2016,-4.986836288925293,10.256015820097609,-0.40859633162014997,12.165099024254975,-3.3911660094798757,0.9522464130405768,-3.5852082495235376,4.780126407121127,1.4493349246615153,-2.32472293882478
A/Brisbane/68/2016,-2.0322679002077693,8.910345725338733,-1.1444934963568605,11.825421117240673,-1.257059790334558,-0.941678060364904,-1.6456018482378125,5.683116644637417,3.728912693433939,-2.8129912376062354
A/Florida/97/2015,-1.6852275887974786,8.676722058938875,0.1466678751442149,9.051274489304335,-1.797446829370942,-1.9578818634962318,-1.061588323574198,4.0978908218000685,2.5052978597752227,-1.6599388662306065
A/SouthAustralia/27/2016,-5.5254821518662895,9.139928350035591,-1.0281001641500027,14.48828144399816,-2.0637915916120586,2.1361432123296944,-0.2905044857006598,5.0905899835685755,4.97411004960169,-1.6208735229069482
A/SouthAustralia/138/2016,0.9438741053901433,12.547014818035317,-4.471029963116585,12.52764315584964,-4.265229720540631,-5.334679034289308,0.724563193218281,6.560751083212703,0.6693687081996377,-0.4357302700531402
A/Louisiana/11/2015,-1.383025537411096,5.9305329846313475,1.6417210865052965,4.199505714197352,-1.7701654180611106,-2.3278615752951333,0.12557530578506879,2.75230617346763,2.8682593619678287,-1.8293592242003245
A/Washington/71/2016,-0.4171395725495757,7.599344982534643,1.978233655283907,6.510482415609969,-0.14575931026357727,-3.2836564586435917,-0.05480630120621472,4.187570149038034,1.6314083165924547,0.08822776222216615
A/Wisconsin/85/2015,-0.19468296366350105,8.821016286069053,3.1053967688280673,8.215280735824214,-0.4569854646016367,-0.7939616750550673,0.926371075033519,3.1908299339658592,2.112336046701696,-4.5854571619197575
A/Kenya/014/2016,0.12282935264385716,10.016664720518746,-2.1403637605671824,9.736857125860968,0.5587932875987404,-1.7222470957861133,2.7364284790211193,6.44125009898371,4.93808680412775,-2.627644112151068
A/Brisbane/188/2015,1.0820442584082948,6.072940735682495,1.1378099073051422,1.425098158344615,-2.971568145954019,-2.4013494355028993,2.516608973531975,3.455881386608918,4.405464718664643,-1.2651399782842925
A/Townsville/37/2015,-1.2349223008645875,10.195967650158158,1.31825231439651,14.568759945472507,-1.562534167549054,-0.04920251502067989,-0.7999286796590227,1.786275466047511,1.7441134737450354,-3.29062355832304
A/Darwin/1000/2015,-3.9403525195598794,4.581691606688043,-0.8363596122615814,7.301621765640535,-4.731411225489594,-1.838822925035748,2.829071715965188,5.1217597195729745,6.325447661660777,0.4377650158488503
A/SouthAustralia/163/2015,-2.4969559402084163,4.9244778998978544,0.734402871249204,3.2792984781742422,-6.097558308501407,-1.2381038801483273,2.1208026309569594,4.19875648868078,4.807157190595485,1.028886166185708
A/SouthAustralia/31/2016,-10.064501874273423,6.798764741185251,3.8505817505368496,7.4396172938453144,-10.307513938282643,6.08752048542783,-2.1269046045281357,0.7728731242659056,4.937997289158356,0.9899203393210746
A/Brisbane/122/2016,3.3859125379504578,3.607085455717804,0.8645157525915775,-4.622021348242477,0.9449826641990844,-3.3962375291905826,3.741040126119521,-8.101741525612582,0.015112794930178856,-6.661358571197883
A/SouthAustralia/34/2016,1.1428753926333275,-4.966018380538339,-1.5566282985340445,1.3057131530050405,-5.762831535598061,-5.845226980319762,6.333350538472653,-6.424764879176902,5.4291326375264255,-0.5457486888625305
A/Brisbane/30/2016,0.06410231317265304,2.0312470358543324,-0.25606688825163815,-1.4651970374310213,-0.3300769755303993,-2.6509617743153293,0.8292170525345124,-3.3195228351227475,-0.028780174318264084,-4.11430810920724
A/NewHampshire/03/2016,0.48541685389836514,1.876173573620556,-0.573764462299873,-1.4019762058395269,-0.2787346123955064,-3.1076796997900495,1.0905197525611063,-3.071226369106718,0.09369759950951866,-3.994148168565437
A/Kenya/023/2016,0.5931814142720168,3.7805314471501865,-1.1291711695895754,-5.513750778900978,-3.563589860656095,-3.8952927420339023,3.4887367692545195,-6.486711399475384,-2.487910388527404,-3.1803423419901145
A/Nebraska/20/2016,2.4243723377378417,-1.904646757481194,0.6472163913522946,-2.219844161882567,-0.9881509845909576,-2.846586682385792,2.0267154530531872,-2.105043088727248,-0.024674881154048745,-3.8897374058083978
A/Brisbane/183/2015,-0.7820795831365627,0.7987019260073319,-0.364361154920076,0.311933700604708,-0.8216350784956148,-1.3046315883497077,0.11901881919987987,-1.0379858329197085,1.3812159449035086,-1.8225559475913558
A/Colorado/23/2015,-1.3971068464287728,0.7492185158149642,-1.4337811790565242,0.8963699304370688,-0.3137362938885706,-2.154685599227557,0.24428457881285653,-0.7965734290771568,1.304168762329068,-2.772140960147278
A/Hawaii/78/2015,-0.5020431081042337,0.30926652935807597,-3.3654963884918483,0.8495060210778208,-0.466398328895162,-3.139237484133957,0.7070660943081059,0.0321512289407113,2.7244885294938306,-3.02731358942322
A/Hawaii/79/2015,-2.2857536094454116,1.1083558279338812,-3.311655087225511,-3.2082914626925345,-4.369843380416094,-3.4286528012057054,1.2123516583393132,-2.075666850807501,0.5573458681553445,-1.2780119824665228
A/Colorado/19/2015,-0.9242340853229707,0.5669043061968586,-2.9665267959065047,-2.6841326119613877,-2.691510354822469,-1.8038245673574136,3.0999955872355454,-1.0201616425512994,3.3991620897274966,-1.3956189466987965
A/SouthAustralia/29/2016,1.6215405720095994,5.063141204881422,0.2592997472144513,3.2554119691259715,3.149060846149098,-0.25993715091937003,-1.8326987630651874,-5.417401802416411,-1.1928102964907397,-8.30758751578147
A/Brisbane/195/2015,-1.5412542420083795,1.0360163817134402,-1.735424522778481,4.5122477865181905,2.0772207025770455,0.20930810092570845,-0.06752610340395529,-1.9814115298617068,3.966337760740022,-5.212743294188807
A/SouthAustralia/146/2015,-3.172394962405589,0.2820375522635172,-2.1251344983240728,4.502382282234339,0.9018706884906114,3.877863453562598,1.3061184455659587,-2.596616565410355,7.23212327202589,-4.657133356982877
A/Michigan/77/2015,-3.2226174055594425,6.798665544887046,0.5298870727591449,3.284240960613032,-3.686341601976788,1.0592200011186037,0.3694894962227182,4.437703845157589,5.368983461271563,-0.9066195321759941
A/Brisbane/184/2015,-6.3576079861911445,7.603743898809378,0.6758216119799126,5.610890378008753,-5.848380674606206,2.735262776402471,1.574448891841055,3.6367290609412017,5.19533642492178,1.6871922365924392
A/Arizona/22/2015,-3.452476079161305,3.3272236801975685,-6.442237847336166,4.75751397695261,-9.704510765697375,0.02197648360648909,0.6809617438823135,0.09513735829820963,3.356263260792935,-1.195695732048599
A/California/126/2015,4.89526410454534,5.019581290407531,-4.945998578447445,1.6618057287141437,-9.081305290899289,-7.323724884842562,2.4368943464182653,-2.2389146377133593,-1.7664489634332836,-1.4045864399244394
A/Arizona/29/2015,2.9507938888625636,7.379042542932952,-0.8363915353340485,5.4113651354991195,-7.353762967091971,-1.0788135277344668,-0.11508342998086357,-6.23371889508326,-1.157288175181013,-3.274929164578156
A/California/117/2015,5.2913498366639145,6.8633271571011125,-1.9742309525818262,6.482191386144716,-5.717155317762356,-2.7210660537476463,0.3616455084936103,-4.724141107614422,-0.34211086212980035,-3.871977177539779
A/Victoria/455/2015,8.680099976607645,6.857827537599188,-2.897689777648446,4.790969700446329,-5.72608527969485,-5.158869155871623,4.208682988809838,-6.078871898232531,0.4817097334498516,-4.366253715813559
A/Sydney/9/2016,5.429513252048676,6.121445834035281,-6.677109019227004,2.6752177525723297,-8.835335260368733,-5.757920083177624,2.5833143170177904,-0.36241243634097703,-0.7464533608443783,-2.076279451760249
A/SouthAustralia/162/2015,-0.6569757577998394,4.190406862195601,-6.617108077570604,-1.6473373567594045,1.5818734577097386,0.2839839561847225,0.8701933139108342,0.09715874293154408,4.095517604518557,-7.9542658553487176
A/California/NHRC_27574/2015,0.18295181250501927,7.899649262750206,3.8475980413153614,0.6445820395745373,-3.45788003950602,-1.7110628308512903,6.843082141086861,-0.919578386512563,7.642952368817917,1.305914586786479
A/California/NHRC_27575/2015,-1.7337067487891615,8.724713968251308,5.063766503590952,0.6149835265453992,-2.7553920559365292,0.8262262185533433,7.415142641900003,-1.3777615236107925,8.58301079926373,0.8968541093006714
A/California/NHRC_SAR41418N/2016,-5.026910355132661,7.592665515622114,5.795107307477836,1.6310548195548662,-5.319473100762913,-1.2591647262001597,2.651419474338938,-1.871755890941832,4.258196438436314,1.451251804383945
A/Connecticut/5601/2016,-4.433546404482455,9.202585259230046,6.123029505370672,3.3732018075957804,-6.02610885037707,-1.29018966935532,7.7942664960073,-4.635398462289832,5.863238764609268,3.191213193904103
A/Ohio/5026/2016,-4.557103422286904,6.620668244843107,5.54269307152036,-1.8407848806312805,-5.8366103038492065,0.4165877700363614,6.408724712332901,-2.8171213133553064,6.061763465155962,-0.07745389968831125
A/Japan/5122/2016,2.0953181905192597,6.569123345985765,3.771889356818414,0.5906462822460709,-1.2820541616478318,-2.8843021386898084,9.348316264827238,-2.7186249072814324,7.684392068474134,1.2911965668184262
A/Japan/6684/2018,-4.099466709163345,6.350947136667625,4.923172225883889,0.2494469247587002,-2.8795057246200333,-2.767083743766399,3.9262393836374767,0.23497541305265165,5.029076519505538,0.36382696587915025
A/Alaska/254/2015,0.7068172189938483,2.8560746220401025,-5.629385060950118,3.472347637404393,-7.694566581337147,-3.9857577434749056,0.6427660267715142,0.4970652756196423,3.6528553071061736,-1.1482616852576262
A/Hawaii/65/2015,-0.3532711830973575,4.132056756059468,-5.572371121670996,4.600772274150326,-8.31441535289983,-2.4879668799451355,-0.5011443899175915,0.10462007191865647,1.4552581578373525,-1.7594614348352553
A/Arizona/24/2015,0.7324108173220968,6.12796198822901,-1.9300557038875423,4.710693410343317,-5.488578086736118,0.3188110538949012,-1.5918506613029308,-2.103327589773491,1.0706438601411465,-4.250452877297488
A/Thailand/CU-B13425/2015,1.2722199759615076,4.887123440346429,-3.791393897423202,0.9554979271825343,-7.759428491105531,-2.8930471265965676,1.9326669097716351,-0.7953816759744083,1.4667909927009433,-1.0647067595297401
A/Shahrekord/22596/2016,0.14837059357061447,1.8808989539366872,0.003879853460551382,1.0652980154385565,-2.1786180852490244,-0.20983044856542335,0.482748204732754,-0.060529147759912055,1.6401780036803182,-1.2892055090338335
A/Shiraz/1008/2015,-0.20238905586868547,4.710222032028021,2.5944176034698256,1.2311162244146454,-2.966880204436904,-1.793101409430516,0.14816564958637007,2.235987342762373,4.006161043918712,-1.2835164259985183
A/Shiraz/1013/2015,-0.48672818594605255,3.977879875511416,2.380644026353878,1.3669237607304474,-2.9359740335234568,-1.4272216294024562,0.4996834906077448,1.9480094992344283,2.9340022532423706,-1.3691042823173052
A/Shiraz/37/2016,-0.17397200948115615,3.5878680267853755,2.6813407517694317,0.9666159383561452,-2.898401070350461,-1.7381174619393998,-0.19764249502550707,1.7522788027495684,3.5104170585829046,-1.3439240264758527
A/Shiraz/1009/2015,-0.44567305454471595,4.904239698146838,2.036757726123482,1.2486486850596228,-3.2678737761947954,-1.7395581379814138,0.5572558236478095,2.7560631360542764,3.632364985154395,-1.1034700706101033
A/Shiraz/1012/2015,-0.4422360896813478,3.182684075608002,2.2088740743841644,1.2447286239388975,-2.6916164269988587,-1.3132964880752245,0.5143841518103127,1.6599783801576675,2.4471342538608765,-1.4716599198529374
A/Shiraz/1017/2015,1.693188137961076,6.8868636314755065,2.255415950969493,2.2902296933099895,-1.47285966876336,-1.7990875180121104,1.677901215912124,2.358242927305952,3.9234329757895634,-2.4249140782254184
A/Shiraz/1016/2015,-0.24731625123465273,5.262029370384096,2.270418608732908,1.223773353720795,-3.349913496762634,-1.4731787492146298,0.9957365959367656,2.4876250257303933,3.1787832261032807,-1.4184011478768928
A/Shiraz/1015/2015,-0.011627015593459153,9.426453261580265,3.998859441514342,0.6517745471718434,-3.378211178426606,-1.081236284148089,-1.196811564643453,0.9070548797383037,0.38190847267404454,-2.389627028903356
A/Tehran/21220/2016,-0.7463816026310445,3.68268402529866,-1.453859634975484,4.26670916950654,-0.7999131552780117,-2.2789983037053667,0.45547463609085553,3.567989408429072,2.9281056025815837,0.09266090861409018
A/Florida/74/2015,-0.20371172030572712,8.451913257592663,1.1829954491245687,9.598888934681579,-0.021915045094939075,-1.7106375938571194,0.22927538101126407,2.8776609481201567,3.5772633539298426,-2.9339767136925126
A/Thailand/CU-C6246/2015,-1.0291252039463712,6.916136662196066,1.090830597463548,5.864153003387851,-1.4486104920141418,-2.507663057771811,0.18286363177348186,3.243203416579968,3.1548294012500633,-1.7453756099889333
A/Thailand/CU-B13893/2015,-2.6500819896288372,5.99629950611918,2.8976496113033043,5.779325144991474,-0.6572049898708997,-3.318093375034727,-0.05319297178242248,2.3966771500898116,4.502241407757663,-2.3657560666920094
A/Thailand/CU-B13144/2015,0.745805066949255,7.84850444723352,2.7249145128173895,6.021870450632,-0.28481628484774485,-3.2053851556125452,-1.4394813204947348,1.9511551122279567,3.5706851693825694,-2.958629149743767
A/Thailand/CU-B13201/2015,1.2442237540118273,7.627248751635824,1.5761206992374177,4.5653673984770595,0.4928827672020235,-3.550129826805619,0.2520694381099752,3.5181296907015396,5.031039938547938,-3.34570273652854
A/Thailand/CU-B14505/2015,-1.4343204964274263,8.384730197956292,1.8017838808303634,4.698781698884954,0.28770653732973717,-0.38656474292175597,-0.010351185458833463,5.073816226176289,2.136761980741338,-3.5891105974984523
A/Guangdong/12/2016,1.3212104843539827,2.831505684178441,-2.1868402304387864,-3.2087306724487448,-1.4452902608634806,-2.272369594930784,1.7836374944844837,-1.6845406375189242,1.0448052692574838,-3.4335369386487815
A/California/93/2015,8.137784918698253,9.040903800770081,-1.4348905386923778,8.429611693440075,-3.9015558215292003,-1.9879598265588359,1.0638894429509902,-6.889031693875722,-1.4807966923811218,-7.297525775894501
A/Wyoming/19/2015,5.1659857388688994,8.872606604398856,-1.2394053672789143,3.8935620220012046,-6.969640167866293,-2.404336007284282,0.3972688036784864,-5.987177088693357,-3.037300582744624,-4.5971724484341205
A/Thailand/CU-B15894/2016,-1.91267785048333,5.605463225837716,1.719561364970507,-3.2226221115420106,-2.2923094072761963,-0.8338436020551089,-3.3720578315298684,0.8875443597843271,0.41113823371333397,-1.4482871658503598
A/Xiamen/s228/2016,-3.2426910323518965,4.575245097764651,0.930478566217203,-3.1042126464831385,-3.8862323232196254,-0.9148109855856607,-2.899412221253227,1.2680057760872578,0.9129155194813492,0.19568372971778333
A/Oregon/21/2015,-1.0198307016359474,3.023514759835258,-3.7321458640918035,3.99760514756816,-10.200800913405551,-1.607431897171665,1.4413376772401738,1.1802995760737087,0.8061031809049205,-0.6834353598979852
A/Xiamen/s113/2015,-0.9656976409508015,2.8313325624761125,-4.561256079329362,-0.7316986658217751,-8.432895587555603,0.27344892939463056,-2.6478572436571994,3.3768558455734063,4.69440273733369,-4.15367399646996
A/Moscow/CRIE-09/2016,-0.6010811200766728,2.737214471876743,5.327231431167857,3.4457082210210754,-1.4718871598314363,4.795633448106974,0.5208701723051238,0.6966851685027938,-1.7696395093593307,-3.34166224813896
A/Thailand/CU-B17583/2016,0.4381010641709153,0.09734499326919306,2.4816173309644958,1.0418403091125437,-0.9621279459811597,1.3071760897025457,1.8483884274295386,1.6046500047286842,-1.1565276936051334,-1.575333562638606
A/Tehran/55986/2016,1.6502359010134218,1.9862852259330515,2.4170733763722394,0.8445592111789793,-2.064540874650971,1.092447715782177,1.0724822543301622,2.510842589556841,0.9418249557173424,0.4861745574907104
A/Shiraz/1007/2015,-0.7367115250356931,8.580665707819955,2.0972901297730577,2.533911537283726,-6.561527397939309,-3.646641955796098,1.0695972911842384,0.5769669495410814,2.5454838029240516,3.0375286092762908
A/Thailand/CU-C6193/2015,-4.540713024486308,11.363021262528928,2.0919151098170197,10.233444238425564,-3.3676609845281145,0.7940873405880062,-2.939229240840069,1.8545663902455898,-0.6452213155198436,-2.127952032250273
A/Thailand/CU-B21988/2017,-5.838098622524374,0.37136768479574755,-0.720818986384927,-2.9860547623804106,-4.4281533100772625,-3.841215416691918,1.8566419565148222,-5.119847172980395,-2.1943014613731915,-2.3441142039389296
A/China/70219/2015,3.124243741452199,3.6301130596589175,-2.3069293089561715,-4.673092081975913,-2.0085965989651293,-5.38095692065745,3.1186350059198036,-5.408366639976503,-1.1005308973907963,-4.419127641004159
A/Quebec/95/2016,0.7749082937877496,3.680336283709617,1.2012330774491715,-2.1216696018227226,-1.086680430161871,-2.5194390921785224,-0.20451002088852022,-6.677680494725596,-2.8822265019267443,-5.342827954885579
A/Thailand/CU-A2407/2016,4.726530241229805,4.007789207704302,-2.705638175918678,0.4293515020802496,2.8806256539212685,-3.7051153490516135,2.954694260616156,-4.411196676932852,1.6325653283142079,-7.176175816201445
A/Ontario/196/2016,7.191417124716748,7.576359242780599,-5.639007232049223,9.260860831252694,-4.801280204813633,-3.8471798039894973,0.11861117348504532,-1.698385560623378,0.031143747038421925,-5.1632546046992935
A/Iowa/51/2015,6.782272641717325,6.535276988089637,-5.526705275495396,6.712046646636772,-8.414487184542146,-5.2274349242615,3.018535043385951,-3.979199964638164,-0.42579028891054865,-2.1125144446854875
A/Thailand/CU-B13914/2015,4.969033781753032,8.635713951456435,-0.2818329978292982,1.8712655871574526,-3.401609411836236,-6.304329288474478,1.302982740012289,4.660374471238261,7.038244565035825,-0.27757338692276534
A/Iowa/50/2015,0.7272307416745399,9.823801103247241,-3.451055383980186,7.960821220194922,-6.5173812467182675,-6.809395560117265,9.236402113963882,3.1728542811277323,3.3525352965274613,3.7952439966806435
A/Alberta/018/2018,-13.006234632927969,-2.4698714129454236,-7.3554444224672855,2.795249832534457,7.452008868809212,-12.423120863593702,0.9759147502941719,-0.6630174428853265,-5.011352083327517,-8.49538619093121
A/Quebec/301/2017,-13.189733783964522,-2.215257898358862,-6.805956007036781,1.0624357666675592,5.999763215107088,-12.215981865024688,1.4018032796226991,-1.0448327901250374,-5.0543747453582455,-7.033705100269901
A/Germany/7135/2018,-14.051284051489745,-3.0906113109396913,-6.597666079382467,2.9591236896422495,6.532877898717003,-11.186547384978327,1.3483724522054068,-0.9192181862980686,-3.7766350156788517,-6.921568640914628
A/Germany/7401/2018,-13.232946616985865,-3.7721373338239554,-8.54894861046487,3.1032893746763195,8.105717752260956,-13.01544164086974,2.1635738001867115,-0.08824366406985175,-3.7253203519394726,-8.84443599670601
A/Germany/7409/2018,-13.893213805856501,-3.966633131419529,-8.6944078235745,4.528654812576451,8.1503331686129,-12.484728333645958,3.0000827682562483,-0.4934019863663506,-2.3369773140270156,-7.896068880065096
A/Alberta/053/2017,-13.492468847285828,-1.801777112165499,-7.822714341378839,2.029560067095345,6.904944243479396,-11.624581029108166,1.9320024998590577,-0.6929422897079545,-3.3392198402376767,-6.584574771438738
A/Japan/RGN0214/2017,-12.508736261570663,-2.381803884253237,-6.723341765458907,1.3893068951140606,6.222314380666071,-11.901212451924094,2.7826439699510233,-1.3624097800253596,-2.9192338670007825,-5.612448231568478
A/Alberta/419/2017,-11.001265999606195,-2.0313164866377655,-6.887760954218771,2.3278782892276237,8.19845270260548,-12.840680644554014,2.260705777641656,-1.5670206646434077,-3.7756183839115116,-7.764129975519161
A/California/6386/2017,-11.966659153524786,-3.2966364875293537,-8.116750081224561,2.51497928193122,7.580505202419739,-14.039849651291055,4.48566565669041,-1.7681837186351532,-2.352138244325471,-6.072210147019681
A/Italy/7027/2018,-14.1866375307306,-2.9146285416575464,-8.412525681426926,0.49054485537991743,5.710462446909687,-13.419914789216566,3.6506758270076762,-1.262858981925799,-3.139238614765566,-5.085553455924558
A/Ontario/201/2018,-15.598948822642743,-0.034708391633536645,-8.539532826825532,0.8472117126597909,7.010286054613379,-11.81772457778996,-0.04982880065314032,-0.897983029310223,-7.30940616848078,-9.783306774089635
A/Alberta/033/2018,-12.477235690068534,-0.09406557215523426,-1.0870598802175349,1.2146145442228033,6.284596150178535,-9.471378593268735,3.9296351872418556,-1.6541367606876352,-1.6570262384318986,-6.805914951195488
A/NorthCarolina/6698/2018,-12.177584912587507,0.27687868253875453,-1.2461438518705044,0.9746245678374499,6.497836087981344,-9.519020388117083,3.537788737519233,-1.458550082985824,-1.9531502949746757,-7.235325659559206
A/BritishColumbia/086/2018,-13.505488640103978,0.8294352197346311,-1.4022770742585775,2.0118876720132235,7.009804543502001,-8.98251688263971,2.990827821177335,-1.1076699245444028,-2.5688847285306773,-8.061997676341749
A/Ontario/081/2018,-12.802441042365627,1.9320553171762624,-0.527125229305494,0.4732595264287878,7.95780900415273,-10.367967837153936,4.2300891266261225,-2.4936265592008566,-3.488076694152983,-8.531754816745469
A/Ontario/221/2018,-13.370994349782572,1.650238678141105,-1.5349099678130236,-0.4758380561146098,7.5664803116183945,-10.377599622590182,5.694700767987366,-1.6413182413326146,-2.1065203392033256,-7.67660239027972
A/Quebec/070/2018,-12.503304437998349,1.8888104925923364,-0.9207334864606156,1.7856368575065973,5.215262310327182,-10.191200633883806,4.778811848227166,0.1643544396441549,-1.0160075193083509,-7.204133956569619
A/Utah/7262/2018,-12.920026793157996,-0.2874333033739947,-0.5142222521613518,1.9992607103331368,6.070176716071273,-10.161830169585455,3.5898736085578222,-0.9285879813484498,-3.494359134110007,-7.82367082833362
A/California/NHRC_BRD80876N/2017,-11.665924564747343,-1.1941309869936267,-2.4130082853408292,1.347627243263533,5.981315589446999,-10.686849423871733,3.659736315111439,-0.2711727947949452,-0.5713974553246508,-6.484338935606382
A/California/NHRC_QV133/2018,-12.452861529947105,0.34165747811297587,-1.6187026155755955,0.771011769303995,5.948689723353075,-9.99448459140832,4.035240002874775,-1.5285330816666143,-1.7087905091552098,-6.1621852860502795
A/Japan/FDX70336/2018,-12.813591442787299,-1.8019522208691467,-2.776011154395224,2.5747459798289865,6.707137143280016,-10.367632995184355,3.516298826008718,0.42343018480869765,-0.05394462284668149,-7.230212581187711
A/England/7126/2018,-11.454152201526226,-0.056532954374557354,-2.0988233358227664,1.0318128464364806,5.491191003262062,-9.409360930970434,3.3864349479107965,-1.0666082492514906,-1.3772859419702908,-6.419576366698428
A/England/7335/2018,-13.889900939612938,-0.2354692561514107,-3.706475979986689,0.30776429273491973,5.979246886537753,-9.242905458551242,3.1691601528431974,0.8870481650785988,-1.2281400772607125,-7.884119634789134
A/Ontario/321/2017,-11.408639737052951,0.4170579868833793,-2.1652257318514616,1.710789190558974,5.567277798767706,-9.263864636104639,3.402980399387222,-1.0544036346001417,-1.3478664896480117,-6.357239564107987
A/Ontario/322/2017,-11.550448865786025,-0.06109839658045292,-1.9685229748319812,0.9166565477148197,5.360482799909588,-9.426844138611767,3.3526647423341567,-1.159928194034794,-1.5196292311502186,-6.329369861562086
A/Ontario/092/2018,-13.26872536499636,-0.9848262753663051,-2.3729047178204867,0.7005996496358025,4.7883000948968855,-9.997802481877288,3.874044996963529,-0.6936006445737617,-1.2950828797188068,-5.53651165806921
A/Spain/7259/2018,-12.942990190600641,-0.9054634808287931,-2.1102435637928147,-0.28650398097606583,5.1873264694247245,-9.462669741723827,2.7722258478596684,-0.35874964837798456,-1.111834225019174,-7.074023643359091
A/Bahrain/RVT0140/2018,-13.203391608593064,0.9146991001259737,-0.8101940020117688,0.4232775281439999,6.763694734035176,-9.99798471148222,4.789775322690726,-2.652956003658598,-1.873662210235207,-6.614071360512719
A/Bahrain/RVT0147/2018,-14.255175055824603,0.8727096390214544,-0.6652727059348023,0.14321047688778188,7.416136919018765,-9.87202223678155,5.603164098808047,-2.939373973014783,-1.4011602095221638,-7.042207768849803
A/California/QV1021/2018,-12.614379788386012,0.8580410003927976,-0.8761689885383785,0.7272406236878195,7.206601894997915,-10.25658405953008,4.810187902881042,-2.2006117510622314,-1.995587059541851,-6.9887696367228
A/England/7400/2018,-12.402714489725527,1.0425140167294074,-1.01253050571641,0.6426032208675462,6.92574505901928,-10.771556401766736,4.740601235258854,-2.100102428150112,-2.5701451208079376,-6.814013207715893
A/Japan/6956/2018,-12.536052369109536,1.3065530998408987,-0.9976851608344923,0.28800621522855513,7.206105861860941,-10.196551781211632,4.298012121631732,-2.195247265666581,-2.3549525220281993,-7.4230533617505845
A/England/6942/2018,-12.718862495839497,1.5615732377185119,-1.3181013874408294,0.2028501414809235,6.615442327861034,-10.65091981810891,4.444594873373233,-2.0323802882683535,-2.7515423789618683,-6.707740282404672
A/England/7013/2018,-14.51118801151688,2.042903075025341,-1.5586109016503986,-0.1849566052031732,6.542203071604725,-10.503673863099987,4.67129146930552,-1.9115913805411002,-3.1856877399833965,-6.582903666134127
A/Japan/7163/2018,-13.478593996732807,2.168207627615992,-1.2924016496513537,0.06667779796320487,6.641722244545518,-11.401919077776563,4.4574665201422015,-2.0836186074650263,-4.053882730561252,-6.764821612182524
A/Colorado/6448/2017,-12.342986849410574,1.7858909663849478,-1.0280802457741773,0.3472205644977224,6.79580372016688,-10.878956908114791,4.599099569821936,-2.6756796140248174,-2.2918422168891475,-6.480693688701283
A/Germany/7133/2018,-12.454834133462551,2.3694349985485497,-1.2549388028659478,0.10611444290501296,7.640587492364339,-11.618486932905578,5.444572108484327,-2.896620220373136,-2.3478255552476908,-6.8117348323665246
A/Germany/7344/2018,-12.629436772722858,3.018128682328891,-1.349602615683646,0.26022441785783385,7.448940239380876,-11.58245016759141,4.7333452497559705,-2.8264765213477308,-2.7760471830952294,-6.702076102825154
A/Germany/7360/2018,-13.00097812271527,3.6331194993873686,-1.4572108743243763,0.8742693634065379,8.370378927089641,-12.102978911177635,5.382868490737196,-3.1946714263136724,-2.881533418846777,-6.82482416606735
A/Japan/6686/2018,-12.575470070573237,2.2525704776894417,-1.0168373625069203,-0.5517985015467641,7.149491352249501,-11.757373820081103,5.237237216229101,-3.0992370785221603,-2.814086256889769,-6.735025005306168
A/Japan/7160/2018,-13.613655750869952,2.368718994467826,-1.0391490031538582,-1.2727009377380931,6.777254348737773,-12.55312245037695,5.775111397972207,-3.358969292310001,-3.6907075204540045,-6.315464929399117
A/Japan/NHRC_FDX70352/2018,-13.68429580487731,3.1513139175349982,-0.49003105603673686,0.6326401063025222,7.622833931537792,-11.61076706209613,5.720377171013032,-4.192731281429892,-3.2618427670639174,-6.654665485342406
A/Ontario/094/2018,-12.589181899282217,1.440915332042636,-0.9534219120665213,0.29451242635353647,6.796038253997835,-10.69812456697471,4.649382874396156,-2.625226856237407,-2.2186697917211253,-6.516325567578199
A/Bahrain/RVT0142/2018,-15.301196048987121,0.3234229837510908,-0.19629627623986465,0.3694954684526582,7.885633524663592,-10.005430686417204,6.3040704019768885,-3.531237416618335,-1.1704091610062,-7.147449567711802
A/Quebec/101/2018,-13.136619989757609,0.6761111094143758,-0.02586681982775054,0.028400253190399044,8.11598102692686,-11.57701459533886,3.1310689674824728,-1.9550903940517907,-2.751885623768471,-6.048546874867071
A/Quebec/161/2018,-12.113820722487917,0.4697573837556042,-0.608248683865688,0.466485986919761,7.953887022057234,-11.574334054866409,5.999241008929136,-2.705094755503025,-2.2158240681869548,-7.580026231664416
A/Ontario/120/2018,-12.880148057885688,1.299063434888592,-0.8433557812120065,0.7278507915212516,6.995317428620362,-10.128981952859604,4.074575298816107,-2.1958741506564605,-2.705275052482106,-7.17381962069827
A/Quebec/320/2017,-13.202453559376464,1.0517325082086248,-0.7716223586068965,0.28667068596905537,6.6893286143150785,-10.059509282240244,4.363776992975848,-2.3612523233073666,-2.496395540505805,-6.895434363290841
A/Spain/7191/2018,-12.974763218445373,0.7767561908019343,-0.5644088115350983,0.9002632876681863,6.5132537134340325,-10.564409957127136,3.8791967567866252,-2.9746258667744283,-2.5017914407269717,-6.588874931422448
A/Ontario/140/2018,-11.667102169918318,0.9036889273914622,-1.8519236436163744,0.3413257357331647,6.0345541177081685,-10.535752250454351,4.013260035169084,-1.5971753922856327,-2.15717249214283,-6.415908720225709
A/Bahrain/RVT0145/2018,-14.854668190087553,0.014238070533585213,0.8781244894587268,-0.14073443407279074,8.86375359705024,-10.711454107472997,6.535640967061554,-4.439250234538011,-2.2432033374957485,-8.703333679928818
A/BritishColumbia/079/2018,-12.941004876307646,-0.3323763703852497,1.4011644412574675,0.6534002431310783,6.540546268798031,-10.843466455462714,4.588673771729389,-1.3107566821353038,-1.9238652190236891,-8.407545836486852
A/Ontario/210/2018,-15.452543197877421,1.5900027002729993,-0.9613938349716125,-1.4923381796123598,6.301047177792187,-10.730700232283443,5.744437588936806,-2.774046265574667,-3.745584719280446,-6.991126892125074
A/Guam/7362/2018,-13.564968784971065,1.1362267752276436,-1.1035001154483015,-0.8956265352547867,7.453518598040621,-9.219950395337513,4.68014377793412,-0.5250592402106152,-3.6882864205534642,-8.113181507718364
A/Japan/6850/2018,-13.060500875630614,1.409047568175585,-0.6399063799244755,1.8331257542646928,8.588769280166384,-10.114994710666222,4.594462515132899,-2.520502163793491,-2.2346794755348958,-8.193849370806584
A/Quebec/212/2018,-12.58577740373956,0.580294244531919,-1.5378168320949692,-0.7316244713444983,8.837561488632108,-8.968542186108747,4.791297497908709,-2.6501700181179983,-2.9293431235654435,-6.12626462711796
A/Germany/7402/2018,-13.164341037309276,2.5231302629504935,-1.8417255619195871,-1.3331238003068684,7.569873628747535,-12.027603899152659,5.395244428346534,-1.6942030004343085,-4.198674161096792,-8.033278108391237
A/Quebec/167/2018,-12.55413489145416,0.32191759238481643,-2.9402476514687796,2.1248141803657075,5.940540922183928,-9.713703561832364,2.9278578131353217,-0.11505169394040682,-1.5963176385433415,-6.538938991717402
A/Alberta/055/2018,-11.647529780640097,-0.19876900010167403,-2.5702282609412817,1.8598710262145477,6.4659010946104285,-9.92328402647384,2.9778644588889076,-0.04956094442057347,-1.630537477929429,-7.433542645764587
A/Israel/C6192/2017,-9.84289657653551,0.24749029313404153,-2.9702247280678726,1.4617764144352434,5.427526693861635,-6.12978292910834,3.066709965687456,-2.804436081302678,0.278235481635349,-7.090116523345172
A/Ontario/086/2018,-12.565896847595477,-0.4552668226039532,-4.676818977954328,0.9138349755696278,5.09987291330383,-8.036749552416842,3.57776403538922,-3.498057519844382,-0.9911804608340163,-8.222287793291331
A/Italy/7152/2018,-12.826241464162104,1.0648011856699733,-5.009694560547461,0.8959537088142423,5.591860723501868,-10.141166254188906,6.431919204593575,-5.930297128139991,-1.4963578031169011,-7.490685562045893
A/Ohio/6556/2017,-12.521933613114522,0.3630717641867172,-3.734155452721847,-0.190942521554856,6.185095244328767,-9.441838752636711,5.419032615918945,-6.435357760752853,-2.3172440262594107,-9.433689234041971
A/Quebec/308/2017,-13.530956157214709,-0.20094442866362405,-4.293011191442083,0.48512898358691264,5.9577237252898145,-7.403546029680097,2.944664193384296,-4.657615761858102,-2.667129089341274,-11.60800780944725
A/Ontario/199/2018,-15.453375101457183,-1.5078892098143672,-2.748471777816838,-2.6521564689959365,4.007845007516021,-10.339128365776048,3.9065296299467485,-0.3395429918351899,-1.8221831837638538,-6.904407363114459
A/Texas/6659/2017,-11.448395838750313,-0.6430830201886729,-3.7651766716739794,1.1235951451717665,6.036795264851765,-14.065335362764499,6.251133059602254,-0.8352186082324321,-1.1453152687007637,-4.968986122094594
A/England/7127/2018,-14.73656928837086,-0.8527269446852787,-1.2523259529714654,4.551607568658877,7.874370982855828,-8.276472851557811,2.369826687490217,-1.8049396037079926,-1.1953213738056443,-8.598254287833822
A/Germany/7218/2018,-16.91952896282508,-1.359472106479779,-1.2959853735196818,-0.650256085983686,4.151859168110144,-9.442244444318801,2.5401989056145267,-1.746038012084389,-2.5443882276828464,-6.071135078535643
A/Quebec/054/2018,-10.562644641797354,-1.2645092927918062,-2.324371157711521,2.4811567367141065,8.444278689568044,-13.086122184548833,3.8167828843140406,-0.9161231887971057,1.0310720480868432,-7.430798707014294
A/Texas/6707/2018,-13.377403959366317,0.21135247313562547,-0.6103792762562271,0.23922875843291097,8.258451002566037,-10.773151475323388,1.5298942220654184,-2.108557539687101,0.2317164199823422,-7.853552923468641
A/Ontario/224/2018,-14.670155467886419,-0.6830888820216354,-0.3745291121641224,-2.5993916060874556,5.043700185306443,-9.89899560791992,2.803551587034936,-2.434191471262549,-4.423734015324116,-8.38652613594865
A/England/7014/2018,-12.112876655936928,-1.2097251385964602,-2.310383277471586,5.070138022259837,8.699157136794023,-10.500888059548535,3.933771837768892,-0.8878916034618342,-0.6243318242875664,-8.590682005687613
A/Spain/7044/2018,-11.601942705417958,0.9733513289987507,-5.87265036267149,1.9256821628996514,7.28839198101062,-8.770326847752921,3.7908588909808376,-4.845676762260643,-1.08210745176895,-10.995882630375196
A/Spain/7190/2018,-10.3803983435088,1.7116682824320295,-7.254616947379667,1.6550143016231136,7.593765299283194,-10.78303903646676,4.528756635354539,-4.456201034910618,-2.189498844773353,-11.433369007347022
A/Italy/7366/2018,-13.246070639648,3.602950304845117,-2.085045045710278,0.7662552774657808,8.865003870822228,-13.124898969354234,6.854622711303827,-2.936969588900163,-2.565921695624853,-6.645645499241111
A/Colorado/7332/2018,-14.445889077027614,2.1734375042350793,0.21580178559377655,1.1308048538631525,10.719188970490945,-10.352541529262732,5.8410114954816565,-4.004585182002256,-3.0579185557837234,-10.837853814792101
A/Quebec/169/2018,-17.687150441104627,0.35058038326300417,-0.7249981655396014,0.37933223953167433,7.449208310144257,-9.582822142051837,6.220678107636869,-2.421795222851258,-2.052348506500201,-7.1050096620244965
A/Germany/6943/2018,-11.361037175548685,-0.1973948834819294,-4.810355542049101,3.3559906844560032,9.231056981750438,-11.915809583110576,6.27219140759832,0.34746781489826145,0.2088732537684296,-8.803490976370668
A/Japan/FDX70344/2018,-17.137409688523494,-2.0140171901336212,-8.437830302734849,-0.4494595104837898,6.533517347680014,-9.290595430515618,8.62737337053453,-6.9265935662771705,1.4025995145004493,-11.276503080390258
A/Maryland/6961/2018,-17.828297265374633,-1.1787601479712477,-8.958405033862284,-0.3475085256796774,2.9727701305545704,-10.917539657572132,8.392501033119641,-5.8423331615695835,-2.143264544807526,-7.625862911739125
A/Ontario/052/2018,-13.366792688484082,-3.351633232867,-5.323580322872612,1.0912583616692637,6.744275729984818,-10.012118307383348,4.67330484436646,-5.041518630368345,2.9500586155647173,-9.199507131014729
A/Ontario/205/2018,-19.249640819576566,-1.2235258079630529,-2.573457746299637,0.3265053078562667,4.245094621800762,-10.11335316724309,5.2106298498217285,-2.5667129464753535,0.3111050990229298,-4.135772498813733
A/Alberta/154/2016,-7.934076075555809,-1.6746691762557981,-2.9771808165982954,2.5490237903421638,-0.7341869728105374,-7.505140163359853,2.7508192745338467,-5.8754887461873695,-1.3347016560494387,-4.159844481382412
A/Basel/USB002762.4/2017,-6.785068473709201,-0.5319211830669821,-2.5779430365437093,1.6139516093946698,1.1612857179384515,-6.221187875588997,1.409208236464003,-3.1893904159547297,-1.119760917279103,-5.148811912336316
A/Shandong-Zhifu/1666/2016,-6.356780435558687,-0.3765441005558643,-2.2389855131770147,1.4106381943285562,1.354152785933889,-5.7704403799221415,1.4362339158698605,-2.7785983226742688,-1.0965182891570704,-4.857402039881159
A/China/813/2016,-6.802683472623209,-0.7141698900271035,-2.395262129392932,1.8204045008290468,0.9236360770378181,-6.3193429776319805,0.874610876053953,-3.5153571853750063,-1.1332836175172367,-5.0976493785482315
A/Japan/NHRC_FDX70118/2016,-6.63601977141998,-0.44470929830663875,-2.418545307182721,1.6040409897301648,1.2163611867906545,-6.243877636956341,1.350641803228449,-3.3785717608494363,-1.3089556306981942,-5.28642798115457
A/Basel/USB002878.4/2017,-7.767856484870616,-0.6917814419371185,-2.3221206308876186,1.4995170567406102,0.37209714437788954,-6.132728909276485,1.0693054797071677,-4.678362577927442,-1.723655036467481,-5.575215365744885
A/Basel/USB002992.4/2017,-6.979888536764659,-0.6235082008141541,-2.5644825515557046,2.94690452609666,0.9744774345490559,-6.580606362645501,0.9260665189660304,-4.366317384711975,-1.8128785604550104,-5.6604798362382
A/Daegu/751/2017,-7.410568007231322,-0.5677506296296623,-2.8894886568704883,1.5197386546084093,0.5770784700429488,-5.9820955635297475,0.535774287628583,-4.092973234660616,-1.8287363410391826,-6.413802614491352
A/China/81105/2017,-7.780549968767595,-2.012959678698648,-2.794799041572921,3.756807800118818,0.6012846705498572,-6.984434255966005,-0.3057652297763762,-5.469223276473417,-0.4091053586015761,-5.617190106609213
A/Shanghai/11/2017,-7.949286151147631,0.7004142377094065,-2.7483215272296815,2.2443218552575055,0.07533149962620207,-7.3910185506440405,1.841961030984356,-2.4655546650429203,-0.5648697230595767,-5.465670770189067
A/Shanghai/8/2016,-6.872663073671565,0.5542183039697979,-2.1914059863340904,2.4117777253404014,-0.36782726762718393,-6.844360111885737,1.1629081997510782,-2.7093693990101873,-0.6904630378723597,-5.087337530158268
A/Shanghai/6/2016,-7.2875204760886225,0.756278134521946,-3.207716897467016,3.42247152578692,-1.3075353514448724,-7.7008751298330615,1.0626442428257494,-2.8393334965912316,-1.0819876208893264,-4.847194908547757
A/Shanghai/12/2017,-7.448632503175271,0.20639234768602305,-2.451240427981447,3.3241216162660967,-1.2675387297915717,-7.472063809006055,0.22258412473031386,-3.623657235164839,-0.906589694474152,-5.131232114468625
A/Shanghai/23/2017,-8.229407493336918,0.10761384633343862,-3.326105877898256,4.639227677789634,-2.020238136751677,-7.710274550890327,-0.3226463466674136,-3.883254487235859,-1.1011903387833688,-5.209098700875302
A/Shanghai/22/2017,-9.488107421368328,1.122001271464888,-3.4010224047754543,1.6836750148596962,-1.530624767277689,-7.438312107626755,1.8463111417782192,-3.0365313369718767,-1.4000615822877684,-5.273053208483929
A/Shanghai/13/2017,-7.31492886975518,1.0616076849325338,-2.903735463885231,5.501771143096693,-1.8597457336978438,-8.62181070581796,-1.2191785559176591,-5.229794848505005,-3.013319424417887,-6.306420567521721
A/Shanghai/26/2017,-9.154340171016567,1.164355304180609,-2.717440878330551,6.035451647784796,-2.721405261897332,-7.789441400282336,-3.578715697507954,-6.351836498268043,-4.615047660131398,-8.259327745445349
A/Shanghai/16/2017,-7.746326971418488,-0.6320880821469779,-3.349344143475272,4.445285590012532,-2.1306081369200562,-9.572723056400742,-1.6855066045423732,-4.549180413937836,0.4316255246113283,-4.771885295858209
A/Shanghai/3/2016,-8.438274202253087,-1.8017839873991226,-4.296408137572516,4.648708032227382,-3.190262599833296,-10.155594458333276,-2.0279186733539447,-4.4631687233413135,0.9548908052573128,-4.7724393777708745
A/Shanghai/21/2017,-8.282706221729088,0.5816432121769424,-2.211411263994536,4.053541086440084,-3.1264205467072594,-8.352061171329003,-2.447476594931153,-6.31428277741367,-4.162265953373146,-7.63388631959288
A/Shanghai/5/2016,-8.256515985776609,0.23733429059932495,-3.027534749155823,4.228792017420272,-2.2244371530682567,-7.8651483472525925,-0.39143090524091484,-4.107528730051008,-1.577930116891354,-5.056367965809908
A/China/80974/2016,-4.7093648224511675,-1.1647488098104295,-3.7682698424601107,0.5995766034832966,1.8084008435805956,-6.102417221617376,-1.229456999076768,-2.7929755909292364,-3.807986644718941,-4.8955465371052185
A/SouthKorea/5613/2016,-5.367318966781448,-0.27202317642162943,-2.659964787339894,1.2088030828670835,1.027611055778582,-5.888892597236143,0.804615374438296,-2.567511530224099,-1.339953741058702,-5.174655252945495
A/Shandong-Zhifu/154/2017,-4.195035398656192,0.07478810687963715,-4.884702000715029,1.1178799506489527,0.5197059926438962,-7.852020723679861,-0.47744832187538827,-2.3683315302366506,-3.0862662699782173,-7.04774912273764
A/China/940/2016,-5.020626824468601,-0.6307138294041551,-2.7709176158313467,0.6884360026642488,0.9694103496983676,-7.122316114516948,-0.6339838225277828,-2.954377452275076,-0.24036158240684752,-5.511984113189859
A/Japan/NHRC_FDX70127/2017,-4.562809650738477,-0.2888032525704227,-3.4740083636826102,1.2141414170842246,1.0016653818715886,-6.976819749037329,0.16008000231728609,-2.6771060601527967,-1.8823512673654097,-6.242325126234816
A/Shandong-Zhifu/1158/2017,-6.62474849784073,-0.8291151534067002,-2.4189412994270634,1.1291104094290543,0.8801020970597233,-7.604712421284909,0.13362405962420612,-4.162171763171525,-0.0631637348403198,-5.0351276741519495
A/Shandong-Zhifu/1128/2017,-7.20774093337195,-0.34756172443391387,-1.7172203517635087,0.7524084524008916,0.12302542160277784,-7.059336237615172,0.3656687114267835,-6.003963466550183,-3.8405199889557915,-6.538846353653779
A/Japan/6790/2018,-8.126269792777371,-1.5549202096059669,-4.717695974560956,0.610100550525768,-1.5603463481765252,-7.450818518465956,2.0854593753694997,-4.603635847504635,-1.482253740470286,-4.74876677576555
A/Shandong-Zhifu/1175/2017,-7.6906428159674185,1.0173601685771667,-2.8346865155611463,2.818404111654947,1.1931237169952602,-5.92127826504151,-1.0150148729598516,-4.7302155975201705,-3.5839554240233396,-7.071538603289269
A/Shandong-Fushan/148/2017,-6.307612713427178,-0.19549916944677015,-3.4854000424973255,3.537096400412428,1.5047389442069419,-6.951015402003514,1.2617082613509052,-3.574875744012681,-1.1167916816859125,-5.689581890519664
A/Shandong-Fushan/1631/2016,-7.965993869431395,-1.460786505454086,-3.6151669993562163,4.161952851033164,0.6094419114794142,-7.380329810022772,-2.518049192393387,-5.596841832224745,-0.8646005470297232,-6.537471110269713
A/Israel/R255/2016,-6.904464851192552,-1.7931627707532198,-2.781879765015434,3.5173113502078426,0.26486518922320545,-7.613272431731294,-0.03029854565332044,-5.4854240422964935,-2.0770879841493968,-5.940825461706467
A/Shandong-Zhifu/1174/2017,-8.688297272554868,-2.008816078608466,-3.2879234445427232,2.599665098586526,-0.7533130078632096,-6.640603860695375,-0.17902979803630237,-4.918658446196468,-1.6141833734632627,-5.4714320366217315
A/Shandong-Zhifu/164/2017,-8.72929995982249,-1.8186194419120243,-3.1021902039657685,3.191838914955109,-0.2938179941111472,-6.384191804152706,-0.2532687694909165,-5.179583416841229,-1.2584501622985262,-5.564775977174405
A/China/81129/2017,-8.547316475325418,-3.2272659324766133,-1.9917868275063615,3.3758520515846038,-0.3142977452375851,-8.151265418273473,-2.994693136702654,-9.34476871836163,-0.8481417355565478,-7.0968094581803784
A/Shandong-Zhifu/148/2017,-8.662683571713872,-3.9624629086674474,-3.5302881244005677,3.5793042911103345,-1.0348235604725495,-8.759512542501458,-2.144884888233782,-6.233647517775412,0.06383689011223832,-5.568775878517825
A/Israel/B6014/2016,-8.120726011307543,-1.9515604016010877,-3.4960086074572363,1.0370424154875957,0.07241146510394725,-7.135642592146809,-3.657338946265229,-4.656360825565507,-1.5260536052307732,-6.501647157326625
A/Shandong-Fushan/1157/2017,-6.444978432716015,-2.81758334600724,-4.4427542931999415,5.962867501553208,0.47613932436179235,-8.333615763866876,-1.4528117736134458,-5.8999685182944255,-2.6552596996358804,-8.136013917162387
A/Shandong-Fushan/1726/2016,-8.016334606544577,-2.2257291260601106,-3.932196546013464,5.493855541774983,0.2771787470258974,-7.002668509175003,-2.527962585790275,-5.951155832995092,-3.0542236002459893,-8.524669955315751
A/China/81891/2017,-4.085183371242169,0.4165140068672202,-3.0431853393551522,0.1090579819232677,-0.28622358989740015,-8.504089950932354,-0.4331157029137912,-5.136720048387686,-5.454782696923843,-7.406074575853849
A/Japan/5885/2017,-2.582557278003751,0.6544524124083577,-4.68230653540028,1.3128094665982069,1.1684681691473287,-9.143408148640209,-0.26111457015946854,-3.6036767033789965,-3.998546007425445,-8.001992650024267
A/Colorado/6099/2017,-7.8140654613311,-3.309064172156639,-4.367192631694753,3.447793356227722,-1.0153564341932222,-8.838564893788785,0.8998649783277444,-5.88297748230859,-0.12513231211369033,-4.394037482875116
A/Oklahoma/5908/2017,-10.775471628492484,-2.9052404030052115,-4.7944198809303815,6.053589089917739,-0.6890304135874157,-5.768356595968945,-0.39806844366755134,-5.736850554892162,-0.266535835471061,-5.634340987351701
A/Shandong-Fushan/1183/2017,-7.1756024125193445,-4.250343878796866,-2.16513685282976,3.2030027510290506,-1.4766749808962838,-7.656201231649597,0.5936557603177942,-3.5262663146430477,-1.3880726535435852,-7.974252153774231
A/Shandong-Zhifu/162/2017,-7.020590850440352,-2.8354711300949855,-1.8219012104449586,3.073442779698661,-0.8092759231997955,-7.215580376341272,0.9059062230207913,-3.4642035110444573,-1.8109877875569749,-7.10740016681338
A/Shandong-Zhifu/1125/2017,-7.528270062606771,-0.9609187095734602,-2.801008643275415,1.0707253902800649,0.7871978417122348,-5.498430543258312,0.605676913048307,-2.18747231204477,-2.683510816222331,-6.290345496312468
A/Shanghai/1/2016,-7.219816124736812,1.0818071161220142,-3.629056979879088,2.143949629559518,-4.104472989986466,-11.51600152915582,2.328301107109331,-6.609050650792703,-2.096606334880095,-2.9677251516953955
A/Shanghai/4/2016,-8.75023468146711,1.9804757311170587,-2.8867091773691476,2.5661214885414565,-3.404754616804081,-9.174222395815406,0.44729636321576244,-5.758329962020245,-2.048469358536924,-3.380550610035712
A/Shanghai/28/2017,-6.235094372563793,1.5333885590227476,-2.3291119118725843,5.700978567747609,-1.9375983629731384,-11.045303280905086,1.150521424218097,-7.62665386266185,-1.951267910557391,-4.093703251942839
A/Shanghai/2/2016,-10.698079164699543,0.7843732289974733,-2.8463256611447467,3.3005105865943944,-4.475535549726466,-8.538394195691444,1.2988281180040169,-7.00569488792736,-1.0832113208504697,-2.635746694106735
A/Japan/NHRC_FDX70119/2016,-4.98382452578857,0.09659899677691623,-3.5779530727871105,3.8603342606543256,2.2620593817744625,-7.683567666346426,0.7113224869906907,-4.85631471424871,-1.9973115229739533,-7.5441272087654525
A/California/BRD80830N/2017,-9.857536376466248,-1.4668723984240202,-4.911909619785031,0.8323410811372625,2.482679556333106,-8.626657110391701,4.203863484078432,-3.7742952490137287,-0.5584091359957513,-6.294356678109037
A/Japan/6631/2018,-9.069427337928005,-0.773632443790295,-3.6349039932063403,0.9921656436394469,3.352169437185345,-7.942045552415021,3.004209906795957,-3.089704348369566,-1.1315198713299517,-6.762915549819811
A/Shiraz/1021/2016,-8.93888805026043,-1.1554487519345957,-3.4313444470577488,0.5271910684040031,3.326092285164628,-7.094394160673313,3.657471594943072,-3.5255873729844134,-1.0870699576558434,-7.147839878305354
A/England/7211/2018,-9.027946484917317,-2.3961893907048966,-3.027287004337279,1.1281101938109286,2.1094238702261094,-8.379258178852924,4.0722527613124475,-1.981355227203042,-1.3079401847063845,-8.45110993034294
A/Ontario/090/2018,-8.676890135616713,-4.54892551063211,-4.7154983217825475,0.9011594760898799,1.7233177708351708,-10.371620197282429,6.397788542971396,-2.4502305156746864,-1.6260267575674094,-11.257825300404933
A/Ontario/207/2018,-7.653001826417791,-5.8507705212248275,-4.980221247004052,1.2987571637712874,2.628094009478121,-13.143460923450297,7.635151442297221,-4.05583547656465,-3.1037952423468713,-13.296530942853792
A/Thailand/CU-B21431/2017,-7.587550515505816,-1.0462540950024914,-1.4940398297441777,1.826841379169955,2.4554617170401896,-6.455706228266395,2.0444657625556353,-7.0144710986007945,-1.776207763463765,-8.50032406770883
A/Basel/USB003529.4/2017,-4.634554305980386,0.572081308893665,-4.117286379565719,1.7856400229396039,0.6842129502433221,-11.303080499084443,3.4394560490399533,-7.531778614626918,-3.5982387002513514,-5.555285398559165
A/Gyeongbuk/745/2017,-3.953716913411758,-0.9545473669565514,-3.764361236593963,5.066063756788677,0.46458272054368444,-11.07156932053297,3.184534835250651,-8.77835777345306,-4.487313781388885,-6.933553219027441
A/Thailand/CU-B20712/2017,-5.317922506445527,-0.04416242896656634,-5.180416417179647,-1.126841995257596,-1.9689352823709418,-8.78347519213876,0.16840414100265472,-3.604113365397319,-4.713797118623942,-6.018645011909289
A/Shandong-Fushan/1721/2016,-5.174885439847643,-1.926523800030633,-4.383728145853361,6.3366531910464445,1.9534188337552896,-7.8173598778072595,1.5016272603733796,-4.653761942496501,-0.7395740122265344,-7.970061385579689
A/China/79879/2016,-7.197902721840264,-5.261114214050711,-3.0491460436667337,1.8257120929606603,-2.784335357463527,-11.544583485456839,-0.0591054333225838,-9.233799670691106,-1.633511153632383,-6.183622922226815
A/China/79880/2016,-3.9667989947477262,-2.273797028703565,-5.811023461688411,1.943288687678308,-0.416712187222291,-10.54634789030796,-2.6440329718703426,-3.972315431459038,-0.7779695358493053,-6.413714108425327
A/Seoul/A02070/2016,-6.340174394439814,-0.0911676384488082,-7.010558528905772,2.0761127361007423,-1.1930650096561066,-9.583372194736308,1.4219388708550218,-3.4291760269529505,-3.3726721464652685,-5.486021944960866
A/Jeonbuk/736/2017,-6.8636306265590505,-3.35239208947605,-1.5229359366401927,3.4160488846108903,-0.5522662402415357,-9.966441828550376,1.0286317453467893,-10.693898102006221,-1.6586121922293562,-5.4611492110366635
A/Santiago/p019d0/2017,-12.288625472343957,0.2681482023914215,-2.9450114215020733,4.97608307792933,-4.5445743875323075,-5.508249594158896,-2.7127341089772576,-7.8423608341062065,-3.7200684560425152,-8.557049777102563
A/China/574/2017,-6.277629125727948,-2.2039864807280436,-6.5374347961087125,2.9395480615718617,-2.7693238600066445,-11.946740924957627,3.584436374590303,-6.7099324907905356,-3.6242426465689355,-3.9945024085825067
A/Thailand/CU-B21690/2017,-12.060461157800965,-3.9705564084544918,-5.430571285613399,9.598265829843422,-1.144865616251847,-7.243840811081611,-2.2420601677000085,-6.6080393393424295,-3.292627583444877,-5.130283601002236
A/Thailand/CU-B21760/2017,-11.382561555532353,-2.761734795743175,-4.979189465815721,6.794991027293947,-2.6288817561494677,-6.766254592010935,-2.056484664440894,-7.2219396039750565,-4.40381971255236,-6.805116010859731
A/Thailand/CU-CN209/2017,-12.930270543059695,-3.1655079295699995,-6.549859785436392,5.227466751528698,-4.781148712176271,-7.437213331205968,-1.1404223440226282,-7.300238518335675,-4.556955975842692,-5.589468484481025
A/Thailand/CU-E372/2017,-12.323524949629324,-2.9782488090852026,-6.970229088734655,6.732771608365185,-4.63728142934069,-8.051721649901024,-1.835054716684401,-7.968894617405495,-5.884537493723064,-6.66983149438521
A/Thailand/CU-E379/2017,-13.107708071416928,-3.249896617636271,-6.97481375790957,7.511030209369535,-3.9421558104624497,-6.981676521189523,-2.5501317074857695,-7.290485384299394,-5.01058278787438,-7.045218511462654
A/Thailand/CU-E386/2017,-12.936157387544162,-3.335246284019178,-7.55249721191928,5.866650358745321,-5.386963924478997,-8.335952373046604,-1.1883770646403966,-7.491430029766155,-5.297733593848526,-5.6262672045595545
A/Quebec/206/2018,-18.896469430875133,0.9468560626937965,-1.3129352662801526,1.7492170516541612,8.395590947095377,-7.242892083482491,-0.09157605442291387,-2.4463584647778287,-0.8309432369125104,-10.302306684732455
A/Cheongju/G03581/2016,-5.098803074513809,-4.220116451416262,3.593743901066615,2.0683824748125743,-0.5231455934297168,-10.925583319732315,-1.6153561343012293,-1.2704331768492367,0.477006689083439,-6.772838279869313
A/Cheongju/G03603/2016,-6.154600870037755,-0.4883556170162042,2.4814216528876445,-2.8223857919517696,1.6500738850559746,-9.354738869726509,-3.5204703054724873,-3.320299149239843,-1.3141660502756938,-6.470105248529106
A/Quebec/306/2017,-3.3744412233999226,-2.406295394504279,-5.397906906646978,7.68568913719389,3.57905885100449,-9.773825977270366,0.5862917521501767,-7.043397571392968,-1.1248989521391528,-10.876626652707667
A/Alaska/13/2017,-8.316602308847804,0.036247393737338,-4.629892215719162,-1.2156551027026141,-0.3945218643408709,-8.23305758290907,2.3564770460049926,-4.795671214417278,-3.1789743249943614,-6.210307072118039
A/Arizona/32/2017,-7.511989964182977,-0.644108105297381,-2.6048283379134762,1.0969006065442881,1.940548745746534,-6.9223214279509495,1.4272153540822599,-3.2238592228497565,-0.45126538839950664,-5.608976858034936
A/Newcastle/190/2016,-6.7837593578647,-0.4533628648828329,-2.512149901887491,1.5712201450427237,1.1656445895010268,-6.186936852763394,1.350960259185254,-3.251499923691254,-1.2204569877001434,-5.200949572842245
A/Virginia/66/2016,-6.654167136632749,-0.48010004448231075,-2.5251998340766564,1.6366229674823778,1.25514260269867,-6.250152956057897,1.3869378860908483,-3.2574965591350273,-1.1542332322958038,-5.245044646651025
A/SouthAustralia/172/2016,-6.663523808536626,-0.5490795658657662,-3.0040781387419706,1.5689983428696013,0.24924347638141225,-7.573060880533536,1.628992843001151,-4.441061572784329,-1.9524700033934113,-4.82605931977612
A/Colorado/45/2016,-6.2379762962498,-0.8560080790867041,-2.5866737372671347,2.7554075582564073,1.4186976932200124,-6.868106596334569,1.343090036188204,-4.537408517141613,-1.2552926099367765,-6.077731290542879
A/Wisconsin/92/2016,-6.733564405971817,-0.20900899128223413,-2.251579333638739,1.901051378093857,1.0883172153017324,-6.462968763966495,0.8410349969714969,-4.687291168565942,-2.1753582865137253,-6.290183004453555
A/NewYork/A-WC-LVD-17-025/2017,-6.640587948369855,-0.48773198833249043,-2.2802641859329427,1.7974038308712523,1.235675282065434,-6.183446437166563,1.4901234786646527,-3.2538135302531073,-1.241965116498481,-5.262827538241922
A/NorthDakota/28/2016,-6.963677822686567,-2.24741309417447,-3.097276546726062,2.8994990407150687,0.5429472052765723,-7.887013256427391,-0.789285842554254,-4.89323644975835,-0.37053280796804455,-5.9220476697970845
A/Illinois/50/2016,-4.916127057172164,1.609625963473341,-4.017643415236142,0.1886014868039073,0.4827472566331954,-6.838868619717463,-0.6470840366280332,-3.3915751572592465,-3.6652670448217406,-7.204349584462921
A/Victoria/663/2016,-4.586000283105073,-0.08782946705249767,-3.2800874095009993,1.2901203631358011,1.060858067309704,-6.853842879500761,0.150352957899485,-2.827136685372466,-2.159867653893737,-6.3299975630988
A/Michigan/110/2016,-3.963567047915955,0.44246941042562393,-4.060685823876675,0.6591097152414603,0.7996372800081952,-7.451363099659804,-0.22169424626040055,-3.3867719514948043,-3.259741314902475,-7.619176864003819
A/Florida/63/2017,-8.744996178330135,-0.5529796481974786,-2.7723217245368708,0.9347806779326241,3.1588425859749463,-7.498116457721958,2.5845666693391762,-2.818262540659547,-1.0170722923063682,-6.060022869766151
A/Nicaragua/8815_10/2017,-2.4662869284492914,-0.02737532792630793,-0.25638153586314444,0.15096661239212383,0.8007542058384717,-2.4144845525291516,0.4813403947103767,-0.3920829122394856,-0.30367989177600924,-1.481364437306524
A/Nicaragua/7577_11/2017,-9.141162743341011,-0.7472939503358481,-3.5162168677965364,0.7908144816032738,3.250097830244818,-7.893792899393215,3.0330056621864765,-3.1786154298568454,-1.2377905353527179,-6.7754621299037385
A/Nicaragua/9116_07/2017,-8.980420635128487,-1.2369740389656192,-3.5986204519224905,0.8851378066398781,3.1227537432783232,-8.034651241016135,3.2743797399655854,-2.9212342704010488,-1.1254193372838102,-6.882477092775704
A/Utah/33/2017,-9.260103473577171,-0.857596603382273,-3.5953975667269327,1.1124241173908813,3.2745396023256172,-7.785344628244503,3.0786706274201774,-3.115732770044364,-0.9816180382992361,-6.674543641817903
A/Nicaragua/6796_14/2017,-9.132308994063248,-0.3536944123702436,-5.119467800593883,-0.13192825907600264,2.9632713832545017,-8.834109773527052,3.887370508587762,-3.5632089395766036,-1.038056324564727,-7.07204437087519
A/Nicaragua/4992_03/2017,-9.267625952648059,-3.5451711061198177,-3.4944147941718953,1.3355230383501906,1.772034649435123,-8.983219220889064,4.855517682998967,-2.049829487929508,-1.2072801341234094,-9.128206613299756
A/Nicaragua/5935_13/2017,-9.651602506430619,-3.4247853083383033,-3.456523505252586,0.918427017959785,1.5142090404989204,-8.711562521033665,4.639797872048923,-1.9811371324214986,-1.4392718134366107,-9.23481594281196
A/Nicaragua/9146_04/2017,-9.008709462993215,-4.140111436048916,-4.343960962937852,0.8680617172435844,1.3563945103190274,-10.139684745094964,5.800921425499737,-2.0784029889405615,-1.4238778273989767,-9.60617287589993
A/Nicaragua/9537_03/2017,-8.906417650912042,-3.27684161032546,-3.6302051437791474,1.2226872903125687,2.0036660430819064,-9.016673432889183,4.765042307087287,-1.936039641485859,-1.3325042506226246,-9.529081128709842
A/Nicaragua/9379_04/2017,-9.863803676169251,-4.3748318933239725,-4.409406373307323,1.2079823083041086,1.3251899126582212,-9.188678767310813,5.364065281493198,-1.7698822675903267,-1.1364701738907124,-9.967702325200479
A/Nicaragua/9872_01/2017,-9.904449053664875,-4.038351230285067,-4.21040286525367,0.1456798753321448,0.8976595072949661,-9.334991405566225,5.361369120532161,-2.0181236814858075,-1.832779034030309,-9.969065497461873
A/Nicaragua/8899_11/2017,-8.920915430141545,-1.8603515465525284,-4.627634244372539,0.4549803569037229,3.073655197394437,-8.726143580581674,3.9703633063610755,-3.285123951453346,-0.7253865865364651,-7.719483593616347
A/Nicaragua/6850_13/2017,-9.453054169954601,-3.2299602454935608,-3.871048021373364,1.1192909530437258,1.6970832113224132,-8.700099084809727,4.553620670061057,-1.6608127378828763,-1.3323808251806926,-9.436867075532057
A/Nicaragua/8765_10/2017,-9.080562454307604,-3.0466880465139172,-3.801044700213724,0.6519149072786322,1.5082094770107093,-9.19220773986341,4.908822024681965,-2.103512971965002,-1.5699331765652043,-9.110659716309781
A/Nicaragua/9530_07/2017,-9.079004624775502,-3.381583354588129,-4.861250451226724,-0.012901713356751854,0.9624435252416977,-10.164302835765557,5.470227295615835,-1.8889371335282457,-2.0887051109152166,-9.662006894345707
A/Nicaragua/8485_06/2017,-9.244992315708954,-0.8490752069436887,-3.50325703979088,1.0459205596590935,3.3807063716295658,-7.693072303243869,2.908704121982645,-3.172053477890169,-1.0523022094947443,-6.88617477652746
A/Nicaragua/8539_09/2017,-9.458474296759702,-0.864947436062389,-3.487625201696607,0.8449217097383963,3.122948760038165,-7.708189339186694,3.0642975542142006,-3.1630584537065665,-1.122063635380414,-6.626543381890911
A/Washington/302/2017,-9.37616325524293,-0.7313262004311664,-3.60883921691258,0.7761415031821379,3.1798029580209533,-7.729257128519153,2.8968567995963297,-3.1130917046423034,-1.1944564470329482,-6.756769206829016
A/Nicaragua/9450_06/2017,-5.137550880923961,0.1946773727221644,-0.034662651647138665,0.03127271246398368,0.8511579611905864,-5.31365098693816,0.5200036125356698,-0.7915745707056402,0.7694559527529152,-3.7412024784296625
A/Nicaragua/6363_05/2017,-9.37316506486583,-0.9322870407890615,-5.596139912503938,0.776661525292037,2.843386433914148,-8.759768582377731,3.9123404208155237,-2.939109338616955,-0.6732973200932764,-6.803825546132939
A/Nicaragua/6245_07/2017,-10.840288442353254,-1.3540927405527923,-5.024039148151717,0.8077938647328572,2.601361246514342,-7.371348513816402,3.18853537914806,-3.164097606067243,-0.4175660912641499,-7.133717780616078
A/Nicaragua/9474_05/2017,-10.475894523458447,-0.969166597302203,-5.200859776339493,1.2837650738382973,3.0855354841803146,-7.216866516502588,2.743253818242709,-2.629873438607895,-0.7830611012694275,-7.748767024630663
A/Nicaragua/9707_02/2017,-8.620143973748133,-1.8010080403256616,-4.483394999643193,0.9444238500132509,3.448162836419297,-8.7043388807568,3.9733617924710214,-3.423870930883352,-0.6530351087196378,-7.958286280249367
A/Nicaragua/6186_07/2017,-9.670598634575201,-2.5270226070802035,-6.173377136322514,0.31381351916787475,2.478166328767593,-9.32232912723684,4.851096901416097,-3.185362177757429,0.017438118133997177,-7.467367020696002
A/Victoria/668/2016,-8.6715992248384,-1.3068985269023148,-2.2832583192515274,2.7736539748744575,-0.43092326933650066,-6.463582094756873,0.41398790670065816,-6.140191885736705,-1.603071356417806,-5.173895920209395
A/Brisbane/1101/2017,-4.625018459392873,-0.6998972318501868,-4.842578444974242,4.2601040267817,2.19373838421393,-6.48487547904577,2.2522126829981666,-5.507136118198587,-1.4352780472972166,-9.463459760831723
A/Tasmania/43/2017,-6.8750327363751875,-1.163113881923383,-1.161325539291587,1.4047247931289824,1.7892558312883957,-7.674300669934405,1.505415266315277,-6.597304417898607,-0.281863306773192,-5.780190545747379
A/Victoria/2000/2017,-9.583826039069251,0.04405884249220203,-3.2464131503147193,1.8423841227914188,1.937889070903738,-4.961603433671687,-0.19763170978961045,-4.631455868260178,-2.3443965674266836,-8.900454643809871
A/Sydney/36/2017,-3.7650385738981944,0.3485658800041135,-3.706917712644904,0.6042604144754476,1.0048979035972665,-7.557239198620902,-2.327186562389916,-4.6759066705930925,-5.079957455336833,-10.584093458902752
A/SouthAustralia/29/2017,-8.27691892940317,-2.084443086079502,-1.2679233384968154,2.221521028163092,-0.24967390898130837,-7.440579869287871,-0.7996810269624086,-7.842432647797573,-1.3334509536661325,-5.85717078860648
A/Arizona/43/2017,-11.79704621055286,-3.1539803773241712,-8.679554365400122,-1.9456926308902338,-1.6419169644142735,-5.075082698591455,4.024126681602171,-5.852899350774861,0.8687883269822794,-10.347269370111079
A/NewYork/A-WC-LVD-17-041/2017,-8.467981709931854,0.02224507188650709,-6.578618157931507,-3.5704830097431106,-0.22398525804836902,-8.304664100977453,0.27656077844574334,-4.734634509086042,-1.6788393344393733,-9.574998325709037
A/Colorado/12/2017,-7.776221679265138,-0.7886841783083537,-1.3995316977579337,2.778586144854516,0.051094821868031,-9.441299748491016,-0.6588429040946819,-6.520375301656507,-6.957395680578381,-3.3662520945113226
A/Brisbane/10/2018,-14.04083123735997,0.5534061329066929,0.20291097942834238,0.8004119278647397,6.855138320263519,-10.683364879266371,4.522506640703648,-2.856378469339897,-3.677635351528252,-7.053471189492017
A/Brisbane/27/2018,-12.87074306756612,0.7315119781198455,-0.49368589493880555,0.6441659714644871,6.957077234354557,-10.21301324465938,4.4806532608876255,-2.5745492666693033,-2.3408174259836563,-6.983281222647359
A/SouthDakota/37/2017,-12.041316559674465,0.8645878474362175,-1.0779146117784597,0.5764860883451708,6.348645652457025,-9.90391730506464,4.143935328932025,-2.162471524806174,-2.119570542101149,-6.648447830874994
A/Maryland/16/2018,-11.495254146425367,1.4221938207376188,-0.3904418870397402,0.20047830618932,6.716680706332909,-8.970313110475317,4.3400732859801625,-1.368600223351555,-1.6135163808155393,-5.962109653965779
A/NewHampshire/30/2017,-12.305773935610478,0.9987720938574841,-0.7474953140724454,0.34328854782190854,7.1529709820255105,-10.48000092704253,4.4647360599926875,-2.425737767581385,-2.4700693756428516,-7.344516809699059
A/NorthCarolina/11/2018,-12.1856226595249,1.052411681804417,-0.9583786046719106,0.6243411969681428,7.150571475826307,-10.614613329491728,4.755875360285933,-2.0963988636048807,-2.4507329932234168,-7.264195175434198
A/NorthCarolina/52/2017,-12.58945456420251,1.0989793995160342,-0.8044454595645033,0.640315164362659,7.327739627906878,-10.036269571014413,4.525404441390651,-2.4226655410224844,-2.0915802183207672,-7.426223737109536
A/WestVirginia/04/2018,-12.632376314126653,0.6039287442149559,-0.6925882328334596,0.26329974478425006,6.749766014732369,-10.747327846352903,4.648335714386962,-2.3005314449045704,-2.3452744318824985,-6.733586016331021
A/California/38/2018,-12.950700995706926,1.2269714139933354,-0.8140569682081878,-0.7339867082646375,8.096471327762526,-11.185144846953312,3.5803003812990224,-2.0405975490038952,-1.3898028699503306,-7.740586464948979
A/Florida/37/2018,-14.022460961151207,1.911862009339236,-1.0634210360938414,0.27235264826006644,6.5326849878592785,-11.200460595755608,4.592016169347989,-2.311187659159629,-3.8493930308826028,-6.010985923039392
A/NewYork/31/2018,-13.993120255415421,0.674287472732921,-0.6036269684269205,0.20809013467700213,6.2201177601220925,-11.563665717182896,5.230083213166854,-2.6731880515917226,-3.3512659478962794,-5.884709700847813
A/Newcastle/13/2018,-14.05597412746705,1.9232423155397282,-0.8393044019663647,-0.42082636791607003,6.955127884507494,-10.342872373394192,3.9239838531009337,-2.2623780167644494,-3.619163305484409,-7.60594874946562
A/Newcastle/7/2018,-12.525697843706894,1.489351115135922,-0.39635857621299153,1.4323954118044744,8.399558527061345,-10.633068962890807,4.2508811739926875,-2.624486306836239,-3.224262989824454,-8.409645299691322
A/Sydney/525/2018,-14.653995262565358,1.1066598573413648,-0.13529185692293533,1.4107492526003524,7.2608963510372675,-9.840167383176768,4.167816035521349,-2.85513602615468,-2.967436638349047,-7.020056377958823
A/Tennessee/15/2018,-12.751586143457367,0.8174986752227859,-0.32447610335451044,2.0543141113314696,8.426663241490742,-10.782214506636405,5.0914802465540125,-2.925125870314401,-2.077765462569384,-7.596719206287543
A/Kentucky/25/2018,-12.839988581543311,0.8411031539767087,-0.8454493537467127,1.1229966713884296,6.90345393766667,-10.422037146295564,4.867660948528435,-2.5906278908853775,-2.099203074768124,-6.490165737897219
A/Brisbane/32/2018,-15.78570082598015,1.1579523280699906,0.8927462953508387,0.3190577672058455,9.03520837889644,-11.019229247122,1.7625302769899371,-3.3469670805088887,-1.8739277444553368,-8.246150967552396
A/Brisbane/25/2018,-13.620195735253953,-0.1265425604568349,-0.9091949544554155,0.2176463745574228,7.167031872137066,-12.61980651945534,7.359652628904896,-2.915814298504885,-2.462358456929629,-5.7893698746925395
A/NorthDakota/13/2018,-13.494818638345716,3.0677763519910117,-0.2298912873201442,0.3610295218862057,8.445310319052236,-11.961413659546402,3.5670809924282647,-3.930889030976895,-2.314097038194943,-6.8990939170471295
A/California/133/2017,-11.55109966740092,-0.21931604725810205,-1.8793848508327555,1.2372703471538717,5.477947235674029,-9.340866553467547,3.4839157661626268,-1.2781839960727939,-1.3001348024931145,-6.3014990217765785
A/Michigan/295/2017,-10.77410973803108,0.0679046656576959,-1.756787441924294,0.9274283160891574,5.045302372587598,-8.808052323332502,3.3125631472591337,-1.5472920389196025,-1.437154819737886,-6.1257921210412265
A/Colorado/24/2017,-11.495863902757039,-0.4448884934117469,-1.6933250778759596,0.5051206195952885,5.3055702696592135,-9.287177891507271,3.080302690005308,-1.1200128067768556,-1.043809309057425,-6.680100008774996
A/Nebraska/10/2017,-11.675926029238033,0.03076507746653558,-1.9705986969179445,1.2313262472600088,5.484710788017269,-9.166234989498285,3.2220281872508685,-1.1886185458335796,-1.4386277656290267,-6.429386021789315
A/Ohio/10/2018,-11.660345072902766,-0.10637639087359782,-2.0167803858897915,1.061389643961921,5.380386351212165,-9.313908114660537,3.5012346372707293,-1.207990898081711,-1.2699827026445616,-6.225691924935614
A/Connecticut/32/2017,-11.093543709113167,-0.5810409768503948,-4.044253841563111,1.1047487926506177,5.073856200772999,-8.88698310875584,3.2734866746386175,-2.8839112519859063,-1.6052893338681091,-7.335314821929999
A/NorthDakota/20/2017,-11.191841481661529,-0.5181140264571792,-3.71134680763645,0.9913584975988218,5.052672984487664,-8.624831166341936,3.4926496045964592,-3.2425730216655486,-1.462114048464613,-7.433797425331833
A/Illinois/64/2017,-12.439885862002043,-0.3348498963800535,-3.0473882997211654,0.9597004037243926,5.111171737050793,-10.494598110067097,4.396750872012154,-0.42296351975468766,-1.1822962746406318,-5.542873275071472
A/Montana/24/2017,-13.242568526350334,-0.43890235781195297,-2.9027609513233084,0.8975938461650691,5.2127599725216935,-9.54794039991306,3.743366951364572,-0.25236304096974777,-0.9449060445737285,-6.017539837549508
A/Virginia/36/2018,-13.28457728728111,-0.0200789591044074,-2.909524104175343,1.7088619227688553,5.496060153908313,-9.284486670999648,3.5742918058667827,-0.413209138804585,-0.8933190688919886,-6.032736790660796
A/Montana/16/2017,-11.840274668907115,-0.6004950662065998,-4.464789809929005,0.2776414610418184,5.305132835609719,-8.536395688573592,3.8888755512640523,-3.8986146271427664,-1.229209366451089,-8.527288196142782
A/Nicaragua/2010_03/2017,-12.424347956868823,-0.9404034563584517,-4.398832668095433,0.4145559962179635,4.9806075552882385,-8.609720660976649,3.677743912335576,-4.043500009434073,-1.2007625534871604,-7.653899512714719
A/Tennessee/57/2017,-11.570992911623248,-0.5847029432073573,-4.429077557607149,1.1879348607703784,5.769230055745384,-8.46236845957929,3.669194848899676,-3.7690224962473446,-1.1457979903719893,-8.810641819317654
A/SouthDakota/02/2018,-13.617166518895543,-0.8443410300283709,-1.4144125449580824,-0.5229124557267885,5.623306627304497,-10.439152633172728,4.971749138078081,-1.0246423824080564,-1.8791980664245098,-6.480912661464917
A/Texas/91/2018,-10.894655655100632,-2.239591312286518,-1.1835899553734037,0.9215779765626405,8.530522999616393,-9.478832317555792,4.241075952631301,-2.0423537975025448,-0.8461160754336582,-8.046295389251002
A/Sydney/11/2018,-14.371076412056057,0.6646980784558889,0.47760381809118857,-0.8298535151709115,7.2754813454118885,-10.975118179682825,6.078283936654461,-4.225749789722264,-2.9455428992055697,-7.37353696959571
A/NewMexico/10/2018,-12.502312108578131,0.7512894045375431,0.06040065033594366,0.10107761651937942,8.014913432278673,-11.158894160571174,4.300505304554618,-2.6233518516525685,-3.3084234654022766,-8.097020081062444
A/Newcastle/20/2018,-12.535077186749966,1.147100228437362,-0.79108381169719,1.1024210141582467,7.259063159207208,-10.33788262748144,4.366565302442785,-2.402741601833023,-2.393426157128545,-7.097233460847526
A/Florida/64/2017,-11.851109181778417,-0.8116090050710832,-4.742151796174681,1.6503264406513032,5.562477869139779,-8.617414248953667,4.060830267669557,-3.629339898081536,-0.5818740649949401,-8.055597630317152
A/Perth/341/2017,-10.312941916965276,-1.2705531393167717,-5.943105509919153,-2.7697903232136443,6.418655925461065,-13.130703511507148,4.158486611353314,-4.814621234775308,-0.22849617755547014,-9.702543809700591
A/SouthAustralia/163/2017,-12.559201021464839,-2.276707662320601,-4.053058606515889,-0.18403991598141914,5.881862889049387,-9.197426224293485,2.460026018784836,-3.927556491500565,0.971906345352304,-9.06148560950431
A/Washington/68/2018,-12.198214031556025,-3.2793877533864912,-1.3851741750702182,-0.8325138801078678,6.318710909485449,-13.146862780512139,4.603533087450422,-1.8316809293987937,0.7533890271739103,-6.159337102152289
A/SouthAustralia/3/2018,-14.331511925160484,-1.1583493918948313,-3.983336321758481,3.1063161941161326,7.0571709958367785,-9.845106315715887,5.586020432568496,-0.020638799067381974,1.0134900775823679,-6.465344924146806
A/Louisiana/48/2017,-12.84425532467871,-1.8518979560886275,-3.2144587872822057,1.6997039696418628,7.898059884171883,-7.945131246419984,4.076159723820628,-1.070174008573724,-0.6228807384389009,-5.289960683618841
