strain,pca1,pca2,pca3,pca4,pca5,pca6,pca7,pca8,pca9,pca10,label
A/Alabama/02/2016,0.10457431852224003,0.5233778532476632,1.8006476822942896,-0.5795158253605875,-1.9938285419051163,0.9149267612971873,-0.6070366290319462,-0.27573654925341146,-0.3781839522369923,-0.9087877505747353,9
A/Oregon/05/2016,0.10476454292710341,0.524570835761565,1.7850538352433512,-0.5665327924497818,-1.9375796499404292,0.8835152725898722,-0.5880783918584989,-0.26206499212397294,-0.34387401685486646,-0.8162856545220193,9
A/SouthDakota/01/2016,0.1062185646101321,0.5253419682014533,1.7856348218371538,-0.5657234624810574,-1.9376034820128516,0.8826671662054928,-0.5874198386367174,-0.2660531466314233,-0.34268723319001193,-0.8146003718073355,9
A/Utah/36/2016,0.10062014304741655,0.5234724190802306,1.8034581499615743,-0.5858148394837349,-1.9419365930623949,0.9164232838053532,-0.6177545339484456,-0.30548743769193687,-0.35078924782339677,-0.8462340730228267,9
A/Alaska/22/2016,0.10762028370186652,0.5295294856225599,1.8501046358199469,-0.6012180996011505,-2.116004486724275,1.029368230111028,-0.7080051625871746,-0.33391822719900494,-0.41622471170767056,-1.0870312144247396,9
A/Hawaii/47/2016,0.10760739868335391,0.5294290816212454,1.8494578204279715,-0.6008940012785708,-2.1134350490934275,1.0279105623913425,-0.7069307494592927,-0.33334033338890023,-0.4153638165542976,-1.0838913014716758,9
A/SouthAustralia/148/2016,0.1040731944470244,0.5267602786366927,1.8501394699869775,-0.6034245697260534,-2.1179870214725764,1.049839917684863,-0.7094872688560186,-0.33614174794282425,-0.4241345268267306,-1.0933051404295555,9
A/Pennsylvania/62/2016,0.10781678300586588,0.5271148643979086,1.8481682583432602,-0.6078273667532836,-2.1062752264320572,1.0172935692878566,-0.7069657857990826,-0.3250789419565614,-0.42568918047758325,-1.0691877329865598,9
A/SouthAustralia/18/2016,0.10707011391719283,0.5279327093250068,1.8427434615030363,-0.6001370596407057,-2.092409183456799,1.0123093727450037,-0.6990546595361603,-0.3287333141750811,-0.40731810033110477,-1.0575776744172822,9
A/California/137/2016,0.11104543218678871,0.5389952212178643,1.8596799403610507,-0.6103185447359213,-2.176850212045158,1.0675013325248848,-0.7328786495760687,-0.37404613644003054,-0.4382731541135485,-1.1410135851670204,9
A/Nebraska/24/2016,0.10938798007081244,0.5407468877621378,1.8575670102264772,-0.6125473734881148,-2.1556520791733855,1.0574831423016195,-0.727334445675462,-0.3709942744940034,-0.43182342909463445,-1.1072436109336459,9
A/Gainesville/10/2016,0.03544724211419355,0.9982694894806614,1.7076528587791975,-0.7293917273746418,-1.9765846564114982,1.15243324741851,-0.7268398825391097,-0.2929857613585155,-0.44755622034181364,-1.0385003573397815,9
A/Texas/180/2016,0.11101110005301745,0.5386756810667707,1.857721379687312,-0.6092716933161497,-2.168615074294784,1.0633758697376117,-0.730891294504453,-0.37257970744548186,-0.4361978953206909,-1.131232164065841,9
A/Texas/183/2016,0.12861010881522544,0.5410605910839925,1.8502857659613088,-0.5471849114335006,-2.0146109985240472,1.153442169139401,-1.1407396417163647,-0.4328234716120608,-0.6835737486572004,-1.2561654275959302,9
A/Texas/186/2016,0.11670610495362246,0.5031167818476928,1.8594889232288747,-0.6189967807860282,-2.221665573532251,1.1302890002557902,-0.7715200930599053,-0.4541389088293338,-0.3507855460377176,-1.054009906864972,9
A/Nevada/37/2016,0.10544781326438925,0.5289169482709536,1.8480112385087593,-0.6051651073778759,-2.131080144898905,1.0449327213522892,-0.7051527216499074,-0.3418701469229662,-0.4124376619029517,-1.136073259586054,9
A/California/133/2015,-0.01603796168453771,0.5290838880203099,1.8557059425659295,-0.6802017995373019,-1.9190885808139229,0.9922237872636246,-0.5178928367036284,-0.19753658955148456,-0.4690123929309466,-0.8187262005058734,9
A/California/63/2016,-0.04348143413521326,0.5110353935531405,1.8232001205347919,-0.6760107731153081,-2.0637876384199094,0.7622240849270067,-0.51191846908795,-0.24682413873254955,-0.322365117738154,-0.7773433738998831,9
A/Connecticut/36/2016,0.1015699022697469,0.5379023120228595,1.7979259931060427,-0.5751719004227996,-1.9603491626310632,0.8612371602729414,-0.5779747470215679,-0.24109072104207102,-0.3722084687740896,-0.8634405928577069,9
A/Brisbane/184/2015,-0.02250094751602961,0.33797996201635633,1.7856025041786545,-0.5047570136765783,-1.6632288163808726,0.44805819793129187,-0.3634645385823914,0.09704629675590895,-0.49420108990652306,-0.6507638189793526,9
A/Brisbane/188/2015,-0.014327368964899008,0.341112978899248,1.813035062619923,-0.4777666593351817,-1.5746293040911228,0.4020731654213409,-0.3402590593142963,0.06978452151843867,-0.4603326306604903,-0.49464258643215053,9
A/Darwin/1000/2015,0.10143049784777385,0.6741434949801153,2.4601287125713815,0.5205875159990585,-1.1719888887441663,-0.08939722140963229,-0.19398252044495595,0.43653734796902355,-0.6088790565851059,-0.30626705160646256,-1
A/SouthAustralia/163/2015,-0.05506917326139808,0.679463853241196,2.514410318327331,0.49740133120360114,-1.1322342206337894,-0.08675176914946515,-0.1758167807462894,0.3792796759768814,-0.6029639728311424,-0.3206657136949222,-1
A/SouthAustralia/31/2016,-0.14217567493678152,1.1743379127228815,2.3660704947410998,0.39017961081298963,-0.9065038025512074,-0.06696072469220084,-0.16527952810573224,0.5668034574031465,-0.7472379789497928,-0.3027724512966728,-1
A/Arizona/22/2015,0.9652924493675955,0.13640534976414778,1.2866654386597003,-0.6219687649789793,-1.0235304274457875,0.3761855694763518,-0.5879566652668078,0.714990355495986,-0.28861378976546886,-0.624272032923408,9
A/Michigan/66/2015,0.9694709542564768,0.13624040876765506,1.295481392679189,-0.62103675924245,-1.0451500886823768,0.38682335471825174,-0.6119802696299913,0.7536227061231017,-0.2786782879808388,-0.6652905203471559,9
A/California/126/2015,0.9175959651833298,0.10234701835452756,1.1860126079593907,-0.5726153282823065,-1.1745346393624956,-0.07602822010675975,-0.8668568347957193,0.6015716021418673,-0.14644837073516598,-0.5045333337931328,9
A/California/05/2016,0.05569120872271928,0.12151212336963141,1.754012935980125,-0.8461156465815839,-1.3432790358982631,0.49274472109389544,-0.65424832507297,0.4255567545541207,-0.6030505087321906,-0.6241467131603021,9
A/Florida/93/2015,0.05511820166101099,0.12589198198371904,1.7616523971820108,-0.8555333815384875,-1.367651077258633,0.5080568535500929,-0.6728898892341655,0.43185856786387694,-0.6154206075543376,-0.6430690095632767,9
A/Colorado/21/2015,0.04545716736209954,0.12229601775477059,1.7395586631038766,-0.8461844574077941,-1.361805858674281,0.4864677494057717,-0.6720666870463322,0.4174618482292739,-0.5907263530025446,-0.5868694906229716,9
A/NewYork/76/2015,0.05331694474395106,0.12603980334261128,1.7439191000120942,-0.8456057749166438,-1.3290379170861166,0.49151699581593705,-0.6482876633417439,0.41943263049753904,-0.5815528040852092,-0.5978309545824391,9
A/California/137/2015,0.0519990197308684,0.12770718585313884,1.74583655258074,-0.8429702160286423,-1.34256262900023,0.48364620150143744,-0.6535681579680491,0.4165121570115387,-0.5851241117313395,-0.6013350724265208,9
A/Vermont/01/2016,0.4976609686905005,0.12949943187838622,1.5075299171921046,-0.7317728254194786,-1.1947213872073903,0.46012784045894994,-0.5929945634938222,0.5743610231900523,-0.49228399957981656,-0.5386464497373308,9
A/Victoria/455/2015,0.01954372466411707,0.0711614865440141,1.775050072580802,-0.8276404043758959,-1.3659072980699545,0.39830816375242345,-0.5451005999292361,0.25812924432577633,-0.8692467496264696,-0.7159732105954923,9
A/California/94/2015,0.05285987552239277,0.1265377969811144,1.7540375976976348,-0.8543512276036952,-1.351348996308265,0.478264851155687,-0.6021039315418856,0.42751902843852096,-0.5538916326085063,-0.6027744052530464,9
A/California/138/2015,0.05621312135280346,0.0969421197575728,1.734045233556001,-0.8020300344451244,-1.2886875194905139,0.4568674821515498,-0.5617442043556929,0.4687318897303647,-0.5870945502519067,-0.48873235999924725,9
A/Sydney/9/2016,0.05538259107287249,0.1224182852798719,1.7318824366378796,-0.8550378733564427,-1.2692548303390583,0.4739134893250789,-0.6425134782308004,0.4061534499542815,-0.5494505833949616,-0.5737467678726685,9
A/Brisbane/122/2016,0.24273403034924368,-0.10513457707254882,1.355528359840525,-0.9587832533049976,-0.9816206384300457,0.2444010558931073,-0.7195745162961374,0.5268198717493973,-0.5871685253731058,-0.4576691877792887,9
A/SouthAustralia/34/2016,0.2167900794784838,0.022057757527706397,1.4403903711540205,-0.8434800635177758,-0.9243446952684135,0.24287244869576408,-0.7302662745725257,0.46174071538354705,-0.5408856690960603,-0.3648030492381855,9
A/Brisbane/183/2015,0.07127878070750214,0.11458562014840637,1.3306841795840574,-0.988175005035152,-0.7688757801010261,0.41284132032447196,-0.6921466266413624,0.3776424165516775,-0.5559633027286806,-0.2678742093685457,9
A/Brisbane/30/2016,0.2652982389778335,-0.12811112559145982,1.3733831483951464,-0.9525911193520438,-0.9314595007972039,0.4289289308796707,-0.8192434806431302,0.45520273586484106,-0.609392628994052,-0.45011156299083926,9
A/California/36/2016,0.2658876653572275,-0.14462410086575422,1.3793570785369726,-0.9685303430417936,-0.9732857636840585,0.46921331546180384,-0.8538135319035407,0.3948183202376668,-0.5648111885187189,-0.4027679788442713,9
A/Kenya/023/2016,0.2566436752155934,-0.13773719919739216,1.3901129442116649,-0.9656408084839491,-0.938675124447335,0.45264032455438696,-0.8561828465090414,0.42161068694669857,-0.6283915911082435,-0.4642555103021239,9
A/Virginia/37/2016,-0.01757236420152903,-0.13916218576382955,1.437978155984057,-1.102247845293362,-0.9481203223926106,0.3245012387522475,-0.8502192259669139,0.5200494933564854,-0.7072262518700955,-0.35613970504879217,9
A/Indiana/28/2016,0.18263443780129798,0.34721956887512867,1.3249419016387989,-0.9273487686625216,-0.7098696953576424,0.5085114774880065,-0.82364221809127,0.4589571014952923,-0.5669601564839295,-0.27357777127026434,9
A/Brisbane/195/2015,0.26592244680614974,-0.1269242240072218,1.3506898782723293,-0.9177822010671682,-0.8701698955485351,0.38245471729650987,-0.7168531502030333,0.3806962967682539,-0.554731104015605,-0.33995344354981544,9
A/SouthAustralia/146/2015,0.11150246753019383,-0.12019299913780683,1.401350000050803,-0.9309129043128361,-0.863146173454332,0.35276207039213797,-0.6976448628638285,0.3407650101579222,-0.5658238682547356,-0.327590550630816,9
A/SouthAustralia/29/2016,0.2572495960203434,-0.11923924623563595,1.3300773060611288,-0.9309621761768919,-0.8375001290778622,0.39052157009609745,-0.7174782053504417,0.357498361676991,-0.4909593321748266,-0.3444842020918996,9
A/California/108/2015,-0.20944127430252005,0.11455714897986599,1.7710771655990385,-0.9733905443630644,-1.2717531681769536,0.3496245239519513,-0.5776729476750565,0.4135227370618267,-0.6213819625523004,-0.3910942160276119,9
A/California/100/2015,0.13474208256093773,0.08949921824445564,1.5337979837304045,-0.6553008972687503,-1.490945853550874,0.5332821414509634,-0.5220942977520527,0.4401627031109297,-0.38164227096471953,-0.6360446440464775,9
A/California/127/2015,0.060273989969113755,0.1265416022389163,1.731818756998078,-0.8259124514116136,-1.3477990547306238,0.5352383280777516,-0.6692357976755556,0.4444877186591246,-0.5235520235478192,-0.5502830108654134,9
A/Colorado/04/2016,0.06028120723750232,0.12656560032220426,1.7324244301936451,-0.82635791573566,-1.3494376599063622,0.5359973431727642,-0.6702529209612941,0.445258302580583,-0.5246371527325068,-0.55187711975006,9
A/California/24/2016,0.060725333736817114,0.12594210402299966,1.7309454715778128,-0.8194321897566085,-1.3428161636982945,0.5320020004958828,-0.665924077964009,0.439096372096638,-0.5208042624759125,-0.546503067499935,9
A/SouthAustralia/162/2015,0.26654212741489614,-0.11900018082161587,1.350358583570587,-0.8995027178293166,-0.8808484476423356,0.35983416518170763,-0.7102094173087173,0.3830642585973449,-0.544867086306178,-0.27050986601822413,9
A/Connecticut/06/2016,0.9706121828365238,0.22468260708296556,1.395030329468442,-0.5009869038700905,-0.9893904798433893,0.34140065245915907,-0.6386173904176139,0.8227456180997246,-0.21794308180482824,-0.5419134287099288,9
A/Brisbane/1008/2016,0.12801105107866903,0.3142948062024333,1.799296480476889,-0.49337216929748723,-1.8050241916892953,0.36787923381086557,-0.3444376845213923,0.3625236668882801,-0.7976318598201395,-0.9887082888026193,9
A/Brisbane/68/2016,0.1296106505624585,0.3137787312244396,1.7964990339466294,-0.48984450459142603,-1.7699328333066517,0.35835379271132245,-0.32760656620709916,0.36185219269022223,-0.7894326507004683,-0.9343262219552989,9
A/SouthAustralia/138/2016,0.12897264781077983,0.318793131984164,1.799684501228341,-0.5366103430503976,-1.8415310577588808,0.35987785617897006,-0.19736312885001583,0.3426029111476898,-0.7210712544737196,-0.9528456367613458,9
A/SouthAustralia/27/2016,0.1343804697143656,0.2751530113816859,1.7873120237866669,-0.5101305656491122,-1.8232695577181073,0.47463110234816275,-0.3564192384389954,0.3174671446778641,-0.7367993341473819,-0.8213873168550307,9
A/Kenya/014/2016,0.10879510385375966,0.3491229851043853,1.7241937029407264,-0.4857116990787232,-1.836066571433291,0.5709968095364145,-0.18388705357789253,0.2299489486915109,-0.5065521357550753,-0.48904840935234356,9
A/Townsville/37/2015,0.1298893657674573,0.3377303203898244,1.7872129551408555,-0.4657615447816264,-1.6737857852889426,0.45340731369888354,-0.3911177858918536,0.13005042264528344,-0.4716603875039632,-0.6026680490796172,9
A/Hawaii/14/2016,0.15630347127015315,0.22226627788250686,1.7510841523101908,-0.42271553607296664,-1.549341986244758,0.24748039535723612,-0.25414468241990934,0.2438234379464489,-0.5661871797574455,-0.6132481717843352,9
A/Alabama/15/2016,-1.560350891554232,-1.5165649177036322,0.5762641508759442,-0.9965612894355794,1.0855241856354025,-0.35124135779295873,-0.09289717340342361,-0.3423706366037112,0.2208591973267881,0.1724009221345027,17
A/Sydney/25/2017,-1.558323427680454,-1.5191671131246691,0.5747930171192531,-0.9908603050470269,1.0834867559202692,-0.3526940616155078,-0.09058291041270704,-0.3348244594834609,0.2206113637233082,0.16963619820140421,17
A/Arizona/35/2017,-1.7896565566928586,-1.6856969011508718,0.38545816308960035,-0.526083027959125,1.4850157721161206,0.8091514780358148,0.5291387504410102,-0.20792704415966365,0.32671151788774244,-0.6173456496761833,8
A/Townsville/3/2017,-1.7867047345167377,-1.6816536799994328,0.39340842644760576,-0.5236068722882894,1.4421040925354374,0.8222216383193777,0.5117594301067592,-0.20931323776953104,0.3165841911337811,-0.6598572332544774,8
A/WestVirginia/20/2017,-1.7866495498570283,-1.6823199672068176,0.393491046269992,-0.5242233243272272,1.4457948340145432,0.8248927767198834,0.512379982403663,-0.20803335786378452,0.32006745494630723,-0.6634681055304553,8
A/Sydney/37/2017,-2.0462171626204646,-1.9406809524655575,0.24297741783242882,-0.7594426491885989,1.6440750465824259,0.5910837394307616,0.8858069860062907,-0.18752492536836793,0.41868213653543646,-0.4351485950314888,8
A/Tasmania/41/2017,-1.792040117033609,-1.6865754306357452,0.39752498856464435,-0.5389654979649827,1.412646073990104,0.7876401833464637,0.6512651406846314,-0.18401670549059834,0.3840030702917082,-0.5748808211757465,8
A/Alaska/24/2016,-1.5435073821042833,-1.5154763814177028,0.5605101100563199,-0.9706988635042193,0.8930914350385625,-0.3444764397173552,-0.1442544000632335,-0.37794509607886445,0.19543698489996628,0.258265468879073,17
A/California/186/2016,-1.5429896525303544,-1.5144916575986431,0.5584982400833584,-0.9667037535564055,0.8925107764936658,-0.35340795865946145,-0.14645142865120653,-0.3757456246103186,0.20018333408325129,0.27271270361050864,17
A/Maryland/15/2016,-1.5433339778634798,-1.511616322864975,0.5593780171250781,-0.9754610275615654,0.8903090815700155,-0.34951584435856653,-0.15331404341128496,-0.39038015685826005,0.19565052434174318,0.26933823849085803,17
A/Nevada/51/2016,-1.5423126962625808,-1.5142164493548067,0.5580952382218071,-0.9662145020671391,0.8916892599464159,-0.3527703054317428,-0.14689439937573584,-0.37335714262281866,0.2010718778787483,0.27163184197795337,17
A/Sydney/11/2017,-1.6187655601337076,-1.558664288125011,0.3990750441537528,-0.8416490953358625,0.7756656626498551,-0.3973514315934711,-0.1754694188516503,-0.3395687448001608,0.2128041524856597,0.23394365891048113,17
A/Sydney/129/2016,-1.5870751000405305,-1.4309716832470618,0.5106237789774957,-0.748756982374463,0.6423498005348703,-0.39708748512095676,0.011008321802727693,-0.5741073080776687,0.14567297754075625,0.2095765968080252,-1
A/Kenya/015/2016,-1.4741691254513352,-1.5843076259794304,0.620228023739078,-0.8979306888086042,0.8308140259574565,-0.24889846658787612,-0.2648070942153179,-0.3166196798363914,0.03684137501557943,0.4352997961792568,17
A/Pennsylvania/50/2015,-1.4739926280864615,-1.5840072256631914,0.620011185715687,-0.897446641787678,0.8298051789366134,-0.24854600645785482,-0.26440524372972973,-0.31607172366559094,0.036765174443383605,0.43404242339147303,17
A/Illinois/27/2015,-1.4954123265517527,-1.469929387658677,0.6044615645632222,-0.9587724156258975,0.8199445970804167,-0.27984007579790243,-0.13154427914962538,-0.3169800619666555,0.10788697089742808,0.4617276737857361,17
A/NewYork/43/2016,-1.5426147692494379,-1.5147950819662963,0.558331134116636,-0.9670047672053658,0.8936232897488634,-0.3542007376826791,-0.1458034417316418,-0.37762195187997244,0.19906998089964473,0.27341662783849874,17
A/Louisiana/29/2016,-1.5453522301751001,-1.5174365902330118,0.5642791940529355,-0.9798659577684109,0.8885210707410833,-0.36422778533393474,-0.12647829724709256,-0.3745318943982949,0.21055495829373613,0.2837663885613775,17
A/SouthAustralia/51/2016,-1.5196769215831123,-1.5004516453027086,0.5736766339135754,-0.6776386527645104,0.5882243888745615,-0.289590081408091,-0.10339178687115903,-0.5246994719309395,-0.008904598259791157,0.37591365048345265,-1
A/California/96/2016,-1.5075503064908864,-1.6447591579198393,0.6493811144039232,-0.9697474266294789,1.149581481570696,-0.0862678944320763,-0.2362320831087999,-0.4453207540697845,0.15130019808508788,0.2788309633948687,16
A/Sydney/80/2016,-1.473313765044312,-1.5847050686156356,0.6150784086977784,-0.8993276539640964,0.8408368718377547,-0.23513393235007243,-0.2740112935970446,-0.29188967330228854,0.06062667360990124,0.45460725553444636,17
A/Iowa/22/2016,-1.5105991440985402,-1.6430392402928078,0.6494695602918773,-0.9695574215393926,1.1525908338505435,-0.08542700468413215,-0.22745653366506308,-0.45834893476262983,0.14782933715070487,0.2800014686599692,16
A/Brisbane/231/2016,-1.4852834863691495,-1.592636006930176,0.6252015113619992,-0.90684486964751,0.8256914633745641,-0.2533343859314249,-0.295111377029921,-0.30140624590024684,0.0462773182606175,0.46632530660746524,17
A/Newcastle/1000/2016,-1.491338969846601,-1.5855394544519426,0.6266298517774289,-0.9047709830782171,0.8376855529330537,-0.22527623911244324,-0.2893089421757355,-0.3107795801906193,0.06417146130973242,0.4677692882393591,17
A/Newcastle/30/2016,-1.4862334321051442,-1.5895964153582467,0.6489668098728664,-0.872780760886844,0.8431552694317971,-0.24941306877023536,-0.28693742774293934,-0.34326522984506946,0.05783447959253574,0.47571513629484985,17
A/Newcastle/64/2016,-1.4781478361710987,-1.5919160257801344,0.6194279788098321,-0.9064845078375413,0.8312164464466753,-0.2478119480996316,-0.28732683136325243,-0.32624845461836305,0.03053789747318004,0.455980681737615,17
A/Newcastle/78/2016,-1.478193151190601,-1.5934302565507095,0.6188203323296626,-0.9046067068235082,0.8291101846936662,-0.2482593361874291,-0.28331985574198704,-0.3247519885480174,0.021795515710000168,0.4682895318756103,17
A/Nicaragua/0645_06/2016,-1.5558625566494029,-1.5339990205306746,0.5608072710878687,-0.9952823759166489,0.948287441183071,-0.4038258549253754,-0.17499819408419104,-0.4134281178519488,0.2363390477449404,0.31433056467779397,17
A/Nicaragua/6487_12/2016,-1.5546168914422804,-1.5329429248339383,0.5635881590955841,-0.9963546814307241,0.9522976732399134,-0.39740595855631045,-0.17109247880058673,-0.4092751723967738,0.23677931505360975,0.31338667995611513,17
A/Nicaragua/6893_05/2016,-1.5548145565243308,-1.5320918763726323,0.5628913775528906,-0.9961733566627132,0.9548501321412377,-0.4011476555597367,-0.17182339527569662,-0.4055639546074439,0.2366435227610071,0.3121884704253119,17
A/Nicaragua/8605_19/2016,-1.5540778457263167,-1.5335487420388338,0.5627036420424366,-0.9967433935746691,0.9538515542658945,-0.3989606955992267,-0.1734852067595519,-0.4076638735397755,0.23929590094509648,0.3148033462798625,17
A/Nicaragua/8771_02/2016,-1.561900429234926,-1.5445243967563516,0.5694842701136061,-1.0062607674948028,1.0222555012082855,-0.3413227025098269,-0.14847001401738777,-0.4331611020954015,0.25890438134069266,0.2578419166300709,17
A/Nicaragua/5307_03/2016,-1.5560532817191999,-1.5348894840149425,0.5641578253583425,-0.9992361399072884,0.9586713756983253,-0.4020117089119574,-0.17345894604941908,-0.41383076967704646,0.23981172353186217,0.3188710082152505,17
A/Nicaragua/7718_04/2016,-1.5559853864249353,-1.5352014046232565,0.5646321888583361,-0.9998993248115483,0.9541947996420403,-0.40118761355627924,-0.17579714207193597,-0.4177301975107,0.23817203037881107,0.3119918656299259,17
A/Nicaragua/9083_05/2016,-1.5547603166349,-1.5354388729557797,0.5633807368891143,-0.9996868700075493,0.9624890862377418,-0.40141338643839447,-0.17105255209287984,-0.42069876187461824,0.2365295406595253,0.3181744805960418,17
A/Nicaragua/9290_01/2016,-1.5568449715606407,-1.5329154685767392,0.569695293756838,-1.0078736168263833,0.9386625157400588,-0.392047934359627,-0.17834344657794557,-0.4063236529220164,0.2342406069523015,0.30989571996648074,17
A/Nicaragua/IIIn_16_0266_01NT/2016,-1.5560349732087568,-1.5357033649892542,0.5618626700897724,-1.0030212201965942,0.9596897128769213,-0.4024540021380967,-0.16964765698467635,-0.4197705577647944,0.2321827875104673,0.3160654286559109,17
A/Nicaragua/6842_18/2016,-1.5618495282629086,-1.5429465526975303,0.5697814189256089,-1.0033975193310187,1.027996688311796,-0.34386204548885013,-0.14706374603302388,-0.43787019040180597,0.26225810366123503,0.2593149099585071,17
A/Nicaragua/5275_01_TR2/2016,-1.5592611363259008,-1.5317102290985132,0.5683373371657233,-1.0195539333550785,0.9360496887842084,-0.389735487889683,-0.18473481263197597,-0.3942212797013684,0.20051157883756437,0.2953756224416944,17
A/Nicaragua/5660_06/2016,-1.5552148681048867,-1.5328976995765813,0.5648893741084146,-0.9983454564915926,0.9576281858406663,-0.3976505770703921,-0.17184434577592037,-0.4152674493959232,0.2386456021427888,0.319336086197075,17
A/Nicaragua/7056_03/2016,-1.5578074519994443,-1.5360029193499887,0.5603702433621202,-0.9946120212314669,0.9497470019028023,-0.40937812324249806,-0.17936646595877476,-0.4153363077519205,0.2372087740233347,0.3161927672031266,17
A/Nicaragua/9073_02/2016,-1.5549763830107863,-1.5341346230616755,0.5660352041651008,-0.9978786531573496,0.9549948103207184,-0.39765850592995305,-0.17188419894247692,-0.4142562055309459,0.23626518902762425,0.3145401386651219,17
A/Nicaragua/8031_10/2016,-1.5541872609763216,-1.5333039477603885,0.5677218092333916,-0.9943958164308316,0.9526678834997804,-0.4005091833188844,-0.17225420828791482,-0.4141842661502577,0.23384871443173813,0.31877657957951555,17
A/Nicaragua/8100_07/2016,-1.5551955373752218,-1.5320476703066015,0.5634728545509645,-0.9983512119202408,0.9536280878662874,-0.39477301974340623,-0.17173791938324887,-0.4119182327266734,0.2383734141345234,0.31470832254057257,17
A/Nicaragua/6678_06/2016,-1.5538178833177458,-1.5360054017479225,0.5788784872140131,-1.0163232309488277,0.9282709520375678,-0.38657739144923775,-0.20760431631033563,-0.3955037535400803,0.20028235415695306,0.2845984307675387,17
A/Nicaragua/5978_06/2016,-1.5597364783801575,-1.5404355525095352,0.5692744666581181,-1.0070203181743989,0.9829662289718337,-0.4011226743508254,-0.1779795467774043,-0.4290647757657155,0.24486449119290607,0.3236814827697529,17
A/Utah/39/2016,-1.544846646911892,-1.517116543394399,0.5604344033730644,-0.9751873886337653,0.904768287775828,-0.35880331160703866,-0.1499263583556462,-0.3814050968523902,0.20032324464181292,0.28412995359263743,17
A/Wisconsin/86/2016,-1.5204792040968116,-1.6567892768145225,0.6712382689693014,-0.9970913579102295,1.1986285581317755,-0.06286676931391674,-0.25414884893629613,-0.5118686640277533,0.1433442623335335,0.2605471767578938,16
A/Tasmania/213/2016,-1.3650319921219982,-1.6553440420477181,0.6052037755180538,-0.9633927547201578,1.1506413794723012,-0.05454599044037459,-0.26414676029277334,-0.4664147431319137,0.16848029717895144,0.23030619101122435,16
A/Sydney/1092/2016,-1.525770833096981,-1.660014206531222,0.6337835867287505,-0.9610679467958049,1.1253476291623383,-0.14409071045348337,-0.31719171395558743,-0.5173685480987837,0.1554921261152027,0.27885150661689456,16
A/Mississippi/12/2017,-1.5855150005004213,-1.5613533103610544,0.57668105048733,-1.0548974515634237,1.2537088835017822,-0.1929610020698589,-0.11906134678407229,-0.5480846800558887,0.33697135945560897,0.12032845480459581,-1
A/Arizona/38/2017,-1.5250181094055149,-1.6675201853953934,0.6621886730928428,-1.0023130410635577,1.2212329943550755,-0.058533267620320746,-0.2753013095288912,-0.5270576355957162,0.15420831001046792,0.24348094661256978,16
A/Sydney/48/2017,-1.521856642309029,-1.6636383643604706,0.6649804751278838,-1.0200631662004613,1.2247784377910171,-0.07176906602112945,-0.3148588250766937,-0.5119777645516544,0.10505433223932584,0.2985607799658731,16
A/Victoria/2045/2016,-1.6018129276702178,-1.5541232791077222,0.48035427611994597,-0.9746681199260603,0.678575506180048,-0.8404634188992981,-0.2761289970387097,-0.5360444071001442,0.4270973264644672,0.36488019057077403,-1
A/Victoria/513/2016,-1.5976957153678626,-1.5569254867600806,0.46176871234694805,-0.938805784887464,0.7579310324062657,-0.8033507474459932,-0.43520297426204013,-0.5454952335882117,0.32867004185983756,0.35928577038243975,-1
A/Alaska/26/2016,-0.8973378605736297,-1.143374730281577,0.7877946775560372,-1.7731663610591177,0.00923398029817013,-0.2843562947275461,0.007761682780760776,0.408093472433941,-0.6321229430440505,0.34999746393787196,21
A/Newcastle/134/2016,-0.862596967754798,-1.3671585314324555,0.8564011853083494,-1.6858018699409536,-0.08204301599871874,-0.32210095151268103,0.012730859904247837,0.3453190284645606,-0.5980290817494552,0.29161021532499876,-1
A/Alaska/264/2015,-0.8955788151947174,-1.1338591920285763,0.7709657793738741,-1.7018753622983027,0.0624326732796806,-0.23183707048422927,-0.12619898843366228,0.35822964190897394,-0.6663529496274083,0.3061216498316857,21
A/Sydney/1018/2016,-0.898306212487645,-1.1319184179437478,0.7977305116071016,-1.679402636150117,0.05918771412044037,-0.239044393501517,-0.13290498303685716,0.3515121870281552,-0.6649319752570978,0.33608411365582,21
A/Sydney/9/2017,-0.8958538238513645,-1.134087341936328,0.7675182865404593,-1.7052115635751743,0.06256470734722905,-0.22942787303896478,-0.12488214567809518,0.36155545177623377,-0.6662457879002686,0.29865778068159615,21
A/Canberra/1001/2016,-0.9119879475666621,-1.1476495487658667,0.7950965357324103,-1.699075157201987,0.0929244181923473,-0.2890814044744087,-0.15543012854976324,0.32107267882044305,-0.643768656697492,0.3531064605316606,21
A/Sydney/101/2016,-0.9737847466588802,-0.671724360499702,0.6515548971675974,-1.8014368556413434,0.23566337328670553,-0.1405074734322668,-0.13687564863514506,0.4267464934376591,-0.6823735313888195,0.40893476179507954,-1
A/California/126/2016,-0.8290621432975501,-1.5754080078407138,1.021396031518321,-1.454479935125829,-0.10921395298360212,-0.3264571582839998,-0.13071243527787796,0.23045700276585146,-0.6004654372789676,0.3092992358349739,-1
A/Montana/39/2015,-0.8972066866156891,-1.133831200405815,0.7690461608180591,-1.7063343318529514,0.059937968916199416,-0.2281858992918992,-0.12274028567963363,0.37059845083145687,-0.6808900328433383,0.30505827802937424,21
A/California/121/2016,-0.9661360792120249,-1.0615133796793406,0.7096002615544933,-1.7795638257584203,0.1207969880047144,-0.33035894733925186,-0.010836592200065245,0.3011932032074836,-0.5067595181276996,0.13987948368636516,20
A/Illinois/53/2016,-0.9660204069535671,-1.0613121062967485,0.7093521780880517,-1.7786045172292184,0.12065030574169523,-0.32989113265509956,-0.01082014743731974,0.3006719447866992,-0.5057113660098506,0.139475438800748,20
A/Michigan/81/2016,-0.969572259491415,-1.062385991014698,0.7255231157472728,-1.8224545815399462,0.012676345822422058,-0.40790873820685425,0.2643533296096574,0.32099173552274535,-0.33034318966115156,0.1673654936081209,-1
A/SouthAustralia/160/2016,-0.9645980988601361,-1.0641853420352192,0.705860417059057,-1.7743711609466504,0.12339190257245301,-0.33395084871116115,-0.0063645770858941995,0.3039722194231498,-0.5050472116072547,0.13576019047427537,20
A/Sydney/1014/2016,-0.9662532794399253,-1.0651017409904038,0.703660003886443,-1.7725001668273155,0.1186696558866217,-0.334169722661129,-0.008184084765996663,0.30445827049048024,-0.5037247971564348,0.12309325352927523,20
A/SouthAustralia/173/2016,-1.0072936912315624,-0.8364426288589191,0.6630706085553638,-1.8758776776531365,0.10215057944203515,-0.38982141071049364,0.2819934493077461,0.30264659702917196,-0.35058199880015795,0.18927056742464396,-1
A/Sydney/1094/2016,-0.8222896610544771,-1.0788889703875808,0.6800298364755817,-1.7089729959246083,0.09204556707944606,-0.24715648290947936,-0.022511511755549104,0.2171546685396703,-0.41283537118646363,0.12764578193467233,20
A/SouthAustralia/1007/2016,-0.965844600188537,-1.055522743031902,0.7041373066166683,-1.7846765470496457,0.12714502128562716,-0.3344790862974326,-0.008995595897689649,0.30498904667965443,-0.5095156162950744,0.14356912125751792,20
A/SouthAustralia/164/2016,-0.9648970209590992,-1.0665165172367868,0.7065976727581429,-1.782990200927896,0.12149390910769305,-0.340373689016412,-0.001120547113257847,0.3110824410959452,-0.507768003320719,0.13750491907079027,20
A/SouthAustralia/141/2016,-0.9682009930619816,-1.067068035543383,0.7051127917848038,-1.7813551994848926,0.1239138656581469,-0.3429313941081357,-0.015292933613467787,0.31957504550663013,-0.5028005162148139,0.1355078257566297,20
A/Brisbane/287/2016,-0.9031819299372192,-1.1406805366016082,0.776141721594603,-1.7408217705485063,0.046591550091743386,-0.22943739279847974,-0.14294866181926058,0.39488503596059144,-0.7218102734175518,0.2731356454098288,21
A/Brisbane/300/2016,-0.9027493900667718,-1.1398153995832567,0.7750563334448225,-1.7370680750684449,0.04636524795895328,-0.2281377860245846,-0.14208095109064225,0.39215141318233354,-0.7158384707008486,0.2699798127544823,21
A/Sydney/5/2017,-0.9071238343622573,-1.092953656424302,0.7764927988799656,-1.7248193419052311,0.11119427587528358,-0.2952155847051426,-0.10978444238888126,0.4678910289290493,-0.7929789205291996,0.21480205899743907,21
A/Tasmania/24/2016,-0.9010820532643028,-1.13779183531196,0.7766604314292525,-1.7320240152233777,0.046916310421216786,-0.23048261766086814,-0.14408733699244838,0.3861131867730626,-0.7067652963731101,0.28129240367174646,21
A/Canberra/80/2016,-0.9002921755784038,-1.1361998709468666,0.7758699004972722,-1.728975235473158,0.04348635355919203,-0.22405534025226512,-0.14223308516950273,0.384954532775902,-0.7032115003583688,0.27298407750053155,21
A/Georgia/58/2016,-0.9010214401933698,-1.133550313265594,0.7756582431004179,-1.7363176089665322,0.045677801357998975,-0.2213717664522428,-0.1473396193048373,0.36469482731762104,-0.7026331901751676,0.27347962278459875,21
A/Tasmania/97/2016,-0.8993819316649171,-1.1351009390906814,0.7761923969074291,-1.7343585045594114,0.028423214166121924,-0.24005212949121335,-0.10236748449785944,0.3893604880222146,-0.6819960682581585,0.27466055543963547,21
A/Florida/68/2016,-0.9013055243721121,-1.1389452482091373,0.7860270184006882,-1.7352435486442392,0.047137728805644756,-0.23356065079176183,-0.14861739467042723,0.3950080493435041,-0.7169942797847344,0.3024797848343918,21
A/Ohio/34/2016,-0.900262015412612,-1.1368525900648032,0.7705895191650676,-1.726755628906506,0.04210236792123523,-0.23725234540279783,-0.1394048663557509,0.3711071141009626,-0.714148762528798,0.28357275158113787,21
A/SouthAustralia/115/2016,-0.8984863840503993,-1.1320619062168888,0.8020155908288106,-1.675643623440889,0.06282686537049591,-0.24087659751492588,-0.13261103678653685,0.351820437322735,-0.6627276949259826,0.3450859100114339,21
A/Victoria/1012/2016,-0.9008146725961587,-1.1311773033506487,0.8039988240883522,-1.6928053589507925,0.05722129845107937,-0.23849715795717327,-0.13927235098089885,0.3542557985843093,-0.6792856978709043,0.3492714097547595,21
A/SouthAustralia/147/2016,-0.9032166476841684,-1.1373468552984314,0.7861340153525584,-1.7598719620653296,0.0052846303586423565,-0.26634627413566336,0.05682374137154347,0.37738580108518854,-0.5831789335635428,0.319712789138939,21
A/Wyoming/22/2016,-0.9007275717882317,-1.1378921503871573,0.7668230061077325,-1.7069021959247124,0.053953807106155244,-0.25128312268969066,-0.1436774690364222,0.370035246513254,-0.6764085808987281,0.31227897773265345,21
A/Canberra/7/2016,-0.9364111004588616,-1.0884382552988612,0.6891403436329988,-1.7045316106684099,0.053604960739814106,-0.18253148941286,-0.17299518308030803,0.27095016218266177,-0.5260232912774534,0.15905745986446826,20
A/Tasmania/3/2016,-0.896841239569744,-1.1304770576622536,0.7684613253608245,-1.7114091375028968,0.05651153880004887,-0.22270809030132296,-0.1311954170626402,0.35757428834327526,-0.6682660928829465,0.30108826224768165,21
A/Utah/47/2016,-0.8980075722500096,-1.1355851756738609,0.7663208192208678,-1.7119193446936627,0.060576770283389696,-0.2400562373763764,-0.13542690916178474,0.3624310246768053,-0.6687647436655276,0.3116669918083065,21
A/Minnesota/31/2017,-0.9758255819717053,-1.0013128686572872,0.691314069853581,-1.823065475638878,0.12360758453692604,-0.26579199315887186,-0.057808336593354534,0.23886635625922917,-0.4412295964484751,0.2223736933798842,20
A/Victoria/2073/2016,-0.9645113601757734,-1.062053364003656,0.7078397283436588,-1.774228543213859,0.12877390332301636,-0.34141216061687985,0.008324077622518005,0.2942062920502836,-0.5133165764809005,0.1385806486785482,20
A/Darwin/1008/2016,-0.7595691407803669,-1.1302057261371885,0.7513991329085411,-1.6563194676269832,0.05675796812296295,-0.15884115720315758,-0.11472149227363795,0.3601555387417695,-0.6696930250704567,0.22199106329888874,21
A/Brisbane/197/2015,-0.8957381373158848,-1.1356016208405888,0.7718273384073473,-1.709295683846589,0.06156128692975194,-0.2297104383508174,-0.12350059855157126,0.364074462389014,-0.679578680970702,0.30167292801830153,21
A/California/120/2016,-0.9003827054959528,-1.141050712398915,0.7722413552216544,-1.7126207860038447,0.05939190906012407,-0.21805108126644432,-0.13015211599491222,0.3649477495838375,-0.693427089705063,0.30489107476771854,21
A/SouthAustralia/35/2016,-0.899835522386268,-1.1406090016952266,0.7690562035298665,-1.7129339928399336,0.057849366484285195,-0.2162874243755593,-0.12859676903495254,0.36570656720757744,-0.6919915288513246,0.29881244837697224,21
A/Utah/43/2016,-0.9045782881155546,-1.1450895561879182,0.7625090419899409,-1.7060586306887775,0.06749884026600962,-0.18569895995278737,-0.14457924805492772,0.3898652345121297,-0.7276476612256269,0.3324701720281751,21
A/Brisbane/66/2016,-0.8614965985668909,-1.2072630099346424,0.5886985082578063,-1.6484801994408118,0.2494826503473938,-0.2988006181756414,-0.09407249284094954,0.4051061806783984,-0.6337638402151312,0.16807882838702962,-1
A/SouthAustralia/172/2015,-1.0119493318066657,-1.1990015288661633,0.6463088823436401,-1.6624339930376306,0.2512804278203313,-0.3077408846050457,-0.07923148030177778,0.366559984776299,-0.6558727780301464,0.1810594092845686,-1
A/SouthAustralia/143/2016,-0.9235537554997356,-1.1623811884600703,0.7964506356314823,-1.796471344694288,0.1348093052084783,-0.15399941839089182,0.0071819533755997315,0.3171639851371666,-0.5837102735283095,0.25409122848396454,21
A/Newcastle/201/2016,-0.902436854040012,-1.1398852021836148,0.779942744102598,-1.7476899567472175,0.05405363153203473,-0.2314796560969463,-0.145723426469157,0.3954954645252577,-0.7166813909306289,0.2807911059553904,21
A/Utah/53/2016,-0.8123035994134347,-1.6637009393515605,0.9581334201449074,-1.5559591079762691,-0.08018652176440215,-0.5095489496090465,-0.037085685746535604,0.5329015384733046,-0.9106885025383361,0.0031493920489603887,-1
A/Wyoming/07/2016,-0.9129104344085274,-1.0649982916734708,0.7507339786307246,-1.77429319775806,0.07001693454612627,-0.1540371896926817,-0.1772966472596192,0.26792007249703714,-0.5694146681167873,0.45001872770123147,21
A/Arizona/71/2016,-0.8824470751846637,-1.153387559851455,0.7865954430510402,-1.8086988996657452,0.0724191682939589,-0.24038018065778224,-0.22813334142966157,0.6039911015153622,-0.6817601372528862,0.45123285762375315,-1
A/Hawaii/54/2016,-0.883334725058769,-1.1541250926521371,0.7848065774349374,-1.8094695493550212,0.07716516952021361,-0.2465642423852966,-0.2261032134404988,0.6109585543437478,-0.6941171721249431,0.4584565303942423,-1
A/Hawaii/58/2016,-0.9582064864746161,-0.6701139682193803,0.694973255449264,-1.9192720749112147,0.30641906759072446,-0.2693560153284996,-0.22743785973289118,0.6522678734668659,-0.8621628963281347,0.3745205637425648,-1
A/NorthCarolina/51/2016,-0.44578286861196864,-1.1590741295385443,0.5424372784347653,-1.6442065333745268,0.161131700450313,-0.244793463382634,-0.1318144964464829,0.46108920932913705,-0.5035565337756188,0.3579925759808073,-1
A/Brisbane/86/2017,-0.9213399732264945,-1.0130699774256586,0.8738267515776115,-1.643281235425201,0.059152447762465366,-0.2823540982916302,0.016142603086579974,0.3172957579621662,-0.5697462634676183,0.43625363998830013,-1
A/Victoria/2015/2016,-0.9409027887153774,-1.054853727430189,0.7381548873856398,-1.516894832173173,-0.21525779966934663,-0.2630611327901689,0.013073526178184832,0.18909364624926772,-0.776225690054099,0.21928713073534375,-1
A/Sydney/1059/2016,-0.7612615605848215,-1.0163845867914572,0.8507248990722324,-1.6497105015775317,-0.09758077012278298,-0.18643738759404552,-0.08505731500603021,0.3384188705410109,-0.6185596789325662,0.25094063625847246,-1
A/Texas/179/2016,-0.8983104445722196,-1.1465322697670082,0.7728453296496951,-1.7286457140106604,0.05768332264690244,-0.2433729209911183,-0.14539839180153968,0.3506508073133162,-0.6905663121772243,0.3230201612314021,21
A/Victoria/2097/2016,-0.8878335011058723,-1.1404388061885822,0.7670181443152194,-1.7197725819316854,0.05283567167966575,-0.22469829278870523,-0.12228765348094801,0.3479474950370393,-0.6950518117194732,0.29914669278891676,21
A/Brisbane/285/2016,-1.4059574727172683,-1.507942848324902,0.5161644941910299,-0.9039153148416527,0.9102818936397649,-0.2703489810975099,-0.12403321810458395,-0.3958647242136629,0.23017247141883418,0.21041549617104616,17
A/Hawaii/76/2016,-1.231271468618839,-1.6052833547120848,0.5151530186529524,-0.8673074587297369,0.804375940365796,-0.34241054507705637,-0.07955565733752358,-0.4800247426434708,0.023254263284572117,0.49493030455652837,-1
A/WestVirginia/14/2016,-1.4681802970833984,-1.4356395637784198,0.4796568880271882,-0.9414118666295862,0.9641542603591567,-0.3830984834212799,-0.01671657506969285,-0.5614713965835048,-0.005860329792622822,0.3202254710158596,-1
A/Perth/78/2016,-1.4691723993851666,-1.593362901217973,0.6029794848935929,-0.8944989201912128,0.8408225399880782,-0.2456998589324822,-0.25489353577605056,-0.33659546573331733,0.029323612370669352,0.41919918094380343,17
A/Alaska/28/2017,-1.7576295989181452,-1.8066057292962578,0.46324056204292735,-0.5186094748709829,1.6273308218221305,1.1861094168966766,0.4785325446582627,-0.38899454191668154,0.3253706483250097,-0.5387660169654349,8
A/Alaska/33/2017,-1.760765852798224,-1.8108388762899406,0.46287116157063524,-0.5202882342588204,1.64822244701382,1.199071436460849,0.4828418878434242,-0.39947409016664365,0.3385167531045018,-0.5688479370210495,8
A/Arizona/06/2017,-1.7581121348903863,-1.8424946087721938,0.47568554787812795,-0.5172606026952717,1.74346264351324,1.2399869386199922,0.45178340614490264,-0.3988999327674534,0.30481110882862344,-0.6508501364777612,8
A/Victoria/2001/2017,-1.7612688517241826,-1.846292215238503,0.47215583721889504,-0.5107625750854943,1.7377559533892046,1.2383961181827983,0.45045462527034685,-0.3887800421870868,0.29534070175728255,-0.6324700209131013,8
A/Brisbane/122/2017,-1.7321174023104435,-1.820805266240129,0.5284100910942343,-0.5426186475554206,1.8190480933489925,1.4589118940478616,0.5932567816189008,-0.3284279258440382,0.2305222445781734,-0.7050236429551933,8
A/Arizona/37/2017,-1.7487394722134249,-1.8399518239349795,0.47060127058255286,-0.5114232246644665,1.745967585316157,1.2436447433210829,0.4604135424539549,-0.42964406649163744,0.2946605476746758,-0.6619539670857753,8
A/Oklahoma/19/2017,-1.7424924839791172,-1.8186068319568622,0.46895179056689895,-0.49563309302683306,1.584656206196164,1.105128552977911,0.39518169734498854,-0.34266728893359366,0.25323836085154744,-0.5135735779091423,8
A/Sydney/54/2017,-1.7463947421102732,-1.821680316501523,0.47082422820735886,-0.5090564888448708,1.581350728317513,1.1071638567966522,0.4682497287911254,-0.35592226168103874,0.29084799415236073,-0.5252004381968187,8
A/SouthDakota/29/2017,-1.7521681857990976,-1.819055792031748,0.4920264798108759,-0.4695403434620023,1.6382356495697254,1.1459368212310768,0.4089556628985702,-0.38280925581070857,0.3028601699134558,-0.5481375331881617,8
A/Sydney/13/2017,-1.7433423551631575,-1.8138969136348477,0.46586170651967795,-0.49137400422380584,1.5687199497761264,1.1023608051287377,0.40956058880493074,-0.34072251551613786,0.23835228335728909,-0.510539828631242,8
A/Florida/38/2017,-1.7539919290284256,-1.8256011619392032,0.49683916036399184,-0.5175440839027933,1.5901996289576004,1.1371505512171347,0.5498465359750054,-0.35413824668558697,0.3739391423768087,-0.5689009198131347,8
A/Idaho/24/2017,-1.7603012727332172,-1.8425412248288071,0.4759875122213617,-0.5214079393037123,1.738300143455092,1.2347975726803,0.4701817964471024,-0.4005374818706471,0.3191282385676601,-0.6613408263437074,8
A/Massachusetts/03/2017,-1.9094909908030944,-0.8450257035342633,0.24809723614799475,-0.7244970935588989,2.1802843172151807,1.1834721642481283,0.39381533523140994,-0.44577763863973124,0.17587150190634104,-0.43326627403477636,8
A/Louisiana/26/2016,-1.7860479696705114,-1.8910776437439296,0.49770884572052226,-0.555859147096489,2.014201198072705,1.4640604108916602,0.6545780240481147,-0.4888405560382905,0.5298505895358206,-1.154141880628235,8
A/Washington/05/2017,-1.7806119164156955,-1.8839103946261415,0.5147606001629869,-0.5645618939112814,1.9544015476761583,1.4508632098784766,0.6195306603862715,-0.4928752270740517,0.48171884571073337,-1.0955205418398697,8
A/Washington/28/2017,-1.7780284992946724,-1.8803122173466635,0.5044397214288463,-0.5531324650333185,1.9585102425841803,1.43414099520238,0.6447473739461154,-0.46247561506531776,0.489863597343245,-1.0786864470448265,8
A/RhodeIsland/10/2017,-1.7754272252069911,-1.8802854606139447,0.5060068825838613,-0.5466714634332959,1.9504450698592741,1.4288936390194213,0.6367821896881222,-0.4605221473203948,0.4948644510186535,-1.0836651373176662,8
A/Michigan/58/2017,-1.8558606056374753,-1.9230985936379976,0.3477429930890193,-0.4266187569282698,1.8439402460752878,1.402313600412028,0.6200239587869297,-0.42402073385202343,0.5126237220307959,-1.1396373562708721,8
A/Victoria/558/2017,-1.2974929915459974,-1.8430416914279422,0.2576433777993659,-0.373221509071667,1.7495090915044262,1.1265758712828264,0.42628911155715343,-0.3024977433479058,0.4983953783998704,-0.43561626740161324,8
A/Victoria/12/2016,-1.5288435243775613,-1.6621245260369977,0.628374694376603,-0.9667061202101402,1.1461707435631714,-0.19738045456802128,-0.3243082270535485,-0.5110953377507859,0.20237065788405287,0.33894711034194014,16
A/Illinois/45/2016,-1.3854407428981852,-1.6440074502519453,0.6423952191910135,-0.9375046161519146,1.2560972802291832,-0.031983539011067735,-0.24328639792684253,-0.5411888255397195,0.15815569616696826,0.2181242165635479,16
A/SouthAustralia/1036/2015,-0.9002436880184331,-1.140768410588199,0.7736681333483729,-1.72625037118869,0.08332003217228992,-0.2072118541238858,-0.12511553015008975,0.34331367823785164,-0.6710291727347345,0.3004929777297222,21
A/Brisbane/298/2016,-0.9088873077753364,-1.0970261439692774,0.7649727526070775,-1.7872907944522891,0.025432568427188027,-0.14780216311701996,-0.2075965478308871,0.24706746356996237,-0.5920186968787773,0.4722147646857575,-1
A/Texas/177/2016,-0.8929612111036617,-1.1337802007836153,0.7897064414570852,-1.7332600056211247,0.07382173317714072,-0.19520742773551766,-0.10744287280383719,0.39568984321000766,-0.7094632472252891,0.3156546175321174,21
A/SouthAustralia/193/2017,-0.9555311577411333,-1.0591265592871493,0.7323389461836151,-1.7496826391969371,0.11384579213571905,-0.2919329937293804,-0.023474185252412634,0.2766211833741936,-0.47933547057308906,0.11062048589303985,20
A/Brisbane/296/2016,-1.5507462596560142,-1.1356076900046546,0.4700806589843439,-1.0346189622850426,1.0088874358500697,-0.1685696023768657,-0.2820106283657932,-0.24603265695815635,0.00272684074843998,0.5207117803547033,-1
A/Victoria/566/2016,-1.3057876972592068,-1.363095735421545,0.7715789196101356,-0.9435887398405465,0.4848019035149611,-0.18862091589402374,-0.18341537733283195,-0.44245756649751533,0.3725618433139882,0.4200886447916129,-1
A/Alaska/29/2017,-0.7034358281015307,0.6283372373463304,3.1884374337103027,3.079045967896623,0.34162890249643596,0.8881685532314771,0.41996925261759066,-0.22691175181732826,0.4124416959549491,-0.32733996199181126,7
A/Sydney/162/2017,-0.7088645240814848,0.6268545912154012,3.20659105540091,3.1133530119727024,0.3448053353511718,0.8916229603861341,0.42107329832014107,-0.23981820680046242,0.42517021422534357,-0.318990949497979,7
A/Sydney/212/2017,-0.7089198094624406,0.6278686613019759,3.2067653056245784,3.115991207598657,0.345295171760654,0.8971976555634034,0.4214777980187901,-0.23986998111864366,0.430013874483357,-0.32264644190918873,7
A/Sydney/701/2017,-0.7075570335470504,0.6293410505246835,3.2141105352917023,3.112117721398863,0.31979002829167164,0.9132343093823709,0.4115558778119793,-0.2482775813520978,0.4183602281652024,-0.3517013702142849,7
A/Townsville/17/2017,-0.7112979211421026,0.630523925904959,3.2043060116576605,3.116647777210047,0.34089213954691744,0.8982330231522722,0.4299559882384495,-0.24194327642592517,0.43865657895894583,-0.33808142385079853,7
A/Alaska/42/2017,-0.7223632757554969,0.7200125101377862,3.1921870530281504,3.099181409469897,0.394059680656909,0.8795037497732939,0.43252890243669523,-0.22388866370855134,0.39264075727452125,-0.3526095259641707,7
A/Arizona/47/2017,-0.7230756498521447,0.7213933085799701,3.190801751233392,3.0998009510078033,0.3871287635778045,0.8773478182441997,0.4280373647169342,-0.2272330419068827,0.3947613690841309,-0.3523880440020674,7
A/Sydney/532/2017,-0.7024492307514915,0.5551521476341519,3.2136510723468747,3.097685501638349,0.23185735709584943,1.0175168467529574,0.33522380295500986,-0.39448778383385974,0.5994498006445184,-0.15363194147911727,7
A/SouthAustralia/266/2017,-0.7111718153560951,0.6309222953282604,3.211443270379344,3.1241920255024733,0.33796707141340393,0.9136253266117113,0.4353534513664251,-0.2552986609574793,0.43602108852746047,-0.36374922060006076,7
A/Sydney/19/2018,-0.6772654359597882,0.6529535192325112,3.2405065576321173,3.0536409771928117,0.4137235059645037,1.110026063268235,0.5517691930939872,-0.16832426908773052,0.3527948731581115,-0.3709827362174909,7
A/Alaska/55/2017,-0.7093617528284365,0.6286326118155057,3.2187259022748846,3.1284476824207266,0.3512984706346453,0.9133838285129167,0.430765455578836,-0.24074496346370167,0.43316665558013606,-0.33269359370177226,7
A/Brisbane/8/2018,-0.7459849023844332,0.8500065824582399,3.152316506871367,3.0685432415249023,0.449139461512022,0.9028917307623762,0.4206591583245617,-0.25982723234017313,0.40405042981238637,-0.3077821258579196,7
A/Brisbane/101/2017,-0.6040903543984347,0.5502413049534544,3.48042788683115,2.5935031586699204,-0.15991648717864376,-0.4102733154989171,-0.20872915284049973,-0.37351800432360194,0.19234718163572445,0.692718968657697,6
A/Maine/04/2017,-0.6308692190026528,0.7819006081320304,3.4232839624165803,2.5010565265230476,-0.053968880952391864,-0.4173453668094995,-0.24394198984952917,-0.37852894248765107,0.2292279291091291,0.6129946835833511,6
A/Brisbane/290/2016,-0.6239512028278339,0.7712676363867248,3.3282182945053336,2.411543593494687,-0.07099489528723936,-0.3994177609873871,-0.22787305949334316,-0.3203104312472621,0.17665584904256965,0.5385626898935127,6
A/Sydney/76/2017,-0.6188530164037311,0.7743656024697934,3.3313633037777,2.406825980344052,-0.06522161483461779,-0.40109100625182315,-0.2265628221907193,-0.3283664401307343,0.18689361361740284,0.525441977219915,6
A/California/176/2016,-0.6450002708501014,0.773447787394421,3.387244715580297,2.483486626224791,-0.11041715058252279,-0.483887006024368,-0.28576479090273876,-0.41599560477459613,0.23547096154039662,0.6479304683403129,6
A/Florida/61/2017,-0.6191749973716945,0.7768948864300659,3.3558897094688325,2.43512881328198,-0.0644252686848562,-0.4116762530939132,-0.23268989219349054,-0.3432005548013686,0.19264798955275642,0.5534247681927,6
A/Ohio/33/2017,-0.618671993916113,0.7771088842013453,3.357424565501164,2.4359952042071313,-0.06744629416371486,-0.41440541392928065,-0.23433215525045134,-0.3444657911381894,0.19030047117027088,0.5561915657280478,6
A/Pennsylvania/262/2017,-0.6284526708982681,0.762142432579135,3.3621342041209834,2.4215571821118216,0.03412446187896269,-0.327569459574465,-0.192393965280092,-0.3732779763454937,0.2350701881172716,0.41799446371703586,6
A/Wyoming/03/2017,-0.6214683823098404,0.7762443660929912,3.350928942088279,2.427529182528273,-0.06887280424699763,-0.4129606270360297,-0.2326506510204496,-0.33857134573407965,0.18788744232699062,0.5449430355006997,6
A/Texas/23/2017,-0.4809945159147903,0.7847944117074847,3.3363442137902113,2.4958389693063014,-0.12427578233983323,-0.3245548948193824,-0.24129280680914683,-0.38848813231720564,0.20908434792158428,0.4233929735347656,6
A/California/135/2016,-0.6302851610911735,0.810724936422064,3.32867358814164,2.3877077762993073,0.015298172721035012,-0.38498327730829407,-0.2244694499183123,-0.3356019072121543,0.2256255558067075,0.5260462696786898,6
A/Sydney/27/2017,-0.7635956958220341,0.6648524454281379,3.265377266023553,2.5434123896517935,0.04644514065947913,-0.4915217937141508,-0.3187864176540323,-0.519170917265251,0.3488511523558412,0.6187953729969209,6
A/Brisbane/324/2016,-0.7088127765532178,1.117287402232645,3.3174650566522557,2.4572726353622976,0.008474373844079015,-0.5500129851924435,-0.3292769221436116,-0.4680811296212665,0.2408512327071414,0.7505235616498275,6
A/SouthAustralia/219/2017,-0.5181282854837995,0.848056722498526,3.356593895106919,2.574769938490896,-0.12847388350022193,-0.4275676951486704,-0.3522620463877275,-0.5472484986385057,0.39332005070284265,0.7661367939673162,6
A/Canberra/3/2017,-0.8564375612938074,0.6233063857788009,3.234198648317802,2.9859022341058643,0.3127807656456375,0.7190963532795683,0.3584494374892589,-0.24881432707953818,0.31537643737951765,-0.12400128532903813,7
A/Darwin/1005/2017,-0.4791675703493473,0.8204079932298126,3.3345008905022473,2.5347573407087647,0.00020007852954782992,-0.38454282949700225,-0.1574424491905848,-0.2481299010265249,0.21627955506778238,0.3819392800879515,6
A/Ohio/37/2017,-0.6403331922103621,0.7768178726604154,3.4654905946133208,2.5298280085386655,-0.045812757741231384,-0.38022114058990747,-0.2567872588423134,-0.42876655613891773,0.2329145939721066,0.5980168781036438,6
A/Arizona/51/2017,-0.8863566315918546,0.8116611934377072,3.1302800617515847,2.92281871224218,0.5080589704769409,0.5565427725936355,0.47773522850098976,-0.018052855223743537,0.04902413820783694,-0.375285458018667,7
A/China/GMU-SKLRD03/2017,-0.5176863540257942,0.8465950907054607,3.3537766501603343,2.5738248021217633,-0.12636729088866233,-0.42680834623155933,-0.35052658606881903,-0.5458337652094509,0.3940629346115285,0.7626154461103544,6
A/Kenya/001/2017,-0.6328445707766247,0.7847751030266997,3.42611648309827,2.5001940024246516,-0.0602133196025981,-0.40852018452190914,-0.2454616926796193,-0.3782648997165489,0.2225443535216143,0.6250840526487679,6
A/Kenya/005/2017,-0.6058172762633215,0.6623131268358876,3.3406631115219714,2.376011886752255,-0.12181011252441612,-0.4174956855079021,-0.24115304379911942,-0.3217135936133703,0.19287739918869218,0.5015100816170293,6
A/Kenya/027/2017,-0.8599921950746174,0.6219199478998383,3.2354313086431783,2.9716903520721996,0.383299911558481,0.7113572297204727,0.3836827847339785,-0.21618668266650928,0.3118382137493981,-0.17976217262517838,7
A/Kenya/030/2017,-1.218101727767013,0.22939604406847125,2.909605874127938,2.6830113288252586,0.7608617375029847,0.6427196757800793,0.26494153596795533,-0.20614061392923116,0.04289130482926066,-0.06402007416178968,7
A/Linkou/0153/2016,-0.653675910759986,0.7734461588126825,3.384293717473936,2.499154398692322,-0.11496018197128023,-0.5052268285239213,-0.306951493933485,-0.43006127062056293,0.24917707386678412,0.6635345484359034,6
A/Linkou/0166/2016,-0.6556586875456487,0.7728343623995594,3.3870673686958375,2.4998161443170948,-0.11636963633792892,-0.5107486944808142,-0.30520766373371605,-0.4369541473637742,0.24293395419942193,0.6684454481603244,6
A/Taipei/0123/2017,-0.654268572800253,0.7814700700610894,3.381472390142528,2.494813732984716,-0.1034811587576488,-0.5062600685681654,-0.3031634277522406,-0.43017996517336454,0.24606734699066013,0.6646596067637702,6
A/Linkou/0181/2016,-0.6262101470148599,0.8190647491628777,3.3309301250670904,2.4141613540844102,-0.0023163120054819518,-0.46882341453970017,-0.1932307800303801,-0.24767788336815802,0.10059822826518812,0.45830632721628833,6
A/Linkou/0185/2016,-0.6277259208842422,0.7579213206118205,3.420696879527338,2.4935639648212264,-0.09467283404473352,-0.3714288602897987,-0.2640835385287658,-0.4076929231818712,0.2846226165327058,0.6596084687099876,6
A/Linkou/0302/2017,-0.7081622136074784,0.6281565988367656,3.206921812866777,3.113537847940984,0.34529246998458824,0.8968090243803529,0.4217701637576288,-0.23977113430462876,0.4280456375414466,-0.3185086005745666,7
A/Linkou/0304/2017,-0.6768883633695486,0.4992048022221469,3.052294274070181,3.0261700167989507,0.5233058425903482,0.8235678210755809,0.37998134131294553,-0.24611187679279758,0.3691485260091337,-0.27840015865665274,7
A/Santiago/p024d0/2017,-0.6158520376698563,0.806693134648174,3.408298832409081,2.4902040311714133,-0.03697857741235814,-0.37695465626225017,-0.30380131507635505,-0.29729409008800034,0.3730107704083216,0.6796418204679966,6
A/Santiago/PUC-MVL_161/2017,-0.5799953817694669,0.7604524028045913,3.36468057606492,2.4632133382283894,-0.11838031511227433,-0.4129159985741284,-0.1898340025437326,-0.4206789041847414,0.07587641720987318,0.528400576806918,6
A/Santiago/p022d0/2017,-0.6187590310480263,0.777521864188515,3.369385301978134,2.435211924298925,-0.08873974858941075,-0.4077875257249327,-0.24907332640045513,-0.33683952528143696,0.17857938058464567,0.5332059827041767,6
A/Alberta/006/2017,-1.5781702701587086,-1.569627752881016,0.5781842841913631,-1.049850317532405,1.2437580758504982,-0.19423606548135716,-0.12285185984791361,-0.5174122980343865,0.35207619074339624,0.12318009460343313,-1
A/Alberta/150/2016,-1.5834451370979552,-1.5686450125196358,0.5795986169552867,-1.0471456374012604,1.2401235154620707,-0.19776101922301487,-0.11220934288262432,-0.5397748922214095,0.3274609028211961,0.12104318727602963,-1
A/Alberta/151/2016,-1.58306379429687,-1.5689725000226364,0.579430423737234,-1.0474975162789193,1.2415139239988953,-0.19829150680513322,-0.11152172519902415,-0.5426669453675317,0.32665338427961443,0.12133654805648027,-1
A/Alberta/153/2016,-1.5836347404167184,-1.568942499456686,0.5798013213924907,-1.0477104261058574,1.2416312126249807,-0.1980414617678048,-0.11237988178075212,-0.540710670277117,0.3281396078333315,0.12139383597216002,-1
A/Alberta/156/2016,-1.5838106606025433,-1.5692446740374926,0.5800122028776351,-1.0481928832430054,1.2426534541535426,-0.19838988580993563,-0.11276727610652267,-0.5412942073312165,0.32820038480706615,0.12260820953191826,-1
A/Alberta/169/2016,-1.5843461890705648,-1.5706469794303077,0.5810747930737898,-1.0527173377749603,1.2436160695562466,-0.19858445794971283,-0.11493593812684304,-0.5365955156502461,0.3268610410704978,0.12201098851069066,-1
A/Alberta/209/2016,-1.5838804253353513,-1.567561146574071,0.5792800698000918,-1.0485003111372855,1.2413458542877822,-0.19604771034636295,-0.11350424250483536,-0.5431931271978803,0.32994450662181246,0.12255209594274503,-1
A/Alberta/217/2016,-1.5847362144593606,-1.568922907139085,0.5803891622179617,-1.0532226868985786,1.2407124622506749,-0.19783773696681414,-0.11432044132099224,-0.5384361615550046,0.3230188955998615,0.12348000975749146,-1
A/Alberta/178/2016,-1.5842256966085917,-1.5697737558268816,0.5814981176790505,-1.0494364279602115,1.2430270740529759,-0.19437474136541985,-0.11219412914596316,-0.54255475286063,0.32852985477093577,0.11456621204754477,-1
A/Alberta/52/2016,-1.4739926280864615,-1.5840072256631914,0.620011185715687,-0.897446641787678,0.8298051789366134,-0.24854600645785482,-0.26440524372972973,-0.31607172366559094,0.036765174443383605,0.43404242339147303,17
A/NewYork/5080/2016,-1.5426214149740458,-1.513903445749134,0.5581065402555049,-0.9656497298370226,0.8904825409267009,-0.3525960810263566,-0.14587801675431908,-0.37418102392914426,0.19900836121833843,0.2707526869652355,17
A/BritishColumbia/047/2017,-1.543414215123545,-1.5139539989151893,0.5674203112133928,-0.9686063976610649,0.8684453603226637,-0.3464872587690548,-0.16001915958235574,-0.36690817581048935,0.18539563629044545,0.24457037291808476,17
A/BritishColumbia/150/2016,-1.5428061300191227,-1.514190551178005,0.5583017282163332,-0.9661705628907343,0.8915651572821184,-0.35309609332723674,-0.14609972624480588,-0.37482972099916545,0.1994208317485669,0.2715370274869508,17
A/Japan/5604/2016,-1.5426545751239513,-1.514488209781206,0.5559052800772709,-0.9688675732805668,0.8917115676194796,-0.3519374581159545,-0.14535360715121182,-0.3735181668772521,0.19849832792074334,0.26791542906467297,17
A/Seoul/A02078/2016,-1.543135749218921,-1.5136273574058687,0.5630350228012778,-0.9604968879006656,0.8917635573670909,-0.3538578961311463,-0.14667129369190152,-0.377264259788084,0.20153514523961172,0.27659593517551556,17
A/Ontario/040/2016,-1.4744667753677863,-1.5874671023259979,0.6189160290356455,-0.9057348762220351,0.837894547421072,-0.24129275876825304,-0.26260131681224474,-0.31872496542598555,0.032276661662038804,0.4468461999973593,17
A/Ontario/045/2016,-1.4740350979240666,-1.584989555389978,0.6187877487974387,-0.8968556121460657,0.8284181972533918,-0.24379763347814948,-0.26405959954985136,-0.3138461222213413,0.03344892381312429,0.44082295992414094,17
A/BritishColumbia/120/2016,-1.5326621382529015,-1.5877305055983821,0.5618920232541619,-0.9885613414659815,0.7777985193321878,-0.21991957749260285,-0.23140935203458404,-0.5283109279813334,0.3678913496357639,0.4058409079236604,-1
A/Japan/5887/2017,-1.5444168299772052,-1.5154413780963996,0.5565221940081478,-0.9660703835210845,0.8936974650834532,-0.35885251198025914,-0.14697209692743585,-0.37925413287332777,0.20328178551725976,0.2672199732436443,17
A/Ontario/231/2016,-1.5531726556531527,-1.519425540119116,0.5374921342793803,-0.9412501219233892,0.8795348718851633,-0.294553734542791,-0.11234784078391849,-0.32873335352842165,0.14850255251212965,0.37842400730859327,17
A/NewJersey/NHRC_93422/2016,-1.5228446003439786,-1.6634415075565647,0.6755607723711072,-1.0076512551391386,1.2233418813498447,-0.065153441202871,-0.26628350775504356,-0.5310958807286762,0.15122554138418598,0.2894000974177615,16
A/Ontario/031/2016,-1.5144624393410786,-1.6486686931634191,0.6642430562127029,-0.9806359740453812,1.1557015340947923,-0.06079071001324379,-0.2474177942856976,-0.4911257198561916,0.14016822631563672,0.24939029613475,16
A/Ontario/233/2016,-1.5104897309556586,-1.6431365013001615,0.6482995031871142,-0.9668969490670757,1.1528263089162702,-0.08647956769257653,-0.22529846017933844,-0.45565240407054336,0.1488616558022472,0.28101471751322754,16
A/Ontario/068/2016,-1.509062207970938,-1.6435405282881823,0.6476218325252356,-0.9671704742474238,1.1545384263079428,-0.08668068124505077,-0.2254292428344732,-0.4571096195140368,0.14935243965278386,0.28131213292955415,16
A/Georgia/NHRC_68549/2016,-1.5445001317759104,-1.4816762234014482,0.5458511266190375,-0.9663398704342971,0.8937539612799925,-0.3410273468508318,-0.1576456983879438,-0.4177698531195631,0.2522721358737852,0.32541978641190666,17
A/SouthKorea/5699/2016,-1.5439943951323218,-1.5156493028064395,0.559703616193773,-0.9676956013348389,0.895250413914932,-0.3585502478542109,-0.14912543854814936,-0.3777620800831652,0.2008789371328108,0.2765953167118458,17
A/China/746/2016,-1.5475589959653246,-1.5146013623071743,0.5868610102675962,-0.9387154352953478,0.91476715723948,-0.32647257503177524,-0.1369359416515397,-0.3896843075201573,0.22482267215421117,0.25909253949482,17
A/Japan/5729/2016,-1.5754173310676085,-1.5608433501437085,0.5909064700417866,-0.9459816013005187,0.8790473382480513,-0.44634211345954794,-0.01775166425962782,-0.5303998333846802,-0.10160322749373056,0.14179086618629708,-1
A/Ontario/049/2016,-1.3854025411945092,-1.4883964273386405,0.8192867904114635,-0.8093881404869275,0.7113926139573761,-0.21563984716168944,-0.2391919585245127,-0.28751175751307106,0.008466985888767634,0.5225558239655111,-1
A/Ontario/051/2016,-1.4981231172800438,-1.475247813393976,0.5817554065448669,-0.9282911815255956,0.8636900273473249,-0.2908671226068167,-0.2791091166394802,-0.33867051631477857,0.05415322803421785,0.462465512385988,17
A/Basel/USB001835.4/2016,-0.957843717720794,-1.07928864636394,0.7236712499537766,-1.765723129656044,0.10006940679226776,-0.3254679121810025,-0.0107013774842233,0.35530685898446424,-0.5147427653360281,0.13990130336526377,20
A/Basel/USB002767.4/2017,-0.8942750307312222,-1.137450468232603,0.780627410563012,-1.7506094433164934,0.0030224984040814443,-0.27414400836174707,0.013724967726801422,0.3728799377398425,-0.625702929367883,0.32841529398887187,21
A/Thailand/CU-B16825/2016,-0.9003362348404159,-1.1370615027104312,0.7833133780885972,-1.746818979686567,0.00619481358441431,-0.27283249147805605,0.010745527105104128,0.3829361816693124,-0.6067498598153162,0.32803553939462865,21
A/Thailand/CU-A2160/2016,-0.883173741626852,-1.1334998276054353,0.7417278607959895,-1.7429358525167062,0.08291544835861572,-0.18826001816504218,-0.09624468992634204,0.40572750412606406,-0.6915541680472909,0.23810699350314832,21
A/Thailand/CU-B18053/2016,-0.8903900078361973,-1.134772465429866,0.765901814671978,-1.7073503014515843,0.06468898794948626,-0.2256278654979293,-0.135338232292334,0.38481350281452587,-0.6423587140357645,0.30043887966654126,21
A/Thailand/CU-C6513/2016,-0.9017201601054335,-1.1348823119420686,0.7699968244491269,-1.7259071575360583,0.011230015423650081,-0.259449972839563,0.011733970059206714,0.3816367064984257,-0.5837871701214314,0.34030220185829224,21
A/Idaho/5447/2016,-0.9307087520021363,-1.1884607175849626,0.8152480598589467,-1.7269231976011035,-0.01729407252118986,-0.3536026993108509,0.13174147365713235,0.22305930828541146,-0.8913344198771336,0.20626313346626643,-1
A/Thailand/CU-H3756/2016,-0.8915057965153401,-1.1325951382750779,0.7629934658016484,-1.7081480023586846,0.0640063966584583,-0.2312206639893721,-0.11657728036164244,0.3476925116468831,-0.6921215488723292,0.2874688776675558,21
A/BritishColumbia/108/2016,-0.8956501169417481,-1.1335021680418413,0.7684880265173017,-1.7032264529637149,0.053725337871824486,-0.2338828733404693,-0.125777085530128,0.37190423150101587,-0.6750693806412201,0.3012900368148073,21
A/Washington/49/2015,-0.8962490852519468,-1.1362918956906025,0.7719331038745993,-1.710458022000602,0.0672038117316628,-0.23007900612682222,-0.12612057920244368,0.3649282593929355,-0.6748062447628129,0.30650442901680874,21
A/BritishColumbia/118/2016,-0.9045724238106692,-1.1387606424257593,0.7659689924393012,-1.719007381179954,0.03706390204330449,-0.20475198250075025,-0.12222106580689844,0.3977125871882007,-0.7131224768989259,0.3039815319221926,21
A/Moscow/CRIE-08/2016,-0.8999735387334448,-1.136187227256841,0.7749189625245675,-1.7278562310814594,0.045148520740230624,-0.2248079632036947,-0.14025876305101886,0.3824878528780379,-0.7004572007799411,0.27664092936781653,21
A/China/71516/2016,-0.9493519272925416,-0.7896612497369104,0.6822194575486973,-1.8112938240148087,0.22888296854238485,-0.22548122164957635,-0.14151962098753215,0.35404179000388447,-0.7001913139939657,0.34861345167415003,-1
A/Shandong-Zhifu/1185/2016,-0.8953308112926742,-1.133093327774521,0.7782336561764043,-1.697180394339325,0.05824741679666616,-0.23300073990359982,-0.13063764462735505,0.36184387596467266,-0.6647812902901231,0.310332862521426,21
A/China/70793/2016,-0.8962830598067381,-1.134948131272839,0.7685931184165474,-1.7088964191260936,0.06287007672048474,-0.2307348289059323,-0.12564482059535864,0.36407579515727206,-0.6718038691839969,0.3021488342067924,21
A/Thailand/CU-H3742/2016,-0.8991277361362396,-1.1379676687408928,0.7720362135602493,-1.7068709475227122,0.0840168097947853,-0.21634677621204132,-0.12095631897230072,0.36094746647181697,-0.6703354094118537,0.29775980821144993,21
A/Basel/USB003329.4/2016,-0.9663228182938596,-1.0618007816937058,0.7098010989662115,-1.780099862506101,0.12211229680382957,-0.33085807687610985,-0.010972731389336058,0.30060710509569577,-0.5063077046759296,0.14037649096253615,20
A/NewYork/6003/2017,-0.9667843629695886,-1.058653449632256,0.7099682077375863,-1.7821757883830958,0.11806171035334964,-0.33544459920962516,0.0030374895849820715,0.3039838932928351,-0.4999867474076287,0.14056485273609093,20
A/Israel/R147/2016,-0.9644007214629552,-1.0643942198792455,0.7060771413665338,-1.7735483332454047,0.12336608310300211,-0.33629311766095193,-0.007736065847927008,0.305843913165525,-0.5006700695333302,0.13880212917141938,20
A/China/71517/2016,-0.8884753715655064,-1.1446686721792132,0.768579684503545,-1.7084669019897414,0.05027579891055624,-0.26487780952510115,-0.12452466998169211,0.36352803161540576,-0.6974932075929915,0.27959699458206877,21
A/Shandong-Fushan/1416/2015,-0.8910876437804176,-1.138395366260738,0.7645199680716637,-1.7050528757192949,0.05532249250621799,-0.24887332757294617,-0.12395767951687979,0.35743224654591393,-0.6865052344594179,0.2949542932954398,21
A/Thailand/CU-B15149/2016,-0.8994126257533641,-1.0988871239563849,0.763822899334543,-1.6974702263921382,0.11879512915818176,-0.29496784821948574,-0.08230583071427357,0.438866704045016,-0.7548232927679072,0.21573710221046033,21
A/Thailand/CU-B15317/2016,-0.8936470258019601,-1.136441922839866,0.7950101367655431,-1.6801496656848107,0.05200865273222096,-0.2588564094087672,-0.13218110455706047,0.3479912309773462,-0.6866115695293091,0.3333434961002031,21
A/Japan/5123/2016,-0.9040186398631774,-1.142492615420941,0.7626091136649767,-1.7203630832132095,0.05388427284947591,-0.2593075831790169,-0.14718682973911712,0.3792715115834095,-0.6908032989500237,0.3210246739011172,21
A/Thailand/CU-B16161/2016,-0.900915379256609,-1.1396482427557832,0.7708129488689944,-1.72308968749537,0.055699015332046395,-0.2498362028804691,-0.1399477642387631,0.37457188132479413,-0.6911105995949051,0.31933806496044004,21
A/Thailand/CU-B19094/2016,-0.903754525923281,-1.141522780291709,0.7896824683922712,-1.766377279527804,0.006055698993868253,-0.2802762712374951,0.006682307046145112,0.3991650645062194,-0.634342763624227,0.3467020074341596,21
A/SouthKorea/5482/2016,-0.8986616376162806,-1.1279685466631448,0.7701472912338674,-1.7191213906990108,0.07868703948252863,-0.21181699517817232,-0.13651719935021736,0.3343773819442692,-0.6472756619585861,0.31826955013958147,21
A/Shandong-Zhifu/1382/2015,-0.9084390751767233,-1.142474738993201,0.745289739973452,-1.695047571446131,0.02492585867671194,-0.3236886978252128,-0.18284806820395744,0.3336891039591122,-0.6366305639722297,0.3163015788482872,21
A/Varamin/49785/2016,-1.0302603634802179,-1.1035409834952057,0.7776155116435656,-1.6063811239613432,0.03025069754311011,-0.15691123705790525,-0.10033611754027891,0.2944503804022287,-0.5253472995798383,0.20061934881724436,-1
A/Shanghai/10/2017,-0.765999017481967,-1.0154476608287055,0.8280744931810765,-1.6140814218101533,-0.10776347110718307,-0.12397311983197262,-0.10312995122949066,0.4603762061022943,-0.5555147891478811,0.2636489366295813,-1
A/Thailand/CU-B15712/2016,-0.9604221491520132,-1.1656679532008198,0.5995502274838485,-1.5806522517368449,-0.0788097478980885,-0.26286236262543844,-0.1472722648476151,0.37652917767849814,-0.6799966770430956,0.279373869182827,-1
A/Basel/USB002045.4/2016,-0.9693058452138169,-1.064153934254566,0.7402578179667662,-1.7527348958496727,0.12830018404952623,-0.34854283307545,-0.018710617903523602,0.3012446840748066,-0.49946246691908464,0.1687811317746041,20
A/Basel/USB003013.4/2017,-0.9707713917819636,-1.061567236960044,0.7403159219449399,-1.7579466449605763,0.13227171374397007,-0.3492366994588667,-0.019411253305931978,0.2981146522599225,-0.49860468539496033,0.17334888917162083,20
A/Xiamen/s200/2016,-0.9757162519508598,-0.7047818668912831,0.8038003273411508,-1.8256718867039288,-0.14216678291328114,0.13465857116061777,-0.26038645105470815,0.036817466568485224,-0.33448100826280025,0.5621649863556027,-1
A/Basel/USB001461.4/2016,-0.9040612582863142,-1.1404457543308955,0.780255849914428,-1.7361449209975626,0.0669191491847226,-0.22554424112100296,-0.14311996895158044,0.37675728873361597,-0.6946487567513048,0.2756086396069133,21
A/Guangdong/747/2015,-0.772251165627433,-1.0086926434216261,0.8573213709871045,-1.6281242627329937,-0.14723434651952602,-0.1507659834982039,-0.11423341165897986,0.4285551793679257,-0.5960759159541988,0.21500973911909624,-1
A/Guangdong/264/2016,-1.1223111867811655,-1.2959882199734885,0.5878197725325353,-1.2368698441318784,0.38864490932437606,0.9141612025233471,0.48063159338965544,0.5070158038824271,-0.6051869050040085,-0.48030390238886944,-1
A/China/71518/2016,-0.3666238289125809,-0.7031544962143412,0.3052632134998754,-1.7006556557882315,0.39072654895525677,-0.15094865274859573,-0.1185224752320295,0.5424992763683264,-0.4192194902047095,0.4582875733580232,-1
A/China/72935/2016,-0.7825574750467789,-0.9130441054254415,0.6312795892448076,-1.7635142912746886,0.14393944769021655,-0.15984105605266002,-0.1412113903014093,0.44553210724875963,-0.6620879172870968,0.3024432090828374,-1
A/Shandong-Fushan/1257/2016,-0.9750774170080146,-0.6752939849638909,0.6248054467214452,-1.8333604430630184,0.22602466130746895,-0.14110381269435382,-0.11262355679426718,0.4337839499124377,-0.6818596215281874,0.36594236100587724,-1
A/Tehran/50179/2016,-1.0463523249939202,-0.9884365756399265,0.755468366458766,-1.6512754075426916,0.05183660252806163,-0.13756920286964863,-0.10885802582568312,0.29427309948364583,-0.5588599473202067,0.1990474805434783,-1
A/Japan/5684/2016,-0.9688197674478497,-1.3038449628925424,0.5212110845894892,-1.2221692573943381,0.4129093651846574,0.9200961757546603,0.5048586789154478,0.534949488121315,-0.5359040564650307,-0.46064665577649505,-1
A/SouthKorea/5744/2017,-0.975121042205156,-1.2586131463869934,0.5254389358034506,-1.2086703616880479,0.4777088414932741,0.8569569773918052,0.5399885754780476,0.614917433483117,-0.6185873238388372,-0.5279595472189701,-1
A/Firuzkuh/49748/2016,-0.7829467710253702,-0.8579476597121036,0.96426730113686,-1.4767925178541463,-0.31063681324787096,-0.07720731056833617,-0.03655469120231055,0.32014484217961797,-0.41212512225702985,0.04338873756274487,-1
A/Basel/USB002043.4/2016,-1.4678641219792907,-1.600067831265569,0.6387619664552517,-0.8907565150677089,0.8220916075269208,-0.24988533226048015,-0.25973826261087224,-0.2765998155913594,0.01027785105977201,0.4419300120983238,17
A/Japan/5685/2016,-1.5476851100608982,-1.5196707696548462,0.5536930564622953,-0.9667732568624174,0.9032515503199956,-0.3568172477929514,-0.14484934166731386,-0.3853874902498286,0.20898246044107346,0.2498701124334946,17
A/Basel/USB002044.4/2016,-1.5586627562842794,-1.5191050962403247,0.5745703854035001,-0.9895679400019396,1.0835136936160996,-0.34686825845801883,-0.0864569075004325,-0.33642147125343835,0.2191271855080714,0.16260623633254787,17
A/Japan/6111/2017,-1.5592394367915947,-1.517967729603064,0.5736499261626015,-0.9872150837603624,1.076920773065379,-0.3527593493103628,-0.08767617422912868,-0.3399006645347735,0.2152052385970422,0.16561771499684635,17
A/Thailand/CU-B19263/2016,-1.5603937796975789,-1.5172078889567469,0.5898715289354544,-1.0148242367889215,1.0099394239745305,-0.3797049637751971,0.04746857811575268,-0.32538398228288035,0.29590096541981814,0.1703054296511528,17
A/Ontario/244/2016,-1.559524869944853,-1.5154673374659997,0.574260177380218,-0.9938381154796853,1.081878650436869,-0.3519735780719889,-0.08957539386230512,-0.3380727333707249,0.21799049392287165,0.17156585913758865,17
A/Ontario/246/2016,-1.5571042618256474,-1.5167665324886206,0.5748270758243552,-0.995864546197806,1.0788419217417204,-0.3496061085170534,-0.08739860953886162,-0.34618099664617424,0.205458841197082,0.1569642467445014,17
A/Quebec/152/2016,-1.3822326184263074,-1.3808150427929762,0.7187887124272591,-0.9692072206398638,0.7458189711445364,-0.24810733750702613,-0.2457034873489879,-0.23952994451777324,-0.0774392793227402,0.5019570517003488,-1
A/Ontario/047/2016,-0.9074973116785007,-1.0836534384002503,0.7691089401055968,-1.7058892121237583,0.13612576561148634,-0.34386400407956497,-0.03162222530339837,0.5003677571561364,-0.789782953438046,0.17259527052853346,-1
A/Israel/B5990/2016,-0.9109129515211262,-1.1048313596857748,0.7941226336954844,-1.7657690956666074,0.04778823614569027,-0.33788390824324227,0.051463502226399,0.49371074390658354,-0.7027878581753261,0.24861450869958165,21
A/Japan/5603/2016,-1.4983497860042105,-1.5010558377257186,0.5876472859016489,-0.9700174857392843,0.8109089912654046,-0.12003021157629698,-0.286177464685927,-0.4846564642181614,0.2137527538415542,0.578793330074019,-1
A/Philippines/NHRC_MCY0131/2016,-1.4944943245212767,-1.490994505233751,0.5858071145015722,-0.9615970553692456,0.8261481672784564,-0.11015516154752066,-0.35011667633599597,-0.4946235185335856,0.1658378980691251,0.5444614894265426,-1
A/Japan/5063/2016,-0.9204736220664971,-1.073692794568605,0.8888961247084504,-1.5832539700309047,0.19199423619988207,-0.3295847818541071,-0.07036361175310497,0.4111165570548787,-0.7490961842869158,0.22927803803027763,-1
A/Cheongju/G03554/2016,-1.6308901108818603,-0.17304269440804615,0.3115950944876815,-0.9838992048890148,1.0224291108095098,-0.3513493247044943,0.02202087071560628,-0.6222702117557668,0.11260533750059826,0.2164270048031268,-1
A/Alberta/157/2016,-1.7766392080302762,-1.8783782027628837,0.49881704713739866,-0.550822868932976,1.9515263224976365,1.4251743521991436,0.6416499944926315,-0.4574019112884033,0.49041227519734343,-1.0638961204613928,8
A/BritishColumbia/152/2016,-1.7775251751605123,-1.8799511384314513,0.501220616938214,-0.5558720026001734,1.954135216609498,1.433293993508145,0.6432736111837171,-0.4611659834381238,0.48684089887897136,-1.0763833385475545,8
A/BritishColumbia/021/2017,-1.7760843430705866,-1.8791086240098824,0.4988181006056172,-0.5514236025972641,1.9568002400335953,1.4298447773254495,0.6419597203727431,-0.4563791653002521,0.4960474591354682,-1.0686121248955904,8
A/Washington/5751/2016,-1.7819295890144398,-1.8433869723474716,0.4925391467174786,-0.546071594993814,2.0264204313166245,1.37049913668659,0.6886245881719734,-0.38738319040016816,0.41882467892353253,-1.1613515996439292,8
A/BritishColumbia/030/2017,-1.776369523738871,-1.8809024461049317,0.4977389781239622,-0.5516476666288727,1.9546627033965425,1.4327113241022587,0.6453329995614946,-0.4657624019185215,0.48525353511567393,-1.093678220634258,8
A/Ontario/242/2016,-1.7815449861857198,-1.8430493183993537,0.49503148366344063,-0.5448397204414468,2.02717558421051,1.3883529067832285,0.6962970738470149,-0.3820837302434791,0.4139385619190352,-1.1790642645494491,8
A/BritishColumbia/133/2016,-1.779716460477814,-1.8783377512621218,0.5067744891907715,-0.5506193914294295,1.9587571243521336,1.4470689509791432,0.6496153608842614,-0.4586330129810068,0.4988279307634744,-1.1028283282161175,8
A/Washington/5804/2017,-1.7916714009872594,-1.8946110110666177,0.5057572131197811,-0.5681595207423387,2.046205892387354,1.4867622927998356,0.6530307374498403,-0.505951666924031,0.5203583203918476,-1.1569032878078314,8
A/Basel/USB002779.4/2017,-1.7512947301943316,-1.8011084237116202,0.45638623552486907,-0.5082847129629754,1.6002320686621694,1.1503330957847633,0.3987109581152667,-0.3672281531282276,0.268206264639958,-0.49355799072881396,8
A/Thailand/CU-B20992/2017,-1.7548102415590945,-1.7643941298031556,0.4567488467889956,-0.4925637634279985,1.6597673154769286,1.0849489428555246,0.438676005058316,-0.28832622215866893,0.18261388198818865,-0.569345608145002,8
A/Thailand/CU-H3780/2017,-1.7544055349737815,-1.7650535510340757,0.45690309686330377,-0.4918116929259096,1.6588693612101997,1.0829234428310883,0.4382085007108828,-0.2872808139645623,0.18156120811633458,-0.567024570951623,8
A/Israel/C3673/2017,-1.620539948112165,-1.6915697581727647,0.5484975893465027,-0.42559162920885146,1.4330841530697975,1.148531018201014,0.4385270182067274,-0.35189794439349875,0.33502802970952567,-0.5783943306399865,8
A/SouthKorea/5852/2017,-1.7573150949056657,-1.8427228367986732,0.47615223282457364,-0.5180695381241055,1.7419966116512609,1.241814103996325,0.4480891344617757,-0.39571413093582225,0.30706651325273565,-0.6538055790035893,8
A/Basel/USB003504.4/2017,-1.7465975276843515,-1.8220017931593835,0.47160233455731254,-0.5097918567349772,1.5816303560759506,1.109412134355031,0.4680462934295016,-0.3557981383026513,0.2903028022400059,-0.528468056284416,8
A/Basel/USB003516.4/2017,-1.7464577878214629,-1.8228489329026691,0.4713589614848844,-0.5113905348028817,1.5855610100049597,1.109548939599371,0.46991589594096195,-0.3572541504299266,0.2881938461185373,-0.5265490277200782,8
A/Basel/USB003509.4/2017,-1.7448194016959515,-1.8180481235960444,0.4649696485222871,-0.5008185274694278,1.6032550199325908,1.1221566370104943,0.4051925767557863,-0.3559327280866788,0.2592736102922261,-0.5267205177353382,8
A/Thailand/CU-B20852/2017,-1.7331427724903572,-1.808396017917592,0.4604185979130855,-0.4894649980955422,1.5223244357182704,1.061490546959692,0.3712155898856708,-0.31150708519850395,0.24263244355469066,-0.46804574550144157,8
A/Basel/USB003298.4/2017,-1.7516297180691158,-1.820384265528549,0.4902389593585162,-0.4702444762566715,1.6380890537077324,1.143366614418139,0.41010992273874697,-0.3798147526904726,0.3014180670441016,-0.5490522039328013,8
A/Basel/USB003327.4/2017,-1.752964066413589,-1.822412965565789,0.48299466834176547,-0.4865993494518948,1.6470444784795149,1.1595749726046454,0.41419538890096697,-0.37211682829164205,0.29012710726515395,-0.5724278360053939,8
A/Basel/USB003315.4/2017,-1.7565299838359838,-1.7836332310163976,0.4907181262065286,-0.45885985848481614,1.6999913949462906,1.0792320509413076,0.45106829739872806,-0.30952448993038245,0.22037895642259606,-0.6167827258439615,8
A/Maryland/6636/2018,-1.825862647853412,-1.8657712141985645,0.3341018244388981,-0.3443485350440518,1.5220147719590584,1.0985553689306562,0.3802094832174726,-0.34738026203505046,0.31103599872132903,-0.5782576233838655,8
A/Japan/5884/2017,-1.594476441441651,-1.8357248119384413,0.4053211773812579,-0.5137239849367233,1.6199914344524757,1.1083069913568557,0.3366239587154375,-0.3473808625782558,0.28094046264893197,-0.5015795329174934,8
A/Seoul/A02063/2016,-1.528908374540065,-1.6247341854713053,0.6620920076773004,-1.0136998758829787,1.327651487651409,-0.10749435028072944,-0.2305535119113595,-0.4376033186333873,0.0861336482621432,0.17375442820511983,16
A/SouthKorea/5915/2017,-1.5285886344477955,-1.6245334126940485,0.6627166115070502,-1.0140706180697776,1.328303275016194,-0.10624142256865256,-0.22973336524693064,-0.4373896404495759,0.08606655473768075,0.1737138001981743,16
A/Seoul/A02071/2016,-1.4300563824036863,-1.3671442346693725,0.8816113433791877,-0.8777369320348796,1.0007806041468974,0.010910538277777092,-0.15271629706619627,-0.42002684150971437,0.21794675857605877,0.06216829943304627,-1
A/Basel/USB001560.4/2016,-1.5218478466009386,-1.6608335839343675,0.676454988954083,-1.0058615140992453,1.2223573304912259,-0.04847652929214406,-0.2562343079230126,-0.5054254934879158,0.1554895643943376,0.25203731678630475,16
A/Basel/USB002298.4/2017,-1.521043420571647,-1.6575824046318175,0.6724647161562446,-0.999200617526618,1.2011823212621096,-0.06298413128490658,-0.25588603068286364,-0.5140500354897483,0.14448044470245236,0.26141523433724484,16
A/Basel/USB003531.4/2017,-1.5623039364949396,-1.4238183882744608,0.631509206630042,-1.1086303247187226,1.184756957436437,-0.12688440512697,0.019754211082953336,-0.5211919122545199,0.29898945679509553,0.30277246078153125,-1
A/Basel/USB002572.4/2017,-1.5204020354921608,-1.661047830523922,0.6754314988770697,-0.9990305717444513,1.2065385608062114,-0.07464907285307008,-0.2582689502474999,-0.5205918574153462,0.14058931163643273,0.2654700788254097,16
A/Oklahoma/6009/2017,-1.2863647318745797,-1.4813719341796159,0.6843548955267343,-1.3835137276536826,0.8905793277369443,-0.051959473422713065,-0.19729534683287397,-0.22052506788100248,-0.16524425212880653,0.17410216110958665,-1
A/India/1728590/2017,-1.7441033757869449,-1.8196055226419032,0.4657879702608152,-0.5005762272638139,1.5917570830683292,1.1179486084698058,0.40133567386385666,-0.35447681459854485,0.2560381865520976,-0.5350253366550662,8
A/Shiraz/1010/2015,-1.306038937183305,-1.7363306901955982,0.26009626117961104,-0.5052467997326535,1.4540280592407837,1.4081453262539512,0.2405919398966004,-0.507214910194112,0.48490896584407517,-0.6495589661056184,8
A/Basel/USB003324.4/2017,-1.759365550383534,-0.8540487823203303,0.1894777104992717,-0.7115253726695326,2.196950543581461,1.2106628330159273,0.38581794883622755,-0.41340047229094135,0.20424886475191983,-0.4598985716125402,8
A/Mexico/SAR30012N/2017,-1.6386076211068894,-1.8109139700514496,0.43701437031593776,-0.4959609372588793,1.913768441703481,1.43135355733588,0.4713163663621334,-0.4920318095345528,0.4961788754035664,-0.6642300018898014,8
A/Basel/USB002128.4/2016,-0.9138507800129526,-1.093543679609149,0.7950752179678816,-1.857328870069262,-0.13306570614093766,-0.24723070667237373,0.1919282184698518,0.2691193050447184,-0.3409996354616439,0.5151142467483689,-1
A/Thailand/CU-B18031/2016,-0.9118420438524971,-1.094378437853924,0.7802656805010472,-1.8108704288654658,-0.037439040963303916,-0.1747704404762388,-0.06689109443647431,0.2606444621535655,-0.5120928890761259,0.46350354776833347,-1
A/BritishColumbia/028/2017,-0.9799573412396976,-1.0048948044794574,0.6860939082720898,-1.822527359163071,0.12565795646304584,-0.265127686367177,-0.04567865043613071,0.24488174789834505,-0.46593985238586894,0.25660609730160533,20
A/Basel/USB002991.4/2017,-1.3578507401715116,-1.5130152414769387,0.7645682671388219,-1.0671041577460278,0.6785743322507909,-0.28974349556116324,-0.24704193633201857,0.028977152977217195,-0.033588841490041876,0.6991372666971707,-1
A/Basel/USB003500.4/2017,-0.8832468806008271,-1.1618587043589672,0.787873549126773,-1.8122959723670575,0.10571243845018972,-0.24059390706219375,-0.2664859529967702,0.6017493936822533,-0.7309390588795202,0.47844230382675335,-1
A/Thailand/CU-B14944/2016,-0.9945879898737752,-0.5776759871275905,0.7867593621965292,-1.8621517847244653,-0.13447255546133102,-0.0023980837001900544,-0.10038106438261252,-0.011832479682516939,-0.27171161750053824,0.6393476724581443,-1
A/Basel/USB001469.4/2016,-0.6196042713909854,0.7742219342578329,3.3329227837813646,2.4079920202547003,-0.06332534293563194,-0.3999738914364962,-0.22495697803561715,-0.3323477263777828,0.18585145593836727,0.5247020876484033,6
A/Basel/USB003318.4/2017,-0.6190184611652172,0.776097072231278,3.3345164064518533,2.404450520083655,-0.08019622921788394,-0.39665746210472175,-0.2246215023744375,-0.32618833942944253,0.18847410779507454,0.5143850826042956,6
A/Thailand/CU-B16712/2016,-0.619899846251499,0.7744475969683438,3.3319562450799594,2.4067413057207343,-0.06547397446585722,-0.40122208200985965,-0.2260899949482936,-0.329124313207458,0.18566870232750582,0.5250148402921736,6
A/Thailand/CU-B20929/2017,-0.6245520132112427,0.7741201155734546,3.3492757384548226,2.439935785003885,-0.06173090275411396,-0.3920134483120884,-0.22394598735713592,-0.34141409844648973,0.20088861749397294,0.5323296850945243,6
A/Thailand/CU-B16949/2016,-0.5945513707615603,0.6446318416624093,3.19784414582739,2.350364684427459,0.11019936220586654,-0.47321206258308757,-0.27126749262451455,-0.3462986154439173,0.1344449168343449,0.576786555562265,6
A/Thailand/CU-B18041/2016,-0.5946225629427295,0.6447540933832069,3.1989625356559435,2.3516323776479946,0.11033333859102573,-0.4738831189701226,-0.27167977254792947,-0.3468989743152251,0.1347235712878245,0.5784574422780303,6
A/Thailand/CU-B18308/2016,-0.6002917122502398,0.6899349648419418,3.1994219915155124,2.3599867416916025,0.17743432985278312,-0.5427248408769306,-0.23688743439251903,-0.2666688305363241,0.050238495722951415,0.5231574496027046,6
A/Thailand/CU-B19865/2016,-0.5931961732696032,0.6453668038184298,3.1996776233122324,2.353797414424721,0.10665399387454545,-0.4736792699256242,-0.27100994854347843,-0.3490290178264427,0.13173025247946987,0.5757060996923875,6
A/Kostroma/CRIE-143/2016,-0.6200224963945367,0.7792218213600676,3.3650918993507717,2.41868521694271,-0.11984561070248115,-0.38089000931116895,-0.2534836240658391,-0.35152571904964736,0.16730937750687044,0.49136555500729784,6
A/Moscow/CRIE-07/2016,-0.6206365113406959,0.7788347159083822,3.3637531142773978,2.417946929792271,-0.12517227461907118,-0.37690707976904014,-0.254600383380303,-0.352314749156041,0.16669217457877056,0.47664174419623073,6
A/Moscow/CRIE-10/2016,-0.6202323682938504,0.7761640087303463,3.345514903974079,2.422645186048314,-0.0657531075409253,-0.40663809330230594,-0.2287376066445999,-0.3368787494628674,0.18862788924212565,0.5396293487520695,6
A/Shiraz/1025/2016,-0.6213939759680334,0.7760971825225595,3.349757423258888,2.4262205756573203,-0.06878917286715676,-0.4123758417687921,-0.23229759863202326,-0.33798539902903896,0.1874988267932956,0.543368955866974,6
A/Thailand/CU-B20276/2016,-0.6248730699984362,0.8179363439807563,3.3314778199499337,2.412787769793361,-0.0036474961405907895,-0.4695796052498623,-0.20233257499190957,-0.23409616730530533,0.10938511914813162,0.458250145872575,6
A/Israel/R274/2016,-0.6204942350989173,0.7756243481633938,3.341304746312584,2.417171113328187,-0.06611703600846737,-0.4058260587942638,-0.22887277288796032,-0.3337531896580697,0.18879918792819844,0.537470786621966,6
A/Thailand/CU-B20273/2016,-0.6012394057111506,0.6409517977110413,3.20543306805993,2.399692129876375,0.0992614156793909,-0.4352421115724262,-0.2621017811736582,-0.3286326343997876,0.13441647252323213,0.6330465050178549,6
A/Thailand/CU-B20489/2016,-0.600501183609816,0.6389382630278544,3.21532265949246,2.394125571083776,0.10735004393075286,-0.4570041587054221,-0.2566306334385098,-0.35135007267444346,0.14757524728449098,0.5991100277627515,6
A/Thailand/CU-B17573/2016,-0.7167366727264894,0.5173019874048497,3.120782850294673,2.274659817979621,0.23453925237708242,-0.5095676927461149,-0.3150685740073157,-0.34607467984325724,0.04313636617523058,0.6072165634587194,6
A/Thailand/CU-B18515/2016,-0.7179051418570795,0.5180417276815887,3.1198910297901503,2.2853068204459768,0.2646907609945648,-0.5154358837142755,-0.31284377597435714,-0.3517773619486731,0.053832583907886734,0.641714277765023,6
A/Ghom/55457/2016,-0.5956562968095386,0.7309815240150249,3.016374214994928,2.0161760329205163,-0.0852497295299007,-0.4082721231524648,-0.20859499169127374,-0.17277500177222063,0.04135864010811453,0.27152459483068403,6
A/Washington/5617/2016,-0.6140891568911255,0.806379865562913,3.12101979757239,2.081653110011375,-0.13269567065252347,-0.2783750526979338,-0.30719389784184764,-0.34199553918847586,0.14450723243185484,0.32653507138232263,6
A/Basel/USB002059.4/2016,-0.6284983234939102,0.787593351065776,3.473964418952985,2.5633012673918345,-0.06705189065742753,-0.45484485721622026,-0.26733675093917525,-0.4215233078539348,0.2375897592126687,0.7002141517991054,6
A/Basel/USB002069.4/2016,-0.6332843980612628,0.7873815042920086,3.469981587080254,2.55985174090062,-0.06002105971747745,-0.4532478101069264,-0.2633779254978346,-0.4149492020205795,0.24768317093170195,0.6972714043322776,6
A/Basel/USB002154.4/2016,-0.6333244519586958,0.7881727421548158,3.473151252762316,2.5658355492760925,-0.060553950485867925,-0.45456112760534784,-0.2640938975229995,-0.4185888354693796,0.2518875428489536,0.7009155849155662,6
A/Basel/USB002835.4/2017,-0.6347937325001709,0.7769189862672617,3.4353163846064434,2.4828208019847264,-0.051999144657450036,-0.38928508480803126,-0.26518982125054474,-0.41274085702743296,0.21985054252554337,0.5750727738136432,6
A/Karachay-Cherkess/CRIE-296/2016,-0.630567091511821,0.7813075839337026,3.4184967028958493,2.495663553653672,-0.05370674601934569,-0.4149813891720976,-0.2424612408935117,-0.3759085460553146,0.22733144187389365,0.6059120904743359,6
A/Israel/B6105/2016,-0.635112876906587,0.8192224153531578,3.418760005206358,2.510258635803858,0.0029660744438824074,-0.4814931780021546,-0.20267049544924481,-0.303447308604529,0.1462262189841326,0.5379618166643385,6
A/Israel/C3365/2017,-0.6219547024616994,0.7625787848357881,3.3119524646140586,2.368242792083403,-0.0584747500081562,-0.417079642118254,-0.2330138893058116,-0.3205992468417816,0.1793636327626262,0.5239333799752987,6
A/Israel/C3587/2017,-0.6245171055555632,0.7627916628008581,3.3269129487690625,2.33927292899853,-0.12490945056054058,-0.445881220303948,-0.09646953307180749,-0.31055052387247806,0.2571645617393069,0.5266283672540697,6
A/Khakassia/CRIE-360/2017,-0.7546763293579034,0.6532794531575756,3.3334288114775386,2.4186057380745485,0.10082683864767407,-0.4608613215292688,-0.27583755129701787,-0.38201137408816804,0.15056620425050116,0.6724542677291983,6
A/Karachay-Cherkess/CRIE-301/2017,-0.6321100942464483,0.7821358489635003,3.4332821505331714,2.5111220794627434,-0.04986369669817569,-0.4187668344864665,-0.24484107170625966,-0.3851582536321335,0.23491179393771303,0.6234418351051766,6
A/SouthKorea/6160/2017,-0.6406593753430583,0.8331162603632725,3.475646647641967,2.5695863146861018,0.0033083804039076266,-0.5179101945839644,-0.23503181890409425,-0.3366338800006527,0.16130795998358327,0.6335180377305876,6
A/Basel/USB003421.4/2017,-0.6347902613072103,0.7925796166243974,3.4716549417051112,2.5651377334181116,-0.07255631032999431,-0.4505180344753552,-0.2778010530160564,-0.4204778375658356,0.26859972370751917,0.6990557875339367,6
A/Moscow/CRIE-226/2017,-0.6260017847698225,0.7819000703113229,3.390203082818923,2.4775624712799775,-0.0446050006320477,-0.41233158343956916,-0.2333451390346474,-0.36463103679009207,0.22374747993424046,0.5675615551821334,6
A/Basel/USB003317.4/2017,-0.6286002061905217,0.780533288994534,3.399268902731632,2.482981493988868,-0.04785077945283473,-0.3969044768213381,-0.22969965797768307,-0.3675894956842668,0.227324787084208,0.5780327997772139,6
A/Basel/USB003323.4/2017,-0.8522867772909206,0.6172479534759581,3.2103923562130006,2.96244485631114,0.31728761845296133,0.7382734008664081,0.37256896180884486,-0.23450171955975552,0.3132229865057541,-0.16364783483095788,7
A/Thailand/CU-C7086/2017,-0.6276676084028566,0.7745395436132682,3.318440359894528,2.422915092832501,-0.0747380329380535,-0.41856456704806777,-0.2304274009257218,-0.3250812200456389,0.192578198538319,0.5186542764482094,6
A/Thailand/CU-B19855/2016,-0.6199209650324312,0.7748167496631283,3.336979446053096,2.413188189252152,-0.06239722463002887,-0.4047749308726351,-0.2275234065358964,-0.33589108536221357,0.18802493638192627,0.5338250605760622,6
A/Basel/USB001471.4/2016,-0.6450775038334815,0.773594468518196,3.3884293449318146,2.484826120125553,-0.11055139174688612,-0.4845732004214914,-0.2861991042256076,-0.4167167934846098,0.2359590055188773,0.649807451085228,6
A/Israel/R199/2016,-0.6436445677577604,0.7820761431401558,3.3865193894965624,2.4782855228623863,-0.13988091958765878,-0.46617898849048367,-0.2898065010092711,-0.4549543005341137,0.22341192204840984,0.6369637343386556,6
A/Basel/USB002452.4/2017,-0.6480061989659375,0.839906258751789,3.380260408780624,2.4366089020706863,-0.1652018278825607,-0.3848042901837012,-0.3682819594297536,-0.47939412197069675,0.3102801376182242,0.6803028338782616,6
A/California/NHRC_M2921/2017,-0.7090634642153623,0.6322628068481309,3.24392899984315,3.140016924880632,0.34723885924288805,0.9047350019417627,0.42670394889899055,-0.24293018820557963,0.42470920174820403,-0.2858537775321399,7
A/China/573/2017,-0.7081622136074784,0.6281565988367656,3.206921812866777,3.113537847940984,0.34529246998458824,0.8968090243803529,0.4217701637576288,-0.23977113430462876,0.4280456375414466,-0.3185086005745666,7
A/Italy/7413/2018,-0.7102489745142541,0.6374694847333788,3.206136424062868,3.1123465276810185,0.34442698178538483,0.9137383897514805,0.415285083962835,-0.25733510073785887,0.4428663479532402,-0.3130059596360514,7
A/Israel/C6062/2017,-0.7000172068082533,0.6091352522211293,3.1029806492610175,2.9884534545910926,0.3426348454385531,0.8984043699626761,0.4331717037801342,-0.1852716108159946,0.380773964930164,-0.40327735550186317,7
A/Jeju/737/2017,-0.7103086170912276,0.6366889922396837,3.2073238191348334,3.1227789248068047,0.3531014828955878,0.9059250983842008,0.4232618149696984,-0.24705394597957442,0.4392684175279497,-0.3056632744562876,7
A/Homosapien/China/LS203/2018,-0.704369674166894,0.628385819880619,3.197855423660648,3.0881005748005945,0.34925984814083455,0.901687883669484,0.42247529096979003,-0.23260035603385248,0.42149009335763804,-0.3297673186755973,7
A/Quebec/136/2018,-0.7045227742826253,0.6293816858411209,3.1996693424471925,3.096616318554812,0.3431626716138589,0.8999946221077261,0.4206303254963119,-0.22930502343514864,0.42678098204979986,-0.33465653275477036,7
A/SouthKorea/7184/2018,-0.7037845448291871,0.6282247933643546,3.1989819638152355,3.089577249245229,0.3459859970904883,0.8999996113205172,0.42269768634204286,-0.22884056087562038,0.4207540125242518,-0.33840657851078076,7
A/China/587/2017,-0.7056405344867458,0.6295684596394185,3.191497952479795,3.0940645415156847,0.3398760755099647,0.9095243144285172,0.4279362267668847,-0.22162372233262673,0.4132354651830335,-0.31279613432885484,7
A/Israel/R246/2016,-0.12771097841738463,0.6383041574314847,2.817710255849877,2.1341200357742425,-0.004418119902958324,-0.48576206850758885,-0.1933492203260028,-0.03883265099837464,0.1879402036063597,0.24159410678100224,6
A/Israel/R256/2016,-0.12567650946550324,0.63947976000658,2.820877618249241,2.130194659757703,0.0021854132888170313,-0.46870408955310106,-0.18184932458645636,-0.03346566954080016,0.18235830314217008,0.23613141373510818,6
A/Israel/R250/2016,-0.12631006037535783,0.6388834310394117,2.821691981887031,2.130235408881401,0.0026049210122914617,-0.4726273131017905,-0.1841915420832239,-0.034431637927908515,0.1825669334918913,0.23877823748764743,6
A/Thailand/CU-B17430/2016,-0.898170356493672,0.13030199485762495,2.66077491173821,1.4978661420204897,0.8301846618890975,-0.5437192737266594,-0.5045892620049206,0.01192018913252505,-0.19232610143848672,0.552906653927726,-1
A/Shanghai/32/2017,-0.6362617022268942,0.35033047108227316,2.820840546135676,2.720260021946404,0.3573360441850045,0.8600715774236412,0.32099657852749414,0.021851088061590217,0.24378127053135396,-0.4976709908246767,7
A/Shanghai/41/2017,-0.6625493136900128,0.4719963839056094,2.9024126745173304,2.834721823243123,0.42284764709445355,0.866172688711813,0.3152231526984671,-0.03511807110633577,0.2765265483320182,-0.3891615874219808,7
A/Shanghai/56/2017,-0.6654183032403186,0.4762217227382985,2.930438001382877,2.8734403833891102,0.42581630660112635,0.894365158329626,0.3405657707214224,-0.04813443097820609,0.3061076161610076,-0.40974767331512385,7
A/California/107/2015,0.05164361363541092,0.1408801592502201,1.8390503646492133,-0.6757561893576959,-1.30494919983269,0.5215217285132042,-0.6643208727245303,0.3984280736044185,-0.445024336276381,-0.4811633464829923,9
A/Xiamen/s113/2015,-0.07079261732906836,0.5077657470092959,1.6830490822801636,-0.9204556418978898,-1.2691345998452739,0.6825887788935947,-0.7030688935215231,-0.061647337138482486,-0.03687854512220321,-0.30569738306755995,9
A/Florida/76/2015,-0.1105909951773514,0.9792132573712962,1.6699295932725118,-0.763105236542544,-1.7678305355585253,0.9338097345196718,-0.6054716066944322,-0.15515356249890613,-0.4093078045452216,-0.6823250767692443,9
A/Iowa/54/2015,-0.026273301342135517,0.44420315037732544,1.8130657049439614,-0.6797166355027618,-2.044540280117357,0.9805179301216904,-0.681177875588618,-0.3778696580229273,-0.23066291766702687,-0.6518187276519849,9
A/Ohio/5026/2016,0.08116246706948929,0.5274970515888131,1.8127851057339561,-0.60518158908497,-1.7183190742065204,0.9237437436583668,-0.5531308499801814,-0.2986897304768898,-0.3745956973724561,-1.0087117490245383,9
A/Japan/5122/2016,-0.016360859972449203,0.38927489766935003,1.6853183418475275,-0.7014664652640381,-1.7968362432571487,0.8134068153028154,-0.6498812012326312,-0.22923885276945805,-0.4667330195412737,-0.6743488281758726,9
A/Florida/81/2015,0.13246759265227934,0.33137007084854936,1.744938227386909,-0.48881639342964334,-1.6584326712999684,0.4512693311179195,-0.37207970966090037,0.14665294977350427,-0.47438602207818964,-0.6316563505716571,9
A/Thailand/CU-C6246/2015,0.13322751947113876,0.32970880400926694,1.742601059249216,-0.504193877070309,-1.6522393886381965,0.4336936984108376,-0.37442049515051734,0.14886667469179088,-0.48533171227427335,-0.5978653062280899,9
A/Thailand/CU-B13893/2015,0.25908239751715945,0.4516849004877817,1.6793175870581891,-0.4388330413183827,-1.608264644555912,0.4865485439788354,-0.3467360055442769,0.11140969909116397,-0.4575905974298308,-0.650857565936769,9
A/Thailand/CU-B13144/2015,0.11429464198106165,0.4235628465194508,1.70813550948768,-0.5045177364695629,-1.5703987629561085,0.4551845591763465,-0.3331043453105283,0.15357451174565323,-0.5095626104393102,-0.6052669644858373,9
A/Thailand/CU-B13201/2015,0.11835336250169007,0.42777690692379283,1.7139717502552165,-0.516935172015893,-1.585721951098123,0.40794832908946915,-0.3194244894039885,0.1592596594346649,-0.4585230428825909,-0.6092572847866063,9
A/Thailand/CU-B14505/2015,-0.09130472831060024,0.16305825253327505,1.5536019921252617,-0.025890912463064682,-1.2904728792541813,1.5844015500237247,0.22940095025310075,0.28198086835787795,-0.39865180971168346,-1.3502899774517516,-1
A/Guangdong/12/2016,0.10640325848171799,-0.11547585666737252,1.4151329337446572,-0.938474667780822,-0.8808848662532349,0.3748874122151714,-0.6948219710410647,0.35824715404738183,-0.5598018045821069,-0.3595312676218706,9
A/Hawaii/69/2015,0.2594890399978881,-0.12167295781194086,1.3487749346311186,-0.9187932939082467,-0.873783382172654,0.36576399454003633,-0.6661891562082407,0.39182046354206995,-0.4976753596795114,-0.3224931596583504,9
A/Hawaii/70/2015,0.2595024289343405,-0.12310404800256884,1.3449500606760976,-0.9105552932760874,-0.8578849425686729,0.3780434605860408,-0.703330874892949,0.3791032488638082,-0.5198389577869873,-0.3219735731707247,9
A/Shahrekord/22596/2016,-0.0644146082987982,-0.003644300710884523,1.6131029930131595,-0.8755295230948924,-1.0560930449702697,0.4001204140761484,-0.6050433426450031,0.3507069270397743,-0.5670021936364277,-0.4096617163150666,9
A/Shiraz/1008/2015,-0.09100091992605053,0.8029155062043705,1.6818685004657157,-0.6358161710899524,-1.4231117031156835,0.4580670006533925,-0.360932348333405,0.06960603702600517,-0.5394164194700223,-0.505845852662781,9
A/Shiraz/1013/2015,-0.014882880514284788,0.3443567934199104,1.7863959352443965,-0.5107674168672874,-1.584256777444643,0.41837252918711165,-0.3387215133765376,0.09272723115714282,-0.4708903381628475,-0.5263014734257281,9
