strain,mds1,mds2,mds3,mds4,mds5,mds6,mds7,mds8,mds9,mds10,label
A/Alabama/02/2016,1.3066202071538535,9.004414379400663,4.0754809148183995,-4.069063559017235,-2.7191425613002007,5.409470261477031,4.822733375440622,1.7138700624064984,3.4723059168021697,2.3996914660051525,-1
A/Oregon/05/2016,0.002692996736638199,7.012525806052095,3.3947183290242107,-3.474645271924386,-1.0937557732299954,3.4225320591776467,4.246659874452612,2.0302278481345652,2.561184813973259,2.9747171854840744,3
A/SouthDakota/01/2016,0.047732876845123076,7.104445143125137,3.4335147844527953,-3.2847528624203655,-1.0057301820930784,3.5096491660915317,4.287514837328677,2.0031676618381544,2.527149958279591,2.8896638317493157,3
A/Utah/36/2016,3.0172081549583942,9.455626841521427,3.0575502796499796,-5.234264849072641,-2.5281509674611673,7.2016195185095375,3.9453949913093336,2.324908825792713,4.4687340913348175,2.547236211764338,-1
A/Alaska/22/2016,2.639906984415541,8.664009323443462,5.894005722178752,-4.371866275733436,-3.598327672993407,7.0282497523840775,5.811084946692521,-0.11808163938750325,5.682097723224993,4.924045575380096,-1
A/Hawaii/47/2016,2.2972326815300286,8.492765700164695,5.58664756990622,-4.36764876539632,-3.18035115875123,6.318566120099722,5.096462307112071,0.6838217155796241,4.469764606068154,4.348594343277839,3
A/SouthAustralia/148/2016,2.3679122038114215,8.346696499634643,7.288970301105055,-5.121230249658442,-5.244682068858755,5.652160384131075,6.101193342313892,-0.842474989009431,6.158724522253347,6.783773549829481,-1
A/Pennsylvania/62/2016,3.4520152586036077,9.681970720938777,7.034469362064828,-5.395693988934454,-4.408766928771993,7.820108936941854,4.677603416606806,0.0014839640520381181,5.422686755737548,4.448508771451054,-1
A/SouthAustralia/18/2016,2.489669323229419,8.834904019127668,5.16341950828306,-4.923716053635665,-3.3786415583394205,6.348850457200814,4.586757478897511,1.2712879909167667,4.206824111075536,3.8469226124003177,3
A/California/137/2016,3.515465475253005,9.869505323915353,7.0374370049461,-5.0705720714589795,-5.239427639763835,7.860182035713227,6.011284718320367,-0.9879912787246482,6.978658044609058,5.247960235821029,-1
A/Nebraska/24/2016,4.636255115415655,10.086999537234838,6.67208362384515,-5.434756184493129,-4.721099861797899,8.770904146809983,5.212715052318873,0.3375072330882655,6.03895308856432,5.132927221123563,-1
A/Gainesville/10/2016,0.9020523991066893,7.668760794232334,6.84324488595386,-5.46324088779153,-4.87518153534312,6.995430712189714,7.243357009430888,-0.23064992788335037,7.041767722600448,7.9166015868239565,-1
A/Texas/180/2016,3.886011518952509,11.028508403456712,6.408715312971708,-7.169536321353685,-7.420116328877943,6.879343702000804,5.0497285769666584,-0.32964900281272175,7.622425121143821,5.042098013770178,-1
A/Texas/183/2016,4.7809391164683,10.551322280100756,5.845353006795747,-5.615225991038936,-5.855850602069002,8.604910727384022,5.696154040401476,-0.3153566905040193,8.08206432184694,5.836346152991523,-1
A/Texas/186/2016,4.617098800189356,11.343762258038067,6.468057079608339,-4.575908838015839,-4.799491755416979,9.689311273095136,5.8933049056270095,-0.9956991800094709,7.555093101644626,4.07981636163796,-1
A/Nevada/37/2016,4.140957902151396,9.110279193658256,8.096882592798583,-4.049300779466723,-4.512949273470739,7.883881027831294,6.402442911486999,-0.8839240179545174,5.98677581687843,6.829934467085759,-1
A/California/133/2015,3.8572539231156044,11.380028150326781,3.8180428324907427,-2.7146172801144974,-2.4482042387616003,8.31721425765089,2.1075441774922523,2.6715826927629673,0.5661011703281605,2.939966596893828,-1
A/California/63/2016,4.557489328465694,13.043702320653148,2.864834795605544,-2.7859397311460645,-3.683720434066605,8.105152679236108,0.9056866822146042,3.166887990771607,1.7083381524995067,3.3537945135634515,-1
A/Connecticut/36/2016,2.347779819087826,5.641114661318826,5.673143540628714,-1.8036766767961276,-2.0955836975820743,5.55518246248678,9.16030287024109,-1.6647355501095682,8.617825957257121,11.065105372862305,-1
A/Brisbane/184/2015,5.241834575352328,9.48388746529156,2.133395856703209,-2.8892325637898164,-2.0277400494440974,2.0306290708151016,0.7469329617260633,5.846433238523446,-1.8609175080981182,7.233783390543725,-1
A/Brisbane/188/2015,0.12635994612832904,7.896114874364354,1.8273616886673822,-0.4967385647491922,-0.034444469417441954,-0.9844768044176473,2.094653540649778,2.813496519058943,-0.8360110289379096,5.133143983740788,-1
A/Darwin/1000/2015,-0.14219130381461245,4.887433279065848,0.8998606754574532,-2.528449280004489,-0.8697051074346509,-3.5093152225790405,5.523217634643092,2.071699704419859,5.195812505251573,9.739105978770525,-1
A/SouthAustralia/163/2015,1.5461441649374488,6.5366182288126975,-0.5354719051260178,-1.7883146566668,1.473674624970876,2.475724619568596,3.9480892277491986,2.211041070058804,2.960183402205525,7.261434547007381,3
A/SouthAustralia/31/2016,-1.4316212583174788,3.040259402731092,-2.3606735838052817,-5.774478110035466,0.17906304923158492,-0.7602150702453142,5.4468818108101,0.9599253448781714,9.070298311796956,15.489961624071832,-1
A/Arizona/22/2015,0.5245377239330755,7.9131867530782545,4.997756939083827,-2.6336344544986328,-1.6561152370707055,-2.2193085526688443,-7.792251792918042,4.348634283370399,0.937868018096116,4.143667743642493,-1
A/Michigan/66/2015,-0.13374174959115348,5.8869546669722554,6.908670957149676,-0.5523131818209954,-1.4560884746499787,-5.0326725768675615,-6.7449666403052175,3.5041647328726,0.8901879821057609,8.813758666093994,-1
A/California/126/2015,3.9487182610670506,6.066055180226175,6.632705690283132,0.12696868505271464,0.913166554569496,0.9540116470367441,-6.778990234820941,5.608443287886464,-0.6640169490998901,8.24574035472277,-1
A/California/05/2016,0.1108736137299237,6.520813914837268,5.245225019162624,-5.547614794290116,-4.189646509857833,-0.714466181950805,-7.645130926847125,1.8251431089606167,4.610130350887208,7.327643906831367,-1
A/Florida/93/2015,0.1845789217287865,6.291623760867012,5.05414524103187,-4.602759521200007,-3.270118480252694,-0.9517851650981125,-6.913688156805024,2.582793388660107,2.9929123652817835,6.949018517612461,-1
A/Colorado/21/2015,0.1140822376846767,5.370367859388265,4.809517004500589,-4.680481874774382,-3.4990967806164264,-1.224811448531104,-6.10759303928791,2.3486548394930633,3.457703328279425,8.141529902232051,-1
A/NewYork/76/2015,-0.682206281573567,5.380384522178018,3.268333649404082,-3.4644458593242575,-1.8788923964822741,-1.0944216809865512,-4.714926371942443,2.466590006225544,2.853791076178581,5.911398074845005,-1
A/California/137/2015,-0.606194169035896,6.330389611804136,3.2442214877921463,-5.319537530561972,-4.2930017370440385,-3.164052315302393,-7.497608464728369,2.5883475042633943,4.8537589865533555,7.794836575671576,-1
A/Vermont/01/2016,0.3754432818941494,6.152091550649996,6.369900439700421,-2.8876784391814607,-2.0323979199101845,-1.4270089818707883,-6.613430974152906,3.7587375887271315,1.2278725922442508,6.669861829218737,-1
A/Victoria/455/2015,-1.47429802310873,4.92300066852228,4.582700178843799,-6.079493878529048,-4.678150791638324,-2.475701568130715,-7.082840202957036,0.8256965315875111,7.039629997638578,9.378571725049085,-1
A/California/94/2015,-0.09835387970845046,5.866012586487049,6.194698889578693,-5.574735229003149,-5.628801703998605,-3.258392246491161,-8.055211026674854,1.2949555672058422,5.545319992430396,10.552908679075037,-1
A/California/138/2015,-0.17183780993252026,4.633239897484176,4.918086237471813,-2.7282918715530213,-1.0425790059150253,-2.5872154448656763,-6.207478873231743,4.412605382595583,0.5260201287510239,9.413606029159663,-1
A/Sydney/9/2016,0.8942997404696367,3.1747983893315843,2.188847353740421,0.2672664857945706,1.707573732888257,-1.5267191406595888,-4.803042424299824,1.7662249621690582,6.407506880482185,13.082033428343228,-1
A/Brisbane/122/2016,-3.4997177307694973,-1.6654022440721055,8.297882075183043,4.889157772754055,-0.5292966637141506,-2.7103158209532503,1.2011974003748673,-2.1286918851394,5.308281536672879,6.35020885827959,-1
A/SouthAustralia/34/2016,-6.305480912290533,-1.8181364429353526,5.043447712513697,2.379946972158922,1.6759338849914303,-5.383990494401352,1.3447341822355303,-3.143364481491275,7.612352456184084,6.271165713612173,-1
A/Brisbane/183/2015,-1.0328890868190947,1.183212281127819,1.654111077698404,-0.07058920018802917,0.7531790054902223,0.05724441276615598,-0.3172137017584916,1.3688984502292179,1.8019539557234376,0.8101158565445643,3
A/Brisbane/30/2016,-2.300767199595372,0.1742483780276421,3.908400650451951,1.4217601819960577,0.5538108359898404,-1.8235924125507526,0.08101726232974849,0.4649689113781825,3.846970974132021,1.9071825181757296,-1
A/California/36/2016,-3.190994422019898,-0.25787508492273914,5.776930895279487,1.6291518117722519,0.08592836954580049,-2.821916939283745,-0.619267966784168,0.30129900944938715,3.3208727107241303,2.993573395989737,-1
A/Kenya/023/2016,-2.5670824652399413,-1.3263037623941072,8.247216923103261,3.0998545593084956,-0.16740961903119309,-2.187022868971624,0.2402045913258902,-2.1650080990849117,5.189111947554217,5.412716230904798,-1
A/Virginia/37/2016,-2.7498380450747786,-1.061889544260876,8.272036376818997,3.2876736077563407,0.820921847281209,-4.65439578869073,-1.1227737748773041,0.47522948663245207,2.792589895737601,4.784338584617251,-1
A/Indiana/28/2016,-4.120381058539039,-1.2086854460454728,4.721964119388843,3.3726522127636285,4.895747179024377,-0.688024260117822,1.4436757146257817,-1.8468876299370351,5.824499384517522,4.009372300361474,-1
A/Brisbane/195/2015,-2.4777665212646407,-0.10022836602372388,0.41292556331709607,-0.0674447269522188,-0.3572006015702684,-3.6459622896835944,-0.88263077892621,1.4295913921160723,6.588610839401726,2.9911749583158094,-1
A/SouthAustralia/146/2015,-4.6914363612938805,1.8985636041752183,2.170234904211603,-2.016983877089571,-3.325893619972278,-2.2084000168195876,-2.420669562443617,-2.363191049433541,8.183381278867138,0.903027282397546,-1
A/SouthAustralia/29/2016,-1.236367932313618,1.5082641294896364,-0.5776882189858771,-2.164326160740492,-2.0900737574601864,2.1800672395914167,-1.437077317561285,-0.4558856478560499,11.426865106932393,-0.5639025494464521,-1
A/California/108/2015,1.8658918508201217,4.063969872607464,6.225098129515916,-1.2371524652480346,0.41158938481243834,1.2516894880948197,-3.255729521368185,2.823108485975118,2.244333011832495,8.507936079673843,-1
A/California/100/2015,3.195785970181379,4.314496438481578,0.49450193285030053,-5.004457348529861,-2.1492665736108725,-0.882264947184851,-1.817755507799831,6.2898481450387065,1.2587521831564648,4.3991592843823595,-1
A/California/127/2015,0.3351207344532278,6.360962830624126,-3.0747697496385533,-5.644403483524568,-1.5726496659863127,2.926322132099627,-4.86218583788274,-0.5739832610661917,13.0289609317238,4.246036802727895,-1
A/Colorado/04/2016,3.9260173659513384,6.807929950793767,-5.154553370662555,-6.083767533064359,0.7342409478823575,1.5862981182198819,-9.305716134396482,5.473992724989982,8.650446214843758,5.936842589061219,-1
A/California/24/2016,-0.41733837976917765,7.834818553537282,1.7599406363270589,-7.047397311298957,-4.690546338640124,1.5440810158423057,-6.106785881769784,-0.13621640817340497,8.600073590782111,2.4530028254503025,-1
A/SouthAustralia/162/2015,-4.034399492280721,-1.3987083815543797,5.767904443281352,-0.6254156666479368,-2.3398295539873133,-5.817918881787507,-1.9789179457692239,-0.13775241222992107,5.6318638543144335,5.1295707203930885,-1
A/Connecticut/06/2016,6.699875653103586,7.088396581293652,9.816166015558839,0.5751792454291454,6.160737092767672,1.126637406028236,-11.266104391252036,5.2383786924700395,-0.31095129154393125,12.641770344923449,-1
A/Brisbane/1008/2016,6.367843437187074,7.449190970689812,-5.0324616902676595,-0.5547555308126205,3.098779409784528,6.892017377110363,5.306550168089019,4.444262505938867,8.615552166253236,6.607517421981903,-1
A/Brisbane/68/2016,3.2450446967532214,7.211747571631932,0.31138631670297023,4.278816732905672,2.233067697934381,4.556587600671584,8.455383742068609,0.3126472059584429,7.459861783925597,7.749666011631924,-1
A/SouthAustralia/138/2016,8.180039794471801,14.524854156570418,6.752792294133224,6.0013540929285645,-0.09102940837298024,3.4354030305233807,1.4108294532160524,5.393719439894547,-2.63617054646889,6.03049537683634,-1
A/SouthAustralia/27/2016,10.663074729914424,10.266644826792215,4.19153908017467,0.7407547683810981,2.7211473397847787,7.914586743077119,1.0760466173651162,6.959594926492501,-1.2988715661670398,6.26347221451193,-1
A/Kenya/014/2016,5.452620130275608,6.183667912331506,-2.944210406853366,-2.180616733474855,-1.5308773848287351,-1.0303633621166675,4.445953162754882,5.99464348608327,5.398554002473826,11.173183151903856,-1
A/Townsville/37/2015,8.623478896795303,8.007912436786663,1.1595121698238924,4.391617780035313,5.137551022370441,3.9509597803579117,3.9092010650573132,6.016552532911477,0.7826631949127806,9.710877832593262,-1
A/Hawaii/14/2016,8.077717213452441,9.084013081097007,0.6273301931784537,-3.0687075295965918,0.510832629574657,3.0128588400834184,-0.6839904936525046,10.515082743243534,-1.2224994093192592,7.992316474336905,-1
A/Alabama/15/2016,-0.8561923444913325,-2.943402957268912,-6.517068537122845,3.5665631538240095,-0.7242642446699183,3.197852696916368,-4.618102144420427,-6.168872702314843,0.2596678986800431,-3.128044494667247,5
A/Sydney/25/2017,-3.182225953911092,-3.2912859988449132,-4.949072524269413,5.1229650669899565,-2.9704130532000423,1.9540383118573084,-3.98023745714665,-8.555043324026027,1.307150678587907,-2.7110652893236677,-1
A/Arizona/35/2017,-2.4127900723410107,-3.991647550623455,-7.792376796765212,-0.183637425189341,-4.6484302780892515,3.5705642501544865,-8.722264742995518,-10.609493992494317,3.6248639269736995,-5.461629400940855,-1
A/Townsville/3/2017,-2.7437745328604337,-4.1610986626074435,-7.63264371847093,1.567201212466578,-3.2954143418229367,2.876608310856107,-6.3789085727258925,-10.933907881570754,3.567761536111901,-4.59528458367674,-1
A/WestVirginia/20/2017,1.7122905227837621,-2.0678834096451135,-9.901113053516301,5.52453191851142,1.8911304859033318,2.7016362483989,-12.834933815176445,-4.759000504516579,-4.47958193264793,-6.45351720403907,-1
A/Sydney/37/2017,1.3727112678720927,-2.944857562919656,-13.513734073283976,5.011880083284285,2.6844640291311572,2.95697898144544,-10.706537684288032,-6.3825780278731505,1.3083872686651865,-4.961249985314425,-1
A/Tasmania/41/2017,-1.5283079776225708,-2.9722310165838657,-10.260695120521907,1.5122204012575944,-4.295353911399166,1.6869654664668583,-8.68440813528976,-9.824588359308553,4.112146854394721,-4.3420444287393325,-1
A/Alaska/24/2016,0.3948226719992274,-2.177883689672697,-3.099627744629719,1.9815570804924534,-1.924887137759537,0.9802499871707547,-3.315732094600903,-4.588206149886823,-2.212208929785053,-1.4059776599289275,5
A/California/186/2016,0.24775554930340882,-2.268118371291591,-3.0903485513906186,2.0453653123126707,-1.8291288945021915,0.936769252719241,-3.2187693052177746,-4.6125551952406925,-2.242243697370299,-1.4428406722027072,5
A/Maryland/15/2016,0.4173667464347864,-2.138723657349422,-3.140162685988711,2.0144545681870967,-1.898286752584273,1.1689766035751852,-3.2576936642154997,-4.528202702367965,-2.1851587853456795,-1.491496353861992,5
A/Nevada/51/2016,0.3138749238696949,-2.2047461182098704,-2.967273218656888,2.0018282330428083,-1.874112711487991,1.0053965805900842,-3.291336801786188,-4.537520841694968,-2.391373593492116,-1.5161203532231753,5
A/Sydney/11/2017,0.7613590931923949,-2.897650527171488,-3.3185227688492973,1.5637982627407343,-2.4185349270606897,0.8247455161894954,-2.5148064248608253,-4.395749173717739,-2.9288259815324915,-1.1486768739089865,5
A/Sydney/129/2016,0.588907274066279,-1.8940673400037062,-3.0132603761850563,1.2643201637164982,-2.0239259050259966,0.6789741783699145,-1.6830361118632138,-4.096109610215969,-2.91655954965921,-0.8817036189162627,5
A/Kenya/015/2016,1.7463688177681047,-2.683156685650535,-2.005756304732238,1.4605217625646694,-1.5562497954648076,0.5201173372242102,-3.0357889938172242,-4.582581065687044,-1.892415610688657,-0.682561489178393,5
A/Pennsylvania/50/2015,1.454483230400878,-2.5576307453048486,-1.9285100974531144,1.3597916143243447,-1.5835624238414285,0.5231192478481772,-2.7209133928313194,-4.019950514336388,-1.8347113066360587,-0.5745673213685181,5
A/Illinois/27/2015,0.7817044222194807,-2.6841216265822414,-1.829767879994401,1.934447049422511,-0.943800372739663,1.5559197481785654,-2.7623735935855622,-5.435229926058285,-2.0884001511662813,-0.5622648250665163,5
A/NewYork/43/2016,0.22144295867134983,-1.899807978027752,-3.838245569731175,2.5093919242743565,-1.6531544794144553,1.8414132492109094,-3.822630402820081,-4.963505999107252,-2.115226829821616,-2.5165530343164426,5
A/Louisiana/29/2016,-0.06253442749540979,-1.7250471774899032,-4.020733462060783,3.0216818001198447,-2.1551513059523466,0.7585659522554401,-3.7582583193173678,-5.162611599990561,-1.8465744904501276,-1.8767918361779679,5
A/SouthAustralia/51/2016,2.0001430722916953,-1.878495905451801,-2.0844936414954027,2.5821682779307635,-2.4578122760825076,0.13005977549334663,-0.2923902137391068,-7.732265392324815,-1.7259673036047543,-0.351199522736885,5
A/California/96/2016,2.6256340807372998,-3.49709187180352,-0.9479717503387215,3.2531170873728508,0.21638027424590114,1.0017779450403337,-5.469044662901361,-7.956283085179368,-1.8745169374359159,-0.8803673781791466,5
A/Sydney/80/2016,3.0894099751820527,-3.1156056262784966,-3.917508231808427,2.3358233337273093,-0.9453685885336085,1.3810713707121047,-3.481822718624572,-6.35501226721789,0.14618837378506194,-0.3532825796248952,5
A/Iowa/22/2016,1.695103416378044,-3.9410752282585166,0.4709564138849844,4.356006611628731,-0.1806072799006365,1.05582103085268,-5.299689119625144,-9.671812599618761,-1.7736260499562317,-0.6815038801326989,5
A/Brisbane/231/2016,1.0249160469843999,-4.3331247901618015,-0.035164777153274235,1.7491173782861373,-4.333677502951439,3.8457740296792573,-3.310959715362384,-9.722683263234929,1.5231046020220729,-0.5200281821088569,-1
A/Newcastle/1000/2016,1.1013354501665156,-3.960684560841369,-0.3308909059273224,1.842782171816397,-3.7337656573281377,2.7039503384283834,-3.0240668665024244,-8.679078963106809,0.6539769878523717,-0.2569794762216291,5
A/Newcastle/30/2016,1.3981699084909462,-3.1638951483998814,-0.7916068040071388,1.7005569295509864,-3.984439927339141,1.4261206541390252,-3.371185084710579,-8.963556759158072,0.820809144903709,0.039734250366978,5
A/Newcastle/64/2016,2.4814106095314545,-3.5133072633752893,-2.412231219818948,1.8201843288915482,-4.241946923997541,3.819006026304838,-3.6460765283444214,-9.21094562112677,2.763983602759285,-0.47326770810059715,-1
A/Newcastle/78/2016,2.15218184252888,-4.068675230206396,0.39910921142057476,1.6074707257394563,-4.00769845591513,5.133038382781899,-3.642230471863295,-9.114282265727661,0.6768411074373633,-0.8455679357433327,-1
A/Nicaragua/0645_06/2016,-0.14638054021848426,-0.0029944408910160827,-4.204705548453385,4.108804907993321,-4.359296790151094,1.5010023626695705,-6.535741936797777,-4.770041225485442,-2.7784818663799227,-3.909793667496872,5
A/Nicaragua/6487_12/2016,-0.11147180994134429,-0.5583280260236361,-3.778419593449453,3.4192611737836667,-3.7498708679711465,1.3861700511724626,-5.380262673747793,-4.894988308129918,-2.4871914926227725,-3.282654123094217,5
A/Nicaragua/6893_05/2016,-0.06857148551060935,-0.030092094239141817,-3.9464926610422473,3.7122211006335304,-4.315269768954556,2.2256238169657934,-6.450167608006896,-4.905774738490001,-2.699345907721062,-4.284149952930133,5
A/Nicaragua/8605_19/2016,0.20078959195545515,0.08920482609740871,-4.040667269723373,4.141597816867452,-4.083084195147372,2.0425684775399247,-6.479977930720666,-4.6885516718565325,-3.0248524821043423,-4.12987579000809,5
A/Nicaragua/8771_02/2016,-0.5900916688640685,-0.21910424606961798,-3.626971848333182,3.5046195129862707,-4.3659277423031995,0.8018347327290598,-6.869111879210937,-5.515362011530018,-2.6078096058436735,-3.8751085202085953,5
A/Nicaragua/5307_03/2016,0.011390560688346736,0.03977214686356725,-4.275834411220581,3.860015738509811,-4.41357453723452,2.0579204076442346,-6.3538323876483105,-5.0251952376119915,-2.3387067749471746,-4.135459029308977,5
A/Nicaragua/7718_04/2016,-0.21571573782865414,0.5430670098263544,-4.686749010647743,4.5969788534061005,-5.532117369285735,2.1214428206668248,-6.98411228376652,-5.635480972769353,-1.698982573373113,-4.584403293193935,5
A/Nicaragua/9083_05/2016,-1.3045292168734675,0.06658582154071639,-4.340592816680892,4.625279460070212,-5.679409013756622,1.5533084071550654,-6.657025590050313,-6.254553078620473,-1.3059832739543735,-4.548267346018076,5
A/Nicaragua/9290_01/2016,-1.299899667735982,0.09767774174127829,-3.9860404783080297,3.960396467274368,-6.4136654694762125,1.2940689188484717,-7.240299679052245,-5.968889215956353,-1.4381801025302752,-3.9224730590587296,5
A/Nicaragua/IIIn_16_0266_01NT/2016,-0.815479245648136,0.14964628362708354,-4.222399210739824,3.817839694232851,-5.853484044932361,2.319884345557948,-7.111095157329217,-5.8541969941217165,-1.4874968036435925,-4.766142939336558,5
A/Nicaragua/6842_18/2016,-0.5600665356363528,0.8327169011884791,-4.004886843012632,4.459859236140821,-6.017492122400953,0.9930377355355607,-9.192094345140182,-5.811739665340539,-2.7054512510800426,-4.942716980861682,5
A/Nicaragua/5275_01_TR2/2016,-0.5004795719202477,0.07790513650006292,-3.104324495339477,3.406207178128664,-6.044835521793456,2.5632646756092434,-8.04712046991685,-4.814474778004822,-3.0403121103753494,-4.20297376184332,5
A/Nicaragua/5660_06/2016,-1.217854443521624,0.226838558971211,-3.4370243930001365,4.780436105942278,-5.947408794897055,0.9180997959078246,-7.470693335759671,-5.410429164442456,-2.8369627288535293,-4.080958372293713,5
A/Nicaragua/7056_03/2016,-0.2763954752028189,0.26209434979270296,-5.635035106893391,5.217051518276351,-4.187641563210188,0.7032814246047564,-7.844426497313453,-4.479124543414846,-2.6962776863095965,-4.0609780100396105,5
A/Nicaragua/9073_02/2016,0.5513122576044075,0.5522278794907335,-4.951980422536981,4.443500042712878,-4.298548168682014,2.7518123059259003,-7.613587320743302,-4.597526816610736,-2.7937573038861476,-4.959484188012078,5
A/Nicaragua/8031_10/2016,-1.1117811792058896,0.38096707570633936,-3.8085030172901964,5.667344509984335,-5.6528396880868055,0.7696107628026397,-6.693561973864298,-5.96525036282618,-2.34555835603771,-3.9661986963177407,5
A/Nicaragua/8100_07/2016,-0.15198814357913445,0.08055206708484489,-3.788999696498732,4.294696660940766,-4.439479645278635,1.8380973381638335,-6.272185873514164,-5.0063274535870335,-2.8417405090353167,-4.01286113692774,5
A/Nicaragua/6678_06/2016,-0.2111159318185772,-0.026234320682216074,-4.4905840238765515,4.209606073793741,-4.080891952275623,1.2609124488524082,-6.5992296201077805,-4.724821906134349,-2.684252627056922,-3.869721339512456,5
A/Nicaragua/5978_06/2016,-0.6953386318470425,0.8691806843778315,-3.6200928632026224,6.054502823419435,-6.500840974428201,2.024714236906502,-7.516625451547894,-6.646197111810876,-2.0235245655978704,-4.7449585402482235,5
A/Utah/39/2016,-1.760620663355694,-2.787494383771336,-4.482632455900583,4.12920317054767,-2.197869286844336,0.131004797999111,-3.504905682760672,-6.516888669468225,-0.583587838889676,-1.439478859179279,5
A/Wisconsin/86/2016,4.597914088862679,-2.2646854322840206,0.7263310597118267,5.30547317415391,-0.4075430279406341,3.029049105013113,-7.137427704950786,-8.800992529257984,-3.241165953500955,-1.0556356813986072,5
A/Tasmania/213/2016,6.2796727417024565,-3.465147181704383,-0.5573184538181335,5.09508173870292,1.275850490412261,4.058800022441133,-6.685588125247126,-8.036117425798652,-0.8411351509603145,-3.6532426969716147,-1
A/Sydney/1092/2016,2.6079183942438022,-4.06875325773815,0.7261151449317611,6.249224766300551,0.09813681740757486,0.42440592271680594,-6.087286140043042,-9.714711617149982,-2.638508770568773,0.8973001627905994,-1
A/Mississippi/12/2017,-0.978483479561398,-2.7110189729992897,-1.375005628399669,6.360454753852695,0.4466599651342356,3.241149850956089,-7.072746444414998,-8.81521710695827,-3.628130678338496,-4.0111688616909555,-1
A/Arizona/38/2017,5.506068736340075,-3.5248145732735834,3.754962614619674,7.349976513049448,-0.09303892078328183,5.540171501989927,-9.334018209587775,-11.550039703224375,-4.304915287367802,-1.000879968040172,-1
A/Sydney/48/2017,6.030187588669765,-2.5706707865501532,3.3953596993013604,8.1605467343184,-0.48424419210237374,5.980587226664603,-10.686112288338922,-11.969753146509165,-4.133415084523747,-1.8790626951627898,-1
A/Victoria/2045/2016,3.131959573698725,-0.33913851033154435,-9.861411536491923,8.298435246042986,-2.9720434789509653,5.6061973107855705,-7.382272022766042,-5.728059516610802,1.0010199655705705,-2.8162038880105786,-1
A/Victoria/513/2016,0.8924071467299437,-1.2312252654686457,-4.850321903018449,7.638061994495599,-2.7664444432970714,4.72227479380938,-3.4137497064794156,-6.944828496426582,-0.7981866271842029,-2.820852216984042,-1
A/Alaska/26/2016,0.9328468685550867,-2.0754319194076905,-1.2848310477256188,1.9571801813569405,-1.6258693577633043,0.6523052965182374,-2.8571384942854348,-2.185627832071919,-0.49105843918676767,0.5212224097590643,5
A/Newcastle/134/2016,0.03733357985202632,-2.64718959412657,-1.383589544107183,2.6846304635712195,-1.6030273924846816,1.0012157704791151,-2.986676692089782,-2.1483411478313656,-0.3022004595221708,1.4967768150266456,5
A/Alaska/264/2015,1.003579843041479,-2.293821366646958,-0.9929344247295863,1.5635291715430433,-1.3597043591955946,0.8324201262790495,-2.880438730587929,-2.234918501134927,-0.7501776051441658,0.21984475462775624,5
A/Sydney/1018/2016,1.0831021930809475,-2.148877944950228,-1.066115072302267,1.5949710855523416,-1.127119520340906,0.6350190694932031,-2.9118601211089197,-2.239925363175739,-0.8670192371633332,0.38474183403946516,5
A/Sydney/9/2017,0.9179272598593323,-2.0992845343453523,-1.048356597986618,1.4160032657942203,-1.3270163962205193,0.6307672195490205,-2.5708679080351162,-2.150585735328264,-0.7519658162544218,0.06903691990566428,5
A/Canberra/1001/2016,1.5427402686602367,-2.055239398807402,-1.3650377105773523,2.315930444951279,-1.0076880768933096,0.44905557879603425,-4.157374563694063,-1.6707427851134806,-1.4115193902143799,0.875357687907535,5
A/Sydney/101/2016,-0.4958147740702225,-2.994005160395348,-0.7614227607878936,1.5674218106801567,-0.495158631627644,1.5370402847318465,-3.1481400419018684,-1.9604553080299563,-1.3254847063226631,0.9889703259031313,5
A/California/126/2016,0.6873908151777272,-1.7908424037258706,-1.0600893845513395,1.0969949676372344,-0.7411209378945854,0.7365847196908594,-2.557031378692943,-2.413597492199964,-0.9421045713188725,0.3950801398636129,5
A/Montana/39/2015,0.6270104490806686,-3.0197425748209152,-1.2601303082002633,2.27334851904627,-1.2839807340144627,-0.04791417820554058,-3.8018969244870666,-2.063822676359104,-0.7266500354325919,1.4848750198010574,5
A/California/121/2016,-1.7329371493350567,-2.030242676402751,-2.376758716341994,3.145095848779642,-2.1260187398308985,1.2420872193129,-4.1734108145173705,-1.463171829146169,-1.334638661384694,-0.3059011786151265,5
A/Illinois/53/2016,-0.6697610897055203,-1.855942515162797,-2.049324675056155,2.2037094173538403,-1.796768877180962,1.2081838558907787,-3.224188217879132,-1.8989566908801179,-1.1837493986462064,-0.3786427950787829,5
A/Michigan/81/2016,-0.5673121081937623,-1.6997393868254091,-2.2043940744509456,2.2908528890542823,-2.008727575885128,1.1643778641321838,-3.1307062713151637,-1.942524448216602,-0.9798538735488752,-0.33954195049828084,5
A/SouthAustralia/160/2016,-0.6334051309256452,-1.8620822270156476,-2.075704296578988,2.126500637376108,-1.8620229760239206,1.231270618928142,-3.223093773490187,-1.924123431537797,-1.1120104009284435,-0.46538560128710327,5
A/Sydney/1014/2016,-0.6034314922089284,-1.89550320914871,-2.128481890872827,2.0671056117812387,-1.8722710766823387,1.3058348140530551,-3.1480570342006735,-1.9330378367995356,-1.070647495998627,-0.46089059672125954,5
A/SouthAustralia/173/2016,-2.2091313636823835,-1.9728620646943553,-2.324814440172628,2.7053459639981567,-2.3115400476527985,1.6958575280260768,-3.6618984508957797,-1.629928814133039,-1.1802187524780872,-0.23960355092381852,5
A/Sydney/1094/2016,-0.5817331980573841,-2.215502035057821,-1.7957929846287508,2.027484715568681,-1.8716235958651084,1.5745348576599802,-3.1023121676472285,-1.142731661521369,-0.23966141296193913,-1.911630124166736,5
A/SouthAustralia/1007/2016,-1.6848042510318548,-1.9926604979959543,-2.2459844317126265,3.007292131831115,-2.4410478643892533,2.005717083155703,-3.9467819815792917,-1.5788061578511245,-1.0361293020449363,-0.5499814373153563,5
A/SouthAustralia/164/2016,-3.064239933748391,-2.844966250383175,-3.3160143764943815,3.3160613694729126,-3.212191605348691,1.4500063000416903,-4.802574653831944,-1.8685688780885674,0.465734646366791,0.13464070775408613,5
A/SouthAustralia/141/2016,-2.978107204878382,-2.8338001967935225,-2.9194122336894384,3.939664858152679,-3.1200320797140884,2.0819398312524413,-4.433976239722646,-1.9348167623953265,0.25666773154669875,0.06765083115964968,5
A/Brisbane/287/2016,0.26872708696460174,-3.5915288728264656,1.4249735883884715,2.2922541941696943,-4.4128474117180705,0.9957438642854991,-6.383259700291313,-1.8319246731672743,-1.40991182691628,3.0771463789164875,5
A/Brisbane/300/2016,0.46612321155028025,-3.1206148338377204,0.5282966803473014,1.4776099042022095,-3.6140447930779835,1.0680888927395114,-5.4458873781523875,-1.907638376636875,-1.0141209303103962,2.001455742325105,5
A/Sydney/5/2017,-0.29676106807708574,-4.375248939823465,1.4983674117335222,2.590591035714403,-2.1625758638827848,1.7159712996875085,-6.057804261171955,-1.4665554383960226,-2.39209411301646,3.202456242434569,5
A/Tasmania/24/2016,0.6930011128329014,-3.0215083914372642,0.8211258295881297,1.6373965890889093,-3.746326350045037,1.8419834994236073,-5.042995455645998,-2.203687575932133,-0.8305076419825697,1.8391341448920688,5
A/Canberra/80/2016,0.422190235118539,-3.5619535590258664,0.5660324368841839,1.1913760570940213,-3.398502413012569,1.9064706109737697,-4.943467026363565,-2.428223964626959,-0.3346783268313424,2.0982009720677275,5
A/Georgia/58/2016,0.983286135377866,-2.3736250031640425,-0.5760899564319457,1.2210191996417636,-2.549329125072627,1.3672544149316717,-4.222936874349717,-2.0318023698381538,-0.5878332782074115,0.7525257658897645,5
A/Tasmania/97/2016,0.7802124090180298,-2.6155102504729424,-0.2796245820650195,1.5309505197348985,-3.8663080456036583,0.6290397471009973,-5.6926994017853465,-1.604988025877494,-0.7162706013029592,1.982867597058177,5
A/Florida/68/2016,0.6984410444945385,-2.61317345707622,-0.30439334358515174,1.3639987056147707,-2.5809623568553803,0.8422732695068205,-4.111050775909977,-2.188738083525509,-0.7124026166597137,1.0880716455371409,5
A/Ohio/34/2016,0.8426239066520358,-2.5305051503620044,-0.18029447088832215,1.3260020316242758,-2.5200474351160054,1.0716982118209475,-4.186996803630521,-2.06307670837909,-0.9383332686137273,0.8951814830634952,5
A/SouthAustralia/115/2016,1.7996156090403606,-4.394195395891558,-3.0714332614128077,2.4130797489494444,0.5858081469481208,0.5724224347944539,-6.484087316463755,-0.8368789782605467,-0.6291916189367559,3.612140988733978,5
A/Victoria/1012/2016,2.2895994086382645,-2.642486146349457,-1.8384546971169173,2.8693715940414344,0.24114493676094498,1.53837148704503,-5.340926231916143,-0.7894353183364698,-1.9929951569523063,1.5642354933114537,5
A/SouthAustralia/147/2016,1.9557960158209837,-2.262738756705789,-3.383133074197669,5.401819732061581,-2.3249214788932795,0.2827800604329754,-5.341025175772624,-1.5104862907310959,0.6322706312480971,3.40410310967655,5
A/Wyoming/22/2016,0.10864181283483682,-4.062615281727432,-0.7930643499391637,2.971725212464764,-2.396501898893553,-0.016388624693743862,-3.799992939959465,-2.8936878732573064,0.2805923866979265,3.2089157723548665,5
A/Canberra/7/2016,-0.05557600601810958,-3.5351776722377215,-1.3333867115630793,0.5057669834131714,-1.6210685136911638,3.3232861079151315,-4.914393290440835,-0.8561168467469045,-1.6349035477167542,-0.20052845738840727,5
A/Tasmania/3/2016,0.12887642713592512,-3.3293800683073855,-0.708955247207349,1.825378121349919,-1.585443760673994,0.3885321887790732,-3.5572194455838866,-2.5084930844699707,-0.4420110786116578,1.3776761202607415,5
A/Utah/47/2016,0.8041556790925893,-3.0845647181076705,-0.8936937842978513,1.1379459831884289,-1.9179513332367626,1.9321812177904576,-3.533340678289145,-2.57779568189316,0.17740885669031345,0.7303900896416388,5
A/Minnesota/31/2017,-2.1376261250306032,-2.2999104004493547,-1.8431634288521863,2.145073088464952,-2.0615703385384943,2.6341033173430546,-3.8813533975441405,-1.6598140865939899,-1.2093784018520282,-0.5432144149406579,5
A/Victoria/2073/2016,-1.1265126489455135,-1.892079994349651,-2.6984869758313708,2.7263401974054653,-2.1611072111078573,2.46133964328099,-4.133735467891196,-1.3870946894983835,-0.8952611682000333,-0.7533435895277897,5
A/Darwin/1008/2016,-0.41320857089055196,-5.908049256902894,1.1081921226988376,1.6147193072856287,-4.432473387924038,0.004571889680261709,-4.861364357949702,-2.955379495790681,2.4399687117118103,3.2861598004439867,5
A/Brisbane/197/2015,3.594297360841337,-2.5451813281903295,-2.823555546614841,2.208849377461061,-2.2675294171626974,3.498322393518012,-6.805408614695559,-0.29899142863059763,-0.06860101318201309,1.9140491321778939,5
A/California/120/2016,2.7783831640670043,-4.523333686345802,-3.1106204377457045,5.015061610835049,0.958764179832953,1.518752710319662,-6.962995646241175,-0.10429673096075615,-1.44659161910836,4.03310439091468,5
A/SouthAustralia/35/2016,3.7969916324224524,-2.5428711977404674,-2.097372062442845,2.4933946466705414,-1.3406519230377916,3.780903906855894,-6.7814875495539235,-0.10551057960456042,-1.3473072309114638,1.4794927818802188,5
A/Utah/43/2016,2.2449988204346907,-3.2766582618486972,-1.346941411742651,5.075647475666744,-1.7594063995766918,-0.5993150020528781,-7.900842210727955,0.17873383186062836,-2.8423684946590644,4.017480965665272,-1
A/Brisbane/66/2016,2.8449099870554226,-4.572412139018764,-1.5651159116174775,6.667619791533427,0.8838068841552816,0.5965888114595351,-6.013721289458456,0.048897810580579855,-3.7574017404213795,-0.03979646417400545,-1
A/SouthAustralia/172/2015,0.8488660756993887,-3.5833958071944463,-0.6344942931828058,2.9666560514910594,-1.2011714513152325,1.7212421993572853,-3.09460998064871,-3.6283300525888724,-1.8820430283755363,-0.033359269359986746,5
A/SouthAustralia/143/2016,1.2311961187562448,-3.2654022415178643,1.6173111243281537,4.190321432428341,-4.130246479871994,2.4339254063783198,-6.596583143931778,-3.9878204041612237,0.35413852298302495,3.955419895346793,5
A/Newcastle/201/2016,1.0150723826447914,-4.466001951330347,-1.802606605850233,2.479067223354545,-3.1096361145685427,-0.10099873834697361,-8.426385853644089,-0.48762722770558947,-0.3722090373120037,4.700916285525176,5
A/Utah/53/2016,-2.753766782387319,-5.999793103182755,1.51293652130445,2.588069158894682,-1.6429098410850136,3.031184594646508,-5.644695092446436,-2.2965906976141133,-1.2499741744807678,3.680492796669866,-1
A/Wyoming/07/2016,2.4435502141971557,-2.2077810965932714,0.9312044412010195,2.732008570609181,-3.4738542794500393,3.588389046751215,-6.6181176098438765,-0.6266641370974234,-2.5506107193202743,1.4124799578576759,5
A/Arizona/71/2016,1.448499296130819,-4.058626394724638,-0.64249042926312,3.2224698178065685,-0.48532817666402195,1.6449801069658434,-4.810094091665378,-1.2834311760349093,-1.5403578789114034,2.7251271414753626,5
A/Hawaii/54/2016,1.6734051363967286,-6.395321377872232,0.5956893317186789,6.064168016940332,-0.5614886749012269,2.945370426395809,-6.393504883885864,-1.5632853223347092,-1.4052058405159553,6.168738208905912,-1
A/Hawaii/58/2016,-0.2209774286411974,-5.617166538322497,1.5822164582613116,5.806030458525828,0.20168235268380227,3.711719805107511,-8.136298510412011,0.3140456218552825,-4.614688062236406,5.156880502394897,-1
A/NorthCarolina/51/2016,1.7025525724933495,-5.284175667318923,-0.9205103706428084,0.4444652109064639,-3.26602170137562,5.292224517191023,-6.385851444199693,-1.6644479137749018,2.408172687020571,1.591279564575919,-1
A/Brisbane/86/2017,-1.4851149085393573,-4.7486820218382855,-1.066278012012408,6.568190877594538,1.6376939384731526,-0.7367533777533734,-5.325252499835141,-2.717733237181376,-1.6959629099883813,6.122837236190201,-1
A/Victoria/2015/2016,1.8581581492114496,-1.7435093857457127,1.45248021464369,4.043134658921633,-3.822097070082008,-0.03794493620382809,-3.2958603049404607,-1.141713560387157,-4.887012918824782,3.4972789707426717,-1
A/Sydney/1059/2016,-0.574409013678342,-2.8620217083228576,-0.9918462693080088,0.5398552942716324,-3.06517388766303,0.9650761762616569,-3.1122588581450596,-2.9904841232275445,3.095778215291123,2.0142321716965266,5
A/Texas/179/2016,-0.6082961165680005,-4.782498038591955,-0.925003739743371,2.6523976742227346,-3.5293477361591825,1.6436419240947022,-3.9109520621884575,-4.240752008100962,2.71357986839581,3.2953096613385977,5
A/Victoria/2097/2016,-0.9884316673883304,-4.692323297795288,1.7510787421198997,3.6884944800737727,-5.687674809539191,-1.2128845816036813,-8.499341942549883,-1.7786356732878568,-1.3135999807507666,4.723455144020877,-1
A/Brisbane/285/2016,1.3011677842797587,-1.1771082751911586,-1.3802633592013829,2.1429637322599504,-4.349382631846998,6.219483697442682,-4.8542703719892915,-6.722569481795864,-0.5567038421583111,-7.577399214394279,-1
A/Hawaii/76/2016,6.610977069958321,-2.6083232286394034,-6.13486703105929,5.336972061540929,-0.6138016222203115,-0.824288421709444,-5.590345695913876,-2.822610492375093,0.5327288454957503,-3.17588413502694,-1
A/WestVirginia/14/2016,-3.0287765949077845,-2.8504331046122906,-3.103971281718439,7.73673322574471,-0.5575311339371603,-0.35693119333793966,-3.6046138899453473,-5.241705765224744,-3.700032598920585,-3.9524877770790163,-1
A/Perth/78/2016,1.9547329716064088,-4.67747198688091,0.07706882461623092,2.093690118424202,-5.894640970586313,4.14168168265326,-4.24666115181406,-10.052490741192761,2.4264737981665636,1.3196264123814356,-1
A/Alaska/28/2017,2.2827914299824625,-4.14940722095382,-4.102834350697029,-0.36121482156399376,0.16177057132706926,-1.4455192286900007,-12.74761469521805,-10.570392558713198,-0.7931377246652755,-2.8884403488123613,-1
A/Alaska/33/2017,2.64113406370196,-2.990640793208501,-0.7652644755099299,1.6975852196141987,-4.5617720657372365,-1.7937129559450598,-11.296078268349554,-14.308732779797916,0.7610637352061456,-0.8693785730462495,-1
A/Arizona/06/2017,2.3990609742652063,-3.6410967230439533,-1.0269975783043845,0.4979760307374584,-0.6272063837736126,-1.0498540755003494,-8.98139871798405,-8.906273021715794,-2.9811321912991455,-1.9926402597380715,5
A/Victoria/2001/2017,2.7385614403323233,-3.62971212598736,-1.2211778717136528,0.48220223998991746,-0.7707514191744848,-1.1522500301514103,-8.905782950353647,-8.951637602198861,-2.79752362743031,-1.6792280048523143,5
A/Brisbane/122/2017,1.438466722777328,-3.4706042913757096,0.19222646750703076,0.3890449232258333,-2.985023249599239,-1.549848474175114,-10.11024282429923,-11.780672044851936,-1.8406263374340799,-2.8562366123861027,5
A/Arizona/37/2017,2.0829198002583835,-3.968490594083344,-2.1945352759891867,0.3370416541856398,-0.8151089218868662,-2.3867184030270616,-10.054956979747272,-9.7151086593091,-1.671275183447018,-2.147621409934324,5
A/Oklahoma/19/2017,2.127146200548768,-3.6053339226827683,-1.26756403890561,0.9930269326696994,-0.7034834731962053,-1.0869492965555296,-7.347451328465715,-8.589426350764843,-2.4882149883659563,-1.41325963921096,5
A/Sydney/54/2017,2.675474317728569,-3.169080318809424,-1.517533303213737,1.5974668469326945,-1.241290478304203,-2.921900337717837,-10.61615281572369,-8.89849452694224,-3.300653267119055,-1.0502544382828964,5
A/SouthDakota/29/2017,0.6232753340352065,-4.301935163540076,-0.6995900111093131,2.243097593774212,-0.8008040970178465,-4.101238920617864,-9.661971027021936,-11.583151171774922,-2.314810670605284,-0.6610995019993039,5
A/Sydney/13/2017,2.8660213044851868,-3.3283140175275907,0.5601637004061712,0.4287545822168329,-1.7387637519331287,-0.547564555887391,-10.214920761406534,-9.440235010203851,-3.791790056490985,-2.111762346623275,5
A/Florida/38/2017,1.6839042012832024,-2.042693019752035,-0.731789244514386,4.220654279215468,-3.769834361038263,-5.523853708154708,-14.005952204399494,-14.103221804022994,-1.7731762658333987,-1.3383980305680672,-1
A/Idaho/24/2017,3.5541855187693434,-3.4060424536054597,-1.4434343925985185,-1.3608652176213254,-1.3903606478816846,1.803491984291199,-12.116696342696489,-11.117870000578382,-1.4547286072143395,-4.538483279338507,-1
A/Massachusetts/03/2017,1.9687986064713354,-2.7615199193158286,0.31424846741507445,0.33049739924798555,-0.7397644265644929,-0.9178876311836252,-16.103938288945894,-9.51534124312016,-6.266832109203896,-3.073177462380545,-1
A/Louisiana/26/2016,3.6107314993890824,-5.0762882798665485,-3.4965130779421485,1.5549596044291745,1.9691290172350613,0.22507389895633959,-8.463280531623832,-10.337396964807711,-0.6888458635180528,-1.0451119047458077,5
A/Washington/05/2017,4.302115248080253,-4.35602006684473,-1.879774395703248,1.7671570920433481,1.3339426764255247,1.474418312048043,-8.181387217174994,-10.841910226000087,-1.2696480985957321,-1.295344270381066,5
A/Washington/28/2017,5.159137114242667,-3.9653253105735122,-4.165243824023444,2.7065509510733743,2.2100204353170185,-0.08346906151878478,-9.799090163840464,-10.504118806911428,-1.1538945614271447,-1.3539810606022225,5
A/RhodeIsland/10/2017,6.069286972768123,-3.4351628962749396,-2.9593603638996946,-0.09883045877478312,-0.6162620172080935,2.5404369298516163,-11.352069509397808,-11.387767359615795,0.038530191263851564,-2.2400242333173153,-1
A/Michigan/58/2017,3.718321460883051,-6.775246285358346,-5.96150794475234,0.8487635202165207,-2.303180164467281,-2.67390439350254,-10.019905402404849,-14.139908383048631,2.216462412261509,0.5919954491172755,-1
A/Victoria/558/2017,4.842958526175342,-3.847330211572363,-3.525271867325915,2.661463720405083,3.7050038151178746,-1.430430767212121,-13.404670832432867,-10.622669848492729,-2.922334397756223,-5.902212489312709,-1
A/Victoria/12/2016,2.6703734328644644,-3.8890422557459456,0.6729602628452097,4.455077089164671,0.44872484244626265,1.2224722995220965,-6.103710545749483,-8.367049826117956,-3.4217392272414044,-0.4719535944707373,5
A/Illinois/45/2016,4.442404992171077,-6.495771632169706,0.33438151768339247,7.924690708428778,4.857043699873437,2.365823005758932,-6.6469027750263265,-9.982203176314858,-1.5371856901228336,-0.9719963918716289,-1
A/SouthAustralia/1036/2015,4.01112879065794,-2.5056686854004435,-2.574403631448827,4.286221721228433,-0.2438032586823434,5.447823718895246,-7.232605106793377,0.1186140474137937,-1.552802351342469,0.9051780267586267,-1
A/Brisbane/298/2016,1.1516116651356791,-5.107604359451144,-3.9472051526829053,0.9764708641490766,-2.706993437400101,5.938079347303524,-10.563125852330929,0.5148881237058561,1.6223718718553906,3.0444139901205753,-1
A/Texas/177/2016,0.4974493114439583,-7.597380437337809,-2.5988662998716467,6.210945576367231,-0.5577489557304816,3.8952630704167417,-4.462278602640656,-4.558747658556939,4.082438956443554,6.203936035546535,-1
A/SouthAustralia/193/2017,-6.513476947834856,-5.4077258486719515,-3.4733486228780244,5.9242083323253905,-6.088785584411622,-1.8319693654872553,-8.492213696012168,-3.8928797304808196,3.1932783535064537,3.8167651219109575,-1
A/Brisbane/296/2016,-1.5933036837279493,-7.01187873744412,2.7739142077141357,2.4390729209010593,-3.193706153555124,7.872989166889748,-4.304386943866544,-10.89587785980977,0.22392235131026708,-0.6211153123046034,-1
A/Victoria/566/2016,1.1584201794442406,0.3897341931207144,0.24866138342787544,3.0548184043066366,0.3816102516263337,7.278286789875598,-7.514227230500918,-1.5536855019052993,-5.695598686910867,-5.152262463537806,-1
A/Alaska/29/2017,1.752467764896746,10.7609962306256,0.1454897241508929,-10.65410677035944,7.6654653841254,-3.355038326852353,3.931226271938794,-3.9140255750753745,0.6831042583479626,1.646560064906907,3
A/Sydney/162/2017,2.5608735711958124,11.947956628502121,-0.39308522239981397,-12.159098297682307,8.485410138582228,-3.963244592813887,4.280819809051527,-5.220994429420752,1.542059367754899,1.2018762476828526,3
A/Sydney/212/2017,2.478206121525941,11.800474769903383,0.5173170494735647,-12.548960256501669,8.153893328983262,-4.323061516341515,4.045547870200306,-5.187521166470646,0.973304721321115,1.6127270434500864,3
A/Sydney/701/2017,3.0605275786692654,12.145871384130198,0.02839184937145082,-12.332210211768118,8.155964448664548,-3.1489728806238797,4.350290996819694,-5.136211951110679,1.488624657632654,1.317930829756103,3
A/Townsville/17/2017,2.9167722679984163,11.95009295675426,-0.1408547978788733,-12.54225459570259,8.408991444447926,-4.101411116760872,3.825162702767995,-4.530177241405921,0.7225432182760253,1.510231629182847,3
A/Alaska/42/2017,2.39041863204427,12.41155751121538,-0.6538128304618994,-13.462156383164977,9.684996055873388,-2.8893903050698886,4.134004521909195,-4.273217170941395,0.6480509516917213,0.8829234399118545,3
A/Arizona/47/2017,1.4012270624314382,12.27160460267968,0.39894027589022085,-13.548003376765061,9.25499121006203,-4.168053920035682,3.9795860785277326,-4.862368623629363,0.3368566608693007,1.074609929657834,3
A/Sydney/532/2017,2.3132478408043924,11.34663787000521,-0.23631196201658095,-12.444243289104213,8.938252056823194,-3.9426397609197315,4.294462596372904,-5.045178328411159,1.4203516237640568,1.782353108948763,3
A/SouthAustralia/266/2017,3.74072674801656,12.813126397738642,-1.5873021940742913,-14.348870655094247,9.40170191674739,-5.763487506789443,4.733360990472815,-7.192700650428146,3.867914238498262,2.6482144890124752,3
A/Sydney/19/2018,3.6036525065828013,12.719317668723242,-1.5018709164497872,-12.723551245019369,8.397588026566083,-3.2442627802272037,5.06037824745049,-5.84239418835061,2.76910549040421,0.9788859478384193,3
A/Alaska/55/2017,2.970233943995879,12.239717170089069,0.7042064350510229,-12.782696822024246,8.908927117956493,-3.7743602144892385,4.9514779521211505,-6.708410292028612,1.8705323089125523,1.133619897335159,3
A/Brisbane/8/2018,-0.5709584297492428,11.568792590605325,0.29611876466615933,-15.475164405503355,10.805093760898885,-3.6789226482841983,5.287933956590124,-6.54414691210532,2.0841443119012744,2.183785666907191,3
A/Brisbane/101/2017,2.6246953516378486,13.580239600090147,0.5165883209032269,-2.9834160205031224,11.794618982906893,-3.0596343934120043,3.5847773131612124,-3.997054946212425,-3.0013588494219854,5.946044924261161,3
A/Maine/04/2017,1.5107308125505867,11.715338422189406,0.8830668110778721,-3.89640617434598,9.299734915277215,-3.8392067781818446,3.662746938007531,-3.908001556378323,-1.968718639218217,6.28611009426279,3
A/Brisbane/290/2016,0.631927068663783,9.956852531590204,0.4509959037041555,-5.839457257463657,7.430594407262661,-1.3819526499403663,4.073197017252278,-2.815002625929551,-1.2661324975582524,4.541464647677874,3
A/Sydney/76/2017,-0.17591289604353774,9.55559562242516,0.07932859674192326,-5.160256241896584,6.638530158322753,-1.6070515271711971,3.8603922837374496,-2.7140114837460354,-0.5561601481717033,3.9144788780568045,3
A/California/176/2016,0.11647352388877252,10.0117307633438,-0.2576424341479152,-5.216138527174845,7.391277911240082,-1.5863999060271803,4.729746315046964,-3.546821491377777,0.06196342605899507,4.395925372893121,3
A/Florida/61/2017,1.050579829435614,11.619345643099638,1.8375417579910487,-5.76828709144154,8.724950103811238,-0.020466365219363764,4.50264148441218,-6.191147493538691,0.6227928746980894,4.676777375563662,3
A/Ohio/33/2017,-0.1451580123517988,11.118828732352021,3.6012855716324497,-6.223732028220199,6.59434430278976,-3.5644108803942975,4.979202598930187,-5.961284607012191,-0.9777691741459091,6.0285751019562674,3
A/Pennsylvania/262/2017,0.654175153989327,11.72299116486351,4.200098119139,-5.8552777076609965,7.112522625833432,-2.5262662017249595,4.514805188233905,-5.501080630261007,-2.226843505495017,5.123251572948345,3
A/Wyoming/03/2017,0.3394301902120932,10.91901245046864,3.088998404708085,-6.956425032241499,6.736861275753388,-4.434413573172096,4.184372064882436,-4.3192959050183894,-2.2831462971077032,6.631482307483244,3
A/Texas/23/2017,3.881927349198604,13.039591204445651,1.9387321207693426,-6.561480754231187,7.981043945025124,0.5522286191861805,6.16328912495248,-3.580175473172812,0.29073986620305775,1.7935882772247342,-1
A/California/135/2016,2.7352459832118736,10.390797077483592,2.5537068940284446,-4.768309439926078,11.517579029393735,1.3553102843434073,5.54390296381377,-5.090830905205016,-1.4994605647943284,6.213603246443112,3
A/Sydney/27/2017,3.2623880176456765,11.764407992736235,-3.2047152002863037,-3.888957750794336,10.199425478410962,0.5764699053969198,6.833336089415467,-7.6272453794941395,0.5219923892907866,2.714074677528756,-1
A/Brisbane/324/2016,-0.27403951954223094,10.15945211166631,0.8225649089815198,-4.679175344420105,9.030896286938011,-0.8534079714926996,7.019644653520244,-6.0006138506537905,0.6455328683938468,5.335267140265242,3
A/SouthAustralia/219/2017,3.6177913889582554,10.047134378419619,2.4910632500093017,-7.065618681882039,12.197742455513145,1.5660457198714706,9.200876322000267,-7.109189401295717,3.4046771006412557,5.796534948841533,-1
A/Canberra/3/2017,3.540041292234387,12.736753190628995,1.8507346855989621,-7.237963566754664,9.95098877512332,-6.119646797456824,1.9994177148336243,-4.7291605666145715,-4.617033937687475,7.122079973357834,3
A/Darwin/1005/2017,2.575180076430866,11.25431080363333,0.5417076602718497,-9.54082094058179,9.338063471694541,-3.0688400929217896,3.500176887614451,-0.8107332560304028,-1.1426048663833532,3.194117683014515,3
A/Ohio/37/2017,4.4721237823915825,14.702241803902497,3.8436997576159118,-2.8191935232302616,12.004403941313692,-4.368282690183849,4.808394713585457,-8.684429468678095,-1.6971586846900633,8.518288513157072,-1
A/Arizona/51/2017,0.6824604100528333,10.934489813693345,5.870201275396596,-10.01148992950741,12.007445727343672,-0.8142625005321033,5.73259835360156,-9.480878549198376,-3.260383459159893,5.942185655588762,-1
A/China/GMU-SKLRD03/2017,4.093614869874177,10.997613436093244,2.594111853751987,-6.869736809785761,12.143289245018273,2.7594959195861586,7.509906812435071,-5.319106761013228,1.3394220018758893,3.6006627300358276,-1
A/Kenya/001/2017,2.1170648781444004,13.640955596414734,1.4538253028587373,-3.6539232961499244,9.755801272908794,-6.256282721332038,2.92675567357599,-4.655718253565579,-2.7835565443973396,7.125805987292558,3
A/Kenya/005/2017,3.044023086226493,11.458874469749109,0.42545073006582074,-2.6506826445908067,7.842178827202677,-3.970991311689894,3.3881736060315375,-3.2764017870289575,-1.5601229215176042,6.508936383539728,3
A/Kenya/027/2017,2.0352784651469076,11.643167793074612,0.290158138092504,-6.47369455483364,10.11157583305419,-6.476772916240925,2.5639956714361305,-5.11328654750756,-2.852529317923183,6.696860759444994,3
A/Kenya/030/2017,0.5083678530131955,9.824714196617563,-0.6818352866317308,-7.608529937981658,6.680918859046204,-2.613916456409678,2.631947420353322,-4.203656201937764,-2.1433631108045095,3.3317588553734954,3
A/Linkou/0153/2016,0.9976410746260472,12.406579589531377,-2.1281411449644607,-6.367254393334215,6.817345342693681,-4.319766067995846,4.423762516868426,-3.7047345259056326,0.4048944485918838,5.170368111740967,3
A/Linkou/0166/2016,0.397411084213974,12.576451656980787,2.1155843652971322,-4.273379832443058,7.665092065830474,-3.0555042885792396,7.855193957090047,-9.30016734910929,1.8589520667354287,5.407903137016001,-1
A/Taipei/0123/2017,2.0034670499588683,11.812492572004718,0.3033323594977374,-4.222777702998711,9.290005231588125,0.5714599552206976,6.205225179074807,-5.159638801253616,-0.27206407468160965,3.6263962119024584,3
A/Linkou/0181/2016,-0.5582328029875934,9.30658425609686,-0.030139779389195237,-5.0876513852499095,7.068546644660525,-1.5809404902139954,3.5895125853370513,-2.1671083277557797,-1.0027378741385982,4.0493695626947135,3
A/Linkou/0185/2016,1.4480736425283012,11.63746949230086,-0.3287639253321906,-4.4725551296959445,10.492412013490616,-6.329073080361197,3.7150656207940904,-5.1652712873845195,-0.28231029484046544,8.84732224755703,3
A/Linkou/0302/2017,2.2757267541862793,11.291687336494698,0.01668364087963067,-11.547291354066283,8.116121035480537,-3.570993759805568,4.048265110040997,-4.479411849620505,0.9485158999730242,1.5323143952327452,3
A/Linkou/0304/2017,1.7835686822868424,9.780992670828303,-0.0227614569908356,-10.563499230932987,8.636272439466453,-4.799685267257613,4.115319961821275,-5.548432135586747,1.1126960895294777,-0.5936799403161739,3
A/Santiago/p024d0/2017,2.2958313287185863,11.869122937058826,4.212749202337511,-4.020660582339461,11.285656623788444,-4.761772199291021,4.093475491016534,-6.184291238459626,-2.2997017239854527,9.347048762818117,3
A/Santiago/PUC-MVL_161/2017,4.911612519075738,18.818435761256563,5.048335757360451,-3.9226213087174884,8.995825866134815,-1.772899607045794,4.405233652911237,-7.943842006832617,-2.848721343023454,1.378092516485797,-1
A/Santiago/p022d0/2017,1.1793946167082647,13.164094634610532,5.837082607527749,-7.628406795061234,5.979975349869754,-6.653665944657621,3.485912076028617,-7.018761085800422,-1.9199332273911254,8.697778918743461,-1
A/Alberta/006/2017,-0.6678838254487856,-2.793229925034085,-2.4520357869831626,6.1252254840122875,1.2927726924583653,2.7463510954970967,-7.927463746803395,-7.803987652154505,-3.967662943753469,-4.268403013936052,-1
A/Alberta/150/2016,-0.37492773718206773,-2.5281235981090315,-2.0687282583406397,4.571181568680518,-0.012680690608507237,1.418669643614422,-6.1302824825542475,-7.402305904061817,-3.3137023817616003,-2.7620404710686812,5
A/Alberta/151/2016,-1.0856751714600539,-2.519242864504296,-1.654041942393455,5.668176129270983,-0.11212039998993291,1.650226206437645,-6.474191513692681,-8.400273624275227,-3.3403511732332505,-3.356961291547657,5
A/Alberta/153/2016,-0.9242556994215266,-2.753545494775383,-1.987288356548012,5.433096884799998,0.49531693215406974,1.8559905504789949,-6.833448945627566,-7.92536167468141,-3.616880163346715,-3.415135408155394,5
A/Alberta/156/2016,-1.2640120198986013,-2.6949092646127655,-2.067822171364223,5.9362593735684595,0.08715870779645614,0.9006775136481084,-6.636428947902266,-8.245559777093879,-3.2998979005005595,-2.8728692732558283,5
A/Alberta/169/2016,-0.4381165706416604,-2.3494142532292925,-1.9274821657213288,5.466115895120306,0.30867653626815633,2.1542778685052233,-6.932769428612403,-7.764000628906845,-3.82798410265877,-3.5822433765406254,5
A/Alberta/209/2016,-1.0118921364692355,-2.6236995725950014,-1.912055020024388,5.828063069242089,0.27907789460246235,1.1445421097123087,-6.935809109147912,-7.794682855206226,-3.8872792287075733,-3.020187718804992,5
A/Alberta/217/2016,-1.2386039065671879,-3.0153381050603305,-2.264447058052655,5.503060134763002,0.5693666760183639,1.588630532218037,-6.709088168373764,-8.10483814440702,-3.2077563307644597,-3.1492666589821825,5
A/Alberta/178/2016,-0.8475772399001962,-2.6065175505713265,-2.183335499570725,6.003369735319173,0.40161762566204345,1.4515099703652399,-6.529956774396706,-8.135832939702667,-3.3865939980232236,-3.0662412276182534,5
A/Alberta/52/2016,1.454483230400875,-2.5576307453048526,-1.9285100974531129,1.359791614324339,-1.583562423841427,0.5231192478481755,-2.7209133928313234,-4.019950514336392,-1.8347113066360596,-0.5745673213685177,5
A/NewYork/5080/2016,0.570177854847362,-2.2793639094938687,-2.671134539732038,1.6744171920551418,-1.8582956544078524,0.8301181860749766,-2.8720389090842144,-4.126374913579558,-2.2005212077833702,-1.0315388111791237,5
A/BritishColumbia/047/2017,0.30882661743670925,-2.0494233215428452,-2.958680139807784,1.8321911248321787,-2.155504951986457,0.8410708604733441,-3.402989148130264,-4.5591962891439355,-2.290222785052111,-1.3679901203387146,5
A/BritishColumbia/150/2016,0.3089986627202489,-2.2220499138191774,-3.0359892268169606,1.9235730865965674,-1.895110051803477,1.0339431288481782,-3.281442303120402,-4.576657288134887,-2.2805894345635545,-1.5175234763720262,5
A/Japan/5604/2016,0.2538092351389146,-2.1973172081261874,-2.946623391652182,2.0345363299145616,-1.9640612073050583,0.9335673447809413,-3.223419800480342,-4.639048213404386,-2.3046253867598296,-1.4595962863796326,5
A/Seoul/A02078/2016,0.32887404467570064,-2.1705002889851235,-3.038162700114114,2.0780344542969877,-1.842148719043891,0.8756735653723864,-3.2778903804426847,-4.551678791560996,-2.384049813319624,-1.4406286987383339,5
A/Ontario/040/2016,1.7559596773710675,-2.720206160426817,-1.9517905649701568,1.4593181996846794,-1.544616308436511,0.568686236496944,-2.9968553194158916,-4.603972510201045,-1.8983681630968567,-0.6660583510102447,5
A/Ontario/045/2016,1.7495190965992924,-2.7210569496694545,-1.9475879339395896,1.4624201650174984,-1.548668239426897,0.5645353363137929,-2.998335675587354,-4.606471460467231,-1.896527762253676,-0.6690820164375857,5
A/BritishColumbia/120/2016,-0.25171171445766566,-2.3112125565618626,-4.090455590582246,2.8105503531553895,-0.9571292789172962,1.4342416525821546,-3.6987508744098605,-4.836384786284283,-2.2746726866084277,-2.1124222760119733,5
A/Japan/5887/2017,-0.1448626735283059,-1.8709122991825324,-3.3255945948528507,3.020850571735886,-1.6919083487134,1.247973228265422,-3.824188230691081,-4.924654200915545,-2.7639068887955625,-2.407354006855759,5
A/Ontario/231/2016,-0.5980093325113315,-2.1875282951281987,-3.264869016463296,2.5872003875741014,-2.0144345136972976,1.2378383087505815,-3.526659301133034,-5.489520697333258,-2.061249637085208,-2.2808284552847886,5
A/NewJersey/NHRC_93422/2016,2.9840612938107425,-2.762416011585317,-0.16218273955452817,3.430261423703211,-0.6152043220844361,1.3114592455799507,-5.557653409474602,-7.9200861463543815,-2.3845566254366455,-0.8863184634394348,5
A/Ontario/031/2016,2.453569725746074,-2.806766769931454,-0.7222351755377233,2.584311662745952,-0.7854830391063402,0.9067298510340484,-5.009345656664236,-6.994141154696374,-2.189632985804107,-0.9169887763673107,5
A/Ontario/233/2016,1.9522676631481077,-2.876152655909342,-1.3212310768433566,1.9984945426210954,-0.9429365814070629,0.4668928929467739,-4.437630326905619,-6.026450047524241,-2.0257135562203574,-0.9036896765481942,5
A/Ontario/068/2016,2.246245545696621,-3.034693270359055,-1.050993259764843,2.4286366451202204,-0.5963777694804783,0.505383086480286,-5.120301780305727,-6.897484686524721,-2.1283887308263667,-1.0099130434697372,5
A/Georgia/NHRC_68549/2016,-0.37921317897680085,-2.1650880038304527,-2.868034025126126,2.4145066838155618,-1.7472359365876733,2.3058474172497556,-3.7350461402751236,-5.038698558736032,-2.589201662321969,-2.3894577300977704,5
A/SouthKorea/5699/2016,-0.5241070268951215,-2.2552749417874365,-3.9345773548795067,2.946420420158651,-1.6590348409761178,0.6606212111658177,-3.635503480014164,-5.267638038444786,-1.8997636612094115,-1.8837138195200194,5
A/China/746/2016,-0.6107323576519955,-2.0330789713265967,-5.13064695171212,2.0129699352676567,-1.9703189208660818,1.7921135166890134,-4.000292888762442,-6.42628803935471,-0.12435711921726639,-2.8128706781124433,5
A/Japan/5729/2016,-0.9543299248630597,-2.749828575699199,-3.3209437653989666,2.0764050905567655,-1.8109831581560483,1.5685360825770118,-3.502012179017015,-5.440864499756187,-1.5657899284175791,-2.162848988920046,5
A/Ontario/049/2016,2.41233173760451,-2.3962607821603483,-1.847744650742823,1.4042463382226023,-0.2524963477120304,1.1232498533270727,-3.250016853209117,-4.2641392275673695,-1.1454658629880345,0.09453018230070839,5
A/Ontario/051/2016,-0.8461672847874996,-3.8465261339958037,0.19130757569647872,2.4070906111019092,-1.0203912055433981,1.0450508269076308,-3.3350252775482634,-6.175472434261482,-3.3459751988182633,-0.3765382551444366,5
A/Basel/USB001835.4/2016,-2.623000425813137,-2.6406673182482643,-2.0646902512726326,4.5489809898423506,-2.0980440317490596,1.7443637695580532,-5.138813838581253,-1.017937784313414,-1.8846086062072533,0.0011051885969802402,5
A/Basel/USB002767.4/2017,0.5812330444970831,-3.0094165199523437,-2.2022696302292792,4.180635746417837,-2.089181689263827,-0.01705832854299358,-3.7598823248046442,-2.481858353681336,0.7077746682007456,2.8561101493643997,5
A/Thailand/CU-B16825/2016,0.9527431084244694,-2.0696500041480097,-1.278744543679388,1.9521840627295024,-1.6234564791054678,0.6568368470408574,-2.853467377481821,-2.1937302761042123,-0.49981307590911417,0.5277532011562697,5
A/Thailand/CU-A2160/2016,0.9746102159350595,-2.415573217575116,-1.0706791969607763,1.5406274464727179,-1.2709249211519358,0.7729649408044775,-2.7860298362690803,-2.222663464962609,-0.6305974373126165,0.2544356825320903,5
A/Thailand/CU-B18053/2016,0.9661663882512553,-2.3608026743650394,-1.028332462826761,1.482835752730529,-1.3597019885397896,0.8987959301315064,-2.9071750680070183,-2.2018854603502422,-0.6310418673959808,0.143681280274228,5
A/Thailand/CU-C6513/2016,0.9389953113568473,-2.08082129124783,-1.1510890954527424,1.7366629083961416,-1.6730566233044337,0.5951027616289253,-2.840549960111865,-2.205214849723962,-0.6534075207740265,0.41040707062781634,5
A/Idaho/5447/2016,0.6910287612049657,-2.5716119949789715,-1.4385578932267344,2.6378485598214527,-1.9604626578500828,0.8425644675183612,-3.1448117827544984,-2.3986400605270237,0.257389483197802,1.410359982014018,5
A/Thailand/CU-H3756/2016,0.9581278398824168,-3.0286585964067783,-1.7616839628168228,1.1366821042860105,-1.4893159714633972,1.0819455976090515,-4.076108477748432,-1.9517606634620075,0.0045501152132425456,0.8918709610198766,5
A/BritishColumbia/108/2016,1.826360928986388,-2.516684762285329,-1.0905210507156124,2.0141073942927896,-1.3544834807055868,1.8442914775777852,-3.8561148932176366,-1.7696811464626576,-0.8710051450787638,0.7808600389938702,5
A/Washington/49/2015,0.7069168111476585,-3.353696148387023,-0.7998251059454868,1.701705510648028,-1.4792904195220555,1.5665017985140837,-3.247835539010814,-2.743204013452712,0.06869506065550923,1.1696673176098291,5
A/BritishColumbia/118/2016,0.7631360557166468,-2.6990969213801574,-0.22685835782755634,1.213160985356745,-2.588814741591722,0.8766776324311697,-4.034104670044754,-2.166449339691754,-0.8767029797201908,1.0560081856530423,5
A/Moscow/CRIE-08/2016,0.9557471209922905,-2.4507171857569965,-0.31614123184980836,1.3076585444047584,-2.612746779589072,1.123103427745012,-4.178090802963954,-2.066233230091361,-0.7935647980443638,0.9190385873727911,5
A/China/71516/2016,0.17028880539998603,-3.12245107526951,-0.504893750486064,1.997458667613109,-0.7601539069838653,1.7275596665802366,-3.58441268391625,-1.7471586347127444,-1.456389233382384,0.8744557357929957,5
A/Shandong-Zhifu/1185/2016,0.8498184961120048,-3.3374199930023307,-1.4080896402862868,1.7096722277207799,-0.7205308054482923,0.7066192744145314,-3.70520246027986,-2.175704724770352,-0.44320493994164717,1.3953693095965582,5
A/China/70793/2016,0.9313741293575797,-2.303187973697514,-0.9575398058169705,1.548426058306665,-1.4611091073307563,0.7568250157795964,-2.9263120573510575,-2.2154617024479966,-0.7704652607181806,0.2218233293808111,5
A/Thailand/CU-H3742/2016,0.9332276655618232,-2.323924439219304,-1.0155120066254717,1.5406827134093048,-1.3687402898580887,0.7171621876660172,-2.9549171848863476,-2.209120407209384,-0.7727216265821574,0.23648564823985138,5
A/Basel/USB003329.4/2016,-1.511132392979583,-1.976610852324376,-2.784465370829062,2.9751578502047793,-1.996904110219042,1.4177167307823564,-4.2747924729674605,-1.3246266840965708,-1.1501944330454335,-0.40092313676325325,5
A/NewYork/6003/2017,-1.646455876741767,-2.035218063173303,-2.6911994993246657,3.2659920184147353,-1.980632252757161,1.4162984587945722,-3.996911053666924,-1.5026805701441042,-1.0688018725361952,-0.2482039555902357,5
A/Israel/R147/2016,-0.6279829498526474,-1.8938168767906542,-2.0291353439877606,2.172797756773891,-1.8409653491065032,1.33978223648235,-3.1309889727419353,-1.9730283866027079,-1.0854708246724456,-0.4589715909924454,5
A/China/71517/2016,1.8510421686946266,-2.737465446254623,-0.3344528015634393,4.4383252122314145,-0.9167888623164085,1.7568416596904144,-4.33036089273814,-1.20721782251935,-2.309517513117626,1.7068010855039375,5
A/Shandong-Fushan/1416/2015,1.6049088572978063,-2.511555753652989,-0.7569565081370246,2.743274562163591,-1.0994475876173138,1.6408652289375179,-3.483221236299505,-1.745041476148867,-1.34382734481493,0.7396729327809762,5
A/Thailand/CU-B15149/2016,0.6868640810882533,-3.0851534647023624,-1.6913809018908508,2.3326205060795813,-0.12029065580719048,0.920071691620379,-3.619058135080717,-1.6680723819910797,-1.0750880694013074,1.046980629941767,5
A/Thailand/CU-B15317/2016,3.0235053670525986,-3.412135584629548,-3.8865193755624703,2.2515487913815573,-0.4039377398755417,3.872312120629385,-5.485702980659812,-1.4050649767604406,1.3042518052509402,2.0642532151900648,5
A/Japan/5123/2016,1.6707457424241112,-3.036923848304599,-1.7950721650614876,1.4172726405678508,-1.2955021731480365,1.9696957085420235,-3.5611459454482444,-1.919883740364574,-0.11257449867970892,0.8823813294022012,5
A/Thailand/CU-B16161/2016,1.045955109040876,-2.7639381033698887,0.0023112398686846616,2.6563250048938962,-1.7281039150092496,1.2048758744263715,-3.264198091446684,-2.3371800449013156,-1.2345377253107044,1.166612935813014,5
A/Thailand/CU-B19094/2016,1.4363771494067814,-2.6816137741027317,-2.885009714089728,3.7538273526783943,-2.0956957864323003,0.7984543724622374,-4.108101824108803,-2.0498760603704467,0.9653935751033489,2.6025264033302578,5
A/SouthKorea/5482/2016,1.1148865008310207,-2.6942464128772317,-0.1861694663904361,1.9250038261019307,-1.2818308358982917,1.5904059290964199,-3.927410219670022,-1.8026689243801104,-1.6559052246628996,0.6299368548290849,5
A/Shandong-Zhifu/1382/2015,1.0045082067801574,-3.6296119396228597,-0.0679241500143629,4.757854497000242,-1.695790117144245,1.0929529169504701,-2.7111467608900517,-2.88688563303227,-0.9390344194569195,2.7545570610994865,5
A/Varamin/49785/2016,1.3619663128991546,-1.1334351245018481,-1.2406613595448803,0.6334671646252371,-2.129649091563082,1.738938034964606,-3.3265002411649807,-3.4109119080629307,-1.5786685477452507,0.6272626811364718,5
A/Shanghai/10/2017,2.6274866840331295,-2.8626746528673537,0.11525311297416693,0.644478573625409,0.028257700524905935,3.501080804375153,-4.3182801752220294,-0.14670411182825466,-1.198014184373401,1.607030072339194,5
A/Thailand/CU-B15712/2016,2.0865540636943027,-4.282449904851897,-1.390489059079205,1.33827247552503,-2.3647945511866197,1.4805378082642349,-3.512899002166402,-0.868042883651793,-2.380646916527174,1.4820356009890925,5
A/Basel/USB002045.4/2016,-1.930722414940339,-1.9008285953332187,-3.59582317742625,4.01724174137354,-1.743303602719453,0.0981033489638597,-5.774399626026122,-0.6692931500115804,-1.6839180076998839,0.362205029118521,5
A/Basel/USB003013.4/2017,-1.2905380143908292,-1.416686954405963,-3.965429759487112,4.476501786642897,-2.0812944858273887,1.339949603226967,-7.57082190659305,0.5640540730247182,-2.399464353500445,-0.054805056548707994,5
A/Xiamen/s200/2016,-0.23141337236604,-1.1805021486063276,0.01917109124206629,0.5549629188635126,-1.7658180284371179,3.21528707318738,-3.78521257093934,-1.918963124867167,-1.5864224201337562,1.8526362128071678,5
A/Basel/USB001461.4/2016,0.04693119766409995,-3.9683046285140304,1.7416581994748273,1.7995948133335393,-6.043207929082805,2.8183444021506783,-6.960344524210592,-2.81456066805784,0.37625934701892777,3.1250807925023563,-1
A/Guangdong/747/2015,1.2927492321983869,-2.1834582191943857,-3.8632930786725836,-0.7068789523009807,-2.7041190084833087,0.4844618997666293,-6.668132626500571,0.0741995372260045,2.386777011778782,2.0600787573429296,-1
A/Guangdong/264/2016,0.7877680186386666,-3.4393802950861643,-1.4745840592132131,-0.4904783549878107,-1.6153847838278341,-0.6902444375785961,-5.759691616768184,-2.306785369327711,-1.320185038527182,0.7766424497125921,5
A/China/71518/2016,-0.8406251276927582,-4.565479287943294,0.22891096341824022,1.846067306959206,-0.4861982415431444,1.7571515344391855,-3.249077476927211,-0.8904853745054073,-0.8293974153852001,-0.3582671135357435,5
A/China/72935/2016,-0.3076580209710783,-6.030888016482125,-1.214679457051645,3.6067505262364348,0.7569036610477812,0.8849632449406079,-3.8861869003570373,-0.6094858792815131,0.11998347460119477,1.673406414286476,5
A/Shandong-Fushan/1257/2016,-2.943597367674297,-7.457909836858243,1.5235448809996928,2.2849511379692955,-1.7214462095928937,3.9278207649062526,-6.6495842319194765,-2.1663937642303472,-0.7175357536286775,4.402237540718999,-1
A/Tehran/50179/2016,-1.0959716535743844,-2.1192748677196285,-0.22611184498872264,-1.984495598150563,-4.537280137833714,4.886038341381801,-6.875469803245597,-3.447703873032739,-0.9013549886552026,1.322172363313639,-1
A/Japan/5684/2016,1.8113346184607615,-6.1732101194197915,-2.8115284996835386,-2.717222551838154,-1.6322252493434064,1.0807614724296886,-8.579636702626159,-0.8228797724376737,1.6589355276314641,0.017700940819539365,-1
A/SouthKorea/5744/2017,2.826448274245357,-5.6004882956738635,-1.585339846618131,-0.624784103081781,0.7677421932527291,1.101557326593331,-10.642393652421555,1.8016150002894176,-3.160527361032827,-0.09781666462667842,-1
A/Firuzkuh/49748/2016,1.541062461589978,2.9916795615283385,2.2326665284158094,-0.9086636639158397,-5.1617778828383605,1.5895090638953813,-6.904000184442908,-0.6500462929849842,-2.649712698638164,-0.08925851768262706,-1
A/Basel/USB002043.4/2016,3.922892123189664,-1.6309982435511863,-3.2096045332789864,3.1624978326281608,-1.908737504588547,0.11250508845982722,-4.53414674324558,-5.4538662973323175,-1.6315839104355272,-0.41080864896789454,5
A/Japan/5685/2016,-1.6546880771851253,-2.364578215810202,-6.557973969000757,2.167279239874819,-3.3871666455040867,0.6343098697899309,-5.781573836703296,-6.017449664569392,0.7746788413437996,-2.5928695287552213,5
A/Basel/USB002044.4/2016,-0.5203077433286099,-2.6021711165755095,-6.089882327468247,2.927560086803434,-1.3481302255980334,3.888822228663309,-4.777040585836962,-6.270609705896415,0.312678545857435,-3.631996869980257,5
A/Japan/6111/2017,-1.3078719981693738,-3.159156229177975,-6.623346519997273,3.96300779536059,-0.8563726426592217,2.194749889011206,-4.394389888931267,-6.4576522694956,0.5145562776472506,-2.632652951048177,5
A/Thailand/CU-B19263/2016,-0.42704872915922454,-2.016178722579786,-7.1319160192044,4.781309996340915,-1.4848029537042995,1.707305243632213,-4.592279586534195,-5.976714121544371,0.40118792516561375,-2.070584313662815,5
A/Ontario/244/2016,-1.3870730316194744,-2.9790342284735876,-8.063602978722104,4.790516207324558,-0.9441014297267295,1.8407008907337343,-5.347959845846673,-6.524100903481642,1.1463192019234252,-2.7155041030050384,-1
A/Ontario/246/2016,-2.411794038077293,-2.9830633591362434,-7.556945590305787,9.674485010819145,-0.5037544678550421,-1.30200639918754,-7.75740129854129,-5.693921138647269,-2.0113398013508887,-1.653940158805811,-1
A/Quebec/152/2016,-0.34354748204572705,-4.076813870129975,-0.5803676194657759,2.580946964443102,1.4244401103283268,1.7181671841022075,-3.229989662852015,-4.249913222268614,-2.713515680431348,0.8764711325786011,5
A/Ontario/047/2016,2.1789570181072997,-3.2311427991557116,1.1567213644638783,2.725302349016384,-1.9191263515868393,5.0317661505438664,-5.780118703839268,-1.1080459288275415,-2.4547035226925953,1.2174451727983227,5
A/Israel/B5990/2016,-0.24104038534365038,-4.705852293870953,-3.2324634060436908,5.46157264379172,-5.014680226753347,-0.26783924686329796,-7.737142654253316,-2.496097859505038,3.1850207236168466,6.815000541530915,-1
A/Japan/5603/2016,3.8943838783828815,-3.3733979941480654,-2.5399143275477507,-0.1657120023250198,-4.1032981306888425,7.318685328797069,-5.794866731045041,-7.821159845034002,1.7865621454860194,-1.8296369223257984,-1
A/Philippines/NHRC_MCY0131/2016,3.141351273704275,-3.0591475043651166,-0.7493772124743383,2.140302066831517,-1.8144353424132509,5.653417680602187,-3.5334696878053427,-6.9671418819042925,-1.2310938963743814,-1.7892410927176625,5
A/Japan/5063/2016,3.377348375430366,-3.8258624777388452,-3.670505514319847,0.3705819598247985,2.1144612620494123,4.867700871663983,-6.62911993334578,-2.30992742151935,0.9343627330055757,1.9738492686315836,-1
A/Cheongju/G03554/2016,-3.373295480767765,0.17035441840014112,-2.9953319798885283,3.742157518435617,-0.19238498172515853,3.05179554872953,-0.2327001437482999,-4.537710553090527,-4.88593759804191,-4.176880289854339,-1
A/Alberta/157/2016,3.5574905304395807,-4.419168302214637,-2.6546033560242943,0.9318779645767487,1.188863923029172,0.5976924105597058,-7.979989325340718,-9.306049235721304,-1.526388799848952,-1.4635270787561172,5
A/BritishColumbia/152/2016,3.2885911537254064,-5.177938444546506,-2.9240771144252706,1.1926831740771167,1.2576147975676017,0.43111204380837564,-8.197698970864723,-10.938659010668902,-0.1642731870329044,-0.8611651546144161,5
A/BritishColumbia/021/2017,5.394774448203935,-3.605890497444757,-2.337005656468027,-0.07962272219333856,0.3192951855801163,2.502730363414053,-10.533228039743078,-10.300260681088893,-1.455337868727468,-2.8700307474641047,5
A/Washington/5751/2016,2.7712170737609014,-5.977453546436774,-3.983391932733615,2.563438084758377,3.8709364019911696,-0.5611435800618503,-9.76162053453961,-9.719878174250098,-2.0858825218819974,-0.5960369679535011,-1
A/BritishColumbia/030/2017,2.325923048768317,-7.020783042492421,-4.022381085698457,2.370536114619107,2.6021078004976848,-0.7967227513583425,-9.46700982265196,-12.339418164528245,0.8045793477433467,0.12407010355853385,-1
A/Ontario/242/2016,2.7343854114120547,-6.496741442803143,-4.393286418377478,3.2166365015727267,4.780238471424507,-0.40513364676379005,-10.085283486985578,-10.705029293261699,-1.6267326126912958,-0.8106122902332209,-1
A/BritishColumbia/133/2016,3.5523268195463156,-7.659353268928081,-2.1936041667145747,0.7345898476441297,1.802314439020322,1.268471105281126,-10.882069191766735,-13.236762308833386,0.8454529558043355,0.9660924903818386,-1
A/Washington/5804/2017,4.301177635914981,-5.08413861982093,-3.7927719878187474,1.2907976307612832,1.975963235408361,2.6056221595164986,-9.44637202707817,-12.574287161149869,0.8919039014418902,-2.608217198576463,-1
A/Basel/USB002779.4/2017,1.732223108789998,-4.41496709510716,-0.6724218556100336,-0.8861789649508202,-0.7053409659615407,0.2242163044370151,-10.032948163442017,-9.773814921918804,-2.465030696994745,-2.500015965204658,5
A/Thailand/CU-B20992/2017,0.8542456097776613,-4.579558690631007,0.8130051272160184,-0.4355630518390397,-0.08082720789098741,0.835610514455602,-10.32379191077047,-10.78289139070422,-3.5501507313017213,-3.418554653962432,5
A/Thailand/CU-H3780/2017,0.7286066470790138,-4.612890276536711,-0.8361619055943756,1.961844982259943,1.0419455474061163,-2.476919708068312,-9.640335531327414,-8.952875054638676,-4.414711975526434,-1.1547575571629003,5
A/Israel/C3673/2017,1.1763278697891613,-2.6174883171038412,0.5883669994749022,-0.10161697061144849,0.28351532865963314,-2.359873924707246,-7.808701526883486,-9.422143044928653,-2.4870185807390737,-2.812970082483824,5
A/SouthKorea/5852/2017,1.9084433473666476,-3.9614467845733676,-1.2199130612633564,0.42783267580640777,-0.8542974408611637,-1.3006247916302167,-8.58115353717118,-9.490145858757776,-2.1052549267190916,-1.7194259646357355,5
A/Basel/USB003504.4/2017,2.1210093716411906,-3.4324218885893347,-0.33749139436310843,2.689506400579817,-2.171959170378766,-3.9983894247201106,-11.171329824342335,-9.88102479253151,-3.627438314245765,-0.1213132964071301,5
A/Basel/USB003516.4/2017,2.396918583938092,-3.5922537620521777,-2.7440027923865125,2.5361753219997167,-1.1037826200278393,-4.328832257025366,-11.422419744413542,-9.570356082878893,-2.3718783780358574,-0.21362672523347556,5
A/Basel/USB003509.4/2017,2.47567875831599,-3.9678424774925367,-1.8945784003774533,2.816990040189817,0.055671640795012294,-4.004446602233614,-11.550368161814202,-8.973331753260858,-4.028920818633053,-0.5272198794875452,5
A/Thailand/CU-B20852/2017,1.1497896735585946,-5.047164735916072,0.010508976855269438,0.6062705334475232,-0.34170203195609855,-0.07207117197673468,-7.095525780925549,-10.423881715085558,-1.9838983043321432,-1.653019260275068,5
A/Basel/USB003298.4/2017,0.7890904065414321,-3.836147356174287,-0.34330409390043254,1.2377898226113353,-1.9315867352541196,-3.316142692729473,-9.783736506998046,-11.996082970811013,-1.700785962427439,-1.3037605128992555,5
A/Basel/USB003327.4/2017,1.2683190787742724,-3.690210711793647,0.30773658416922633,1.9892136820702218,-1.2939967256643536,-3.465054009913742,-10.208098184832544,-11.22000254194144,-3.2531864094132588,-1.0409107899381187,5
A/Basel/USB003315.4/2017,2.1610608798779953,-2.6897800052825054,-0.9323040280914452,2.1627187407523083,-0.030204359755347576,-3.633268804644745,-12.608902949187403,-10.009576205694657,-4.901450382814546,-2.107654342303387,5
A/Maryland/6636/2018,1.209368902334576,-5.557198165308876,-2.5381197530181256,1.2419078768258394,-1.8399131356619283,-4.515217403015621,-8.473221077477591,-13.035621890938923,-1.5652363774552125,-1.0018577192467215,-1
A/Japan/5884/2017,4.8237344226323735,-4.434967339781898,4.846483280989038,5.116838749826309,-0.0868794449167501,1.345220561865677,-9.733714432626263,-10.621158844352788,-5.1362604035248465,-3.6950466438809095,-1
A/Seoul/A02063/2016,4.450049130918735,-3.092874811794241,4.539753048602343,9.000390219487587,-0.06684183546803706,3.69519057134616,-11.019668109702998,-11.021538545388868,-6.308156231236687,-0.34703437917624197,-1
A/SouthKorea/5915/2017,4.852172327162701,-3.326263486770497,4.020462345179519,8.920405639567813,0.8938872701094472,4.634475370013157,-10.833628772577816,-10.92822581522695,-6.124774906372509,-0.6903579065797534,-1
A/Seoul/A02071/2016,4.123271502771128,1.0267474145812052,6.763515698347571,7.010622332561654,0.37069565725964554,3.3322788139831943,-9.91561815889644,-10.4907875810104,-6.645911126609136,0.9754837719794157,-1
A/Basel/USB001560.4/2016,6.5659989987792,-3.3766139845644663,-0.6812212922697917,5.682082029896656,-0.3416116088315191,7.791241217845942,-9.944012807017428,-11.866675046949368,0.4577054270579698,-1.1846351636646564,-1
A/Basel/USB002298.4/2017,5.48178935500108,-2.069816283922305,0.504652157069934,6.009175603367198,-0.020260457235619436,4.017855037704545,-7.933290732563363,-9.113984424649841,-3.3152502525062113,-1.3585520094463805,5
A/Basel/USB003531.4/2017,4.376626556755303,-1.4420349314810008,0.45319068245391664,7.752565487060328,-0.26825841153864144,4.807923433018733,-7.535591274017048,-10.69436365551054,-2.4053329085946444,-1.67307371367111,-1
A/Basel/USB002572.4/2017,4.791324545334762,-2.035286404641701,2.39864865495427,4.833318714638076,-2.5979706981270416,5.172168511211906,-8.495282180318972,-10.941676570635025,-2.260979178221967,-1.956257267648488,-1
A/Oklahoma/6009/2017,6.092587121509551,-3.04406961661679,0.9156009219793171,6.941045442454174,0.7783201033087908,6.278896578516362,-10.090797434203981,-7.5608696423448185,-3.4239834413898342,-0.6893184240337468,-1
A/India/1728590/2017,2.141118495659717,-4.163856362085539,-0.8944708459466837,0.7614200837144209,0.05817958419137429,-0.8189730078046511,-8.514471791859645,-9.229780343132132,-2.9218509073429986,-1.8744949795793833,5
A/Shiraz/1010/2015,-0.2988426511265346,-7.222816788939872,-0.47045157406036653,2.2177194351143092,-1.9911261847757622,-1.490472459012786,-8.921055356303567,-15.79572133244376,3.3338662016550433,-1.0382745275795984,-1
A/Basel/USB003324.4/2017,1.0011032630392056,-5.53937385775239,-2.265213263195481,-0.28178043726724467,1.0026346729356235,-4.070822779535794,-15.516146029202403,-8.064479047157986,-2.55392830250836,-3.6538628497836805,-1
A/Mexico/SAR30012N/2017,0.451468355488146,-7.312644125114671,2.1314598610171838,-2.1014684771119008,1.4797186019647453,1.905823587532592,-12.472313980903829,-12.478285630530422,-1.7813673194171775,-6.671928367936432,-1
A/Basel/USB002128.4/2016,0.8354123545454765,-4.9220846268765275,-2.147469386609533,3.992121393222023,-4.413343151768016,3.568541646889255,-12.090443141860806,1.491904956915121,-0.45115040836529047,5.42819493653844,-1
A/Thailand/CU-B18031/2016,-0.35757124452873307,-5.222980692263451,-4.80272867470089,2.740800266441356,-3.1227165974152857,2.344500378194809,-10.282038970557677,0.39121005188233043,2.022330541800775,5.002476731731456,-1
A/BritishColumbia/028/2017,-2.553601807389675,-3.702843413182535,-3.6027080195796946,4.437337173674766,-4.497563475244403,8.948560426615682,-8.426779264588216,-0.8929913738699887,1.6322597366393257,-0.3901386008626304,-1
A/Basel/USB002991.4/2017,3.3863588422819437,-5.9236906564289304,-5.141875271230195,6.624704861211478,1.128210865282668,0.47144781488639786,-6.373575194406789,-4.424669569857537,1.266112261869685,6.733267322866331,-1
A/Basel/USB003500.4/2017,0.6964395921230835,-7.555931623682601,-4.017125734728164,4.70980990908692,-0.7225630228395176,2.3116150026684092,-6.780897390734617,-2.935000649641443,3.907213091903631,6.644149976279003,-1
A/Thailand/CU-B14944/2016,-1.1518168560247948,-1.4563161793095984,0.047552556058729,5.546139341290818,-0.05502563145754736,7.722230565615369,-4.232817343026969,-1.5406643239847932,-2.4045724523770886,2.9302994914431593,-1
A/Basel/USB001469.4/2016,-0.20520111759055593,9.528534306976875,0.22041846638535478,-5.282098374832332,6.62909371047649,-1.593163177353496,3.7373054046524103,-2.753065984083534,-0.5932823804827001,3.9378826824485293,3
A/Basel/USB003318.4/2017,0.005065033807897793,9.510037331390928,0.08194260157410564,-5.246313765948067,6.5757318505332485,-1.568182911524945,3.7864079511230817,-2.51792836205097,-0.6238732787004201,4.185548733533539,3
A/Thailand/CU-B16712/2016,-0.12955606434280093,9.646368979474499,0.020195459143802393,-5.236672171776716,6.60754399327554,-1.6456521571218787,3.7039489073703686,-2.598731302496385,-0.6446832137480054,3.8666433648816763,3
A/Thailand/CU-B20929/2017,-0.007769385226497039,9.54600428637027,0.02377933182468575,-5.6475047719250755,6.575393661933906,-1.5683139766786356,3.716764571419676,-2.7543932845279153,-0.5140410476496272,3.6634960533649794,3
A/Thailand/CU-B16949/2016,-0.03523457426779893,7.788176349051651,0.1643777625962814,-4.204569066049366,6.292827349330286,-1.7843033458297146,3.510103070433303,-2.6452069562042593,-0.668449023933444,2.684831464650367,3
A/Thailand/CU-B18041/2016,-0.019727970225375747,8.33557163486872,0.09448999165149476,-4.301015187430592,7.202053539960644,-2.136629606376985,3.9654569118532956,-3.2149422030889365,-0.7790022170417223,2.517979755274945,3
A/Thailand/CU-B18308/2016,-0.6675273334251273,8.523337691274845,0.0762336956091337,-4.046821673829675,8.762603339490843,-2.7550878186776484,4.047663869763917,-3.242290162110295,-1.5336287266944553,2.560430630533076,3
A/Thailand/CU-B19865/2016,-0.07489237022845077,8.877318609013107,0.5457559279020477,-3.7779894715973055,8.277905593993667,-2.329378810838631,4.7349992416185716,-4.300095195064346,-0.9173626799333814,2.1191815296565286,3
A/Kostroma/CRIE-143/2016,1.2624571661380497,12.047815219711111,1.5710004843742034,-5.926435678312609,6.287352743020972,-0.6758399267277384,4.650464974264767,-4.198704211050598,-0.8167007186982229,4.0929710785615345,3
A/Moscow/CRIE-07/2016,0.5531951037222225,10.712905859549572,0.9894576534393088,-5.675256810838644,6.397065874977703,-0.906598898218798,4.374919305753857,-3.4837373021275493,-0.6220476444369343,4.157694413153629,3
A/Moscow/CRIE-10/2016,-0.1079046943697024,9.614790960114739,0.5412476809228774,-5.224670558906459,6.484283526368714,-1.5804185255604164,3.8141587518163997,-2.8522137363726907,-0.7516436139693303,3.960878626259856,3
A/Shiraz/1025/2016,-0.24790230039745695,10.42536058803536,1.8241723081987067,-6.357722402588434,6.79453019360177,-3.084260612218525,4.595403638285946,-4.462319715764731,-0.8719142640284473,5.55964973509075,3
A/Thailand/CU-B20276/2016,-0.48916332547962454,9.546091859653519,-0.2736154610140398,-5.5595334291516885,8.124372267642594,-1.8398625524831915,3.7555971580106733,-2.3696078614683276,-1.0009699993231267,4.683031645055457,3
A/Israel/R274/2016,-0.052155438296133824,9.620777782071537,0.15930181330091986,-5.182073028382065,6.691655336940896,-1.4620387077813568,3.752207615054141,-2.6243649678156076,-0.727349946426176,3.8518638215275294,3
A/Thailand/CU-B20273/2016,1.6258045600797142,10.158223862127992,0.20925617825641538,-4.520481303662777,9.351888091578639,-1.599316443252243,4.20864961179096,-3.85383399194722,-2.145185683060292,0.7589527765222635,3
A/Thailand/CU-B20489/2016,-0.8618027553671437,8.933773384085963,0.027230604343174137,-4.564077008651115,8.345953209477265,-4.120954678540878,5.286227513572259,-5.75919050654689,0.21837361657934076,2.3687263162889565,3
A/Thailand/CU-B17573/2016,0.9425788140499619,7.581426326342208,-0.6883523718403419,-3.142259928322968,8.934278193628067,-1.1822744875565347,4.497898483523486,-5.746730346995766,-1.3906467733293404,2.786277232074243,3
A/Thailand/CU-B18515/2016,0.7467611064932989,8.304158592581043,-0.15056965810483214,-3.2428608798710616,8.916448508136154,-1.7009397490168698,3.5434812266142233,-5.370253655543331,-2.598018625712406,1.7583635482904025,3
A/Ghom/55457/2016,-1.8111814387126541,7.845823252193444,0.13990411149702398,-3.913536904352984,4.533197557831824,-0.7254599367295321,3.5750328467821184,-0.7479157129589964,-0.9473325985491349,3.604689805312683,3
A/Washington/5617/2016,-1.5196170657123296,8.893809330236591,1.3674755056041692,-4.505179841617294,4.621329536355161,0.7602995973151552,3.9833614147698975,-1.9169745785294243,-0.7095854492736627,3.6369633182347245,3
A/Basel/USB002059.4/2016,2.5841300247690246,13.490261173661542,0.6875842392031997,-3.058544614446731,10.283278287281723,-5.710631991588212,3.662821409853453,-4.827488290333211,-2.018620966107555,7.2027942683423145,3
A/Basel/USB002069.4/2016,1.7547243844593463,11.551797780620754,0.4121055050345863,-3.940665616078916,9.511641780497813,-3.68568825829143,3.6820437448086136,-3.7532103192682102,-1.6866711802782883,6.519378520748375,3
A/Basel/USB002154.4/2016,1.7460188234568335,12.022676437385654,0.5894463283232042,-3.7877461560625325,9.809046840729087,-5.1136914385251595,3.8333935455270844,-4.55510112867955,-1.4957319619824787,7.481608224200272,3
A/Basel/USB002835.4/2017,2.9725475721124996,13.355536679676629,1.5747701483057466,-3.173204564727484,9.674488701120646,-2.5755796326736196,3.499571611121021,-4.728350448848615,-2.1385549544278253,6.0504589317951725,3
A/Karachay-Cherkess/CRIE-296/2016,1.1557597223430094,11.051031963385732,0.44281455532610436,-4.220213456349647,8.595559155911042,-3.145319878378977,3.523974908767821,-3.340542806777211,-1.6014744765435658,5.696051174647363,3
A/Israel/B6105/2016,2.202283460359116,11.76814662217007,-0.0743442082004194,-3.7667779246282134,11.219149825387268,-3.597376060098003,3.6032740028437265,-3.2944288556174635,-2.324026821797949,7.0240108157309695,3
A/Israel/C3365/2017,0.8343202078128606,11.201896961181262,1.1329772677596943,-2.7287180747836226,8.298082820156608,-3.972929829628771,3.430443534617685,-2.806590326849742,-2.749282855320495,6.143586810499022,3
A/Israel/C3587/2017,1.1321516224914936,11.969945732639612,-0.7200929976059274,-2.3393916849092484,7.8219849136898265,-3.799706773523695,3.32821689689393,-2.503330396981283,-1.4056837619651217,6.1378678325523754,3
A/Khakassia/CRIE-360/2017,2.101409855481154,10.863625400842558,-0.1206115184772807,-3.084494518316843,9.70934641544137,-3.502290572979636,2.856001047042274,-5.5898678668001995,-3.1182475292182197,6.436599214421106,3
A/Karachay-Cherkess/CRIE-301/2017,1.7728041306937365,11.997821713713343,0.7088316529035578,-3.8934875498380834,9.27451324246385,-3.6434427203867714,3.5279574148757344,-3.706418576644054,-2.095797240481238,6.020012058797581,3
A/SouthKorea/6160/2017,3.7850270266530925,13.646580511415456,0.7236189889360648,-3.279627059391766,12.755655041565644,-3.9927078630035613,2.7769223352595813,-3.584493884098693,-3.742769882319922,7.254503752615497,3
A/Basel/USB003421.4/2017,2.1725571949252176,11.932856220376767,0.18231586095579322,-3.881551152322552,10.348352881816485,-5.49242309800315,4.542060495936517,-5.588597123377835,-0.2620985566459489,8.911777422270468,3
A/Moscow/CRIE-226/2017,1.008014882827369,11.96809397659692,-0.7272498362377334,-4.170671309977912,9.009166131410991,-4.606640140326276,3.7164304714991134,-3.79269892999217,-0.929861147705142,5.845492418207766,3
A/Basel/USB003317.4/2017,2.525637082434462,11.492720783927936,-0.7119895677068364,-4.453779298662645,10.148909144719546,-2.221581118695135,3.6547357391682844,-3.2167198793704186,-1.237130853383091,6.083799339272398,3
A/Basel/USB003323.4/2017,2.1394397379275056,10.977505569743329,-1.8865349769227258,-7.177266876470268,9.54943663523269,-5.0034606928692265,2.898011013830211,-4.153718576438965,-1.3740253095662618,6.201071447468799,3
A/Thailand/CU-C7086/2017,-0.9884229878420469,9.67228382218493,0.5858092631703407,-5.816726156394233,7.25985530331183,-4.592467690335508,6.250135170292677,-5.961211948801734,1.0055265319705964,6.977589045031221,3
A/Thailand/CU-B19855/2016,1.6735630132061248,12.237968974015065,-0.733577221040131,-5.5334838604624075,8.376579326680684,-0.3679828404843411,3.228582115533557,-2.8324807319396332,-0.9601842505870269,2.9509371257447934,3
A/Basel/USB001471.4/2016,0.6728005873288719,10.91746899395467,-1.924461430090083,-5.266364407840587,8.292410235692838,-1.8838871329591764,4.8907175504546405,-3.6619558031147017,0.830692973577199,4.402992968052848,3
A/Israel/R199/2016,0.021803629267884865,11.080942478479452,-0.6591118999572387,-4.998660123881013,7.372635935757978,-1.5413547870666906,5.695688324641991,-4.759337965818004,1.2513212543274348,4.194102339640831,3
A/Basel/USB002452.4/2017,-0.33897598498898296,10.616523131981527,0.928172655268963,-5.832003632644433,7.667673955995113,0.1254165808521228,6.7597211301425615,-5.994264791263465,1.7561538735668578,5.457344903736841,3
A/California/NHRC_M2921/2017,3.4387660305004366,12.655742228312674,0.5374780187695082,-12.465231274095501,9.171123193421309,-5.096326969593946,3.707007520649926,-5.679387808278105,0.847650245853528,2.1177108284221884,3
A/China/573/2017,2.2592261691043234,11.327288502426615,0.022307012158936906,-11.53501335905258,8.097279847424613,-3.6189034216046227,4.0198537975113755,-4.465580649651286,0.9143267131832626,1.5034100866085418,3
A/Italy/7413/2018,3.3710811746259077,13.30353888793754,-0.502108678380418,-13.00564826491547,8.59979384436126,-3.9195069387332415,3.6173601579030854,-5.147891768996744,1.2384360670205887,0.5321981092109545,3
A/Israel/C6062/2017,2.609563971767746,11.493444343106324,0.23941114031730265,-14.291353653799005,7.268939083280745,-4.808288762456147,2.404764863996209,-3.5388430315961767,0.31994149958332285,1.4493388950012942,3
A/Jeju/737/2017,5.742305831345044,13.115527284751826,0.20582424672197794,-15.410852216615206,9.698122550568028,-3.6312562256835808,3.72025813128478,-5.700834319252126,1.484795435541729,2.6270585809774696,3
A/Homosapien/China/LS203/2018,5.454137322047059,13.995738021284557,-1.9783645954890752,-13.391889886054889,9.802254760660267,-4.1463481927952,2.5176421527632846,-4.020130228890296,1.146989001267718,1.2514653287915054,3
A/Quebec/136/2018,4.924699667193592,14.090812737398721,1.0191802345983259,-13.486409442515072,8.982565844488915,-2.449105411622542,3.72205120807946,-6.364732191720375,1.323515575847735,0.34186953715457835,3
A/SouthKorea/7184/2018,4.471313096857159,14.653267258264023,-0.6968775472784275,-13.616030820067241,8.443701541920698,-5.443079012509147,2.134479592610078,-4.580340779640045,0.683526504345081,0.8716703574325335,3
A/China/587/2017,2.141247909946455,13.077691030140263,1.4897958046544373,-13.09036047138773,7.264475411842429,-5.677611272116318,3.7685004466579577,-6.307634137504456,1.0234497665819875,1.2116822298371286,3
A/Israel/R246/2016,-1.570059270119931,15.20202786978808,1.6582493261467466,-3.1546749418242954,0.7679730559966906,-7.004256447201087,3.5596475009829587,-4.928390450958396,0.9054589259233682,0.44303648384274164,-1
A/Israel/R256/2016,-2.9099049425958756,11.270467263424363,-0.7958370778924042,-5.135226977454032,1.2314072120195543,-6.466352137332407,4.880534408586738,-5.112295488596511,4.596121786288445,2.992120278190896,-1
A/Israel/R250/2016,0.36673204413661215,7.519604088837499,-5.72196927617807,-6.065489654076604,5.445976517137941,-3.8719831423722266,6.177077466859943,-3.234701975166285,7.633525151617699,7.658739905741976,-1
A/Thailand/CU-B17430/2016,-1.0796910661916024,3.398288616400604,-1.5706080708173922,-1.2493269923051358,5.889261482569721,0.795037135633182,-1.3234162178361761,-4.328466228476486,-2.0170128792647826,2.04669694479759,-1
A/Shanghai/32/2017,2.005173059929227,5.251743577809629,-1.0943344467538905,-12.915827828221406,5.564492446272404,-5.7290019646747385,2.8335572703471885,-3.918695202416825,4.245430222202878,3.7693228421080494,-1
A/Shanghai/41/2017,3.7426212556920317,6.521113365632172,0.9033149052370686,-13.884045215717356,9.41558787315578,-1.562900940749025,1.7240069403580935,-2.4326089357324023,0.1172563846473897,1.7856383431498177,-1
A/Shanghai/56/2017,4.788741357403825,7.771675331708251,2.108892975196294,-16.532501688544034,8.790544495708788,-2.388599754665233,0.7383976677531686,-3.409717591177358,0.23954606362996542,1.786324704045411,-1
A/California/107/2015,2.5458703682225634,8.021353598189558,-0.742867746872422,-3.6765848727757993,2.3527798125272508,0.26489993446465854,-6.161631849150807,3.926177297060398,2.5796344944195693,3.07152425420357,-1
A/Xiamen/s113/2015,-4.84669706990514,9.557238763263832,4.864258277786594,-2.3953269918654025,-2.0875051922249375,0.568065169192209,-4.229483383012812,-0.16870232371884178,1.6631778255690544,0.5075622962187831,-1
A/Florida/76/2015,-1.3789108904135121,7.256288744425964,4.405761906331594,-2.4563428152629636,-1.2423591742614402,5.617885044215679,4.396648635683104,1.7494852804859669,1.0208284983193374,5.618898994003178,-1
A/Iowa/54/2015,-0.2804199373489258,7.73174662349409,3.5896812945643948,-1.8333444590428452,-1.1471443427797567,4.388289317603337,3.8428820623039313,1.3467811965916037,1.2747936126619495,4.770208253614786,3
A/Ohio/5026/2016,1.492221294340339,9.05304348006707,7.563742577766774,-1.4617248616929261,-0.8716174551649613,6.911401582756839,4.33940329842658,-0.833455233030228,3.0321108797548204,3.421951967773338,-1
A/Japan/5122/2016,1.394124832378479,8.2171128647297,9.756499919720234,0.546850327869531,-4.150630691636412,3.684289805074164,3.5919799077535455,-0.12405114199168897,-1.2734382594070321,5.762260731665235,-1
A/Florida/81/2015,2.330587725175025,5.498668388939978,-0.15536983639857416,-0.9849893775661226,0.9661009897570901,0.4104376094656398,3.9613298169771487,4.8201277289902285,2.2812447911664044,6.694555729638812,3
A/Thailand/CU-C6246/2015,2.8535305673613403,6.38563039857666,-0.5945241962500819,-0.6095508479707128,1.4529642380975545,1.343239696898672,3.4014984742366923,5.289578919361059,1.8721241248606428,5.426330078861677,3
A/Thailand/CU-B13893/2015,1.7494771180573938,5.974809490281741,0.02207660650768058,-3.1151493187296917,1.3011553916463534,2.0802528490948164,4.319942115808798,6.470944352643744,2.7617696209869895,3.669593807462058,-1
A/Thailand/CU-B13144/2015,2.112337752159393,6.942234213965508,-0.6780502992198905,-1.2204688595536315,1.8457261248655137,0.8482770759137295,2.215250775054709,7.730716844320286,-0.3548958909195497,5.5951097351022305,-1
A/Thailand/CU-B13201/2015,2.591425738427879,7.537449128243598,-0.44905099233374857,-0.3477904158346046,2.3314028460135274,2.4221041487564667,2.443354823217314,7.335169198565736,-0.2547202944466647,4.626444903692162,-1
A/Thailand/CU-B14505/2015,4.133380439529666,7.3561674142686995,-2.399745067064138,-4.284742420195664,0.525658063308927,0.930217692337207,1.7981996512423741,5.9506524450151845,1.4291406178513717,3.575960936198853,-1
A/Guangdong/12/2016,-1.185905277289469,4.395720123002879,1.8571084743892086,0.3202210601869612,0.2199104458589756,1.1737399834937938,-3.752279619042614,1.7424485243100565,2.660203411822726,-1.4227248440639277,-1
A/Hawaii/69/2015,-0.08014362182776337,1.1618997774683668,1.8042193126410795,0.5674133465027049,0.8467009130772457,-0.5920336270473247,-0.42319939084974467,2.367611553224478,2.8516803910826485,0.648229346708116,3
A/Hawaii/70/2015,0.27057728785994956,0.774371723864483,1.8061705664033079,0.18097204216033927,0.7878520561634033,-0.5517321170306563,-0.15055691452612927,1.9126653182498143,2.4330828367775323,0.17867652812704662,-1
A/Shahrekord/22596/2016,-0.36191318695922886,2.8823411873692644,0.8182979396731583,-0.7433179930438393,0.5477652309276224,0.47076423524665023,-0.6569581024133775,0.7345866681453342,1.2149515893191727,2.2929781584363425,3
A/Shiraz/1008/2015,-1.5837922920573424,6.07452814278271,0.7476949758688232,-1.8357017401244293,0.6249936892243056,0.4927194233170381,2.6211660179477256,2.353211388206888,0.792163708718298,4.154839651470762,3
A/Shiraz/1013/2015,-0.8112850582623403,5.47850802615619,0.8139176183543896,-1.687193994350629,0.8859674037315266,0.3459229166640747,2.2674847862849266,1.7403861629867141,0.9796554604467063,3.442705702331933,3
A/Shiraz/37/2016,-1.834291288222003,5.271812608174603,0.8233168466522268,-1.7948781611607287,1.2496390294270738,0.7593302170182126,2.263066373095512,1.9995269811287266,0.5886224375493229,3.1491654918477647,3
A/Shiraz/1009/2015,-1.032622270106344,6.169730281955209,0.20819323167061227,-1.60970512877961,0.49832528114751334,0.10843065786775974,2.6852429396207116,2.3003782463474938,1.2633301018639123,4.449642360617091,3
A/Shiraz/1012/2015,-0.7009404513667987,4.812333725738123,0.8524010579559129,-1.5966159219475227,1.1504557584992123,0.2509908884913043,1.9143059309775674,1.4102421081005383,0.9057987058308296,2.739780682630056,3
A/Shiraz/1017/2015,1.0974341774801109,7.65480355797978,0.9372793811372049,0.34346300012522524,0.8527782203102307,2.078580993069095,2.882794904917367,2.531934816026116,0.6784487820589762,5.0245254724236315,3
A/Shiraz/1016/2015,-0.5346584228076089,6.498978986144086,0.9882935101747045,-1.142624050609783,0.7762002668402497,-0.19127160401161075,2.4700970806589755,2.0643379272260076,0.5474616910327887,4.52064444960013,3
A/Shiraz/1015/2015,-1.9576151400782242,5.387412958946868,1.1087973296784561,-1.4095515242872851,-1.075597784281767,0.23313058089229532,5.129488868344409,-0.016706009514901216,4.345335234797945,7.679460929509664,-1
A/Tehran/21220/2016,1.461270197120991,3.2218713129665915,-0.2528688139069622,0.07640792824554533,-0.4098249512314818,-1.5527930485448085,2.217110038537612,3.938757746061821,0.6297034831155719,5.575712081392976,-1
A/Florida/84/2015,0.4319950150835241,6.282208058670605,3.6758012414417602,-5.129023616556577,-3.1028962937471816,-0.6896173930430509,-7.194020850370025,3.1364033238138167,3.588624755979152,6.785162055880742,-1
A/Florida/85/2015,-0.23754228717608208,6.28911454400468,3.5818359451845923,-5.053601788193525,-3.397085522115899,-1.5832891998489782,-6.976271672651811,2.698405688979483,3.972080683702394,6.734427076110203,-1
A/Wyoming/19/2015,0.347043886564095,6.005760507306408,2.9783983834061156,-5.413960361014789,-3.426430431520309,-2.6383197213058005,-7.966032728720732,3.7116509873238623,3.9716421447901493,8.32480933498419,-1
A/Texas/71/2015,-0.27659557455242917,6.8968893723917235,6.144028540903725,-2.7302414212726718,-2.9484770439713985,-1.7123394989335137,-4.756733315467657,3.6270021651020574,0.6535378678621706,3.6078116747894344,-1
A/Thailand/CU-B13425/2015,0.9053635298784097,6.521069916615853,2.5000690766753118,-2.043180750460846,-0.22237071323425195,0.14201116196806177,-5.426401618564985,4.024419877422636,1.4726205887748929,5.127250674467503,-1
A/Thailand/CU-B15894/2016,-3.759016654124574,5.42919893166296,-1.2381516208045265,-2.1651319546956724,-3.630882138027983,-0.8470916455489197,1.2615297966497754,2.319203563931916,2.563298946578979,0.58368895361144,-1
